<?xml version="1.0"?>
<opencv_storage>
<opencv_ml_svm>
  <format>3</format>
  <svmType>C_SVC</svmType>
  <kernel>
    <type>RBF</type>
    <gamma>3.3750000000000002e-02</gamma></kernel>
  <C>2.5000000000000000e+00</C>
  <term_criteria><iterations>100</iterations></term_criteria>
  <var_count>1568</var_count>
  <class_count>2</class_count>
  <class_labels type_id="opencv-matrix">
    <rows>2</rows>
    <cols>1</cols>
    <dt>i</dt>
    <data>
      0 1</data></class_labels>
  <sv_total>158</sv_total>
  <support_vectors>
    <_>
      3.57288006e-03 0. 0. 0. 5.01233999e-10 0. 6.40621316e-03
      8.09956063e-03 4.63302433e-03 0. 0. 0. 5.75186530e-11 0.
      4.14531350e-01 1.94683634e-02 3.28950654e-03 0. 0. 0.
      4.08389780e-11 0. 2.94322550e-01 1.38227874e-02 2.59114080e-04 0.
      0. 0. 1.20178862e-04 3.56154167e-03 6.29170658e-03 6.01900800e-04
      4.59276140e-04 0. 0. 0. 2.13015373e-04 6.31278334e-03
      1.11519629e-02 1.06686086e-03 1.72131255e-01 1.54218793e-01
      4.41887975e-03 5.82240231e-04 2.64727862e-09 0. 2.47042306e-04
      3.30377719e-04 3.09278041e-01 2.77093679e-01 7.93965254e-03
      1.04614417e-03 4.75651607e-09 0. 4.43874975e-04 5.93608420e-04
      8.70248582e-03 4.88006696e-03 5.50993020e-04 1.79983606e-03
      2.49014725e-03 1.13151036e-03 6.96956471e-04 0. 3.58771011e-02
      2.01186948e-02 2.27153860e-03 7.42005231e-03 1.02659483e-02
      4.66479454e-03 2.87329149e-03 0. 0. 0. 0. 0. 3.13749467e-07 0. 0.
      0. 0. 0. 0. 0. 3.79429679e-07 0. 0. 0. 8.96496326e-03
      2.34569497e-02 9.71498154e-03 5.36464946e-03 2.19357787e-07 0. 0.
      0. 1.53642311e-03 4.02007252e-03 1.66496192e-03 9.19398270e-04
      3.75937255e-08 0. 0. 0. 5.80218807e-03 1.08464491e-02
      1.21339271e-02 2.55334796e-03 0. 7.40957563e-04 0. 6.37675868e-04
      0. 0. 0. 0. 5.25884836e-10 0. 0. 0. 6.97232923e-03 3.01904112e-01
      1.54830337e-01 0. 1.80772911e-10 0. 6.52301610e-02 1.43517284e-02
      4.95044282e-03 2.14355782e-01 1.09931521e-01 0. 1.28351080e-10 0.
      4.63142470e-02 1.01899104e-02 2.13206355e-02 1.35284156e-01
      4.07766849e-02 0. 2.51097679e-02 3.92113738e-02 1.84068419e-02
      1.18793184e-02 3.77905294e-02 2.39789292e-01 7.22761080e-02 0.
      4.45067175e-02 6.95016161e-02 3.26258726e-02 2.10559275e-02
      3.77704687e-02 5.42373396e-02 7.52387568e-03 0. 4.81898990e-03
      1.88943185e-02 2.21340713e-04 7.85510428e-03 6.78643435e-02
      9.74513143e-02 1.35185756e-02 0. 8.65855347e-03 3.39484960e-02
      3.97695432e-04 1.41137121e-02 1.36630156e-03 3.34861898e-03
      2.39472720e-03 4.78541031e-02 6.95844516e-02 1.91059411e-02
      2.65728310e-03 1.08897418e-03 5.63275116e-03 1.38051063e-02
      9.87256691e-03 1.97284594e-01 2.86870718e-01 7.87666664e-02
      1.09549863e-02 4.48943395e-03 1.49267530e-02 7.56857591e-03
      5.87397516e-02 1.20064840e-01 8.25070664e-02 1.72978435e-02 0.
      7.72657758e-03 1.80515144e-02 9.15297866e-03 7.10363165e-02
      1.45199180e-01 9.97790694e-02 2.09189691e-02 0. 9.34405718e-03
      8.94690901e-02 1.31455585e-01 2.67836750e-01 2.81553771e-02
      7.26340432e-03 0. 0. 5.48354834e-02 1.53332902e-02 2.25289706e-02
      4.59020920e-02 4.82529309e-03 1.24480855e-03 0. 0. 9.39775258e-03
      5.79582900e-02 4.63620620e-03 7.38501430e-01 5.82820922e-02
      1.90508748e-10 0. 0. 5.34314837e-04 0. 0. 0. 0. 3.65059233e-10 0.
      0. 0. 4.84005781e-03 2.09576085e-01 1.07480273e-01 0.
      1.25489119e-10 0. 4.52815332e-02 9.96269658e-03 3.35289398e-03
      1.45181388e-01 7.44557083e-02 0. 8.69311220e-11 0. 3.13682556e-02
      6.90154219e-03 1.44402897e-02 9.16268378e-02 2.76177116e-02 0.
      1.70066375e-02 2.65575387e-02 1.24668013e-02 8.04576464e-03
      3.56402807e-02 2.26145476e-01 6.81636557e-02 0. 4.19743210e-02
      6.55470341e-02 3.07694878e-02 1.98578630e-02 3.56213599e-02
      5.11512794e-02 7.09577324e-03 0. 4.54479316e-03 1.78192463e-02
      2.08746598e-04 7.40815513e-03 1.02739006e-01 1.47530347e-01
      2.04656068e-02 0. 1.31080784e-02 5.13942130e-02 6.02066284e-04
      2.13665757e-02 2.06842716e-03 5.06943325e-03 3.62534821e-03
      7.24457353e-02 1.05343044e-01 2.89242510e-02 4.02282830e-03
      1.64858461e-03 2.83466582e-03 6.94738002e-03 4.96834097e-03
      9.92829055e-02 1.44366860e-01 3.96390967e-02 5.51306549e-03
      2.25929474e-03 7.51184532e-03 3.80886393e-03 2.95606107e-02
      6.04222827e-02 4.15214449e-02 8.70508980e-03 0. 3.88837792e-03
      1.91918551e-03 9.73118586e-04 7.55237788e-03 1.54371615e-02
      1.06082261e-02 2.22404487e-03 0. 9.93433408e-04 9.51209757e-03
      1.39759816e-02 2.84756366e-02 2.99339928e-03 7.72224390e-04 0. 0.
      5.82995173e-03 4.71570948e-03 6.92872005e-03 1.41170574e-02
      1.48400501e-03 3.82837286e-04 0. 0. 2.89025181e-03 1.78249069e-02
      1.42585183e-03 2.27124006e-01 1.79244913e-02 5.85904172e-11 0. 0.
      1.64327008e-04 1.24349725e-02 1.55449763e-03 3.54113494e-04 0.
      3.36538991e-10 0. 0. 1.82220049e-03 1.86609447e-01 3.80081236e-01
      2.25435421e-02 1.09675730e-05 0. 6.13439921e-03 6.48226589e-03
      4.83183749e-03 1.29271522e-01 2.63296843e-01 1.56167774e-02
      7.59765817e-06 0. 4.24953364e-03 4.49051429e-03 3.34719918e-03
      8.97955382e-04 1.12141788e-01 9.88084124e-04 0. 4.04624867e-09
      4.88198362e-04 5.05398773e-03 1.12875516e-03 2.21625622e-03
      2.76778728e-01 2.43870402e-03 0. 9.98660266e-09 1.20492920e-03
      1.24738170e-02 2.78589642e-03 7.30816857e-04 0. 0. 0.
      3.43675073e-03 6.32718801e-02 2.13467982e-02 1.36789226e-03
      2.10781954e-03 0. 0. 0. 9.91226546e-03 1.82488546e-01
      6.15683645e-02 3.94527055e-03 1.86403561e-03 1.46814040e-03
      6.18793396e-03 4.16499972e-02 6.72333837e-02 4.05171402e-02
      2.68184522e-04 4.35538183e-04 2.55455845e-03 2.01200577e-03
      8.48022383e-03 5.70790321e-02 9.21396539e-02 5.55265136e-02
      3.67532135e-04 5.96881204e-04 0. 3.84780616e-02 1.07860491e-01
      1.69273347e-01 1.51044561e-03 2.85808626e-03 3.31471201e-05 0. 0.
      9.83067788e-03 2.75570489e-02 4.32472900e-02 3.85900523e-04
      7.30206375e-04 8.46868716e-06 0. 2.31275365e-01 2.81417146e-02
      2.88452189e-02 4.17060927e-02 1.08970527e-03 4.52140197e-02
      2.03407541e-01 2.37294003e-01 1.14656866e-01 1.39515111e-02
      1.43002803e-02 2.06761751e-02 5.40231355e-04 2.24152617e-02
      1.00841142e-01 1.17640667e-01 1.16621889e-02 1.62646268e-02
      9.00029205e-03 2.37958282e-02 5.06694838e-02 5.47843520e-03
      1.24380916e-01 5.87439686e-02 1.34298066e-02 1.67886203e-03
      3.82443599e-04 0. 3.63463093e-10 0. 0. 1.96798192e-03
      2.01538742e-01 4.10488844e-01 2.43470930e-02 1.18450107e-05 0.
      6.62516942e-03 7.00086588e-03 5.21839876e-03 1.72912702e-01
      3.52184087e-01 2.08888948e-02 1.01625765e-05 0. 5.68414759e-03
      6.00648113e-03 4.47719125e-03 1.20109902e-03 1.50000095e-01
      1.32165453e-03 0. 5.41223466e-09 6.53010793e-04 6.76017953e-03
      1.50981522e-03 5.39121823e-03 6.73286080e-01 5.93233993e-03 0.
      2.42931986e-08 2.93108542e-03 3.03435456e-02 6.77691260e-03
      1.77776965e-03 0. 0. 0. 8.36016703e-03 1.53913841e-01
      5.19277714e-02 3.32750590e-03 3.27535020e-03 0. 0. 0.
      1.54027129e-02 2.83569753e-01 9.56713557e-02 6.13057334e-03
      2.89653311e-03 2.28134985e-03 9.61545762e-03 6.47201091e-02
      1.04474247e-01 6.29597604e-02 4.16733092e-04 6.76784723e-04
      3.01508373e-03 2.37472192e-03 1.00090029e-02 6.73689991e-02
      1.08750209e-01 6.55366033e-02 4.33789304e-04 7.04484410e-04 0.
      4.54147272e-02 1.27305135e-01 1.99789241e-01 1.78274233e-03
      3.37333023e-03 3.91227441e-05 0. 0. 7.05852313e-03 1.97862312e-02
      3.10519766e-02 2.77080369e-04 5.24295319e-04 6.08060009e-06 0.
      1.66057974e-01 2.02060267e-02 2.07111500e-02 2.99453828e-02
      7.82419113e-04 3.24641094e-02 1.46048605e-01 1.70379430e-01
      1.19155444e-01 1.44989006e-02 1.48613537e-02 2.14874074e-02
      5.61427383e-04 2.32947282e-02 1.04797661e-01 1.22256316e-01
      1.21197570e-02 1.69027727e-02 9.35341977e-03 2.47294623e-02
      5.26575074e-02 5.69338258e-03 1.29261017e-01 6.10487945e-02 0. 0.
      0. 0. 6.09509414e-04 0. 4.94125392e-03 0. 2.62479693e-01
      4.48747985e-02 7.69483717e-03 1.71549676e-04 6.23520138e-03
      5.29726731e-06 0. 2.97951046e-04 2.25197762e-01 3.85009013e-02
      6.60188263e-03 1.47183207e-04 5.34956949e-03 4.54485735e-06 0.
      2.55630875e-04 1.81852101e-05 0. 0. 0. 2.02958805e-08
      9.00418381e-05 1.42366815e-04 8.24833405e-05 8.16255997e-05 0. 0.
      0. 9.10994942e-08 4.04159160e-04 6.39023550e-04 3.70232330e-04
      4.16393275e-04 0. 0. 0. 1.06282743e-08 3.98565046e-02
      1.23751331e-02 1.88850926e-03 7.67159974e-04 0. 0. 0.
      1.95814565e-08 7.34313354e-02 2.27998570e-02 3.47937597e-03 0.
      3.61382775e-03 2.96137761e-02 1.40950292e-01 2.36252975e-02
      4.51945774e-02 4.43380000e-03 0. 0. 3.76173598e-03 3.08258198e-02
      1.46719158e-01 2.45922413e-02 4.70443182e-02 4.61526820e-03 0. 0.
      1.78524069e-02 5.78044914e-02 3.08872741e-02 4.65894736e-08 0. 0.
      0. 0. 2.77468679e-03 8.98418669e-03 4.80061350e-03 7.24110683e-09
      0. 0. 0. 2.90417761e-01 1.64125848e-03 1.21612102e-05 0.
      9.07259778e-09 0. 2.54415930e-03 4.35259379e-02 2.08390221e-01
      1.17769034e-03 8.72631608e-06 0. 6.51007248e-09 0. 1.82556990e-03
      3.12321801e-02 1.63879227e-02 1.27567654e-03 3.58252844e-04
      2.14272455e-04 3.48335248e-04 4.27329272e-04 2.75726808e-04
      5.39875822e-03 0. 0. 0. 0. 8.12421495e-04 0. 6.58624899e-03 0.
      3.49861950e-01 5.98140918e-02 1.02565289e-02 2.28660370e-04
      8.31096526e-03 7.06078345e-06 0. 3.97142081e-04 3.85488629e-01
      6.59050047e-02 1.13009587e-02 2.51945021e-04 9.15727671e-03
      7.77978767e-06 0. 4.37583338e-04 3.11290460e-05 0. 0. 0.
      3.47420475e-08 1.54131660e-04 2.43700415e-04 1.41193188e-04
      3.54790303e-04 0. 0. 0. 3.95969153e-07 1.75670080e-03
      2.77755223e-03 1.60923577e-03 1.80987699e-03 0. 0. 0.
      4.61964014e-08 1.73238561e-01 5.37892208e-02 8.20851326e-03
      2.00862461e-03 0. 0. 0. 5.12693532e-08 1.92262352e-01
      5.96959628e-02 9.10991244e-03 0. 9.46194213e-03 7.75365755e-02
      3.69044572e-01 6.18571788e-02 1.18331172e-01 1.16088428e-02 0. 0.
      9.75408871e-03 7.99305886e-02 3.80439162e-01 6.37670755e-02
      1.21984750e-01 1.19672762e-02 0. 0. 4.62908521e-02 1.49885610e-01
      8.00899416e-02 1.20805353e-07 0. 0. 0. 0. 3.86148784e-03
      1.25031499e-02 6.68093795e-03 1.00773345e-08 0. 0. 0.
      4.04169828e-01 2.28411355e-03 1.69245650e-05 0. 1.26261916e-08 0.
      3.54066631e-03 6.05743639e-02 3.90821636e-01 2.20867782e-03
      1.63656096e-05 0. 1.22091963e-08 0. 3.42373154e-03 5.85738197e-02
      3.07344291e-02 2.39244429e-03 6.71878748e-04 4.01853351e-04
      6.53278956e-04 8.01426882e-04 5.17106790e-04 1.01250028e-02 0. 0.
      0. 5.05758973e-04 2.06183884e-02 1.20625213e-01 1.45414332e-03 0.
      3.19765918e-02 2.76604376e-04 0. 0. 1.60119384e-09 2.73603108e-02
      3.10061395e-01 5.08465171e-02 3.52327898e-02 3.04771209e-04 0. 0.
      1.76424453e-09 3.01464312e-02 3.41635168e-01 5.60242534e-02
      3.46795395e-02 5.80266700e-04 0. 0. 3.30049446e-08 3.23258602e-04
      1.51812499e-02 1.27729159e-02 3.95256698e-01 6.61353441e-03 0. 0.
      3.76170675e-07 3.68430885e-03 1.73026845e-01 1.45578086e-01
      1.41922373e-03 0. 0. 0. 1.96434208e-03 1.41421482e-02
      8.33265670e-03 6.43687276e-03 1.57507253e-03 0. 0. 0.
      2.18005176e-03 1.56951360e-02 9.24768858e-03 7.14372331e-03 0.
      2.63192263e-02 1.34034343e-02 1.11184809e-02 2.40003807e-03 0. 0.
      0. 0. 2.71318574e-02 1.38172768e-02 1.14617739e-02 2.47414154e-03
      0. 0. 0. 0. 1.00488111e-03 0. 0. 4.75671072e-07 0. 0. 0. 0.
      8.38251144e-05 0. 0. 3.96795024e-08 0. 0. 0. 3.48266572e-01
      1.05705865e-01 5.17064333e-02 1.89222756e-05 1.19782208e-05
      3.38491991e-05 1.43966274e-04 3.97036114e-04 3.36764663e-01
      1.02214806e-01 4.99987677e-02 1.82973436e-05 1.15826251e-05
      3.27312882e-05 1.39211610e-04 3.83923500e-04 2.26885965e-03
      7.17219897e-04 2.79761408e-03 0. 6.44594082e-04 9.83410137e-05
      1.12013018e-03 1.44752918e-03 0. 0. 0. 4.65072604e-04
      1.89597178e-02 1.10921375e-01 1.33716303e-03 0. 2.94041950e-02
      2.54352606e-04 0. 0. 1.47238388e-09 2.51592789e-02 2.85118133e-01
      4.67561111e-02 2.60708854e-02 2.25518757e-04 0. 0. 1.30547195e-09
      2.23071780e-02 2.52796650e-01 4.14557569e-02 2.56615002e-02
      4.29374661e-04 0. 0. 2.44223664e-08 2.39198707e-04 1.12335309e-02
      9.45145730e-03 3.30258310e-02 5.52596466e-04 0. 0. 3.14310888e-08
      3.07843875e-04 1.44573264e-02 1.21638337e-02 1.18583797e-04 0. 0.
      0. 1.64131372e-04 1.18165277e-03 6.96238421e-04 5.37835411e-04
      1.51319429e-04 0. 0. 0. 2.09440637e-04 1.50785374e-03
      8.88438371e-04 6.86307496e-04 0. 2.52852496e-03 1.28768664e-03
      1.06816797e-03 2.30575024e-04 0. 0. 0. 0. 2.37425813e-03
      1.20912411e-03 1.00299844e-03 2.16507498e-04 0. 0. 0. 0.
      8.79352665e-05 0. 0. 4.16250856e-08 0. 0. 0. 0. 6.31665316e-05 0.
      0. 2.99005443e-08 0. 0. 0. 2.62436748e-01 7.96547979e-02
      3.89634520e-02 1.42589060e-05 9.02620468e-06 2.55071100e-05
      1.08485983e-04 2.99187086e-04 3.82374704e-01 1.16058365e-01
      5.67703992e-02 2.07754620e-05 1.31513298e-05 3.71642818e-05
      1.58065872e-04 4.35920549e-04 2.57614464e-03 8.14357249e-04
      3.17651150e-03 0. 7.31895328e-04 1.11659923e-04 1.27183611e-03
      1.64357666e-03 6.81664096e-03 8.31514504e-03 6.02515729e-06
      1.06164683e-02 2.79247276e-02 1.72837108e-01 5.07624634e-03 0.
      2.62855496e-02 4.90252813e-03 0. 5.85975824e-04 8.63810405e-02
      1.13763914e-01 6.12693932e-03 1.19861951e-02 2.33057737e-02
      4.34676930e-03 0. 5.19548601e-04 7.65887350e-02 1.00867435e-01
      5.43237897e-03 1.06274197e-02 1.78294554e-02 1.11234572e-03 0.
      5.80336107e-03 3.19814980e-01 2.39490457e-02 1.98479537e-02
      8.36159961e-05 2.29461472e-02 1.43156631e-03 0. 7.46880751e-03
      4.11595404e-01 3.08219343e-02 2.55439132e-02 1.07612090e-04 0.
      7.33893539e-05 0. 1.48890791e-02 3.97304595e-01 2.28669755e-02
      1.74454413e-03 0. 0. 9.36488359e-05 0. 1.89992804e-02
      5.06982446e-01 2.91795153e-02 2.22613406e-03 0. 0. 0.
      1.91942009e-03 9.67513118e-03 4.19771045e-01 1.15418958e-03
      1.44081214e-03 0. 0. 0. 1.80231500e-03 9.08484496e-03
      3.94160539e-01 1.08377181e-03 1.35290727e-03 0. 1.20471893e-02
      1.17172532e-01 3.36584628e-01 3.85168418e-02 7.90868402e-02 0.
      4.21672082e-03 0. 8.65385588e-03 8.41685310e-02 2.41778806e-01
      2.76678000e-02 5.68104461e-02 0. 3.02899675e-03 0. 8.41289817e-04
      5.74104348e-03 1.15582898e-01 7.41515532e-02 5.19106667e-11 0. 0.
      0. 1.22577325e-03 8.36479571e-03 1.68406188e-01 1.08040050e-01
      7.56346999e-11 0. 0. 0. 2.22297298e-04 9.20354796e-05
      1.21974689e-03 1.39309868e-01 6.92455471e-03 0. 0. 0.
      7.16036838e-03 8.73443391e-03 6.32897445e-06 1.11518018e-02
      2.93328241e-02 1.81552380e-01 5.33221476e-03 0. 2.76109930e-02
      5.14973700e-03 0. 6.15523488e-04 9.07367840e-02 1.19500436e-01
      6.43588882e-03 1.25905965e-02 2.31904238e-02 4.32525482e-03 0.
      5.16977103e-04 7.62096643e-02 1.00368202e-01 5.40549168e-03
      1.05748195e-02 1.77412089e-02 1.10684021e-03 0. 5.77463768e-03
      3.18232089e-01 2.38305107e-02 1.97497178e-02 8.32021469e-05
      1.51509028e-02 9.45235952e-04 0. 4.93151136e-03 2.71768600e-01
      2.03511361e-02 1.68661587e-02 7.10542081e-05 0. 4.84575903e-05 0.
      9.83097497e-03 2.62332648e-01 1.50986277e-02 1.15188921e-03 0. 0.
      5.19175264e-05 0. 1.05329193e-02 2.81063557e-01 1.61766894e-02
      1.23413559e-03 0. 0. 0. 1.06409797e-03 5.36374887e-03
      2.32714832e-01 6.39865582e-04 7.98764871e-04 0. 0. 0.
      1.01549237e-03 5.11874538e-03 2.22084954e-01 6.10638002e-04
      7.62279087e-04 0. 6.78784167e-03 6.60194308e-02 1.89644516e-01
      2.17018444e-02 4.45605181e-02 0. 2.37586000e-03 0. 6.60868641e-03
      6.42769486e-02 1.84639126e-01 2.11290568e-02 4.33844067e-02 0.
      2.31315265e-03 0. 6.42467407e-04 4.38426016e-03 8.82671401e-02
      5.66272885e-02 3.96425948e-11 0. 0. 0. 7.22461729e-04
      4.93014883e-03 9.92573723e-02 6.36780113e-02 4.45785388e-11 0. 0.
      0. 1.31020395e-04 5.42450362e-05 7.18909840e-04 8.21082145e-02
      4.08128137e-03 0. 0. 0. 3.11723687e-02 9.70518216e-03 0.
      2.01250538e-02 4.12741899e-02 1.38199031e-01 2.60834508e-02
      1.23662641e-02 7.11121270e-03 1.26608193e-03 4.88502579e-03
      7.36432802e-03 1.57106131e-01 3.01878825e-02 6.76755607e-03
      4.75922570e-04 5.97269461e-03 1.06338004e-03 4.10292437e-03
      6.18528575e-03 1.31953165e-01 2.53547486e-02 5.68405818e-03
      3.99726501e-04 1.88802264e-03 2.11005216e-03 6.24518190e-03
      1.74501445e-02 1.65001005e-01 1.08963409e-02 3.95230018e-03
      4.63191699e-03 1.61236175e-03 1.80197379e-03 5.33335377e-03
      1.49023347e-02 1.40910029e-01 9.30542033e-03 3.37524433e-03
      3.95563385e-03 0. 8.84560810e-04 1.34366599e-03 9.40090418e-03
      1.86557591e-01 5.72856748e-04 1.49687286e-03 0. 0. 9.47719614e-04
      1.43960537e-03 1.00721400e-02 1.99878052e-01 6.13759446e-04
      1.60375144e-03 0. 0. 3.62521067e-04 1.71404134e-03 3.94543000e-02
      1.94104910e-01 0. 1.68775849e-04 0. 0. 3.45961918e-04
      1.63574785e-03 3.76521163e-02 1.85238644e-01 0. 1.61066549e-04 0.
      1.96941168e-04 0. 0. 4.79795933e-02 1.64957613e-01 1.15026010e-03
      0. 0. 1.91743195e-04 0. 0. 4.67132404e-02 1.60603791e-01
      1.11990061e-03 0. 0. 3.84133123e-02 8.36758167e-02 2.00359020e-02
      1.27477586e-01 1.62466057e-02 1.80063266e-02 1.05993878e-02
      4.64395061e-03 4.31961939e-02 9.40943807e-02 2.25305930e-02
      1.43349946e-01 1.82694886e-02 2.02483125e-02 1.19191287e-02
      5.22217387e-03 9.15757716e-02 9.76991430e-02 4.42820229e-02
      1.24667458e-01 1.80909187e-02 6.48461981e-03 2.67911307e-03
      9.15197325e-06 2.77821012e-02 8.64965841e-03 0. 1.79362781e-02
      3.67852598e-02 1.23168685e-01 2.32466478e-02 1.10213244e-02
      6.33780612e-03 1.12838449e-03 4.35373653e-03 6.56339293e-03
      1.40019476e-01 2.69046854e-02 6.03152532e-03 4.24161815e-04
      8.05005431e-03 1.43323350e-03 5.52996015e-03 8.33658595e-03
      1.77847713e-01 3.41733657e-02 7.66102690e-03 5.38755150e-04
      2.54469458e-03 2.84394785e-03 8.41731485e-03 2.35194676e-02
      2.22389907e-01 1.46861905e-02 5.32694720e-03 6.24294160e-03
      2.25819997e-03 2.52376194e-03 7.46965082e-03 2.08715275e-02
      1.97352126e-01 1.30327456e-02 4.72721271e-03 5.54007990e-03 0.
      1.23887532e-03 1.88187696e-03 1.31664751e-02 2.61284024e-01
      8.02316936e-04 2.09645159e-03 0. 0. 1.20997161e-03 1.83797162e-03
      1.28592933e-02 2.55188107e-01 7.83598342e-04 2.04753992e-03 0. 0.
      4.62837517e-04 2.18834914e-03 5.03720529e-02 2.47817427e-01 0.
      2.15479333e-04 0. 0. 4.64264071e-04 2.19509401e-03 5.05273081e-02
      2.48581231e-01 0. 2.16143468e-04 0. 2.64285452e-04 0. 0.
      6.43862784e-02 2.21365079e-01 1.54359301e-03 0. 0. 1.77228416e-04
      0. 0. 4.31770943e-02 1.48446247e-01 1.03512523e-03 0. 0.
      3.55054624e-02 7.73416385e-02 1.85192041e-02 1.17827654e-01
      1.50167532e-02 1.66432653e-02 9.79702454e-03 4.29240800e-03
      2.81094816e-02 6.12309538e-02 1.46615533e-02 9.32835117e-02
      1.18886819e-02 1.31763816e-02 7.75625091e-03 3.39827593e-03
      5.95919937e-02 6.35767132e-02 2.88160704e-02 8.11260715e-02
      1.17724789e-02 4.21979977e-03 1.74340536e-03 5.95555321e-06
      5.17323203e-02 3.14664319e-02 1.27670513e-02 1.80564597e-02
      4.00373191e-02 1.61949217e-01 4.50739972e-02 3.02100610e-02
      2.23086146e-03 9.60354507e-03 6.73743547e-04 9.68570542e-03
      1.00035876e-01 4.33550924e-02 0. 2.76927976e-03 2.83356011e-03
      1.21980784e-02 8.55764898e-04 1.23024350e-02 1.27061978e-01
      5.50680831e-02 0. 3.51743959e-03 2.09176238e-03 8.01754463e-03
      5.56244608e-03 2.09302604e-02 1.64316177e-01 3.67924795e-02
      1.69688389e-02 1.94094738e-03 1.85626128e-03 7.11488957e-03
      4.93619777e-03 1.85738262e-02 1.45816639e-01 3.26501988e-02
      1.50584010e-02 1.72242580e-03 2.53102480e-04 5.84911089e-03
      1.00557106e-02 5.75999543e-02 1.53256357e-01 7.77570670e-03
      2.78087007e-03 4.54845896e-04 2.47197459e-04 5.71264746e-03
      9.82110482e-03 5.62561080e-02 1.49680793e-01 7.59429438e-03
      2.71599065e-03 4.44234029e-04 4.46154922e-03 6.00270927e-03
      1.64032802e-02 1.03832565e-01 4.97249849e-02 1.08870268e-02
      7.06579478e-04 5.26177755e-04 4.47530067e-03 6.02121046e-03
      1.64538380e-02 1.04152590e-01 4.98782434e-02 1.09205823e-02
      7.08757259e-04 5.27799537e-04 1.33405011e-02 2.30173878e-02
      2.54781153e-02 8.04297104e-02 6.57980889e-02 6.22602925e-03
      2.20086938e-03 8.27626674e-04 8.94606952e-03 1.54353380e-02
      1.70854889e-02 5.39357364e-02 4.41238508e-02 4.17514239e-03
      1.47589121e-03 5.55002014e-04 1.08722955e-01 1.08647957e-01
      3.89000438e-02 6.68493062e-02 1.77959669e-02 7.51677807e-03
      1.03587992e-02 7.69669469e-03 8.60753730e-02 8.60159919e-02
      3.07969525e-02 5.29242307e-02 1.40889697e-02 5.95099246e-03
      8.20100494e-03 6.09343126e-03 8.04945305e-02 3.63980979e-02
      5.02780713e-02 1.90166980e-02 4.43722401e-03 2.27781143e-02
      7.91845657e-03 4.17438056e-03</_>
    <_>
      2.34166980e-02 9.10791308e-02 2.76684202e-03 3.12602962e-04
      7.54966633e-04 1.23789476e-04 1.20228331e-04 1.32967753e-03
      7.15192854e-02 5.32299280e-02 8.96980613e-03 6.55527785e-03 0.
      1.10747041e-02 1.14822444e-02 2.76794340e-02 1.00444287e-01
      7.47580379e-02 1.25975208e-02 9.20647010e-03 0. 1.55537166e-02
      1.61260795e-02 3.88740040e-02 8.33837241e-02 1.57474854e-03
      1.80932751e-03 3.23979324e-03 2.33883108e-03 8.30242934e-04
      1.82328140e-03 1.93466507e-02 2.38077685e-01 4.49623074e-03
      5.16600208e-03 9.25027579e-03 6.67784363e-03 2.37051421e-03
      5.20584313e-03 5.52386679e-02 3.25741805e-03 2.09505117e-04 0.
      1.05965352e-02 1.92631073e-02 1.61420309e-03 8.42162990e-04 0.
      6.62370585e-03 4.26012353e-04 0. 2.15472300e-02 3.91700305e-02
      3.28235631e-03 1.71247299e-03 0. 7.30280280e-02 1.16713345e-02
      5.82842156e-03 4.55820048e-03 2.37198025e-02 2.75692437e-03
      5.71380928e-03 5.71767194e-03 4.03372683e-02 6.44669961e-03
      3.21934768e-03 2.51773698e-03 1.31017100e-02 1.52279623e-03
      3.15604103e-03 3.15817492e-03 1.01711623e-01 3.22871022e-02
      9.40322317e-03 9.88482777e-03 1.15178470e-02 3.50165926e-03
      1.23114535e-03 0. 2.71777976e-02 8.62725731e-03 2.51258304e-03
      2.64126970e-03 3.07761994e-03 9.35658929e-04 3.28967522e-04 0.
      3.58976632e-01 4.59834421e-03 6.34701473e-06 8.22245958e-04 0.
      6.94829287e-05 0. 6.88850821e-04 3.55497658e-01 4.55377996e-03
      6.28550379e-06 8.14277271e-04 0. 6.88095461e-05 0. 6.82174985e-04
      7.57610239e-03 0. 6.22668376e-05 1.73467837e-04 3.70902871e-03
      3.26235928e-02 4.92295362e-02 1.52531788e-02 9.05538872e-02
      2.26368219e-01 7.19481288e-03 2.86472589e-02 5.32411505e-03
      1.57096831e-03 0. 2.59765564e-03 5.12531213e-02 3.01469285e-02
      2.36030556e-02 6.67259768e-02 2.10974012e-02 2.01619286e-02
      5.81225492e-02 5.62174842e-02 7.19817430e-02 4.23394404e-02
      3.31489854e-02 9.37123895e-02 2.96299551e-02 2.83161439e-02
      8.16294178e-02 7.89538771e-02 4.54709046e-02 1.46816093e-02
      7.99219683e-03 1.66380294e-02 1.79270580e-02 1.43696135e-02
      2.30207313e-02 1.82812754e-02 1.29828781e-01 4.19190153e-02
      2.28193644e-02 4.75049950e-02 5.11854365e-02 4.10282016e-02
      6.57289252e-02 5.21968007e-02 0. 0. 0. 1.93534289e-02
      1.58396259e-01 7.77280424e-03 0. 0. 0. 0. 0. 3.93536910e-02
      3.22086483e-01 1.58053916e-02 0. 0. 5.20091318e-02 0. 0.
      1.69125572e-03 2.36247092e-01 4.71589714e-02 4.34641801e-02
      3.64279635e-02 2.87274141e-02 0. 0. 9.34170559e-04 1.30491853e-01
      2.60484107e-02 2.40075812e-02 2.01211032e-02 1.36412561e-01
      8.99604186e-02 8.18669200e-02 1.38753094e-02 3.09788678e-02
      3.50418091e-02 5.77188209e-02 8.08175206e-02 3.64500396e-02
      2.40378231e-02 2.18752045e-02 3.70754441e-03 8.27769097e-03
      9.36332718e-03 1.54227251e-02 2.15948019e-02 1.50309235e-01
      7.56414235e-02 4.34493087e-02 2.27683205e-02 1.21973500e-01
      7.29839690e-03 1.26309274e-02 1.47366002e-02 1.48852542e-01
      7.49083534e-02 4.30282243e-02 2.25476641e-02 1.20791413e-01
      7.22766528e-03 1.25085171e-02 1.45937828e-02 0. 0. 4.64317796e-04
      0. 6.52785376e-02 1.79757942e-02 1.57297158e-03 0. 8.74957740e-02
      2.18723491e-01 6.95183547e-03 2.76798066e-02 5.14431344e-03
      1.51791482e-03 0. 2.50992971e-03 4.95222397e-02 2.91288309e-02
      2.28059515e-02 6.44725636e-02 2.03849170e-02 1.94810368e-02
      5.61596826e-02 5.43189533e-02 7.29737282e-02 4.29229252e-02
      3.36058177e-02 9.50038433e-02 3.00382879e-02 2.87063718e-02
      8.27543586e-02 8.00419450e-02 4.60975431e-02 1.48839382e-02
      8.10233783e-03 1.68673210e-02 1.81741118e-02 1.45676425e-02
      2.33379826e-02 1.85332112e-02 7.72986412e-02 2.49581225e-02
      1.35864001e-02 2.82839555e-02 3.04752495e-02 2.44277418e-02
      3.91342789e-02 3.10774017e-02 0. 0. 0. 1.15228193e-02
      9.43074003e-02 4.62784246e-03 0. 0. 0. 0. 0. 1.92780066e-02
      1.57778978e-01 7.74251297e-03 0. 0. 2.54774690e-02 0. 0.
      8.28487449e-04 1.15729250e-01 2.31015421e-02 2.12915931e-02
      1.78447943e-02 1.28281331e-02 0. 0. 4.17150819e-04 5.82707115e-02
      1.16318325e-02 1.07205072e-02 8.98501277e-03 6.09145835e-02
      4.01715301e-02 3.65574062e-02 6.19597454e-03 1.38335116e-02
      1.56478062e-02 2.57741511e-02 3.60888019e-02 3.54811065e-02
      2.33988371e-02 2.12937072e-02 3.60898860e-03 8.05764925e-03
      9.11442656e-03 1.50127513e-02 2.10207570e-02 1.46313652e-01
      7.36306831e-02 4.22943160e-02 2.21630819e-02 1.18731141e-01
      7.10438704e-03 1.22951660e-02 1.43448645e-02 1.75390229e-01
      8.82631466e-02 5.06993718e-02 2.65675019e-02 1.42326310e-01
      8.51622596e-03 1.47385569e-02 1.71955880e-02 0. 0. 5.47097181e-04
      0. 7.69165084e-02 2.11805496e-02 1.85340364e-03 0. 1.92809001e-01
      5.63737229e-02 7.11272703e-03 2.76162615e-03 3.08832561e-04 0.
      3.21796484e-04 6.50098373e-05 0. 0. 3.56599479e-03 0. 0.
      5.98852523e-03 6.43954650e-02 0. 0. 0. 5.25468821e-03 0. 0.
      8.82441923e-03 9.48902369e-02 0. 1.95754878e-02 2.37870086e-02
      7.59311998e-03 2.03924626e-02 3.42046618e-02 2.72842348e-02
      1.31582201e-01 0. 3.28251459e-02 3.98872308e-02 1.27325188e-02
      3.41950879e-02 5.73560633e-02 4.57515530e-02 2.20643520e-01 0. 0.
      3.91501933e-03 7.02287909e-03 1.02756014e-02 1.26191869e-01
      2.27616839e-02 6.74197357e-03 0. 0. 6.54993905e-03 1.17494781e-02
      1.71913765e-02 2.11122602e-01 3.80809493e-02 1.12795150e-02 0. 0.
      2.20763609e-02 8.94011557e-03 4.12994111e-03 1.47043109e-01
      6.37659803e-02 6.89979345e-02 0. 0. 1.11156451e-02 4.50142799e-03
      2.07946240e-03 7.40375146e-02 3.21067423e-02 3.47410738e-02 0.
      7.95379952e-02 2.00797111e-01 1.75103694e-01 1.50509262e-02
      6.22775406e-03 0. 2.84425798e-03 2.38193404e-02 4.63287458e-02
      1.16958924e-01 1.01993196e-01 8.76676012e-03 3.62749957e-03 0.
      1.65670388e-03 1.38741257e-02 3.94203253e-02 2.38802731e-02
      2.05791239e-02 1.38189998e-02 2.49767005e-02 6.71063829e-03
      3.47629958e-03 6.62826205e-05 4.72542420e-02 2.86259484e-02
      2.46687680e-02 1.65652204e-02 2.99402662e-02 8.04422889e-03
      4.16713674e-03 7.94548178e-05 8.49432836e-04 0. 0. 4.48352704e-03
      1.37929097e-01 6.48368672e-02 3.29858623e-03 5.06267278e-03
      1.63519338e-01 4.78099771e-02 6.03223126e-03 2.34210677e-03
      2.61917739e-04 0. 2.72912293e-04 5.51341800e-05 0. 0.
      3.02428380e-03 0. 0. 5.07880701e-03 5.46131320e-02 0. 0. 0.
      3.95600684e-03 0. 0. 6.64348900e-03 7.14383796e-02 0.
      1.47374617e-02 1.79081168e-02 5.71650174e-03 1.53525239e-02
      2.57510748e-02 2.05410141e-02 9.90620255e-02 0. 2.35242825e-02
      2.85853595e-02 9.12481546e-03 2.45060604e-02 4.11044732e-02
      3.27880494e-02 1.58125147e-01 0. 0. 2.80571566e-03 5.03297709e-03
      7.36405468e-03 9.04359519e-02 1.63122602e-02 4.83166520e-03 0. 0.
      4.67470055e-03 8.38561822e-03 1.22695090e-02 1.50678501e-01
      2.71784272e-02 8.05020519e-03 0. 0. 1.57559291e-02 6.38057292e-03
      2.94754491e-03 1.04944870e-01 4.55098711e-02 4.92439196e-02 0. 0.
      9.91595350e-03 4.01559705e-03 1.85502972e-03 6.60467818e-02
      2.86415182e-02 3.09915319e-02 0. 7.09536001e-02 1.79125443e-01
      1.56205073e-01 1.34265069e-02 5.55560365e-03 0. 2.53728218e-03
      2.12485623e-02 6.83581755e-02 1.72573179e-01 1.50491208e-01
      1.29353758e-02 5.35238441e-03 0. 2.44447053e-03 2.04713065e-02
      5.81647865e-02 3.52354012e-02 3.03645469e-02 2.03899685e-02
      3.68531831e-02 9.90156271e-03 5.12928842e-03 9.78001699e-05
      8.55167136e-02 5.18048070e-02 4.46434394e-02 2.99783275e-02
      5.41833490e-02 1.45577621e-02 7.54133007e-03 1.43790588e-04
      1.53723138e-03 0. 0. 8.11390672e-03 2.49612346e-01 1.17336251e-01
      5.96950063e-03 9.16199479e-03 7.36043230e-03 4.79030423e-02
      4.10313793e-02 1.07999504e-01 8.16543028e-02 5.21566756e-02
      2.43191682e-02 1.16030547e-04 5.44556766e-04 1.16764393e-03
      5.98613478e-05 5.39137498e-02 2.95592010e-01 2.56155897e-03
      5.98611186e-05 5.50299708e-04 7.12324167e-04 1.52737240e-03
      7.83034702e-05 7.05235302e-02 3.86658162e-01 3.35072563e-03
      7.83031646e-05 7.19836447e-04 3.80955376e-02 8.60095397e-03
      7.26502098e-04 2.32534278e-02 6.73487708e-02 6.72591478e-02
      2.83053443e-02 2.16552392e-02 6.08089976e-02 1.37290452e-02
      1.15965982e-03 3.71176712e-02 1.07503690e-01 1.07360631e-01
      4.51816581e-02 3.45666036e-02 0. 0. 1.24988888e-04 0.
      1.32137269e-01 8.91647488e-03 6.85253739e-03 0. 0. 0.
      2.08248355e-04 0. 2.20158502e-01 1.48560498e-02 1.14172520e-02 0.
      0. 2.05286164e-02 6.62933066e-02 4.58683670e-02 1.76710322e-01
      3.90545884e-03 4.03424446e-03 0. 0. 1.29196309e-02 4.17215191e-02
      2.88671367e-02 1.11212179e-01 2.45789043e-03 2.53894110e-03 0.
      4.67176968e-03 4.66950331e-03 7.48795941e-02 8.82221088e-02
      2.40903143e-02 5.25696017e-03 7.07619870e-03 8.97803518e-04
      4.50087991e-03 4.49869642e-03 7.21405596e-02 8.49950165e-02
      2.32091099e-02 5.06466487e-03 6.81735715e-03 8.64962582e-04
      5.20737143e-03 1.65022770e-03 1.26267434e-04 4.86150049e-02
      1.10140964e-01 1.86038262e-03 1.26266939e-04 1.41963561e-03
      7.65613234e-03 2.42624548e-03 1.85644545e-04 7.14761540e-02
      1.61934629e-01 2.73522548e-03 1.85643832e-04 2.08721752e-03
      5.25073207e-04 0. 0. 3.54903121e-03 5.22133149e-02 1.45536158e-02
      3.71287664e-04 1.28320021e-08 4.90291882e-03 3.19090933e-02
      2.73317527e-02 7.19404444e-02 5.43914251e-02 3.47425155e-02
      1.61994435e-02 7.72900676e-05 3.62739229e-04 7.77788984e-04
      3.98747397e-05 3.59129347e-02 1.96899235e-01 1.70630123e-03
      3.98745869e-05 3.66564724e-04 5.04060474e-04 1.08081137e-03
      5.54097205e-05 4.99044172e-02 2.73610115e-01 2.37106695e-03
      5.54095059e-05 5.09376347e-04 2.69574672e-02 6.08627498e-03
      5.14093204e-04 1.64547749e-02 4.76578698e-02 4.75944467e-02
      2.00296510e-02 1.53238513e-02 6.21867478e-02 1.40401050e-02
      1.18593429e-03 3.79586481e-02 1.09939404e-01 1.09793104e-01
      4.62053381e-02 3.53497788e-02 0. 0. 1.27820764e-04 0.
      1.35131091e-01 9.11849551e-03 7.00779539e-03 0. 0. 0.
      3.37126781e-04 0. 3.56407762e-01 2.40499973e-02 1.84830334e-02 0.
      0. 3.32331359e-02 1.07320175e-01 7.42548704e-02 2.86070824e-01
      6.32242579e-03 6.53091259e-03 0. 0. 1.08324988e-02 3.49815190e-02
      2.42037270e-02 9.32461470e-02 2.06082477e-03 2.12878198e-03 0.
      3.91705753e-03 3.91515717e-03 6.27829954e-02 7.39700645e-02
      2.01985873e-02 4.40771226e-03 5.93305752e-03 7.52765744e-04
      1.94251514e-03 1.94157276e-03 3.11348271e-02 3.66826281e-02
      1.00167179e-02 2.18583667e-03 2.94227339e-03 3.73305404e-04
      2.24742666e-03 7.12214562e-04 5.44952090e-05 2.09815372e-02
      4.75352593e-02 8.02914437e-04 5.44949980e-05 6.12694304e-04
      1.85589620e-03 5.88137656e-04 4.50014450e-05 1.73262842e-02
      3.92540060e-02 6.63036422e-04 4.50012703e-05 5.05955133e-04
      1.27281164e-04 0. 0. 8.60308239e-04 1.26568470e-02 3.52789112e-03
      9.00025407e-05 3.11056092e-09 2.17944030e-02 7.67739024e-03
      8.72300565e-03 1.50015786e-01 1.86057743e-02 2.29724664e-02
      4.98967879e-02 1.53353652e-02 0. 9.89218897e-05 0. 2.30131280e-02
      1.91119537e-01 1.28332060e-02 3.14088596e-04 0. 0. 1.37461320e-04
      0. 3.19789201e-02 2.65578657e-01 1.78329535e-02 4.36455826e-04 0.
      1.78077035e-02 5.87715022e-03 4.46937187e-03 2.54275277e-02
      8.20456222e-02 1.09742093e-03 3.62432152e-02 2.35838490e-03
      4.10796478e-02 1.35576855e-02 1.03101563e-02 5.86574115e-02
      1.89266697e-01 2.53158202e-03 8.36075470e-02 5.44043258e-03
      4.12256783e-03 3.12071387e-03 4.11452120e-03 3.71703296e-03
      4.81574144e-03 2.89830775e-03 3.07933427e-03 1.63633900e-03
      1.08732563e-02 8.23087059e-03 1.08520333e-02 9.80366021e-03
      1.27014993e-02 7.64427520e-03 8.12173169e-03 4.31583775e-03
      3.16848396e-03 2.54641776e-03 2.16966099e-03 0. 0. 1.03778741e-03
      3.55458772e-03 1.96973770e-03 1.03278237e-03 8.30016972e-04
      7.07211322e-04 0. 0. 3.38271755e-04 1.15863467e-03 6.42045343e-04
      8.66184831e-02 2.30001081e-02 1.33926943e-01 1.38587520e-01
      2.16673613e-01 3.93968681e-03 3.02390661e-02 1.89746600e-02
      4.29551303e-02 1.14060249e-02 6.64159507e-02 6.87271878e-02
      1.07450999e-01 1.95373711e-03 1.49959093e-02 9.40975733e-03
      3.12349657e-05 0. 0. 1.21851236e-01 3.93347204e-01 6.11846568e-04
      6.22981228e-04 0. 2.57934353e-05 0. 0. 1.00623190e-01
      3.24821085e-01 5.05255011e-04 5.14449901e-04 0. 2.23904867e-02
      3.97274531e-02 7.62937451e-03 9.37619619e-03 3.21213901e-01
      6.93853348e-02 1.36999022e-02 1.25420243e-02 2.55621262e-02
      9.00462549e-03 1.02310022e-02 1.75949886e-01 2.18222626e-02
      2.69438494e-02 5.85227348e-02 1.79864783e-02 0. 1.16023097e-04 0.
      2.69915406e-02 2.24159479e-01 1.50517561e-02 3.68386914e-04 0. 0.
      1.92984910e-04 0. 4.48958911e-02 3.72851610e-01 2.50360668e-02
      6.12749718e-04 0. 2.50006188e-02 8.25105794e-03 6.27464708e-03
      3.56982537e-02 1.15185618e-01 1.54069287e-03 5.08826301e-02
      3.31098726e-03 2.87420750e-02 9.48586594e-03 7.21367681e-03
      4.10406590e-02 1.32423669e-01 1.77126459e-03 5.84974475e-02
      3.80649162e-03 2.88442476e-03 2.18346063e-03 2.87879491e-03
      2.60068569e-03 3.36941564e-03 2.02785037e-03 2.15450861e-03
      1.14489242e-03 2.92098266e-03 2.21113442e-03 2.91528157e-03
      2.63364729e-03 3.41212051e-03 2.05355184e-03 2.18181545e-03
      1.15940312e-03 8.51178949e-04 6.84067607e-04 5.82856010e-04 0. 0.
      2.78790365e-04 9.54901567e-04 5.29148732e-04 8.73400248e-04
      7.01926241e-04 5.98072307e-04 0. 0. 2.86068622e-04 9.79830627e-04
      5.42962924e-04 7.32512549e-02 1.94506608e-02 1.13258921e-01
      1.17200278e-01 1.83235884e-01 3.33170244e-03 2.55724806e-02
      1.60464328e-02 4.18881662e-02 1.11227101e-02 6.47662431e-02
      6.70200735e-02 1.04782023e-01 1.90520834e-03 1.46234259e-02
      9.17602889e-03 3.04591213e-05 0. 0. 1.18824571e-01 3.83576840e-01
      5.96648897e-04 6.07506954e-04 0. 2.01153998e-05 0. 0.
      7.84725100e-02 2.53316611e-01 3.94030765e-04 4.01201512e-04 0.
      1.74615588e-02 3.09820529e-02 5.94988279e-03 7.31216790e-03
      2.50503510e-01 5.41111976e-02 1.06840748e-02 9.78108682e-03
      3.41969691e-02 5.76212676e-03 9.64009948e-03 7.45864585e-03
      1.08812554e-02 2.30639819e-02 1.08996235e-01 5.83119951e-02
      2.07494423e-02 3.22197303e-02 1.87140200e-02 1.28240995e-02
      1.58212725e-02 1.27110817e-02 1.30641786e-02 2.87462631e-03
      3.45132090e-02 5.35921045e-02 3.11276279e-02 2.13307347e-02
      2.63160281e-02 2.11427473e-02 2.17300653e-02 4.78145760e-03
      5.78863621e-02 1.18616670e-02 4.11515241e-04 2.16093627e-04 0. 0.
      1.82828996e-02 7.07368786e-03 6.65493160e-02 1.36368191e-02
      4.73100372e-04 2.48433003e-04 0. 0. 2.10190192e-02 8.13229755e-03
      1.90518945e-02 5.82447611e-02 1.43673830e-02 2.59036392e-01
      1.98947340e-01 2.10306570e-02 1.70373991e-02 0. 1.92933623e-02
      5.89829683e-02 1.45494798e-02 2.62319505e-01 2.01468855e-01
      2.12972052e-02 1.72533356e-02 0. 9.77163240e-02 0. 6.84409693e-04
      5.79630695e-02 9.02835950e-02 3.24075334e-02 6.88063577e-02
      3.36051509e-02 1.00267358e-01 0. 7.02277233e-04 5.94762824e-02
      9.26405787e-02 3.32535803e-02 7.06026554e-02 3.44824642e-02
      2.61868499e-02 8.04015901e-03 7.39724236e-03 0. 0. 0.
      5.12894802e-03 6.49182964e-03 1.49747478e-02 4.59770299e-03
      4.23005596e-03 0. 0. 0. 2.93294946e-03 3.71230254e-03
      1.37766292e-02 7.50352582e-03 1.80868302e-02 3.50766331e-02
      4.26928587e-02 1.26412502e-02 1.50948260e-02 5.75975282e-03
      9.09817498e-03 4.95537696e-03 1.19446591e-02 2.31648330e-02
      2.81946380e-02 8.34836345e-03 9.96872038e-03 3.80377797e-03
      9.85657424e-03 4.90107089e-02 4.06402946e-02 2.32535377e-02
      1.01906257e-02 2.03720480e-02 2.54742485e-02 2.33341195e-03
      4.15654592e-02 7.00370409e-03 1.17172711e-02 9.06577613e-03
      1.32258618e-02 2.80336253e-02 1.32481888e-01 7.08765984e-02
      2.52203662e-02 3.91621813e-02 2.27463692e-02 1.55873355e-02
      1.92303155e-02 1.54499654e-02 1.58791449e-02 3.49402800e-03
      3.53307575e-02 5.48615977e-02 3.18649784e-02 2.18360182e-02
      2.69394033e-02 2.16435771e-02 2.22448073e-02 4.89472086e-03
      5.92575744e-02 1.21426461e-02 4.21263219e-04 2.21212453e-04 0. 0.
      1.87159851e-02 7.24125002e-03 5.84305152e-02 1.19731706e-02
      4.15383634e-04 2.18124987e-04 0. 0. 1.84547659e-02 7.14018336e-03
      1.67276245e-02 5.11390865e-02 1.26146087e-02 2.27434784e-01
      1.74676403e-01 1.84649844e-02 1.49588911e-02 0. 1.40938424e-02
      4.30871844e-02 1.06284255e-02 1.91624939e-01 1.47173420e-01
      1.55576533e-02 1.26035977e-02 0. 7.13819787e-02 0. 4.99962713e-04
      4.23421450e-02 6.59523532e-02 2.36737709e-02 5.02631925e-02
      2.45486330e-02 1.46430537e-01 0. 1.02560630e-03 8.68592113e-02
      1.35292381e-01 4.85635549e-02 1.03108175e-01 5.03582209e-02
      3.82432975e-02 1.17418552e-02 1.08029386e-02 0. 0. 0.
      7.49032013e-03 9.48067289e-03 2.93125734e-02 8.99985153e-03
      8.28019436e-03 0. 0. 0. 5.74115152e-03 7.26670912e-03
      2.69672964e-02 1.46879032e-02 3.54043692e-02 6.86613470e-02
      8.35698545e-02 2.47448292e-02 2.95476224e-02 1.12745259e-02
      1.47642931e-02 8.04146286e-03 1.93834975e-02 3.75913195e-02
      4.57535647e-02 1.35475174e-02 1.61769930e-02 6.17267704e-03
      1.59950051e-02 7.95333683e-02 6.59500659e-02 3.77352647e-02
      1.65370964e-02 3.30592580e-02 4.13389839e-02 3.78660322e-03
      6.97640982e-03 2.81565037e-04 1.50915282e-03 4.04838333e-03
      2.01850175e-03 5.68048768e-02 9.08558220e-02 1.26625365e-02
      5.68777584e-02 2.30383929e-02 1.73173528e-02 4.63396981e-02
      2.88101304e-02 1.44245848e-01 3.73279862e-02 1.45709302e-04
      7.96790272e-02 3.22740711e-02 2.42595691e-02 6.49164468e-02
      4.03595939e-02 2.02071428e-01 5.22921048e-02 2.04121548e-04
      4.54520062e-03 0. 0. 2.71382127e-02 1.28596842e-01 1.10210255e-02
      1.47870006e-02 2.39532281e-04 4.48176311e-03 0. 0. 2.67594438e-02
      1.26801997e-01 1.08672045e-02 1.45806177e-02 2.36189109e-04
      8.74358229e-05 3.87124514e-04 1.95522138e-04 5.42279892e-02
      1.06076948e-01 4.25089486e-02 1.40349584e-04 4.33103819e-09
      7.36689617e-05 3.26171343e-04 1.64736979e-04 4.56897356e-02
      8.93750191e-02 3.58158685e-02 1.18251402e-04 3.64911190e-09
      7.36719012e-05 9.68157500e-03 2.40066536e-02 5.90646081e-02
      2.21790168e-02 0. 0. 0. 1.51127984e-04 1.98604483e-02
      4.92464192e-02 1.21163100e-01 4.54972684e-02 0. 0. 0.
      3.68164456e-03 0. 8.62022955e-03 3.98171693e-02 3.31043042e-02
      1.91854907e-03 2.10877545e-02 6.45532226e-03 2.82189250e-03 0.
      6.60720002e-03 3.05189081e-02 2.53736582e-02 1.47052202e-03
      1.61632597e-02 4.94785002e-03 0. 9.59138386e-03 2.20929205e-01
      1.94060698e-01 5.20570800e-02 3.99630070e-02 4.10371684e-02 0. 0.
      5.25117572e-03 1.20956272e-01 1.06246069e-01 2.85006706e-02
      2.18793005e-02 2.24673916e-02 0. 2.57942273e-04 1.22662984e-01
      9.63129774e-02 8.43202602e-03 7.29496963e-03 1.79145043e-03
      2.57972931e-03 0. 7.03271246e-03 2.83837377e-04 1.52133219e-03
      4.08105552e-03 2.03479198e-03 5.72633110e-02 9.15890634e-02
      1.27647286e-02 5.73367849e-02 2.32243203e-02 1.74571108e-02
      4.67136763e-02 2.90426388e-02 1.45409971e-01 3.76292355e-02
      1.46885242e-04 8.27978700e-02 3.35373580e-02 2.52091493e-02
      6.74574450e-02 4.19393703e-02 2.09981009e-01 5.43389507e-02
      2.12111379e-04 4.72311163e-03 0. 0. 2.82004718e-02 1.33630440e-01
      1.14524169e-02 1.53658018e-02 2.48908182e-04 7.69071048e-03 0. 0.
      4.59192358e-02 2.17592373e-01 1.86481345e-02 2.50203572e-02
      4.05300787e-04 1.50039967e-04 6.64306106e-04 3.35516204e-04
      9.30552855e-02 1.82028159e-01 7.29454011e-02 2.40840047e-04
      7.43206652e-09 1.45192593e-04 6.42844185e-04 3.24676599e-04
      9.00489241e-02 1.76147327e-01 7.05887377e-02 2.33059167e-04
      7.19195681e-09 1.45198384e-04 1.90812107e-02 4.73142043e-02
      1.16409183e-01 4.37121540e-02 0. 0. 0. 1.70534433e-04
      2.24107411e-02 5.55701852e-02 1.36721730e-01 5.13396002e-02 0. 0.
      0. 4.15440695e-03 0. 9.72715858e-03 4.49301153e-02 3.73552479e-02
      2.16491101e-03 2.37956475e-02 7.28425430e-03 1.99104031e-03 0.
      4.66183666e-03 2.15332005e-02 1.79028697e-02 1.03755493e-03
      1.14042982e-02 3.49105056e-03 0. 6.76738471e-03 1.55880824e-01
      1.36923239e-01 3.67298722e-02 2.81966645e-02 2.89545599e-02 0. 0.
      4.79694689e-03 1.10493504e-01 9.70557407e-02 2.60353517e-02
      1.99867319e-02 2.05239523e-02 0. 2.35630170e-04 1.12052590e-01
      8.79818648e-02 7.70265236e-03 6.66395202e-03 1.63648918e-03
      2.35658162e-03 0. 1.08426973e-01 1.72359236e-02 8.30456801e-03
      1.08996496e-01 1.34997554e-02 1.23386104e-02 3.14509161e-02
      2.57255416e-02 2.39055324e-02 4.96788044e-03 2.85738837e-02
      7.01711401e-02 6.45370397e-04 3.33415519e-04 4.96720677e-05
      1.18429577e-02 3.45210694e-02 7.17392750e-03 4.12624590e-02
      1.01331472e-01 9.31954884e-04 4.81472671e-04 7.17295407e-05
      1.71019658e-02 4.90852594e-02 2.15205410e-03 8.27519325e-05
      1.87665760e-03 6.06403919e-03 9.60256904e-03 1.28368624e-02
      6.32945634e-03 7.99262375e-02 3.50422063e-03 1.34746166e-04
      3.05578858e-03 9.87416226e-03 1.56360026e-02 2.09024474e-02
      1.03063453e-02 7.80844653e-04 0. 4.31971904e-03 7.08822608e-02
      1.09142594e-01 5.52847749e-03 1.31047692e-03 0. 7.55617686e-04 0.
      4.18016082e-03 6.85922503e-02 1.05616495e-01 5.34986751e-03
      1.26813899e-03 0. 3.89976129e-02 6.13302039e-03 2.08914336e-02
      1.29502684e-01 4.52859364e-02 3.69869336e-03 4.93540801e-03 0.
      4.58024107e-02 7.20318733e-03 2.45368350e-02 1.52099952e-01
      5.31879999e-02 4.34408803e-03 5.79660060e-03 0. 6.87504858e-02
      4.46102908e-03 1.53512442e-02 1.91154238e-02 5.68303913e-02
      9.14448872e-02 8.49317294e-03 4.69576940e-02 3.29493470e-02
      2.13799207e-03 7.35723460e-03 9.16125439e-03 2.72365250e-02
      4.38258648e-02 4.07043658e-03 2.25049369e-02 2.59240046e-02
      2.70989984e-02 8.39505717e-03 4.37251944e-03 1.58906177e-01
      1.43579185e-01 1.80295035e-02 8.97649862e-03 1.83757953e-02
      1.92086697e-02 5.95069490e-03 3.09938705e-03 1.12637974e-01
      1.01773687e-01 1.27799101e-02 6.36284007e-03 4.79653776e-02
      5.41939884e-02 3.05632968e-02 2.21185181e-02 2.40428746e-02
      1.38509450e-02 2.60670315e-02 3.48701165e-03</_>
    <_>
      6.86208205e-03 3.51397991e-02 1.98568869e-02 5.18389270e-02
      1.13337666e-01 4.12478251e-03 9.50112753e-03 1.56032639e-02
      4.72517386e-02 1.56803448e-02 8.00258666e-03 5.38081378e-02
      7.76200220e-02 1.01644937e-02 2.27199793e-02 1.34613439e-02
      4.40819226e-02 1.46284504e-02 7.46574346e-03 5.01984917e-02
      7.24129900e-02 9.48262308e-03 2.11958401e-02 1.25583084e-02
      2.20290590e-02 1.60430241e-02 1.54666742e-02 4.61678244e-02
      5.51823638e-02 3.35393287e-02 1.12283966e-02 7.52743473e-03
      2.44930461e-02 1.78374648e-02 1.71966478e-02 5.13317734e-02
      6.13546073e-02 3.72907594e-02 1.24843111e-02 8.36939085e-03
      3.17838858e-03 4.94659459e-03 9.37890075e-03 2.71212943e-02
      1.22926801e-01 1.41936652e-02 5.39006712e-03 1.41574617e-03
      3.07585998e-03 4.78702737e-03 9.07635689e-03 2.62464155e-02
      1.18961431e-01 1.37358056e-02 5.21619432e-03 1.37007702e-03
      6.66834638e-02 6.04592822e-03 1.04266629e-02 1.98214483e-02
      5.22405654e-02 2.72864271e-02 1.87907126e-02 3.37711759e-02
      5.95123172e-02 5.39574865e-03 9.30537935e-03 1.76898483e-02
      4.66226116e-02 2.43520420e-02 1.67699568e-02 3.01394202e-02
      4.40070629e-02 2.64846459e-02 2.04907972e-02 6.72152340e-02
      7.65478890e-03 2.29755454e-02 7.45929452e-03 6.71464950e-03
      4.54761982e-02 2.73688119e-02 2.11748648e-02 6.94591478e-02
      7.91033730e-03 2.37425640e-02 7.70831620e-03 6.93881186e-03
      5.65235391e-02 3.66302319e-02 2.58673225e-02 1.82054937e-02
      4.15957682e-02 3.10020931e-02 1.25768641e-02 1.07924016e-02
      6.37588650e-02 4.13191020e-02 2.91784797e-02 2.05358956e-02
      4.69202511e-02 3.49705294e-02 1.41867716e-02 1.21738883e-02
      5.48189692e-02 2.53935587e-02 9.57969762e-03 1.04651423e-02
      7.56997522e-03 8.59146751e-03 7.58591201e-03 1.34252887e-02
      1.18125472e-02 1.95312798e-02 1.79744866e-02 5.51895946e-02
      4.66716774e-02 2.88379006e-02 6.27711555e-03 3.92720522e-03
      6.52694330e-03 2.85598878e-02 6.14432916e-02 9.16757435e-02
      1.03802912e-01 1.08153773e-02 1.98074221e-03 0. 6.08909223e-03
      2.66439859e-02 5.73214516e-02 8.55258033e-02 9.68394354e-02
      1.00898426e-02 1.84786681e-03 0. 4.67640813e-03 1.31412055e-02
      4.77672108e-02 1.06772438e-01 6.36956096e-02 2.22750213e-02
      1.30521022e-02 5.05399238e-03 5.19947242e-03 1.46110710e-02
      5.31100556e-02 1.18715115e-01 7.08200783e-02 2.47665197e-02
      1.45120015e-02 5.61928982e-03 7.69253960e-03 1.60561241e-02
      4.44532149e-02 8.46560225e-02 7.52774402e-02 3.35201249e-02
      1.15919393e-02 4.89667756e-04 7.44439382e-03 1.55381849e-02
      4.30192426e-02 8.19251910e-02 7.28491396e-02 3.24388333e-02
      1.12180067e-02 4.73872060e-04 2.28976663e-02 1.81858074e-02
      5.53410649e-02 8.73406082e-02 8.49160105e-02 1.78460665e-02
      2.69917529e-02 4.03857045e-03 2.04352494e-02 1.62301045e-02
      4.93896827e-02 7.79479966e-02 7.57841393e-02 1.59268994e-02
      2.40890570e-02 3.60426214e-03 1.40540348e-02 2.20737234e-03
      1.85364522e-02 6.64653331e-02 1.50267944e-01 3.94498482e-02
      9.97215416e-03 2.84995185e-03 1.45232156e-02 2.28106324e-03
      1.91552732e-02 6.86842129e-02 1.55284509e-01 4.07668427e-02
      1.03050657e-02 2.94509484e-03 2.47910176e-03 3.06324987e-03
      3.00623663e-02 6.05965182e-02 7.24114925e-02 4.68570888e-02
      2.64114477e-02 1.20065687e-03 2.79644039e-03 3.45536252e-03
      3.39105129e-02 6.83532059e-02 8.16805661e-02 5.28550521e-02
      2.97922567e-02 1.35434757e-03 6.47724792e-02 3.25979367e-02
      3.92738990e-02 6.79024979e-02 6.52252212e-02 2.19219867e-02
      1.14943655e-02 2.21401770e-02 1.29945818e-02 2.14856975e-02
      1.97731219e-02 6.07121997e-02 5.13419285e-02 3.17235962e-02
      6.90524140e-03 4.32018517e-03 7.18006864e-03 3.14177647e-02
      6.75916821e-02 1.00849375e-01 1.14190057e-01 1.18976291e-02
      2.17894721e-03 0. 7.72725139e-03 3.38120647e-02 7.27427453e-02
      1.08534962e-01 1.22892320e-01 1.28043303e-02 2.34500179e-03 0.
      5.93451085e-03 1.66766066e-02 6.06181100e-02 1.35497615e-01
      8.08317587e-02 2.82677095e-02 1.65635329e-02 6.41367678e-03
      6.78371871e-03 1.90629717e-02 6.92923516e-02 1.54886857e-01
      9.23985019e-02 3.23127210e-02 1.89337172e-02 7.33145187e-03
      1.00364080e-02 2.09483225e-02 5.79978265e-02 1.10450171e-01
      9.82140005e-02 4.37334962e-02 1.51239289e-02 6.38866448e-04
      9.54535231e-03 1.99233759e-02 5.51601425e-02 1.05046131e-01
      9.34086442e-02 4.15937304e-02 1.43839549e-02 6.07608352e-04
      2.93598510e-02 2.33182106e-02 7.09594339e-02 1.11989893e-01
      1.08881034e-01 2.28825882e-02 3.46093699e-02 5.17833652e-03
      2.48732548e-02 1.97548624e-02 6.01158403e-02 9.48762745e-02
      9.22424868e-02 1.93858072e-02 2.93205753e-02 4.38701408e-03
      1.71062052e-02 2.68675620e-03 2.25620866e-02 8.08998719e-02
      1.82902247e-01 4.80173305e-02 1.21378470e-02 3.46888741e-03
      1.51697127e-02 2.38260417e-03 2.00079661e-02 7.17416704e-02
      1.62196949e-01 4.25815694e-02 1.07637923e-02 3.07619502e-03
      2.58945813e-03 3.19960946e-03 3.14005837e-02 6.32939562e-02
      7.56348744e-02 4.89429198e-02 2.75871456e-02 1.25410373e-03
      1.99079118e-03 2.45987927e-03 2.41409596e-02 4.86607775e-02
      5.81485480e-02 3.76276113e-02 2.12091655e-02 9.64162580e-04
      4.61116508e-02 2.32065320e-02 2.79591642e-02 4.83399183e-02
      4.64339592e-02 1.56063046e-02 8.18286091e-03 1.57616343e-02
      9.27136559e-03 1.22464839e-02 1.40474960e-01 9.02304724e-02
      2.20443681e-02 4.37023444e-03 3.79614555e-03 2.00890913e-03
      7.97442533e-03 3.36736105e-02 8.10569525e-02 2.14539673e-02
      9.31271818e-03 1.09412083e-02 4.95526195e-03 1.62689481e-03
      8.58214404e-03 3.62398289e-02 8.72341841e-02 2.30889432e-02
      1.00224270e-02 1.17750214e-02 5.33289509e-03 1.75087817e-03
      5.06294519e-03 1.11175664e-02 4.62370850e-02 1.86792854e-02
      9.18780267e-03 5.51564153e-03 5.77956391e-03 2.73153489e-03
      5.78743499e-03 1.27084525e-02 5.28534539e-02 2.13522278e-02
      1.05025461e-02 6.30491087e-03 6.60659978e-03 3.12240818e-03
      1.37640694e-02 2.27238145e-02 2.35217623e-02 2.05821283e-02
      2.99988631e-02 2.78069521e-03 5.62294759e-03 3.62242456e-03
      1.30906291e-02 2.16119960e-02 2.23709047e-02 1.95750985e-02
      2.85310969e-02 2.64464295e-03 5.34783164e-03 3.44518875e-03
      5.81876701e-03 1.80051252e-02 2.58176848e-02 2.60694511e-02
      2.67825518e-02 1.20822098e-02 1.83745027e-02 3.58473067e-03
      4.92957793e-03 1.52536901e-02 2.18723807e-02 2.20856741e-02
      2.26898026e-02 1.02358786e-02 1.55666210e-02 3.03693372e-03
      2.33559236e-02 6.10874360e-03 2.14353241e-02 6.53390884e-02
      5.26491925e-03 2.00589728e-02 1.52599262e-02 1.27691235e-02
      2.07119361e-02 5.41720865e-03 1.90087575e-02 5.79424314e-02
      4.66890819e-03 1.77882146e-02 1.35324392e-02 1.13236057e-02
      1.02632651e-02 2.50633317e-03 2.41967347e-02 2.62148026e-02
      1.07652903e-01 5.48799969e-02 3.13105844e-02 1.07588107e-02
      7.89046008e-03 1.92688429e-03 1.86025966e-02 2.01540999e-02
      8.27642083e-02 4.21920754e-02 2.40717679e-02 8.27143900e-03
      1.31644547e-01 2.65632812e-02 8.46874807e-03 1.32306674e-02
      5.32033518e-02 4.22928594e-02 6.46869838e-02 2.72320155e-02
      1.33341625e-02 1.76130068e-02 2.02032387e-01 1.29770294e-01
      3.17044146e-02 6.28531165e-03 5.45965135e-03 2.88923155e-03
      1.14688911e-02 4.84296978e-02 1.16576858e-01 3.08552925e-02
      1.33936377e-02 1.57357454e-02 7.12670339e-03 2.33981502e-03
      1.38053270e-02 5.82957640e-02 1.40325829e-01 3.71411145e-02
      1.61221810e-02 1.89414229e-02 8.57855100e-03 2.81648082e-03
      8.14430602e-03 1.78838335e-02 7.43774548e-02 3.00476942e-02
      1.47795957e-02 8.87251832e-03 9.29706730e-03 4.39397572e-03
      7.71851046e-03 1.69488415e-02 7.04888999e-02 2.84767561e-02
      1.40068969e-02 8.40865076e-03 8.81100260e-03 4.16425196e-03
      1.83566827e-02 3.03059965e-02 3.13701928e-02 2.74497010e-02
      4.00084890e-02 3.70852090e-03 7.49913882e-03 4.83110733e-03
      1.60291344e-02 2.64633279e-02 2.73925886e-02 2.39691976e-02
      3.49355862e-02 3.23829660e-03 6.54828036e-03 4.21854388e-03
      7.12492876e-03 2.20468063e-02 3.16130817e-02 3.19213644e-02
      3.27945352e-02 1.47943515e-02 2.24990994e-02 4.38940944e-03
      6.99351635e-03 2.16401760e-02 3.10300123e-02 3.13326083e-02
      3.21896747e-02 1.45214843e-02 2.20841262e-02 4.30845143e-03
      3.31346914e-02 8.66638124e-03 3.04099657e-02 9.26955640e-02
      7.46925967e-03 2.84573566e-02 2.16490235e-02 1.81153603e-02
      2.79996395e-02 7.32330792e-03 2.56971810e-02 7.83300623e-02
      6.31171092e-03 2.40471773e-02 1.82939656e-02 1.53079312e-02
      1.38744982e-02 3.38821206e-03 3.27106006e-02 3.54387462e-02
      1.45531669e-01 7.41900802e-02 4.23275307e-02 1.45444060e-02
      9.06655937e-03 2.21409276e-03 2.13753749e-02 2.31581330e-02
      9.51004848e-02 4.84809428e-02 2.76597440e-02 9.50432383e-03
      1.51266590e-01 3.05226259e-02 9.73104220e-03 1.52027421e-02
      6.11334853e-02 4.85967472e-02 7.43287876e-02 3.12910378e-02
      6.51849248e-03 1.34440474e-02 4.38947827e-02 4.99279797e-02
      6.74487324e-03 2.25604558e-03 8.13833997e-03 9.64486215e-04
      3.65110999e-03 2.08912622e-02 2.11188309e-02 9.57385376e-02
      6.19574487e-02 3.64807062e-03 5.04137715e-03 1.04923313e-03
      4.39491216e-03 2.51472164e-02 2.54211463e-02 1.15242340e-01
      7.45793879e-02 4.39125346e-03 6.06840383e-03 1.26298226e-03
      2.28810753e-03 2.67349742e-03 4.07149605e-02 1.84049264e-01
      4.74689491e-02 0. 2.44738883e-03 2.72244179e-05 2.16848194e-03
      2.53372313e-03 3.85863222e-02 1.74426913e-01 4.49872054e-02 0.
      2.31943582e-03 2.58010859e-05 7.41943996e-03 3.19238519e-03
      9.22984816e-03 2.87614197e-01 8.56304169e-02 6.47030910e-03
      9.64050461e-03 3.20137618e-03 6.47868682e-03 2.78760446e-03
      8.05954263e-03 2.51145959e-01 7.47728497e-02 5.64990146e-03
      8.41812976e-03 2.79545551e-03 5.79463085e-03 1.23944820e-03
      2.38189977e-02 1.87649801e-01 8.91160741e-02 9.23570618e-03
      7.84534495e-03 5.21321688e-03 5.68775507e-03 1.21658784e-03
      2.33796798e-02 1.84188798e-01 8.74724165e-02 9.06536262e-03
      7.70064583e-03 5.11706434e-03 1.64893251e-02 1.34001411e-02
      2.48888060e-02 7.08091483e-02 9.55169499e-02 1.31598180e-02
      2.86012869e-02 8.60855449e-03 1.39338905e-02 1.13234539e-02
      2.10316628e-02 5.98355010e-02 8.07142034e-02 1.11203743e-02
      2.41688006e-02 7.27444375e-03 1.77938621e-02 1.57863321e-03
      1.75056439e-02 3.70668136e-02 4.71134745e-02 3.69977541e-02
      4.11320850e-02 6.09268714e-03 1.16277430e-02 1.03158841e-03
      1.14394017e-02 2.42220256e-02 3.07872109e-02 2.41768993e-02
      2.68785562e-02 3.98138445e-03 1.39827291e-02 0. 4.14339080e-03
      4.64157993e-03 6.74761161e-02 7.39248544e-02 2.93542966e-02
      1.36995129e-02 7.48228841e-03 1.54318260e-02 5.03848754e-02
      5.73101155e-02 7.74214137e-03 2.58961483e-03 9.34163947e-03
      1.10709097e-03 4.19094739e-03 2.39801537e-02 2.42413692e-02
      1.09894022e-01 7.11182058e-02 4.18745866e-03 5.78677328e-03
      1.20436819e-03 4.23080474e-03 2.42082123e-02 2.44719125e-02
      1.10939153e-01 7.17945695e-02 4.22728295e-03 5.84180793e-03
      1.21582218e-03 2.20266893e-03 2.57366826e-03 3.91946509e-02
      1.77176818e-01 4.56964485e-02 0. 2.35600281e-03 2.62078520e-05
      2.05818354e-03 2.40484695e-03 3.66236567e-02 1.65554792e-01
      4.26989608e-02 0. 2.20145937e-03 2.44887324e-05 7.04205502e-03
      3.03000654e-03 8.76037776e-03 2.72984892e-01 8.12748820e-02
      6.14120113e-03 9.15014651e-03 3.03854025e-03 6.43232325e-03
      2.76765553e-03 8.00186582e-03 2.49348670e-01 7.42377490e-02
      5.60946902e-03 8.35788716e-03 2.77545024e-03 5.75316278e-03
      1.23057829e-03 2.36485414e-02 1.86306924e-01 8.84783342e-02
      9.16961301e-03 7.78920157e-03 5.17590949e-03 5.87187614e-03
      1.25597056e-03 2.41365172e-02 1.90151274e-01 9.03040394e-02
      9.35882237e-03 7.94992782e-03 5.28271170e-03 1.70231089e-02
      1.38339242e-02 2.56944951e-02 7.31013492e-02 9.86089781e-02
      1.35858217e-02 2.95271538e-02 8.88722669e-03 1.70166828e-02
      1.38287023e-02 2.56847963e-02 7.30737597e-02 9.85717550e-02
      1.35806929e-02 2.95160078e-02 8.88387207e-03 2.17306502e-02
      1.92789664e-03 2.13786680e-02 4.52676304e-02 5.75370565e-02
      4.51832935e-02 5.02323173e-02 7.44065922e-03 1.70664750e-02
      1.51410105e-03 1.67900398e-02 3.55515778e-02 4.51875478e-02
      3.54853421e-02 3.94506678e-02 5.84362773e-03 2.05229763e-02 0.
      6.08141068e-03 6.81262137e-03 9.90372300e-02 1.08502291e-01
      4.30844054e-02 2.01072898e-02 5.71765983e-03 2.51059178e-02
      2.70780295e-01 5.83355054e-02 1.24133658e-03 1.40358973e-03
      8.42650246e-04 1.56279991e-03 7.67678302e-03 6.20984333e-03
      1.39559871e-02 1.02193229e-01 9.53996927e-02 8.40279087e-03
      2.62162485e-03 2.55735079e-03 7.74979219e-03 6.26890128e-03
      1.40887136e-02 1.03165120e-01 9.63069797e-02 8.48270487e-03
      2.64655752e-03 2.58167204e-03 1.20640397e-02 1.09750330e-02
      1.15994932e-02 1.60640284e-01 3.25572677e-02 0. 1.23404050e-02
      2.37697898e-03 1.12726921e-02 1.02551188e-02 1.08386176e-02
      1.50102988e-01 3.04216519e-02 0. 1.15309292e-02 2.22105975e-03
      1.80776361e-02 5.34185162e-03 1.82774421e-02 6.90317303e-02
      1.20734060e-02 5.95619029e-04 1.90759625e-03 5.06303599e-03
      1.65123958e-02 4.87933075e-03 1.66949034e-02 6.30546585e-02
      1.10280383e-02 5.44047740e-04 1.74242829e-03 4.62465640e-03
      4.84169414e-03 5.52141573e-05 4.83909808e-03 5.62750772e-02
      1.17026433e-01 7.74251623e-03 3.89274023e-03 1.16338290e-03
      4.94159991e-03 5.63534741e-05 4.93895030e-03 5.74362837e-02
      1.19441219e-01 7.90227856e-03 3.97306494e-03 1.18738867e-03
      3.66595574e-03 1.03401195e-03 1.13703019e-03 2.90887486e-02
      1.40207559e-01 5.94863808e-03 3.41032632e-03 1.05745718e-03
      3.66457202e-03 1.03362161e-03 1.13660097e-03 2.90777683e-02
      1.40154630e-01 5.94639266e-03 3.40903900e-03 1.05705799e-03
      3.52012779e-04 3.83770489e-03 8.17328168e-04 1.80387776e-02
      2.43425980e-01 8.07450991e-03 6.85666408e-03 2.26277602e-03
      2.76458246e-04 3.01399617e-03 6.41900289e-04 1.41670108e-02
      1.91178054e-01 6.34143129e-03 5.38497884e-03 1.77710340e-03
      4.89577244e-04 7.65850476e-04 9.55734577e-04 1.71498749e-02
      2.05453649e-01 3.85773592e-02 1.27892662e-02 0. 7.47971516e-03
      3.28430049e-02 3.54228765e-01 7.63132125e-02 1.62388885e-03
      1.83614483e-03 1.10233633e-03 2.04442022e-03 1.00425966e-02
      8.12357944e-03 1.82569120e-02 1.33686900e-01 1.24799758e-01
      1.09923445e-02 3.42955138e-03 3.34546925e-03 1.20157721e-02
      9.71970428e-03 2.18440406e-02 1.59953788e-01 1.49320483e-01
      1.31521272e-02 4.10339143e-03 4.00278904e-03 1.87048577e-02
      1.70163922e-02 1.79845951e-02 2.49066949e-01 5.04788607e-02 0.
      1.91333517e-02 3.68542015e-03 2.14512851e-02 1.95149016e-02
      2.06252653e-02 2.85637349e-01 5.78906536e-02 0. 2.19426937e-02
      4.22654860e-03 3.44007015e-02 1.01652360e-02 3.47809233e-02
      1.31363407e-01 2.29749959e-02 1.13342865e-03 3.63004580e-03
      9.63466614e-03 3.65273468e-02 1.07936496e-02 3.69310752e-02
      1.39484271e-01 2.43953075e-02 1.20349717e-03 3.85445473e-03
      1.02302795e-02 1.07103921e-02 1.22140162e-04 1.07046496e-02
      1.24487042e-01 2.58876145e-01 1.71273500e-02 8.61119572e-03
      2.57353880e-03 9.63513087e-03 1.09877990e-04 9.62996390e-03
      1.11989260e-01 2.32886463e-01 1.54078621e-02 7.74668111e-03
      2.31517013e-03 7.14787981e-03 2.01611617e-03 2.21698126e-03
      5.67172356e-02 2.73376644e-01 1.15986532e-02 6.64945366e-03
      2.06182967e-03 6.29062951e-03 1.77432201e-03 1.95109716e-03
      4.99151014e-02 2.40590408e-01 1.02076186e-02 5.85198030e-03
      1.81455316e-03 6.04267581e-04 6.58783084e-03 1.40303117e-03
      3.09654921e-02 4.17866737e-01 1.38607593e-02 1.17701972e-02
      3.88429710e-03 4.81724477e-04 5.25184441e-03 1.11850188e-03
      2.46858113e-02 3.33124995e-01 1.10498518e-02 9.38324723e-03
      3.09657678e-03 8.53081234e-04 1.33448339e-03 1.66535366e-03
      2.98834089e-02 3.57999980e-01 6.72204867e-02 2.22851112e-02 0.
      2.61696819e-02 4.70318308e-04 0. 0. 1.96028464e-02 4.29532938e-02
      2.95667518e-02 1.11953476e-02 1.66978072e-02 1.95580721e-03 0.
      8.11759476e-03 9.15857218e-03 1.19720418e-02 2.56986283e-02
      6.29270589e-03 1.99786015e-02 2.34008534e-03 0. 9.71254427e-03
      1.09580541e-02 1.43243158e-02 3.07479091e-02 7.52910040e-03
      6.39969409e-02 3.83534953e-02 3.72338085e-03 0. 2.62592663e-03
      1.26663223e-02 1.59793831e-02 1.68814212e-02 7.33935907e-02
      4.39849235e-02 4.27008327e-03 0. 3.01149045e-03 1.45261129e-02
      1.83256287e-02 1.93601139e-02 4.16679028e-03 1.58811882e-02
      3.54238041e-02 1.94082446e-02 1.72162596e-02 2.44735256e-02
      2.28381306e-02 4.34804382e-03 4.42438060e-03 1.68629605e-02
      3.76136974e-02 2.06080601e-02 1.82805657e-02 2.59864759e-02
      2.42499821e-02 4.61683935e-03 3.23491334e-03 9.29475762e-03
      1.63950399e-02 3.13947834e-02 5.51859625e-02 2.04203669e-02
      1.47988666e-02 0. 2.91014649e-03 8.36161710e-03 1.47490725e-02
      2.82429270e-02 4.96456064e-02 1.83702782e-02 1.33131454e-02 0.
      6.02341071e-03 1.09006157e-02 1.22428108e-02 1.89022142e-02
      4.21178117e-02 8.12746584e-03 1.01332245e-02 4.45434498e-03
      5.30101871e-03 9.59329680e-03 1.07745221e-02 1.66352578e-02
      3.70665938e-02 7.15273339e-03 8.91793985e-03 3.92013229e-03
      1.77737381e-02 3.21786525e-03 3.60495737e-03 2.88289343e-03
      7.86641333e-03 1.84526127e-02 2.89318170e-02 1.25695849e-02
      1.41692925e-02 2.56529474e-03 2.87388614e-03 2.29825382e-03
      6.27113506e-03 1.47104952e-02 2.30645575e-02 1.00205215e-02
      9.41366795e-03 2.23173760e-03 2.05665315e-03 1.24743050e-02
      4.35381569e-03 1.34044923e-02 6.75481884e-03 3.90254892e-03
      5.37732653e-02 9.66406544e-04 0. 0. 4.02797796e-02 8.82600993e-02
      6.07535392e-02 2.30041165e-02 3.43105271e-02 4.01877798e-03 0.
      1.66799724e-02 1.88189652e-02 2.46000625e-02 5.28053455e-02
      1.29302051e-02 3.09580453e-02 3.62610305e-03 0. 1.50501719e-02
      1.69801638e-02 2.21963897e-02 4.76457365e-02 1.16667943e-02
      9.91671160e-02 5.94310462e-02 5.76960249e-03 0. 4.06903122e-03
      1.96272284e-02 2.47610155e-02 2.61587780e-02 9.65179726e-02
      5.78434132e-02 5.61547419e-03 0. 3.96033144e-03 1.91029087e-02
      2.40995511e-02 2.54599769e-02 5.47963567e-03 2.08849311e-02
      4.65849116e-02 2.55232714e-02 2.26406492e-02 3.21844891e-02
      3.00338250e-02 5.71799790e-03 6.81515783e-03 2.59751026e-02
      5.79387955e-02 3.17439176e-02 2.81587299e-02 4.00286391e-02
      3.73538062e-02 7.11161410e-03 4.98294458e-03 1.43173113e-02
      2.52543353e-02 4.83594015e-02 8.50064829e-02 3.14548016e-02
      2.27956455e-02 0. 5.32652484e-03 1.53045086e-02 2.69956533e-02
      5.16938418e-02 9.08677876e-02 3.36236507e-02 2.43674349e-02 0.
      1.10248215e-02 1.99517105e-02 2.24083699e-02 3.45972665e-02
      7.70894513e-02 1.48759354e-02 1.85471326e-02 8.15291610e-03
      1.12149371e-02 2.02957634e-02 2.27947868e-02 3.51938717e-02
      7.84188062e-02 1.51324607e-02 1.88669655e-02 8.29350762e-03
      3.76024619e-02 6.80777803e-03 7.62671744e-03 6.09910488e-03
      1.66423358e-02 3.90387028e-02 6.12087101e-02 2.65924558e-02
      4.31852899e-02 7.81852659e-03 8.75905436e-03 7.00463774e-03
      1.91132184e-02 4.48347703e-02 7.02963546e-02 3.05406302e-02
      2.86910571e-02 6.80190837e-03 6.26828475e-03 3.80192921e-02
      1.32695958e-02 4.08543237e-02 2.05873940e-02 1.18942214e-02
      1.99568659e-01 1.45860817e-02 8.46996810e-03 0. 3.30039556e-03
      2.18734518e-03 1.93690471e-02 4.01537716e-02 1.13157645e-01
      1.95926465e-02 2.59117261e-02 5.07920329e-03 2.45012473e-02
      3.01069282e-02 3.00417021e-02 3.27726267e-02 1.02101013e-01
      1.76782478e-02 2.33798902e-02 4.58291406e-03 2.21072305e-02
      2.71651801e-02 2.71063261e-02 2.95704119e-02 1.35508910e-01
      7.12257400e-02 4.10403609e-02 6.38943259e-03 1.03850029e-02
      2.16759928e-02 3.29637751e-02 4.00123335e-02 1.31888941e-01
      6.93230256e-02 3.99440154e-02 6.21874630e-03 1.01075787e-02
      2.10969429e-02 3.20831835e-02 3.89434509e-02 1.89261660e-02
      1.08546298e-02 3.93303111e-02 5.64567000e-02 4.80393544e-02
      4.51260284e-02 0. 1.00116245e-02 2.35389359e-02 1.35001699e-02
      4.89160754e-02 7.02165812e-02 5.97477220e-02 5.61243519e-02 0.
      1.24517027e-02 3.35482694e-02 1.17247757e-02 3.81611027e-02
      3.92183736e-02 6.67140782e-02 3.57949026e-02 1.61100887e-02
      6.93608588e-03 3.58614624e-02 1.25332139e-02 4.07923572e-02
      4.19225320e-02 7.13140965e-02 3.82630080e-02 1.72208995e-02
      7.41433771e-03 8.46027955e-03 1.36315692e-02 5.19312769e-02
      6.70494661e-02 8.53629038e-02 3.98431793e-02 1.17541067e-02
      1.81837729e-03 8.60617124e-03 1.38666369e-02 5.28267957e-02
      6.82056844e-02 8.68349299e-02 4.05302495e-02 1.19567988e-02
      1.84973399e-03 3.14797983e-02 1.34274885e-02 4.12951447e-02
      8.92206430e-02 6.00788929e-02 3.78672071e-02 1.96663570e-02
      1.04580829e-02 3.61535959e-02 1.54210646e-02 4.74262275e-02
      1.02467209e-01 6.89987913e-02 4.34893407e-02 2.25862153e-02
      1.20107923e-02 2.38219816e-02 1.63190216e-02 3.61699872e-02
      4.40410748e-02 7.30758011e-02 3.15665454e-02 2.13766973e-02
      7.13707041e-03 1.72338590e-01 1.25958892e-02 7.31428666e-03 0.
      2.85007432e-03 1.88889366e-03 1.67262442e-02 3.46750058e-02
      9.77178961e-02 1.69193354e-02 2.23762114e-02 4.38617310e-03
      2.11581849e-02 2.59990003e-02 2.59426739e-02 2.83009782e-02
      8.27974901e-02 1.43359462e-02 1.89596191e-02 3.71645484e-03
      1.79275721e-02 2.20292509e-02 2.19815243e-02 2.39797421e-02
      1.09889194e-01 5.77595904e-02 3.32811475e-02 5.18142758e-03
      8.42158310e-03 1.75778642e-02 2.67315451e-02 3.24474834e-02
      1.11695357e-01 5.87089434e-02 3.38281654e-02 5.26659098e-03
      8.56000278e-03 1.78667791e-02 2.71709114e-02 3.29807997e-02
      1.60283707e-02 9.19267256e-03 3.33084278e-02 4.78125848e-02
      4.06840257e-02 3.82167622e-02 0. 8.47873930e-03 2.05959827e-02
      1.18123116e-02 4.28003445e-02 6.14377595e-02 5.22777699e-02
      4.91074100e-02 0. 1.08949300e-02 2.93538980e-02 1.02588870e-02
      3.33900154e-02 3.43150981e-02 5.83731569e-02 3.13196480e-02
      1.40959257e-02 6.06890209e-03 2.45555211e-02 8.58190376e-03
      2.79318690e-02 2.87057348e-02 4.88311052e-02 2.61999387e-02
      1.17917154e-02 5.07684052e-03 5.79303131e-03 9.33398306e-03
      3.55590507e-02 4.59109731e-02 5.84507845e-02 2.72819344e-02
      8.04842357e-03 1.24510273e-03 5.81666874e-03 9.37206950e-03
      3.57041433e-02 4.60983030e-02 5.86892813e-02 2.73932535e-02
      8.08126293e-03 1.25018309e-03 2.12763082e-02 9.07526072e-03
      2.79102251e-02 6.03017174e-02 4.06056345e-02 2.55933776e-02
      1.32919364e-02 7.06832344e-03 2.91926991e-02 1.24519421e-02
      3.82949337e-02 8.27385038e-02 5.57139888e-02 3.51160467e-02
      1.82375386e-02 9.69827268e-03 1.92353744e-02 1.31770112e-02
      2.92059369e-02 3.55615504e-02 5.90060242e-02 2.54888255e-02
      1.72608960e-02 5.76292165e-03 1.39590234e-01 2.59163696e-02
      1.67636201e-03 0. 1.81153289e-03 2.01883968e-02 6.59891516e-02
      3.96936238e-02 2.50866115e-02 2.28897482e-02 6.15806915e-02
      1.87618136e-02 3.95593233e-02 2.20126901e-02 7.75148021e-03
      1.63026433e-02 2.12561730e-02 1.93947461e-02 5.21780252e-02
      1.58970989e-02 3.35190669e-02 1.86516047e-02 6.56791776e-03
      1.38134155e-02 9.82221738e-02 3.94348800e-02 1.60005577e-02
      4.20629932e-03 9.32649337e-03 1.89704038e-02 1.03842072e-01
      3.17015760e-02 9.98365805e-02 4.00830396e-02 1.62635483e-02
      4.27543512e-03 9.47978627e-03 1.92822050e-02 1.05548844e-01
      3.22226323e-02 2.60775145e-02 1.83142722e-02 1.74065642e-02
      2.96097435e-02 4.39723618e-02 2.70141102e-02 1.47145214e-02
      6.09970232e-03 3.35088372e-02 2.35332977e-02 2.23669205e-02
      3.80476452e-02 5.65031879e-02 3.47123332e-02 1.89077258e-02
      7.83793721e-03 3.31700593e-02 3.19072902e-02 1.76336765e-02
      4.41884659e-02 8.07151049e-02 4.49937917e-02 3.25344950e-02
      1.33371307e-02 2.77478676e-02 2.66915206e-02 1.47511624e-02
      3.69651392e-02 6.75209016e-02 3.76388207e-02 2.72161979e-02
      1.11569576e-02 5.05932644e-02 2.91784164e-02 5.61763644e-02
      9.02726576e-02 8.87327790e-02 2.01035962e-02 2.48896908e-02
      1.70666985e-02 5.07997014e-02 2.92974729e-02 5.64055853e-02
      9.06409994e-02 8.90948400e-02 2.01856252e-02 2.49912478e-02
      1.71363354e-02 2.34802868e-02 1.39317112e-02 3.65152694e-02
      4.30640355e-02 7.30103776e-02 1.21584535e-02 1.23982560e-02
      9.36178956e-03 3.22167240e-02 1.91153586e-02 5.01017012e-02
      5.90871051e-02 1.00175738e-01 1.66823156e-02 1.70113407e-02
      1.28450813e-02 1.79909244e-02 1.32849263e-02 2.98136715e-02
      5.47881722e-02 5.32023907e-02 1.03593245e-02 1.87055115e-02
      8.47717095e-03</_>
    <_>
      1.38847187e-01 1.92483084e-03 5.38933557e-04 7.85029697e-05
      2.85754591e-04 0. 5.89243718e-04 2.00324086e-03 3.41952413e-01 0.
      0. 6.25647081e-04 0. 0. 3.57617711e-04 1.01477292e-03
      2.54947990e-01 0. 0. 4.66461031e-04 0. 0. 2.66627496e-04
      7.56579917e-04 1.50927484e-01 2.89729815e-02 8.57364386e-03
      5.46833221e-03 3.05118877e-03 1.43706938e-03 5.43087628e-03
      7.59106781e-03 1.53886259e-01 2.95409653e-02 8.74172151e-03
      5.57553302e-03 3.11100390e-03 1.46524154e-03 5.53734228e-03
      7.73988245e-03 1.21024825e-01 1.70661479e-01 6.20120205e-03
      1.58503279e-03 8.69790601e-05 1.50207733e-03 1.70306172e-04
      1.32796937e-03 1.15347356e-01 1.62655473e-01 5.91029366e-03
      1.51067635e-03 8.28987322e-05 1.43161241e-03 1.62316835e-04
      1.26567227e-03 9.81603041e-02 1.94111511e-01 1.01960707e-03
      1.45099626e-03 0. 4.42748656e-04 1.24843139e-03 0. 9.37342346e-02
      1.85358971e-01 9.73632734e-04 1.38557050e-03 0. 4.22785030e-04
      1.19213935e-03 0. 2.30217859e-01 3.56002338e-02 2.30204370e-02 0.
      1.20130752e-03 0. 5.76347858e-03 3.19467462e-03 2.70627975e-01
      4.18491401e-02 2.70612109e-02 0. 1.41217292e-03 0. 6.77514123e-03
      3.75543535e-03 9.80924815e-02 1.84839860e-01 7.29582384e-02
      7.54602021e-04 1.24364137e-03 1.79737515e-03 3.29202018e-03 0.
      1.65280953e-01 3.11445981e-01 1.22931011e-01 1.27146696e-03
      2.09547393e-03 3.02848802e-03 5.54689066e-03 0. 3.09717562e-02
      8.39804113e-02 3.24565824e-03 9.94240632e-04 1.24283996e-03
      2.30726204e-03 2.32460559e-03 2.73715146e-03 1.52508944e-01
      4.47465852e-03 0. 0. 0. 0. 8.32643564e-05 1.36357921e-04
      2.18848318e-01 2.66054347e-02 2.48108450e-02 1.02316458e-02
      2.82920990e-02 0. 2.13530399e-02 2.44371481e-02 1.63165808e-01
      1.98361017e-02 1.84981152e-02 7.62836449e-03 2.10936200e-02 0.
      1.59200951e-02 1.82195008e-02 6.20192476e-02 8.22392702e-02
      1.48851229e-02 7.03366427e-03 3.21278051e-02 2.65266653e-02
      2.74372585e-02 1.54790804e-02 6.32350668e-02 8.38514790e-02
      1.51769295e-02 7.17155170e-03 3.27576362e-02 2.70466916e-02
      2.79751346e-02 1.57825314e-02 1.15877464e-01 6.35936856e-02
      9.80050303e-03 5.50436834e-03 4.03517537e-04 2.53807986e-04
      1.08501362e-02 2.56164535e-03 1.10441461e-01 6.06104024e-02
      9.34074540e-03 5.24614938e-03 3.84587882e-04 2.41901434e-04
      1.03411386e-02 2.44147447e-03 3.22476290e-02 1.22893877e-01
      2.51224060e-02 8.86255875e-03 6.89112209e-03 9.35440790e-03
      8.49356130e-03 2.28666444e-03 3.07935756e-02 1.17352560e-01
      2.39896309e-02 8.46294407e-03 6.58039981e-03 8.93261563e-03
      8.11058469e-03 2.18355819e-03 6.10443577e-02 7.89039955e-02
      3.91634963e-02 1.38863956e-03 1.42143304e-02 9.32176830e-04
      1.26323905e-02 3.24935443e-03 7.17594698e-02 9.27540064e-02
      4.60378602e-02 1.63238728e-03 1.67093705e-02 1.09580171e-03
      1.48497513e-02 3.81971314e-03 7.57209258e-03 1.25328917e-02
      4.01236443e-03 5.35932742e-03 8.74111603e-04 2.85962131e-03
      2.61501502e-03 1.05694146e-03 1.27585996e-02 2.11172998e-02
      6.76063495e-03 9.03020054e-03 1.47283461e-03 4.81831981e-03
      4.40617045e-03 1.78089389e-03 1.36650175e-01 3.93448845e-02
      1.01896375e-02 4.20008041e-03 1.25669176e-03 2.20579072e-03
      1.95365865e-03 2.64988444e-03 1.43317983e-01 4.20499267e-03 0. 0.
      0. 0. 7.82464194e-05 1.28140295e-04 2.05659404e-01 2.50020567e-02
      2.33156160e-02 9.61503480e-03 2.65870728e-02 0. 2.00661961e-02
      2.29644403e-02 1.45858288e-01 1.77320223e-02 1.65359620e-02
      6.81919977e-03 1.88561529e-02 0. 1.42313996e-02 1.62869003e-02
      5.54406680e-02 7.35158920e-02 1.33062107e-02 6.28758129e-03
      2.87199076e-02 2.37128977e-02 2.45268997e-02 1.38371652e-02
      6.65665641e-02 8.82691368e-02 1.59765165e-02 7.54937995e-03
      3.44834477e-02 2.84716282e-02 2.94489861e-02 1.66140217e-02
      1.21982388e-01 6.69440776e-02 1.03168357e-02 5.79436217e-03
      4.24776576e-04 2.67179683e-04 1.14217680e-02 2.69660400e-03
      1.53235763e-01 8.40959698e-02 1.29601350e-02 7.27894856e-03
      5.33609535e-04 3.35634366e-04 1.43481642e-02 3.38750682e-03
      4.47430685e-02 1.70513287e-01 3.48569378e-02 1.22966589e-02
      9.56132170e-03 1.29790921e-02 1.17846802e-02 3.17271054e-03
      4.04840894e-02 1.54282555e-01 3.15389931e-02 1.11261709e-02
      8.65120348e-03 1.17436443e-02 1.06629264e-02 2.87070801e-03
      8.02545771e-02 1.03734508e-01 5.14879636e-02 1.82563439e-03
      1.86874773e-02 1.22552610e-03 1.66077111e-02 4.27190261e-03
      8.15250129e-02 1.05376638e-01 5.23030236e-02 1.85453449e-03
      1.89833026e-02 1.24492636e-03 1.68706141e-02 4.33952734e-03
      8.60255770e-03 1.42384581e-02 4.55839606e-03 6.08866382e-03
      9.93067049e-04 3.24877934e-03 2.97088525e-03 1.20077771e-03
      8.95776320e-03 1.48263741e-02 4.74661542e-03 6.34006876e-03
      1.03407144e-03 3.38292355e-03 3.09355534e-03 1.25035865e-03
      9.59415585e-02 2.76238900e-02 7.15410523e-03 2.94886017e-03
      8.82318418e-04 1.54867710e-03 1.37165620e-03 1.86047354e-03
      1.32005930e-01 9.86821717e-04 7.30635438e-05 0. 4.13627888e-04 0.
      5.60512301e-04 3.11092427e-03 1.87910751e-01 1.79095846e-02
      1.40156671e-02 1.97117776e-02 2.32266337e-02 1.41925663e-02
      4.91532125e-02 5.57896867e-02 1.33270547e-01 1.27018820e-02
      9.94022749e-03 1.39800385e-02 1.64728537e-02 1.00656888e-02
      3.48605663e-02 3.95673066e-02 8.30519758e-03 7.12510385e-03
      6.59875199e-03 3.06099746e-02 1.67935878e-01 7.13586295e-03
      1.97896399e-02 5.97338006e-03 9.97189339e-03 8.55497736e-03
      7.92299677e-03 3.67528163e-02 2.01637432e-01 8.56789574e-03
      2.37610452e-02 7.17212493e-03 4.85539017e-03 1.49938436e-02
      2.25135367e-02 1.12241849e-01 2.71364730e-02 2.83321436e-03
      3.13634891e-03 7.20542506e-04 6.09940058e-03 1.88354496e-02
      2.82817800e-02 1.40999585e-01 3.40891704e-02 3.55911860e-03
      3.93991964e-03 9.05154331e-04 1.41678471e-02 6.57426985e-03
      1.94998272e-02 4.97789495e-02 1.77017339e-02 3.94345634e-02
      3.43580097e-02 5.69163682e-03 1.28192455e-02 5.94848162e-03
      1.76436864e-02 4.50406186e-02 1.60167497e-02 3.56808864e-02
      3.10875569e-02 5.14986413e-03 1.78832076e-02 8.61357152e-03
      1.99813489e-02 5.93960471e-02 8.65870640e-02 5.29398210e-02
      1.76794603e-02 1.80767179e-02 1.81662999e-02 8.74992553e-03
      2.02976558e-02 6.03362955e-02 8.79577547e-02 5.37778661e-02
      1.79593284e-02 1.83628760e-02 8.39763694e-03 0. 1.23592245e-03
      6.39583319e-02 2.69897223e-01 3.15613039e-02 1.36890113e-02
      1.25345541e-03 8.74438137e-03 0. 1.28695450e-03 6.65992126e-02
      2.81041473e-01 3.28644924e-02 1.42542394e-02 1.30521145e-03
      1.20953582e-01 1.01319388e-01 4.70511839e-02 1.82266887e-02
      5.30238338e-02 4.73933034e-02 1.74819697e-02 5.49088884e-03
      1.46962851e-01 1.09863351e-03 8.13420047e-05 0. 4.60493931e-04 0.
      6.24021108e-04 3.46340728e-03 2.09201947e-01 1.99388284e-02
      1.56037109e-02 2.19452195e-02 2.58583259e-02 1.58006530e-02
      5.47225103e-02 6.21109307e-02 1.68688640e-01 1.60775464e-02
      1.25819510e-02 1.76953860e-02 2.08506938e-02 1.27407555e-02
      4.41251434e-02 5.00827469e-02 1.05123948e-02 9.01867822e-03
      8.35244264e-03 3.87449078e-02 2.12566674e-01 9.03229695e-03
      2.50489525e-02 7.56087108e-03 1.42323440e-02 1.22100571e-02
      1.13080647e-02 5.24553061e-02 2.87786186e-01 1.22284945e-02
      3.39128561e-02 1.02363853e-02 6.92983577e-03 2.13999022e-02
      3.21323536e-02 1.60196722e-01 3.87304202e-02 4.04369365e-03
      4.47634095e-03 1.02839142e-03 8.13678373e-03 2.51270570e-02
      3.77287455e-02 1.88097700e-01 4.54759784e-02 4.74797143e-03
      5.25597157e-03 1.20750314e-03 1.89003348e-02 8.77027400e-03
      2.60133557e-02 6.64066151e-02 2.36146469e-02 5.26068956e-02
      4.58346196e-02 7.59281497e-03 1.72580592e-02 8.00821278e-03
      2.37530190e-02 6.06364571e-02 2.15627383e-02 4.80358116e-02
      4.18519862e-02 6.93306467e-03 2.40754765e-02 1.15961209e-02
      2.69001238e-02 7.99626261e-02 1.16568848e-01 7.12708533e-02
      2.38011796e-02 2.43359935e-02 1.91147104e-02 9.20673367e-03
      2.13573370e-02 6.34862781e-02 9.25497711e-02 5.65854497e-02
      1.88969318e-02 1.93215478e-02 8.83605331e-03 0. 1.30044634e-03
      6.72974065e-02 2.83987761e-01 3.32090296e-02 1.44036738e-02
      1.31889456e-03 6.56696735e-03 0. 9.66493506e-04 5.00155278e-02
      2.11060122e-01 2.46809982e-02 1.07048312e-02 9.80204321e-04
      9.08352658e-02 7.60901347e-02 3.53350975e-02 1.36881117e-02
      3.98205183e-02 3.55920307e-02 1.31288329e-02 4.12361789e-03
      1.37178451e-01 3.60171450e-03 0. 1.47337923e-04 2.33014711e-04
      1.08543099e-04 1.68376122e-04 3.91807314e-03 2.01373115e-01
      5.29884768e-04 7.38871656e-03 3.14088946e-04 1.43087730e-02
      2.04419047e-02 1.07880654e-02 2.16271933e-02 1.62375912e-01
      4.27269173e-04 5.95784374e-03 2.53263599e-04 1.15377866e-02
      1.64831970e-02 8.69888626e-03 1.74389482e-02 2.64365226e-03 0. 0.
      1.10902600e-02 6.80708438e-02 2.20724475e-02 7.33003207e-03
      1.93955214e-03 3.57914367e-03 0. 0. 1.50146950e-02 9.21586156e-02
      2.98830755e-02 9.92386043e-03 2.62588845e-03 1.82884522e-02
      1.14980098e-02 3.16197015e-02 5.90615608e-02 1.98650286e-02
      1.07225415e-03 1.62674885e-04 1.93958974e-03 2.14736965e-02
      1.35005834e-02 3.71268094e-02 6.93481341e-02 2.33248603e-02
      1.25900540e-03 1.91007479e-04 2.27740221e-03 7.96297863e-02
      1.52260810e-02 4.32747714e-02 4.61362712e-02 2.48716176e-02
      2.32643746e-02 1.63505040e-02 1.72279663e-02 7.27106482e-02
      1.39030665e-02 3.95145677e-02 4.21274267e-02 2.27104891e-02
      2.12429017e-02 1.49297873e-02 1.57310050e-02 2.49919519e-02
      1.08160432e-02 1.52125079e-02 1.65606700e-02 1.62666310e-02
      1.26256514e-02 3.98773998e-02 1.42286029e-02 1.98423453e-02
      8.58739112e-03 1.20779611e-02 1.31483339e-02 1.29148830e-02
      1.00241285e-02 3.16606350e-02 1.12967910e-02 3.69256698e-02
      3.67892161e-02 2.89095677e-02 1.20693473e-02 2.21934495e-03
      1.56356879e-02 1.59726758e-02 2.10538562e-02 2.74432097e-02
      2.73417979e-02 2.14856323e-02 8.96995608e-03 1.64942024e-03
      1.16204657e-02 1.18709151e-02 1.56472549e-02 7.13587031e-02
      2.44911388e-02 8.38225111e-02 2.03206465e-02 1.62697434e-02
      3.96579551e-03 1.71283297e-02 2.30255984e-02 1.89367920e-01
      4.97198477e-03 0. 2.03392556e-04 3.21665022e-04 1.49838263e-04
      2.32434715e-04 5.40870195e-03 2.77985394e-01 7.31479144e-04
      1.01997498e-02 4.33583918e-04 1.97525378e-02 2.82190163e-02
      1.48923788e-02 2.98552476e-02 3.17522317e-01 8.35514918e-04
      1.16504254e-02 4.95251035e-04 2.25618724e-02 3.22325081e-02
      1.70104709e-02 3.41014564e-02 5.16960071e-03 0. 0. 2.16867439e-02
      1.33110955e-01 4.31621596e-02 1.43337063e-02 3.79274902e-03
      8.75169691e-03 0. 0. 3.67138274e-02 2.25345597e-01 7.30698854e-02
      2.42657531e-02 6.42080372e-03 4.47187945e-02 2.81148534e-02
      7.73162693e-02 1.44416913e-01 4.85738255e-02 2.62186816e-03
      3.97771480e-04 4.74267127e-03 2.69473922e-02 1.69419125e-02
      4.65905182e-02 8.70251283e-02 2.92704199e-02 1.57992879e-03
      2.39695728e-04 2.85791722e-03 9.99276042e-02 1.91072449e-02
      5.43056130e-02 5.78965098e-02 3.12114507e-02 2.91945171e-02
      2.05182862e-02 2.16194149e-02 9.22134444e-02 1.76322125e-02
      5.01133576e-02 5.34270480e-02 2.88020056e-02 2.69407742e-02
      1.89343262e-02 1.99504513e-02 3.16954106e-02 1.37171745e-02
      1.92928798e-02 2.10026521e-02 2.06297450e-02 1.60121638e-02
      5.05735055e-02 1.80450659e-02 3.36079150e-02 1.45448698e-02
      2.04570144e-02 2.22699530e-02 2.18745470e-02 1.69783384e-02
      5.36251143e-02 1.91339068e-02 6.25427440e-02 6.23116307e-02
      4.89654988e-02 2.04424225e-02 3.75900930e-03 2.64829025e-02
      2.70536747e-02 3.56599092e-02 3.55776362e-02 3.54461633e-02
      2.78541762e-02 1.16287358e-02 2.13832408e-03 1.50648812e-02
      1.53895663e-02 2.02852506e-02 9.25101042e-02 3.17505449e-02
      1.08668298e-01 2.63438784e-02 2.10922491e-02 5.14129503e-03
      2.22053286e-02 2.98506021e-02 1.70346737e-01 0. 0. 0. 0. 0.
      1.20254139e-04 6.03247294e-03 2.15333283e-01 8.22559115e-04
      9.05745430e-04 1.25227286e-03 3.54784471e-03 1.20411757e-02
      1.90647179e-03 4.96554887e-03 2.45959386e-01 9.39548831e-04
      1.03456655e-03 1.43037934e-03 4.05244250e-03 1.37537513e-02
      2.17762263e-03 5.67178195e-03 0. 0. 0. 7.80531252e-03
      4.49745767e-02 1.45348571e-02 0. 0. 0. 0. 0. 1.32137341e-02
      7.61381537e-02 2.46062856e-02 0. 0. 1.67966131e-02 1.56530496e-02
      8.03926028e-03 4.61633950e-02 5.25862761e-02 1.42826056e-02
      5.29920170e-03 1.75088784e-03 1.01215811e-02 9.43247415e-03
      4.84443083e-03 2.78179031e-02 3.16883065e-02 8.60664900e-03
      3.19328066e-03 1.05507893e-03 3.06311935e-01 5.73315751e-03
      7.44412537e-04 6.64660067e-04 8.39690678e-03 4.18278528e-03
      3.08127236e-03 2.88916808e-02 2.82665431e-01 5.29057207e-03
      6.86945801e-04 6.13350014e-04 7.74868671e-03 3.85988480e-03
      2.84340582e-03 2.66613159e-02 4.02213000e-02 7.08925584e-03
      5.86706866e-03 4.52303365e-02 6.48917481e-02 7.11403647e-03 0.
      2.34589403e-04 4.26482596e-02 7.51702208e-03 6.22108812e-03
      4.79595400e-02 6.88073263e-02 7.54329795e-03 0. 2.48744531e-04
      9.38263610e-02 1.38853192e-01 3.37004662e-02 4.27392311e-02
      1.21450881e-02 0. 5.20274928e-03 2.87832250e-03 5.33734150e-02
      7.89870694e-02 1.91706140e-02 2.43123453e-02 6.90877112e-03 0.
      2.95959995e-03 1.63734262e-03 1.14706598e-01 3.05231549e-02
      9.42215603e-03 2.92565417e-03 2.11726930e-02 7.03068227e-02
      2.45093666e-02 3.81373689e-02 2.07710221e-01 0. 0. 0. 0. 0.
      1.46630424e-04 7.35562202e-03 2.62564003e-01 1.00297737e-03
      1.10440969e-03 1.52694364e-03 4.32602130e-03 1.46822613e-02
      2.32463307e-03 6.05468173e-03 3.68375510e-01 1.40717044e-03
      1.54947920e-03 2.14229152e-03 6.06937846e-03 2.05991119e-02
      3.26144439e-03 8.49467702e-03 0. 0. 0. 1.16900848e-02
      6.73588142e-02 2.17689816e-02 0. 0. 0. 0. 0. 9.17546730e-03
      5.28694689e-02 1.70863252e-02 0. 0. 1.16633773e-02 1.08693000e-02
      5.58237126e-03 3.20553370e-02 3.65153141e-02 9.91767924e-03
      3.67970532e-03 1.21579657e-03 5.44314599e-03 5.07256063e-03
      2.60521984e-03 1.49598075e-02 1.70412194e-02 4.62845154e-03
      1.71727047e-03 5.67396404e-04 1.64727286e-01 3.08315596e-03
      4.00327408e-04 3.57438432e-04 4.51565674e-03 2.24940269e-03
      1.65703509e-03 1.55372601e-02 1.96526825e-01 3.67833930e-03
      4.77608002e-04 4.26439598e-04 5.38737513e-03 2.68363534e-03
      1.97691494e-03 1.85366273e-02 2.79643834e-02 4.92889760e-03
      4.07915609e-03 3.14469822e-02 4.51168343e-02 4.94612660e-03 0.
      1.63101329e-04 3.74885201e-02 6.60758605e-03 5.46843885e-03
      4.21572253e-02 6.04827702e-02 6.63068285e-03 0. 2.18650544e-04
      8.24749097e-02 1.22054249e-01 2.96232644e-02 3.75684872e-02
      1.06757320e-02 0. 4.57330234e-03 2.53009284e-03 5.13060391e-02
      7.59275705e-02 1.84280556e-02 2.33706255e-02 6.64116535e-03 0.
      2.84496229e-03 1.57392153e-03 1.10263526e-01 2.93408651e-02
      9.05719586e-03 2.81233131e-03 2.03525871e-02 6.75835386e-02
      2.35600155e-02 3.66601497e-02 1.62915841e-01 3.09668537e-02 0. 0.
      0. 0. 4.64734680e-04 1.01054972e-02 2.64839470e-01 2.50293384e-03
      2.21706089e-03 1.88585138e-03 1.00542814e-03 0. 1.14764329e-02
      2.82144826e-03 3.71567994e-01 3.51159903e-03 3.11052124e-03
      2.64583668e-03 1.41060888e-03 0. 1.61013566e-02 3.95847298e-03
      1.91481579e-02 3.99067290e-02 1.21890297e-02 2.37193354e-03
      7.87870400e-03 1.46317622e-03 5.05715085e-04 1.51323422e-03
      1.50292581e-02 3.13225165e-02 9.56708565e-03 1.86171441e-03
      6.18394092e-03 1.14843703e-03 3.96932301e-04 1.18772709e-03
      1.43307550e-02 1.38452239e-02 4.54155579e-02 2.00992301e-01
      4.36139137e-01 1.39039978e-02 1.38470782e-02 4.19810042e-03
      6.68797642e-03 6.46138564e-03 2.11948473e-02 9.38004851e-02
      2.03540444e-01 6.48881448e-03 6.46225084e-03 1.95919862e-03
      2.63710946e-01 2.05026679e-02 1.37803797e-02 4.17468930e-03
      4.09547500e-02 3.08125862e-03 2.19590776e-02 4.06781435e-02
      3.14618617e-01 2.44605746e-02 1.64405927e-02 4.98058647e-03
      4.88607995e-02 3.67607572e-03 2.61981357e-02 4.85307947e-02
      8.57657716e-02 2.71299202e-02 1.00587669e-03 2.23218021e-03
      3.46496515e-03 5.76989027e-03 2.07761978e-03 3.64483148e-02
      1.14975952e-01 3.63698564e-02 1.34845916e-03 2.99241813e-03
      4.64506634e-03 7.73500511e-03 2.78521748e-03 4.88619171e-02
      4.31222059e-02 2.42929116e-01 1.93656161e-02 3.34916264e-03
      6.42168336e-04 2.71242927e-03 1.24844601e-02 7.12714856e-03
      2.68254858e-02 1.51121467e-01 1.20469732e-02 2.08344893e-03
      3.99480428e-04 1.68734940e-03 7.76633993e-03 4.43366030e-03
      2.05260113e-01 8.85216240e-03 1.66617241e-02 1.94836054e-02
      3.04588415e-02 8.98439344e-03 1.27758747e-02 1.14365835e-02
      1.53899655e-01 2.92530674e-02 0. 0. 0. 0. 4.39015072e-04
      9.54623241e-03 2.50182569e-01 2.36441498e-03 2.09436310e-03
      1.78148353e-03 9.49785230e-04 0. 1.08412979e-02 2.66530225e-03
      3.19575131e-01 3.02022696e-03 2.67527136e-03 2.27560918e-03
      1.21322484e-03 0. 1.38483224e-02 3.40457051e-03 1.64687894e-02
      3.43226492e-02 1.04834400e-02 2.04003300e-03 6.77625043e-03
      1.25843659e-03 4.34951246e-04 1.30149000e-03 1.30206821e-02
      2.71364376e-02 8.28849804e-03 1.61290669e-03 5.35749178e-03
      9.94954840e-04 3.43884516e-04 1.02899398e-03 1.24155292e-02
      1.19948871e-02 3.93460207e-02 1.74130797e-01 3.77851576e-01
      1.20458063e-02 1.19964937e-02 3.63704772e-03 5.94614306e-03
      5.74468588e-03 1.88439060e-02 8.33960921e-02 1.80963650e-01
      5.76907257e-03 5.74545516e-03 1.74188346e-03 2.34459996e-01
      1.82285029e-02 1.22518539e-02 3.71163106e-03 3.64120305e-02
      2.73948419e-03 1.95233673e-02 3.61661054e-02 1.95365071e-01
      1.51889985e-02 1.02089243e-02 3.09273694e-03 3.03405225e-02
      2.28269002e-03 1.62679516e-02 3.01356036e-02 5.32569736e-02
      1.68465525e-02 6.24607608e-04 1.38609100e-03 2.15159915e-03
      3.58286197e-03 1.29011541e-03 2.26328876e-02 6.99822679e-02
      2.21371949e-02 8.20764923e-04 1.82139140e-03 2.82730674e-03
      4.70805587e-03 1.69527484e-03 2.97407228e-02 2.62471400e-02
      1.47863358e-01 1.17872451e-02 2.03853054e-03 3.90867819e-04
      1.65097089e-03 7.59890070e-03 4.33807261e-03 2.13099085e-02
      1.20049447e-01 9.56999976e-03 1.65507186e-03 3.17343423e-04
      1.34041416e-03 6.16950588e-03 3.52205732e-03 1.63056672e-01
      7.03207310e-03 1.32359136e-02 1.54775903e-02 2.41962112e-02
      7.13711558e-03 1.01490319e-02 9.08511225e-03 1.66295156e-01 0. 0.
      0. 0. 6.94117392e-04 3.74035048e-03 1.09856948e-02 1.91326112e-01
      7.78672937e-03 9.38336190e-04 6.64839754e-04 9.09656193e-03
      2.86153727e-03 1.12514086e-01 2.90792957e-02 2.44393781e-01
      9.94651578e-03 1.19860028e-03 8.49244709e-04 1.16196536e-02
      3.65523505e-03 1.43721849e-01 3.71449515e-02 2.54682694e-02
      1.57613703e-03 4.82881820e-04 1.72069180e-03 5.48609858e-03
      9.65709239e-03 6.51287362e-02 1.88519787e-02 2.01359205e-02
      1.24613766e-03 3.81779770e-04 1.36042666e-03 4.33746167e-03
      7.63516454e-03 5.14925867e-02 1.49048967e-02 9.30021331e-03
      8.22010357e-03 8.93068593e-03 1.80530325e-02 9.49123725e-02
      3.81617434e-02 1.43337436e-02 5.39161265e-03 4.45413124e-03
      3.93683650e-03 4.27715434e-03 8.64609983e-03 4.54561785e-02
      1.82767231e-02 6.86482899e-03 2.58219335e-03 1.60925880e-01
      3.09765222e-03 9.10026196e-04 4.28593531e-03 8.05096992e-04
      9.63922124e-03 1.77231859e-02 3.64750624e-02 1.34092361e-01
      2.58113560e-03 7.58284295e-04 3.57127888e-03 6.70851441e-04
      8.03193357e-03 1.47679411e-02 3.03930454e-02 2.23261535e-01
      1.89621281e-02 6.14569969e-02 0. 6.11019460e-03 1.36183668e-02
      1.75379273e-02 5.95316999e-02 2.93376595e-01 2.49171648e-02
      8.07575062e-02 0. 8.02909490e-03 1.78951994e-02 2.30456945e-02
      7.82275647e-02 9.49243605e-02 1.65493190e-02 2.07264721e-03
      4.67360020e-04 7.46044272e-04 4.08149511e-03 1.09009659e-02
      8.36085156e-03 7.70685673e-02 1.34363016e-02 1.68277090e-03
      3.79447039e-04 6.05709269e-04 3.31374328e-03 8.85043480e-03
      6.78812899e-03 2.06405535e-01 5.59540354e-02 3.79470885e-02
      7.30589181e-02 3.81331109e-02 3.45275179e-02 2.34428868e-02
      5.10238763e-03 1.32317394e-01 0. 0. 0. 0. 5.52293961e-04
      2.97611463e-03 8.74107610e-03 1.52233988e-01 6.19572913e-03
      7.46613485e-04 5.28998382e-04 7.23793451e-03 2.27686251e-03
      8.95249844e-02 2.31377576e-02 1.59220695e-01 6.48007914e-03
      7.80878996e-04 5.53276506e-04 7.57011632e-03 2.38135806e-03
      9.36336964e-02 2.41996534e-02 1.65923852e-02 1.02684135e-03
      3.14593839e-04 1.12101762e-03 3.57415178e-03 6.29152218e-03
      4.24308777e-02 1.22819208e-02 2.60697063e-02 1.61335769e-03
      4.94285137e-04 1.76132622e-03 5.61565347e-03 9.88514535e-03
      6.66667596e-02 1.92971695e-02 1.20408619e-02 1.06424578e-02
      1.15624387e-02 2.33730190e-02 1.22881770e-01 4.94074970e-02
      1.85577050e-02 6.98044850e-03 6.38702977e-03 5.64525137e-03
      6.13325229e-03 1.23981293e-02 6.51821718e-02 2.62080207e-02
      9.84386448e-03 3.70275252e-03 2.30760664e-01 4.44189785e-03
      1.30493776e-03 6.14584377e-03 1.15447387e-03 1.38222212e-02
      2.54142731e-02 5.23036458e-02 1.12466022e-01 2.16485141e-03
      6.35988603e-04 2.99530500e-03 5.62656904e-04 6.73654769e-03
      1.23861758e-02 2.54912712e-02 1.87254041e-01 1.59039274e-02
      5.15452474e-02 0. 5.12474589e-03 1.14220036e-02 1.47094196e-02
      4.99304608e-02 2.12390348e-01 1.80388130e-02 5.84644973e-02 0.
      5.81267336e-03 1.29552521e-02 1.66839585e-02 5.66329435e-02
      6.87206089e-02 1.19809005e-02 1.50049548e-03 3.38345853e-04
      5.40099689e-04 2.95480341e-03 7.89176766e-03 6.05284842e-03
      7.98815414e-02 1.39267221e-02 1.74419140e-03 3.93296708e-04
      6.27817411e-04 3.43469391e-03 9.17347241e-03 7.03589339e-03
      2.13939250e-01 5.79963364e-02 3.93321402e-02 7.57255405e-02
      3.95249538e-02 3.57877575e-02 2.42985431e-02 5.28862281e-03
      1.44583046e-01 0. 0. 1.16479734e-03 5.80879394e-04 0.
      1.89716055e-03 1.67271979e-02 2.23407775e-01 8.79438594e-02 0.
      8.38358793e-03 3.45985889e-02 3.15486081e-02 2.05542799e-02
      2.14054040e-03 2.33660966e-01 9.19800028e-02 0. 8.76834895e-03
      3.61864753e-02 3.29965167e-02 2.14976091e-02 2.23877956e-03
      3.09587549e-03 2.81933259e-04 3.33520584e-04 3.39019857e-02
      8.68302360e-02 5.11524566e-02 1.67259295e-02 1.89633574e-03
      4.86419350e-03 4.42969322e-04 5.24022558e-04 5.32662906e-02
      1.36426359e-01 8.03699717e-02 2.62795314e-02 2.97949417e-03
      3.88534591e-02 4.10836674e-02 4.86259386e-02 2.51719616e-02
      3.23465765e-02 4.49400209e-02 4.51927595e-02 3.17832008e-02
      2.06096712e-02 2.17926763e-02 2.57934444e-02 1.33523718e-02
      1.71581190e-02 2.38382630e-02 2.39723288e-02 1.68592781e-02
      2.97106802e-01 3.19859269e-03 1.40919993e-02 5.03856363e-03
      6.63907267e-03 4.19223076e-03 6.40654564e-03 2.91016791e-02
      1.44801185e-01 1.55890081e-03 6.86802948e-03 2.45564897e-03
      3.23569053e-03 2.04317085e-03 3.12236347e-03 1.41833099e-02
      2.80218810e-01 6.55620242e-04 0. 0. 0. 2.23621633e-03
      3.70698632e-03 3.55853438e-02 3.17834377e-01 7.43628363e-04 0. 0.
      0. 2.53639813e-03 4.20459872e-03 4.03621942e-02 1.37790918e-01
      8.63503478e-03 1.27064565e-03 3.44036322e-04 1.30451517e-04
      9.92451329e-04 0. 4.19690227e-03 1.60169572e-01 1.00374538e-02
      1.47701160e-03 3.99911340e-04 1.51638174e-04 1.15363568e-03 0.
      4.87852190e-03 1.64338887e-01 1.04432208e-02 1.65470375e-03
      2.87364377e-03 6.76434813e-03 7.15142675e-03 1.57144964e-02
      4.68069687e-03</_>
    <_>
      1.82200433e-03 2.18395004e-03 3.38253495e-03 4.29074047e-03
      1.04925479e-03 1.55536443e-04 6.22145308e-04 3.01546843e-10
      4.52573225e-02 8.84357782e-04 5.36500802e-03 1.26868905e-03
      2.14776117e-03 4.93321419e-02 7.05273092e-01 9.44733769e-02
      1.67401638e-02 3.27113783e-04 1.98445492e-03 4.69273538e-04
      7.94432242e-04 1.82473939e-02 2.60872424e-01 3.49446200e-02
      1.01934886e-03 8.63610941e-04 2.62299925e-02 3.53954613e-01
      4.42810953e-02 1.31420866e-02 6.77037286e-04 8.21914233e-04
      8.15676118e-04 6.91055728e-04 2.09890641e-02 2.83232093e-01
      3.54334377e-02 1.05162095e-02 5.41760703e-04 6.57690282e-04
      1.06500156e-04 0. 1.09516119e-03 5.29652052e-02 2.76416898e-01
      3.59576498e-03 8.29183438e-04 2.69884593e-04 8.17266191e-05 0.
      8.40410183e-04 4.06447016e-02 2.12118164e-01 2.75933603e-03
      6.36302924e-04 2.07105390e-04 3.25087982e-04 1.51298027e-05
      6.38143043e-04 3.66652006e-04 2.04822019e-01 9.55958571e-03
      8.52681987e-04 8.43239977e-05 2.92518322e-04 1.36139897e-05
      5.74209262e-04 3.29918141e-04 1.84301466e-01 8.60183779e-03
      7.67254154e-04 7.58758106e-05 1.07533517e-04 4.53799657e-06
      2.74348276e-04 4.53614339e-05 9.38200578e-03 7.45301601e-03
      1.40950689e-03 5.65463153e-04 1.41129189e-04 5.95575966e-06
      3.60060279e-04 5.95332749e-05 1.23131359e-02 9.78149101e-03
      1.84986577e-03 7.42125441e-04 1.61399556e-04 0. 0. 0.
      2.07444522e-04 1.54605659e-03 4.54308325e-03 7.58415961e-04
      3.07703682e-04 0. 0. 0. 3.95487121e-04 2.94751325e-03
      8.66125897e-03 1.44589855e-03 3.89174768e-03 2.66330526e-03
      3.36235296e-03 7.50591687e-04 0. 4.55986056e-03 3.01706474e-02
      4.70065139e-03 1.59381505e-03 2.14601052e-03 2.93006445e-03
      9.19193844e-04 1.27864338e-03 0. 1.57014892e-05 8.18239423e-05
      1.18602840e-02 4.00110409e-02 1.40772685e-02 3.01140896e-03
      1.75182082e-04 0. 2.67259940e-03 1.71908224e-03 4.38698288e-03
      1.47996247e-02 5.20702032e-03 1.11388555e-03 6.47978450e-05 0.
      9.88563756e-04 6.35868753e-04 3.92305590e-02 7.14536011e-03
      1.81511305e-02 6.97220191e-02 1.58713039e-04 0. 2.30586510e-02
      3.99674550e-02 3.13920304e-02 5.71766915e-03 1.45244123e-02
      5.57910912e-02 1.27001113e-04 0. 1.84513777e-02 3.19816917e-02 0.
      0. 0. 6.60882890e-02 8.77709016e-02 0. 0. 0. 0. 0. 0.
      5.07151596e-02 6.73540682e-02 0. 0. 0. 4.26641293e-02
      6.21196255e-02 7.12720528e-02 1.21822432e-01 6.19660057e-02
      4.11531702e-02 5.78964688e-03 1.19229499e-03 3.83897275e-02
      5.58960326e-02 6.41315058e-02 1.09617382e-01 5.57578020e-02
      3.70301493e-02 5.20959822e-03 1.07284228e-03 6.06086978e-04 0.
      5.20581612e-04 5.18669002e-02 2.48160601e-01 9.73489136e-02
      1.82095207e-02 1.98380928e-03 7.95440923e-04 0. 6.83221966e-04
      6.80711791e-02 3.25691074e-01 1.27762705e-01 2.38985494e-02
      2.60359212e-03 3.33371083e-03 1.98317866e-04 0. 2.87860050e-04
      7.94856697e-02 2.40011722e-01 5.84799945e-02 3.62272710e-02
      6.35562558e-03 3.78087396e-04 0. 5.48797019e-04 1.51537180e-01
      4.57575530e-01 1.11490458e-01 6.90662712e-02 1.12523139e-03 0. 0.
      0. 5.28669225e-05 1.23247519e-01 1.34279290e-02 1.33737305e-03
      8.22190661e-03 1.10704796e-02 1.51151270e-02 4.74178372e-03
      6.59605162e-03 0. 8.09982157e-05 4.22099663e-04 6.11828491e-02
      2.06402257e-01 7.26194605e-02 1.55347520e-02 9.03700013e-04 0.
      1.37869585e-02 8.86811409e-03 9.30660218e-03 3.13961133e-02
      1.10462392e-02 2.36301124e-03 1.37462979e-04 0. 2.09715194e-03
      1.34894019e-03 8.32242146e-02 1.51582584e-02 3.85060385e-02
      1.47909179e-01 3.36695870e-04 0. 4.89169210e-02 8.47874731e-02
      4.74714115e-02 8.64632986e-03 2.19639950e-02 8.43679681e-02
      1.92052627e-04 0. 2.79024001e-02 4.83631045e-02 0. 0. 0.
      9.99395177e-02 1.32728234e-01 0. 0. 0. 0. 0. 0. 4.30301689e-02
      5.71477488e-02 0. 0. 0. 3.61991338e-02 5.27064912e-02
      6.04720302e-02 1.03362389e-01 5.25761470e-02 3.49171311e-02
      4.91232798e-03 1.01162365e-03 2.34215129e-02 3.41020823e-02
      3.91265303e-02 6.68773949e-02 3.40177491e-02 2.25920361e-02
      3.17836786e-03 6.54539384e-04 3.69772722e-04 0. 3.17606027e-04
      3.16439159e-02 1.51402399e-01 5.93924224e-02 1.11096008e-02
      1.21031899e-03 4.34163288e-04 0. 3.72912531e-04 3.71542461e-02
      1.77766949e-01 6.97347522e-02 1.30441776e-02 1.42107869e-03
      1.81958813e-03 1.08244793e-04 0. 1.57118222e-04 4.33844402e-02
      1.31001905e-01 3.19192372e-02 1.97733752e-02 2.75980262e-03
      1.64176847e-04 0. 2.38304070e-04 6.58019707e-02 1.98692977e-01
      4.84124869e-02 2.99906377e-02 4.88609076e-04 0. 0. 0.
      2.29563993e-05 5.35177551e-02 5.83080854e-03 5.80727356e-04
      1.96783751e-01 2.66675372e-02 5.31182066e-02 1.19574564e-02
      6.74603274e-04 0. 7.96683365e-04 4.20565251e-03 3.04813646e-02
      3.22006107e-03 1.91336334e-01 5.22028059e-02 1.01474032e-03 0. 0.
      1.99414440e-03 4.63655964e-03 4.89807629e-04 2.91044153e-02
      7.94063602e-03 1.54353445e-04 0. 0. 3.03331850e-04 1.83955897e-02
      7.18206679e-03 2.56055817e-02 1.19040553e-02 1.76608050e-03
      1.03807996e-03 3.54367286e-01 6.05779253e-02 1.04929153e-02
      4.09667892e-03 1.46055231e-02 6.79011922e-03 1.00737915e-03
      5.92124823e-04 2.02132478e-01 3.45538855e-02 3.61150084e-03
      3.38307652e-03 2.50855461e-03 1.28931135e-01 0. 0. 1.07085362e-01
      8.63427762e-03 1.55497540e-03 1.45662460e-03 1.08008855e-03
      5.55128604e-02 0. 0. 4.61068973e-02 3.71759292e-03 6.69979006e-02
      1.03041725e-02 2.63242330e-02 1.07262582e-02 1.17733134e-02
      7.03233406e-02 1.88707337e-01 5.90792112e-02 4.33488898e-02
      6.66699186e-03 1.70322694e-02 6.94008870e-03 7.61755323e-03
      4.55005132e-02 1.22097164e-01 3.82253528e-02 8.48487113e-03
      6.74049323e-03 0. 3.56336357e-04 1.98434293e-03 4.29223143e-02
      1.69612795e-01 3.05382698e-03 9.96238831e-03 7.91425258e-03 0.
      4.18387208e-04 2.32988782e-03 5.03966175e-02 1.99148417e-01
