<?xml version="1.0"?>
<opencv_storage>
<opencv_ml_svm>
  <format>3</format>
  <svmType>C_SVC</svmType>
  <kernel>
    <type>RBF</type>
    <gamma>2.2500000000000003e-03</gamma></kernel>
  <C>6.2500000000000000e+01</C>
  <term_criteria><iterations>100</iterations></term_criteria>
  <var_count>1568</var_count>
  <class_count>2</class_count>
  <class_labels type_id="opencv-matrix">
    <rows>2</rows>
    <cols>1</cols>
    <dt>i</dt>
    <data>
      0 1</data></class_labels>
  <sv_total>133</sv_total>
  <support_vectors>
    <_>
      2.35997006e-01 8.45314004e-03 3.45129296e-02 2.74709892e-02
      1.07371516e-03 2.88441889e-02 2.27737110e-02 4.41702120e-02
      4.02222807e-03 2.10222919e-02 4.32575308e-02 3.84348035e-02
      6.53895782e-03 2.09607393e-03 1.05937244e-03 3.64634092e-04
      1.00982655e-02 5.27788773e-02 1.08603001e-01 9.64949951e-02
      1.64168049e-02 5.26243448e-03 2.65967613e-03 9.15455807e-04
      2.61070207e-02 1.49766812e-02 1.13466322e-01 1.06631830e-01
      2.68556345e-02 1.16059911e-02 7.10341800e-03 6.06304849e-04
      3.19216736e-02 1.83123443e-02 1.38737962e-01 1.30381271e-01
      3.28370221e-02 1.41909206e-02 8.68551806e-03 7.41343363e-04
      1.39485002e-02 1.88805498e-02 3.92844453e-02 9.43236351e-02
      4.15128656e-02 2.11680643e-02 4.21336479e-03 9.91300913e-04
      8.06268398e-03 1.09135685e-02 2.27076802e-02 5.45221120e-02
      2.39957776e-02 1.22358259e-02 2.43546115e-03 5.73003956e-04
      9.48827993e-03 1.30506018e-02 9.98588130e-02 1.00481555e-01
      6.38971552e-02 1.84513852e-02 2.10714173e-02 2.27325159e-04
      5.69410343e-03 7.83192180e-03 5.99272326e-02 6.03009537e-02
      3.83459367e-02 1.10730380e-02 1.26453713e-02 1.36422284e-04
      2.08965335e-02 1.93544850e-02 2.71951426e-02 5.49861565e-02
      1.45418700e-02 1.13973180e-02 7.62304515e-02 8.23172648e-03
      1.66051164e-02 1.53797511e-02 2.16102134e-02 4.36939262e-02
      1.15554798e-02 9.05670784e-03 6.05753846e-02 6.54121814e-03
      1.69902900e-03 2.57288193e-04 9.62786493e-04 7.87872728e-03
      2.17648208e-01 2.74235625e-02 1.55025953e-02 3.34028911e-04
      1.88103504e-03 2.84849812e-04 1.06592360e-03 8.72272439e-03
      2.40963459e-01 3.03612705e-02 1.71632878e-02 3.69811256e-04
      1.44399318e-03 7.91860977e-04 3.81909031e-03 1.69571526e-02
      4.98986505e-02 1.01491347e-01 5.43793663e-03 6.84307015e-04
      1.78511664e-01 1.11663163e-01 2.03336775e-02 1.32847168e-02
      1.16240326e-02 2.57544685e-03 6.29259832e-03 1.80641990e-02
      4.87215724e-03 4.31431979e-02 1.93971507e-02 1.66655220e-02
      2.18083877e-02 8.21327884e-03 2.87991832e-03 5.79116633e-04
      1.22321108e-02 1.08315960e-01 4.86987792e-02 4.18407060e-02
      5.47524653e-02 2.06203796e-02 7.23036565e-03 1.45393889e-03
      1.03534237e-02 2.45705545e-02 2.91937403e-02 1.40486900e-02
      4.53483593e-03 5.33674425e-03 1.17032668e-02 4.53151483e-03
      1.26593774e-02 3.00430022e-02 3.56958807e-02 1.71776675e-02
      5.54485153e-03 6.52536377e-03 1.43098626e-02 5.54079097e-03
      9.15231630e-02 6.29986823e-02 2.69150101e-02 3.14406380e-02
      1.18524991e-02 1.90856420e-02 1.17361303e-02 6.82058465e-03
      5.29033504e-02 3.64152752e-02 1.55577464e-02 1.81737058e-02
      6.85112784e-03 1.10321185e-02 6.78386260e-03 3.94251850e-03
      6.79843873e-02 1.01776138e-01 1.03048392e-01 5.37215136e-02
      2.11054906e-02 1.86612923e-02 9.52426158e-03 1.05461255e-02
      4.07987647e-02 6.10778555e-02 6.18413612e-02 3.22393365e-02
      1.26658184e-02 1.11990077e-02 5.71569614e-03 6.32893713e-03
      5.33889234e-02 7.04194652e-03 5.52582229e-03 3.85874906e-03
      3.67876701e-02 8.58731866e-02 1.08395919e-01 3.84723209e-02
      4.24247049e-02 5.59577718e-03 4.39101178e-03 3.06629715e-03
      2.92327721e-02 6.82378411e-02 8.61351937e-02 3.05714514e-02
      3.43182613e-03 1.70655025e-03 2.29432480e-03 1.46641058e-03
      1.32614737e-02 1.29412368e-01 1.20191760e-01 1.85619260e-03
      3.79945524e-03 1.88936188e-03 2.54010083e-03 1.62349758e-03
      1.46820890e-02 1.43275470e-01 1.33067116e-01 2.05503451e-03
      7.46165775e-03 5.25528705e-03 9.07798763e-03 3.16823577e-03
      1.71597004e-02 1.15806952e-01 5.30830622e-02 4.71817562e-03
      2.14726895e-01 1.34316623e-01 2.44588349e-02 1.59798302e-02
      1.39822373e-02 3.09793581e-03 7.56919757e-03 2.17289403e-02
      5.86058758e-03 5.18957973e-02 2.33323146e-02 2.00465098e-02
      2.62327250e-02 9.87953227e-03 3.46417655e-03 6.96603907e-04
      2.19500065e-02 1.94368407e-01 8.73878971e-02 7.50813782e-02
      9.82509851e-02 3.70023996e-02 1.29745854e-02 2.60903197e-03
      1.85787808e-02 4.40908223e-02 5.23869358e-02 2.52097808e-02
      8.13757163e-03 9.57656186e-03 2.10010186e-02 8.13161209e-03
      1.23036839e-02 2.91988775e-02 3.46929282e-02 1.66950226e-02
      5.38905663e-03 6.34201942e-03 1.39077958e-02 5.38511015e-03
      8.89516175e-02 6.12285919e-02 2.61587724e-02 3.05572432e-02
      1.15194768e-02 1.85493883e-02 1.14063779e-02 6.62894500e-03
      5.78873083e-02 3.98459136e-02 1.70234218e-02 1.98858287e-02
      7.49656418e-03 1.20714409e-02 7.42296223e-03 4.31393832e-03
      7.43891150e-02 1.11364342e-01 1.12756453e-01 5.87825552e-02
      2.30938122e-02 2.04193499e-02 1.04215313e-02 1.15396632e-02
      4.00899276e-02 6.00166880e-02 6.07669242e-02 3.16792093e-02
      1.24457618e-02 1.10044349e-02 5.61639154e-03 6.21897774e-03
      5.24613410e-02 6.91959960e-03 5.42981643e-03 3.79170687e-03
      3.61485220e-02 8.43812227e-02 1.06512643e-01 3.78038995e-02
      4.53702211e-02 5.98428817e-03 4.69587650e-03 3.27918772e-03
      3.12623829e-02 7.29755461e-02 9.21154916e-02 3.26940045e-02
      3.67009523e-03 1.82503473e-03 2.45361798e-03 1.56822242e-03
      1.41822072e-02 1.38397381e-01 1.28536582e-01 1.98506657e-03
      4.07530880e-03 2.02653604e-03 2.72452063e-03 1.74136902e-03
      1.57480575e-02 1.53677762e-01 1.42728239e-01 2.20423681e-03
      8.00339878e-03 5.63683826e-03 9.73707996e-03 3.39826033e-03
      1.84055530e-02 1.24214925e-01 5.69370687e-02 5.06073097e-03
      3.50597292e-01 9.63731017e-03 2.79588712e-04 4.03431797e-04
      1.30383251e-03 1.57202489e-03 2.36327527e-03 8.20059050e-03
      8.40317644e-03 2.67707072e-02 7.07513839e-03 1.39993674e-03
      1.39992766e-03 9.27336514e-04 1.16818759e-03 1.22946349e-03
      3.14729139e-02 1.00265920e-01 2.64989343e-02 5.24326600e-03
      5.24323201e-03 3.47320852e-03 4.37528221e-03 4.60478244e-03
      3.97428684e-02 2.16187350e-03 4.24107304e-04 2.11233157e-03
      2.98542855e-03 5.67719387e-03 1.30533930e-02 3.59273925e-02
      2.63194721e-02 1.43168750e-03 2.80862470e-04 1.39887864e-03
      1.97708188e-03 3.75968707e-03 8.64452962e-03 2.37926953e-02
      5.18076122e-01 1.51112601e-02 4.11508605e-03 4.03427891e-03
      1.95436203e-03 1.72633701e-03 2.21724552e-03 6.24547247e-03
      3.37149948e-01 9.83399991e-03 2.67798663e-03 2.62539950e-03
      1.27184601e-03 1.12345349e-03 1.44292333e-03 4.06438485e-03
      2.20487528e-02 7.36701116e-03 1.42270437e-04 3.53920483e-03
      6.09025592e-03 4.28421330e-03 4.38619684e-03 3.23808263e-03
      1.18825566e-02 3.97024397e-03 7.66726589e-05 1.90735515e-03
      3.28217261e-03 2.30885670e-03 2.36381777e-03 1.74507371e-03
      2.88774073e-01 1.50649464e-02 1.73412566e-03 1.48999365e-03
      2.68647418e-04 8.37569684e-03 2.23201159e-02 7.31484666e-02
      2.49740928e-01 1.30286412e-02 1.49972655e-03 1.28859351e-03
      2.32334758e-04 7.24356715e-03 1.93031393e-02 6.32611066e-02
      7.99865834e-03 1.90833618e-03 1.14838770e-02 5.33990422e-03
      1.30168833e-02 1.38801811e-02 6.62616920e-03 3.15277954e-03
      8.88178591e-03 2.11903453e-03 1.27518056e-02 5.92948031e-03
      1.44540705e-02 1.54126845e-02 7.35776126e-03 3.50087648e-03
      2.74694106e-03 1.11425659e-02 8.87071341e-02 2.19179392e-02
      1.83210194e-01 4.24002185e-02 1.66932587e-02 6.45438675e-03
      3.70158255e-01 1.01750065e-02 2.95187871e-04 4.25940554e-04
      1.37657765e-03 1.65973324e-03 2.49513006e-03 8.65812786e-03
      8.87201726e-03 2.82643326e-02 7.46988319e-03 1.47804373e-03
      1.47803419e-03 9.79075674e-04 1.23336457e-03 1.29805924e-03
      7.02065602e-02 2.23662958e-01 5.91111146e-02 1.16961412e-02
      1.16960658e-02 7.74767809e-03 9.75993276e-03 1.02718780e-02
      8.86543319e-02 4.82248655e-03 9.46055225e-04 4.71197348e-03
      6.65958878e-03 1.26641039e-02 2.91181728e-02 8.01431537e-02
      1.99335478e-02 1.08431559e-03 2.12716492e-04 1.05946721e-03
      1.49738020e-03 2.84746988e-03 6.54709758e-03 1.80198476e-02
      3.92374754e-01 1.14447977e-02 3.11663793e-03 3.05543724e-03
      1.48017297e-03 1.30747387e-03 1.67927262e-03 4.73012635e-03
      3.75474811e-01 1.09518599e-02 2.98240175e-03 2.92383693e-03
      1.41642056e-03 1.25115982e-03 1.60694495e-03 4.52639582e-03
      2.45551020e-02 8.20444152e-03 1.58442752e-04 3.94151686e-03
      6.78255409e-03 4.77121305e-03 4.88478923e-03 3.60616529e-03
      1.50842778e-02 5.04001509e-03 9.73318965e-05 2.42128666e-03
      4.16654488e-03 2.93097156e-03 3.00074182e-03 2.21527903e-03
      3.66583437e-01 1.91241540e-02 2.20138091e-03 1.89146830e-03
      3.41033709e-04 1.06325056e-02 2.83342078e-02 9.28581208e-02
      3.01843137e-01 1.57467406e-02 1.81260705e-03 1.55742641e-03
      2.80805602e-04 8.75475630e-03 2.33302582e-02 7.64589533e-02
      9.66737792e-03 2.30646296e-03 1.38797006e-02 6.45394204e-03
      1.57325305e-02 1.67759340e-02 8.00855365e-03 3.81052820e-03
      1.00274356e-02 2.39236606e-03 1.43966442e-02 6.69431593e-03
      1.63184814e-02 1.74007472e-02 8.30682926e-03 3.95244965e-03
      3.10126529e-03 1.25798304e-02 1.00149356e-01 2.47451048e-02
      2.06842229e-01 4.78693657e-02 1.88465007e-02 7.28692953e-03
      3.07618082e-01 9.70433187e-03 9.81951877e-03 3.92516553e-02
      3.48132253e-02 3.69800106e-02 6.61705509e-02 2.85009369e-02
      1.27851195e-03 4.19151504e-03 3.29865562e-03 5.76938596e-03
      2.12307204e-03 1.60441885e-03 1.48618803e-03 1.07316661e-03
      1.01171955e-02 3.31685394e-02 2.61031147e-02 4.56546396e-02
      1.68004185e-02 1.26961805e-02 1.17605897e-02 8.49224441e-03
      1.87216271e-02 2.82046571e-03 5.59633644e-03 3.80209391e-03
      5.32263815e-02 6.83369040e-02 3.52047235e-02 1.56264659e-02
      4.20947792e-03 6.34169730e-04 1.25831238e-03 8.54884624e-04
      1.19677251e-02 1.53652607e-02 7.91563280e-03 3.51354433e-03
      2.54455805e-01 1.39657781e-02 4.46712691e-03 3.94405983e-03
      5.44647686e-03 3.84760904e-03 4.38632034e-02 1.53900295e-01
      2.43496180e-01 1.33642592e-02 4.27472359e-03 3.77418590e-03
      5.21189254e-03 3.68188927e-03 4.19739783e-02 1.47271663e-01
      1.03932805e-02 3.27604008e-03 5.46280481e-03 3.79703054e-03
      1.09084165e-02 2.29641683e-02 1.85525846e-02 3.55870975e-03
      6.38462603e-03 2.01248191e-03 3.35581857e-03 2.33252812e-03
      6.70107501e-03 1.41069628e-02 1.13969119e-02 2.18612677e-03
      1.11865230e-01 1.49081618e-01 6.08385988e-02 5.07590994e-02
      3.78186512e-03 8.59702751e-03 8.42410605e-03 1.25305133e-03
      9.21093225e-02 1.22753128e-01 5.00942245e-02 4.17948142e-02
      3.11397063e-03 7.07875332e-03 6.93637040e-03 1.03175675e-03
      2.35503521e-02 1.00450642e-01 9.28285345e-03 1.04491971e-02
      3.42580443e-03 9.02189780e-03 8.79208464e-03 3.69487889e-03
      2.44274754e-02 1.04191884e-01 9.62858927e-03 1.08383726e-02
      3.55339702e-03 9.35791433e-03 9.11954138e-03 3.83249298e-03
      1.16153974e-02 1.50630683e-01 1.36163846e-01 1.37684010e-02
      5.85792493e-03 4.72347892e-04 1.75075477e-03 3.88123863e-03
      2.55755752e-01 8.06824677e-03 8.16401374e-03 3.26340944e-02
      2.89439503e-02 3.07454336e-02 5.50146438e-02 2.36958731e-02
      1.06296351e-03 3.48485401e-03 2.74252472e-03 4.79670661e-03
      1.76513661e-03 1.33392471e-03 1.23562675e-03 8.92238051e-04
      3.01418686e-03 9.88180749e-03 7.77682569e-03 1.36017557e-02
      5.00530005e-03 3.78253637e-03 3.50379851e-03 2.53007002e-03
      5.57768019e-03 8.40293244e-04 1.66730036e-03 1.13274681e-03
      1.58575829e-02 2.03594156e-02 1.04884421e-02 4.65554791e-03
      4.16096952e-03 6.26861758e-04 1.24381215e-03 8.45033268e-04
      1.18298139e-02 1.51881976e-02 7.82441534e-03 3.47305555e-03
      2.51523554e-01 1.38048409e-02 4.41564946e-03 3.89861013e-03
      5.38371364e-03 3.80327064e-03 4.33577411e-02 1.52126804e-01
      1.70238540e-01 9.34352260e-03 2.98864138e-03 2.63869413e-03
      3.64385592e-03 2.57416535e-03 2.93457936e-02 1.02963895e-01
      7.26638502e-03 2.29041907e-03 3.81927937e-03 2.65466562e-03
      7.62653816e-03 1.60552282e-02 1.29709011e-02 2.48804549e-03
      6.16619643e-03 1.94363133e-03 3.24101001e-03 2.25272798e-03
      6.47181924e-03 1.36243384e-02 1.10070035e-02 2.11133552e-03
      1.08038120e-01 1.43981263e-01 5.87572008e-02 4.90225405e-02
      3.65248066e-03 8.30290746e-03 8.13590176e-03 1.21018209e-03
      9.45585743e-02 1.26017228e-01 5.14262691e-02 4.29061688e-02
      3.19677335e-03 7.26698292e-03 7.12081371e-03 1.05919188e-03
      2.41765734e-02 1.03121698e-01 9.52969119e-03 1.07270489e-02
      3.51689919e-03 9.26179625e-03 9.02587269e-03 3.79312853e-03
      1.85340475e-02 7.90543184e-02 7.30557414e-03 8.22348241e-03
      2.69609643e-03 7.10020261e-03 6.91934070e-03 2.90785707e-03
      8.81304033e-03 1.14289187e-01 1.03312656e-01 1.04466053e-02
      4.44462895e-03 3.58388177e-04 1.32836367e-03 2.94484221e-03
      1.52509674e-01 2.91687902e-03 4.43561934e-03 1.07137382e-03 0.
      1.26619507e-02 1.59154847e-01 5.72430119e-02 8.66897702e-02
      3.50743607e-02 7.61459395e-03 1.51389302e-03 1.50474382e-03
      2.08711321e-03 7.01529672e-03 8.17091670e-03 2.45821387e-01
      9.94584262e-02 2.15922836e-02 4.29286249e-03 4.26691864e-03
      5.91831142e-03 1.98928881e-02 2.31698174e-02 2.13795900e-01
      1.93459727e-02 1.03370091e-02 5.00898017e-03 4.05631438e-02
      2.93595139e-02 6.45509511e-02 8.29503089e-02 1.59492522e-01
      1.44321658e-02 7.71144591e-03 3.73671716e-03 3.02602518e-02
      2.19023023e-02 4.81552407e-02 6.18812256e-02 1.80556308e-02
      4.06630524e-03 5.07848058e-03 8.59183725e-03 1.93397347e-02
      3.69794816e-02 3.31033282e-02 3.70688899e-03 1.22205811e-02
      2.75219488e-03 3.43726482e-03 5.81520842e-03 1.30897006e-02
      2.50288006e-02 2.24053077e-02 2.50893156e-03 1.44858375e-01
      1.24939039e-01 6.84686704e-03 1.31666260e-02 4.18416783e-02
      1.63255125e-01 2.54227221e-02 1.35029713e-02 1.22925662e-01
      1.06022269e-01 5.81019698e-03 1.11730937e-02 3.55065130e-02
      1.38536990e-01 2.15735193e-02 1.14585133e-02 2.83427406e-02
      3.73078287e-02 2.41765473e-02 1.32533386e-02 9.38675273e-03
      3.84779484e-03 1.84976531e-03 9.09818453e-04 2.48065162e-02
      3.26530598e-02 2.11601239e-02 1.15997661e-02 8.21559969e-03
      3.36771877e-03 1.61897647e-03 7.96303560e-04 2.43780255e-01
      6.23230226e-02 5.70066795e-02 1.31795779e-02 5.04021207e-03
      1.84890884e-03 3.53711448e-03 2.36153230e-03 1.86884820e-01
      4.77775633e-02 4.37019952e-02 1.01036206e-02 3.86388623e-03
      1.41739543e-03 2.71159387e-03 1.81037851e-03 3.01358756e-03
      6.39356300e-02 2.35741332e-01 6.10209862e-03 4.68401052e-03
      5.73168788e-03 5.63557376e-04 3.27818305e-03 1.36784449e-01
      2.61612050e-03 3.97826405e-03 9.60904756e-04 0. 1.13563808e-02
      1.42744437e-01 5.13407029e-02 7.77512118e-02 3.14578526e-02
      6.82945549e-03 1.35779590e-03 1.34959014e-03 1.87191158e-03
      6.29195152e-03 7.32841622e-03 1.01972073e-01 4.12575267e-02
      8.95695016e-03 1.78077316e-03 1.77001103e-03 2.45504477e-03
      8.25200416e-03 9.61134583e-03 8.86872113e-02 8.02513212e-03
      4.28801682e-03 2.07783422e-03 1.68264769e-02 1.21789668e-02
      2.67771445e-02 3.44095975e-02 1.35201573e-01 1.22341262e-02
      6.53698109e-03 3.16760968e-03 2.56515704e-02 1.85665488e-02
      4.08211276e-02 5.24566248e-02 1.53057305e-02 3.44700087e-03
      4.30502044e-03 7.28328805e-03 1.63942631e-02 3.13474536e-02
      2.80616432e-02 3.14232428e-03 8.49119015e-03 1.91229943e-03
      2.38830457e-03 4.04056394e-03 9.09507740e-03 1.73906870e-02
      1.55678131e-02 1.74327334e-03 1.00651510e-01 8.68110210e-02
      4.75738849e-03 9.14852787e-03 2.90727280e-02 1.13434069e-01
      1.76643934e-02 9.38222930e-03 1.14646628e-01 9.88816842e-02
      5.41888084e-03 1.04205869e-02 3.31151523e-02 1.29206538e-01
      2.01205444e-02 1.06867841e-02 2.64338609e-02 3.47951502e-02
      2.25482602e-02 1.23607283e-02 8.75455607e-03 3.58864642e-03
      1.72518380e-03 8.48542259e-04 3.25817578e-02 4.28876914e-02
      2.77924575e-02 1.52355451e-02 1.07906610e-02 4.42328164e-03
      2.12642131e-03 1.04589341e-03 3.20189655e-01 8.18572715e-02
      7.48745948e-02 1.73105262e-02 6.61999360e-03 2.42842245e-03
      4.64577181e-03 3.10172024e-03 2.24239320e-01 5.73273338e-02
      5.24371378e-02 1.21231293e-02 4.63619875e-03 1.70070399e-03
      3.25358659e-03 2.17223656e-03 3.61594278e-03 7.67150670e-02
      2.82861263e-01 7.32178474e-03 5.62024955e-03 6.87733619e-03
      6.76201074e-04 3.93342553e-03 5.65333553e-02 3.37308226e-03
      1.80597894e-03 3.55257653e-03 3.98804294e-03 9.28202830e-03
      4.09072228e-02 1.18369060e-02 1.22611849e-02 3.36230127e-03
      1.34190405e-03 4.43126773e-03 2.29255743e-02 6.72492757e-02
      2.63043106e-01 1.00867990e-02 1.60807595e-02 4.40971693e-03
      1.75993063e-03 5.81168523e-03 3.00672930e-02 8.81986022e-02
      3.44985634e-01 1.32290134e-02 1.73988808e-02 2.72211023e-02
      3.90416533e-02 3.31240557e-02 4.70915204e-03 1.88525626e-03
      2.13421322e-03 6.17098238e-04 2.65241861e-02 4.14979309e-02
      5.95180802e-02 5.04968464e-02 7.17899203e-03 2.87402887e-03
      3.25355795e-03 9.40751750e-04 1.66005641e-01 9.25477967e-02
      1.10186324e-01 1.03567299e-02 9.34864860e-03 2.52407859e-03
      6.50879741e-03 6.31474517e-03 9.20952708e-02 5.13429232e-02
      6.11282811e-02 5.74562280e-03 5.18636778e-03 1.40028796e-03
      3.61089827e-03 3.50324344e-03 2.93667503e-02 2.88807992e-02
      5.23974523e-02 6.84560686e-02 5.29364087e-02 7.76675120e-02
      3.01572215e-02 4.57376894e-03 3.34500596e-02 3.28965373e-02
      5.96830733e-02 7.79745653e-02 6.02969676e-02 8.84668157e-02
      3.43504399e-02 5.20973001e-03 9.69071873e-03 3.14111845e-03
      4.31355694e-03 1.93279923e-03 1.83228636e-03 4.56816778e-02
      3.19571304e-03 4.33230773e-03 1.19445529e-02 3.87166906e-03
      5.31678973e-03 2.38232315e-03 2.25843326e-03 5.63061684e-02
      3.93896084e-03 5.33990143e-03 2.33082473e-02 8.77476856e-03
      1.14886649e-01 6.61300635e-03 2.71777399e-02 4.43109386e-02
      1.20190512e-02 2.36392133e-02 1.63235310e-02 6.14525843e-03
      8.04588944e-02 4.63130558e-03 1.90334637e-02 3.10324058e-02
      8.41733627e-03 1.65553167e-02 6.39618898e-04 1.77562924e-03
      8.25332664e-03 3.72487009e-02 1.67000741e-02 6.90513290e-03
      3.11519456e-04 5.76524399e-05 3.89966331e-02 2.32674740e-03
      1.24576176e-03 2.45056232e-03 2.75094644e-03 6.40273048e-03
      2.82177478e-02 8.16508196e-03 8.45774822e-03 2.31931079e-03
      9.25643544e-04 3.05668241e-03 1.58140305e-02 4.63884585e-02
      1.81446776e-01 6.95785973e-03 1.05429441e-02 2.89111957e-03
      1.15385407e-03 3.81028466e-03 1.97128616e-02 5.78251854e-02
      2.26181135e-01 8.67326837e-03 1.14071369e-02 1.78468283e-02
      2.55966727e-02 2.17169505e-02 3.08743678e-03 1.23602070e-03
      1.39924302e-03 4.04584891e-04 1.69439036e-02 2.65092757e-02
      3.80207226e-02 3.22578698e-02 4.58600884e-03 1.83595729e-03
      2.07840395e-03 6.00961270e-04 1.06045991e-01 5.91204204e-02
      7.03880787e-02 6.61597820e-03 5.97200636e-03 1.61240553e-03
      4.15788218e-03 4.03391989e-03 1.05224214e-01 5.86622804e-02
      6.98426291e-02 6.56470936e-03 5.92572754e-03 1.59991067e-03
      4.12566168e-03 4.00266005e-03 3.35532241e-02 3.29979993e-02
      5.98671474e-02 7.82150552e-02 6.04829341e-02 8.87396634e-02
      3.44563834e-02 5.22579765e-03 3.51121090e-02 3.45310867e-02
      6.26485795e-02 8.18489343e-02 6.32929802e-02 9.28625166e-02
      3.60572301e-02 5.46858879e-03 1.01722274e-02 3.29719298e-03
      4.52788733e-03 2.02883547e-03 1.92332815e-03 4.79514897e-02
      3.35450028e-03 4.54756990e-03 1.32981399e-02 4.31041652e-03
      5.91930142e-03 2.65229400e-03 2.51436466e-03 6.26869276e-02
      4.38533397e-03 5.94503246e-03 2.59495955e-02 9.76914726e-03
      1.27905890e-01 7.36240903e-03 3.02575883e-02 4.93323654e-02
      1.33810798e-02 2.63180677e-02 4.36549559e-02 1.64346173e-02
      2.15175837e-01 1.23857670e-02 5.09022847e-02 8.29917416e-02
      2.25109644e-02 4.42748368e-02 1.71056960e-03 4.74866759e-03
      2.20723469e-02 9.96163413e-02 4.46619689e-02 1.84667949e-02
      8.33114434e-04 1.54183232e-04 8.65359306e-02 9.56703536e-03
      1.00729186e-02 5.04497699e-02 1.11399323e-01 7.25826770e-02
      6.83385553e-03 2.49937139e-02 3.34491790e-03 2.89833231e-04
      6.72061974e-03 2.69221831e-02 1.36975378e-01 6.85705841e-02
      2.73601990e-02 1.45825313e-03 4.16958239e-03 3.61289451e-04
      8.37753806e-03 3.35596465e-02 1.70745641e-01 8.54761451e-02
      3.41056511e-02 1.81777461e-03 6.07258314e-03 3.25108529e-03
      8.53376463e-03 1.86929181e-02 1.30193323e-01 6.17218502e-02
      1.67374909e-02 2.69823545e-03 9.02007800e-03 4.82908869e-03
      1.26758609e-02 2.77660396e-02 1.93386212e-01 9.16802436e-02
      2.48614922e-02 4.00789827e-03 1.98809281e-01 1.18286593e-03
      4.89622867e-03 1.50768214e-03 4.58941795e-04 5.70876244e-03
      3.89883341e-03 3.45306285e-02 1.97268665e-01 1.17369962e-03
      4.85828659e-03 1.49599882e-03 4.55385336e-04 5.66452416e-03
      3.86862038e-03 3.42630409e-02 4.30049673e-02 5.92775410e-03
      2.04584859e-02 6.44410914e-03 6.09538238e-03 9.56597924e-03
      4.74968227e-03 5.21950284e-03 4.50029820e-02 6.20315783e-03
      2.14089900e-02 6.74350327e-03 6.37857430e-03 1.00104157e-02
      4.97035310e-03 5.46200154e-03 8.65497887e-02 9.02580693e-02
      7.67404661e-02 2.85029113e-02 1.33693935e-02 5.69067486e-02
      4.42842394e-02 7.58341141e-03 1.13146439e-01 1.17994264e-01
      1.00322716e-01 3.72618213e-02 1.74777918e-02 7.43941218e-02
      5.78927323e-02 9.91378445e-03 7.02448748e-03 6.63286075e-03
      1.63252582e-03 5.22904471e-03 3.45560461e-02 9.24928766e-03
      1.20951803e-02 3.18893814e-03 1.18172821e-02 1.11584486e-02
      2.74639507e-03 8.79681204e-03 5.81335686e-02 1.55600589e-02
      2.03476995e-02 5.36474446e-03 1.35158235e-03 1.63596321e-03
      1.04728444e-02 1.04094841e-01 6.16975129e-02 2.55650724e-03
      1.26370590e-03 2.40704161e-03 9.84003395e-02 1.08787129e-02
      1.14539545e-02 5.73666245e-02 1.26672596e-01 8.25340375e-02
      7.77080329e-03 2.84204483e-02 3.80351907e-03 3.29570466e-04
      7.64204236e-03 3.06133181e-02 1.55755222e-01 7.79718682e-02
      3.11113875e-02 1.65818527e-03 3.91191291e-03 3.38962680e-04
      7.85982795e-03 3.14857475e-02 1.60193995e-01 8.01939443e-02
      3.19980122e-02 1.70544081e-03 5.69731323e-03 3.05017666e-03
      8.00639950e-03 1.75377429e-02 1.22147702e-01 5.79075962e-02
      1.57031566e-02 2.53149145e-03 6.04370981e-03 3.23562743e-03
      8.49318877e-03 1.86040383e-02 1.29574284e-01 6.14283830e-02
      1.66579094e-02 2.68540625e-03 1.33207902e-01 7.92553939e-04
      3.28061287e-03 1.01019011e-03 3.07504117e-04 3.82503401e-03
      2.61232979e-03 2.31365077e-02 1.66721269e-01 9.91950161e-04
      4.10597259e-03 1.26434083e-03 3.84868123e-04 4.78736265e-03
      3.26955784e-03 2.89573520e-02 3.63455750e-02 5.00983093e-03
      1.72904544e-02 5.44622773e-03 5.15150186e-03 8.08467064e-03
      4.01418563e-03 4.41125408e-03 4.37600017e-02 6.03182707e-03
      2.08176747e-02 6.55724807e-03 6.20239833e-03 9.73392837e-03
      4.83307196e-03 5.31114126e-03 8.41592923e-02 8.77651498e-02
      7.46208951e-02 2.77156625e-02 1.30001316e-02 5.53349853e-02
      4.30611111e-02 7.37395789e-03 1.24865517e-01 1.30215451e-01
      1.10713586e-01 4.11211923e-02 1.92880444e-02 8.20994526e-02
      6.38889372e-02 1.09405993e-02 7.75204459e-03 7.31985550e-03
      1.80161372e-03 5.77063998e-03 3.81351672e-02 1.02072768e-02
      1.33479321e-02 3.51923052e-03 1.81319527e-02 1.71210654e-02
      4.21395572e-03 1.34974672e-02 8.91977623e-02 2.38747150e-02
      3.12206745e-02 8.23144335e-03 2.07381230e-03 2.51015485e-03
      1.60691030e-02 1.59718841e-01 9.46661308e-02 3.92259983e-03
      1.93897844e-03 3.69326584e-03 4.35588658e-02 1.23135082e-03
      1.12952781e-03 3.92365706e-04 1.77767279e-03 1.09032858e-02
      2.76131276e-03 2.35624402e-03 8.30400456e-03 6.01979019e-03
      2.19997857e-03 2.00968701e-03 1.60297915e-01 1.53949102e-02
      4.60294820e-03 4.67747543e-03 8.54065549e-03 6.19134447e-03
      2.26267427e-03 2.06695986e-03 1.64866135e-01 1.58336405e-02
      4.73412452e-03 4.81077610e-03 2.28980836e-03 7.09926360e-04
      8.64121970e-03 3.35578732e-02 1.82988927e-01 4.79738601e-03
      6.80426927e-03 6.34865195e-04 2.42902874e-03 7.53089902e-04
      9.16660670e-03 3.55981924e-02 1.94114655e-01 5.08906739e-03
      7.21796881e-03 6.73465023e-04 1.59181412e-02 1.28353748e-03 0.
      3.75080761e-03 1.43683359e-01 1.32654354e-01 2.90829018e-02
      3.68956174e-03 1.99229382e-02 1.60645880e-03 0. 4.69446229e-03
      1.79832220e-01 1.66028470e-01 3.63997817e-02 4.61780746e-03
      5.24642840e-02 7.48611847e-03 8.70772824e-03 8.85808095e-02
      7.73398876e-02 4.86055724e-02 6.70367526e-03 7.73381791e-04
      6.31669015e-02 9.01327282e-03 1.04840891e-02 1.06651127e-01
      9.31170732e-02 5.85210174e-02 8.07121210e-03 9.31150222e-04
      2.53761117e-03 8.50962475e-03 1.95753407e-02 3.80000174e-02
      4.38155830e-02 3.23456563e-02 8.67138710e-03 3.10325966e-04
      3.76500469e-03 1.26255648e-02 2.90435553e-02 5.63798882e-02
      6.50083348e-02 4.79906276e-02 1.28655694e-02 4.60424664e-04
      3.36229708e-03 9.82881873e-04 3.97060486e-03 6.24896735e-02
      2.63935141e-02 2.17864290e-03 1.32180541e-03 1.74984787e-04
      7.86437746e-03 2.29895045e-03 9.28720366e-03 1.46162704e-01
      6.17341548e-02 5.09582320e-03 3.09168897e-03 4.09287604e-04
      5.90875559e-03 5.57031203e-03 4.02867422e-02 1.51114270e-01
      6.03933968e-02 1.04735233e-02 2.26996402e-04 0.</_>
    <_>
      3.04895401e-01 9.96234454e-03 5.44541422e-03 1.57665764e-03
      3.26332040e-02 1.84240416e-02 1.71578880e-02 3.69088165e-02
      6.80483365e-03 1.21480953e-02 1.39522329e-02 2.81883143e-02
      7.91816190e-02 1.75963603e-02 1.06646102e-02 5.53011894e-03
      1.46155590e-02 2.60919239e-02 2.99668852e-02 6.05434291e-02
      1.70067862e-01 3.77938151e-02 2.29056645e-02 1.18777007e-02
      1.14624845e-02 9.42806993e-03 1.68780889e-02 9.93184075e-02
      4.72544357e-02 2.92474218e-02 6.68927701e-03 3.04645882e-03
      1.65339187e-02 1.35994032e-02 2.43455917e-02 1.43260598e-01
      6.81615695e-02 4.21875790e-02 9.64886416e-03 4.39432682e-03
      1.18058436e-02 3.88007425e-03 1.19140809e-02 6.59951046e-02
      1.97176084e-01 2.24980339e-02 8.75294674e-04 8.21015239e-03
      9.52427648e-03 3.13022104e-03 9.61159635e-03 5.32410592e-02
      1.59070328e-01 1.81501210e-02 7.06137449e-04 6.62347907e-03
      8.81167687e-03 1.12684574e-02 6.59880880e-03 2.09608078e-02
      3.68174911e-02 3.31942402e-02 1.54929021e-02 5.79205016e-03
      5.43371541e-03 6.94868714e-03 4.06915136e-03 1.29254693e-02
      2.27034818e-02 2.04692073e-02 9.55368858e-03 3.57166398e-03
      1.72264203e-02 7.08866818e-03 7.18458518e-02 4.33973260e-02
      8.87182206e-02 3.49387378e-02 1.53535521e-02 1.18968077e-02
      1.05023328e-02 4.32170741e-03 4.38018478e-02 2.64577977e-02
      5.40883280e-02 2.13009007e-02 9.36051179e-03 7.25305825e-03
      2.79766079e-02 1.66842323e-02 4.91833277e-02 1.36635639e-02
      3.14677544e-02 4.88702245e-02 2.63717826e-02 4.90022590e-03
      2.85689346e-02 1.70374755e-02 5.02246469e-02 1.39528513e-02
      3.21339928e-02 4.99049127e-02 2.69301310e-02 5.00397477e-03
      1.53201283e-03 2.60415580e-03 3.22311139e-03 8.81048571e-03
      3.72432023e-02 1.78932250e-01 2.86218077e-02 1.14141824e-03
      2.76154697e-01 6.51338231e-03 3.97250755e-03 3.10643669e-03
      2.63012364e-03 1.18050945e-03 8.05666018e-03 6.66515809e-03
      5.53607941e-03 1.09596197e-02 3.01436242e-02 3.79574448e-02
      1.54757185e-03 2.81794881e-03 0. 1.68829004e-03 1.18905026e-02
      2.35392917e-02 6.47430792e-02 8.15257579e-02 3.32390587e-03
      6.05244702e-03 0. 3.62614333e-03 3.38355266e-03 1.75053161e-03
      3.32389493e-03 6.79868534e-02 7.67241493e-02 3.85974124e-02
      1.57031156e-02 6.41703780e-04 4.88056336e-03 2.52503273e-03
      4.79451101e-03 9.80667919e-02 1.10669799e-01 5.56743592e-02
      2.26507634e-02 9.25617642e-04 1.25760511e-02 4.66445973e-03
      2.07139598e-03 5.35584241e-03 7.58699933e-03 5.75043913e-03
      5.69011271e-03 1.16307726e-02 1.01456353e-02 3.76301794e-03
      1.67108327e-03 4.32078587e-03 6.12075534e-03 4.63912403e-03
      4.59045637e-03 9.38303955e-03 1.40679985e-01 2.94936210e-01
      7.89327696e-02 5.95380971e-03 1.38544142e-02 0. 6.91200094e-03
      1.51033383e-02 8.67502242e-02 1.81872234e-01 4.86738421e-02
      3.67141305e-03 8.54331627e-03 0. 4.26228112e-03 9.31346416e-03
      2.18267087e-02 4.74224538e-02 9.43300799e-02 2.62445789e-02
      6.01149984e-02 2.51083188e-02 5.30690700e-03 4.18495416e-04
      1.33069642e-02 2.89117750e-02 5.75096793e-02 1.60003807e-02
      3.66499647e-02 1.53076453e-02 3.23543139e-03 2.55141698e-04
      1.44135833e-01 3.88963632e-02 4.33125859e-03 4.27993163e-02
      5.64741343e-02 7.20308572e-02 4.69554886e-02 2.69956812e-02
      1.47187501e-01 3.97198871e-02 4.42296127e-03 4.37054709e-02
      5.76698147e-02 7.35559091e-02 4.79496382e-02 2.75672395e-02
      1.99208758e-03 1.05686113e-03 1.16243660e-04 3.36421747e-03
      1.35327820e-02 4.14909348e-02 9.94447619e-03 8.58708459e-04
      3.20336640e-01 7.55545730e-03 4.60806862e-03 3.60343489e-03
      3.05091683e-03 1.36937900e-03 9.34564415e-03 7.73151591e-03
      6.42179605e-03 1.27130477e-02 3.49662974e-02 4.40302491e-02
      1.79516757e-03 3.26879183e-03 0. 1.95839931e-03 1.15637397e-02
      2.28924081e-02 6.29638731e-02 7.92853534e-02 3.23256152e-03
      5.88611979e-03 0. 3.52649321e-03 3.29056918e-03 1.70242530e-03
      3.23255081e-03 6.61185086e-02 7.46156946e-02 3.75367180e-02
      1.52715780e-02 6.24069129e-04 5.75823104e-03 2.97910720e-03
      5.65670384e-03 1.15702063e-01 1.30571455e-01 6.56862333e-02
      2.67240312e-02 1.09207071e-03 1.48375919e-02 5.50326519e-03
      2.44389335e-03 6.31897897e-03 8.95136315e-03 6.78453548e-03
      6.71336101e-03 1.37223247e-02 8.07899795e-03 2.99650198e-03
      1.33068836e-03 3.44065414e-03 4.87397471e-03 3.69414734e-03
      3.65539314e-03 7.47174071e-03 1.12023868e-01 2.34858543e-01
      6.28543869e-02 4.74103587e-03 1.10323094e-02 0. 5.50404610e-03
      1.20268306e-02 5.95489182e-02 1.24844581e-01 3.34117264e-02
      2.52020895e-03 5.86448330e-03 0. 2.92580505e-03 6.39314437e-03
      1.49827497e-02 3.25527228e-02 6.47520497e-02 1.80153567e-02
      4.12654057e-02 1.72353834e-02 3.64287919e-03 2.87272473e-04
      1.03470637e-02 2.24808604e-02 4.47176658e-02 1.24413781e-02
      2.84978263e-02 1.19027290e-02 2.51576677e-03 1.98389927e-04
      1.12075351e-01 3.02445535e-02 3.36784660e-03 3.32793593e-02
      4.39124554e-02 5.60088605e-02 3.65110673e-02 2.09909678e-02
      1.38172373e-01 3.72870713e-02 4.15205769e-03 4.10285406e-02
      5.41375764e-02 6.90506548e-02 4.50127572e-02 2.58787628e-02
      1.87007361e-03 9.92129091e-04 1.09123815e-04 3.15816142e-03
      1.27039086e-02 3.89496423e-02 9.33538377e-03 8.06113181e-04
      3.44409287e-01 8.94650165e-03 1.42273447e-03 2.45499890e-04
      1.82798030e-04 0. 4.17933188e-04 1.27498843e-02 6.07306696e-02
      2.57090759e-02 4.81783412e-03 9.00822505e-03 9.24323313e-03
      7.48030981e-03 1.58177670e-02 3.60634327e-02 1.09357834e-01
      4.62943800e-02 8.67548306e-03 1.62211284e-02 1.66443065e-02
      1.34698078e-02 2.84830835e-02 6.49394915e-02 5.59963137e-02
      1.09702617e-01 5.12201674e-02 4.40950058e-02 1.74120031e-02
      3.30901518e-03 1.14643630e-02 1.09724132e-02 9.79890376e-02
      1.91970751e-01 8.96311700e-02 7.71627054e-02 3.04696020e-02
      5.79051021e-03 2.00617108e-02 1.92008391e-02 2.80319285e-02
      2.92634964e-03 4.26521664e-03 4.24077315e-03 7.87186145e-04
      2.98208883e-03 1.84837484e-03 3.19663435e-03 1.52632520e-02
      1.59338349e-03 2.32239021e-03 2.30908091e-03 4.28619125e-04
      1.62373320e-03 1.00643130e-03 1.74055225e-03 2.78943866e-01
      1.49985990e-02 2.16481439e-03 6.85035763e-03 7.46976910e-03
      5.92107475e-02 6.81427717e-02 5.73486574e-02 1.48279175e-01
      7.97285791e-03 1.15075801e-03 3.64146871e-03 3.97073105e-03
      3.14748622e-02 3.62228900e-02 3.04850265e-02 5.03227711e-02
      4.30055894e-02 9.09301490e-02 4.48118597e-02 4.43841405e-02
      1.53785348e-02 4.11592610e-03 1.56104201e-02 3.47528271e-02
      2.96995956e-02 6.27962202e-02 3.09470017e-02 3.06516197e-02
      1.06203929e-02 2.84245238e-03 1.07805319e-02 1.86388195e-01
      1.02446169e-01 1.49822067e-02 6.68974686e-03 1.98181043e-03
      2.49325880e-03 0. 2.43579876e-03 2.29789138e-01 1.26301005e-01
      1.84708498e-02 8.24747048e-03 2.44327984e-03 3.07381991e-03 0.
      3.00298049e-03 6.13549612e-02 1.45680609e-03 1.25447586e-02
      2.14860085e-02 1.13261864e-02 9.97939985e-03 4.89806291e-03
      2.98097753e-03 3.80556643e-01 9.88547970e-03 1.57205714e-03
      2.71266268e-04 2.01983552e-04 0. 4.61797259e-04 1.40880449e-02
      6.71046376e-02 2.84073651e-02 5.32348827e-03 9.95368138e-03
      1.02133546e-02 8.26540403e-03 1.74779166e-02 3.98484617e-02
      1.66276425e-01 7.03896880e-02 1.31909000e-02 2.46639047e-02
      2.53073405e-02 2.04805769e-02 4.33079638e-02 9.87392142e-02
      8.51412937e-02 1.66800663e-01 7.78792500e-02 6.70455843e-02
      2.64746062e-02 5.03129233e-03 1.74313374e-02 1.66833382e-02
      1.29980102e-01 2.54644573e-01 1.18893586e-01 1.02354474e-01
      4.04171944e-02 7.68097211e-03 2.66113766e-02 2.54694521e-02
      3.71836796e-02 3.88173223e-03 5.65770734e-03 5.62528335e-03
      1.04418350e-03 3.95566877e-03 2.45182472e-03 4.24025860e-03
      1.18689062e-02 1.23903609e-03 1.80592132e-03 1.79557176e-03
      3.33299889e-04 1.26263639e-03 7.82614283e-04 1.35347643e-03
      2.16910452e-01 1.16631091e-02 1.68338837e-03 5.32692857e-03
      5.80859091e-03 4.60430570e-02 5.29887192e-02 4.45950739e-02
      1.16065606e-01 6.24075904e-03 9.00756451e-04 2.85036163e-03
      3.10809212e-03 2.46369671e-02 2.83534881e-02 2.38621719e-02
      3.93901765e-02 3.36626507e-02 7.11756274e-02 3.50765102e-02
      3.47417109e-02 1.20375566e-02 3.22174351e-03 1.22190649e-02
      4.05192636e-02 3.46275643e-02 7.32158199e-02 3.60819474e-02
      3.57375555e-02 1.23826042e-02 3.31409229e-03 1.25693148e-02
      2.17315063e-01 1.19444765e-01 1.74681619e-02 7.79975764e-03
      2.31064647e-03 2.90695811e-03 0. 2.83996388e-03 2.78855830e-01
      1.53269947e-01 2.24149134e-02 1.00085465e-02 2.96499138e-03
      3.73017020e-03 0. 3.64420447e-03 7.44560361e-02 1.76787667e-03
      1.52234305e-02 2.60738991e-02 1.37446579e-02 1.21102929e-02
      5.94394235e-03 3.61750321e-03 3.68076324e-01 9.66181455e-04
      3.32593592e-03 2.35367473e-03 2.31844094e-03 4.90978593e-03
      1.86091755e-03 9.66909621e-03 2.83170782e-04 1.29615888e-03
      1.22631178e-03 2.02052318e-03 1.87559577e-03 3.72837367e-03
      2.29575369e-03 1.62173004e-04 7.01659708e-04 3.21171037e-03
      3.03863827e-03 5.00658946e-03 4.64747800e-03 9.23841633e-03
      5.68857417e-03 4.01843252e-04 9.81947873e-03 8.58673360e-03
      1.16256857e-03 1.31007340e-02 6.99535897e-03 7.56962167e-04
      1.76555093e-03 1.03438110e-03 1.49908094e-02 1.31088514e-02
      1.77482376e-03 2.00001057e-02 1.06793959e-02 1.15560868e-03
      2.69536092e-03 1.57912762e-03 3.26315947e-02 1.99485272e-02
      4.03703637e-02 2.35880055e-02 1.57081988e-02 1.26629118e-02
      1.41422432e-02 4.87202313e-03 1.04158968e-02 6.36750413e-03
      1.28860865e-02 7.52921309e-03 5.01400465e-03 4.04195953e-03
      4.51415731e-03 1.55513361e-03 2.04866469e-01 6.10039309e-02
      2.77644629e-03 1.80841982e-02 2.66486444e-02 9.47198197e-02
      7.75069967e-02 5.66089526e-02 1.09621048e-01 3.26423086e-02
      1.48563576e-03 9.67659056e-03 1.42593002e-02 5.06831892e-02
      4.14728597e-02 3.02906241e-02 9.53144766e-03 4.01054956e-02
      4.60502580e-02 4.72321361e-02 2.26365570e-02 4.40770686e-02
      4.84743752e-02 4.21779044e-03 9.80465859e-03 4.12550867e-02
      4.73702513e-02 4.85860072e-02 2.32854150e-02 4.53405008e-02
      4.98638563e-02 4.33869008e-03 5.01741888e-03 8.56302120e-03
      3.82391997e-02 1.66426226e-02 3.06423642e-02 9.61831119e-03
      2.72368919e-03 1.75426903e-04 6.43828558e-03 1.09879561e-02
      4.90680374e-02 2.13555936e-02 3.93198766e-02 1.23420898e-02
      3.49500217e-03 2.25105483e-04 8.76052082e-02 9.31075588e-02
      2.45560836e-02 8.02301615e-03 3.61849461e-03 1.05873821e-03
      5.58759691e-03 5.38503751e-03 4.29686368e-01 1.12790463e-03
      3.88264400e-03 2.74764211e-03 2.70651071e-03 5.73160499e-03
      2.17240513e-03 1.12875476e-02 3.30569019e-04 1.51311501e-03
      1.43157667e-03 2.35872623e-03 2.18954030e-03 4.35244339e-03
      2.68002599e-03 1.89318162e-04 1.04445359e-03 4.78078239e-03
      4.52315668e-03 7.45254429e-03 6.91799028e-03 1.37518188e-02
      8.46771058e-03 5.98162645e-04 1.46167576e-02 1.27817579e-02
      1.73053821e-03 1.95010602e-02 1.04129221e-02 1.12677389e-03
      2.62810593e-03 1.53972511e-03 6.14292594e-03 5.37173776e-03
      7.27286329e-04 8.19563214e-03 4.37619677e-03 4.73544729e-04
      1.10450352e-03 6.47094101e-04 1.33717582e-02 8.17449670e-03
      1.65429451e-02 9.66588035e-03 6.43689698e-03 5.18900109e-03
      5.79520082e-03 1.99645502e-03 6.08414691e-03 3.71939433e-03
      7.52703706e-03 4.39797342e-03 2.92878668e-03 2.36099446e-03
      2.63681519e-03 9.08386544e-04 1.19666860e-01 3.56336907e-02
      1.62178127e-03 1.05633652e-02 1.55660398e-02 5.53278625e-02
      4.52734828e-02 3.30664925e-02 1.13737680e-01 3.38681377e-02
      1.54142629e-03 1.00399787e-02 1.47947837e-02 5.25865108e-02
      4.30303030e-02 3.14281359e-02 9.88938473e-03 4.16115895e-02
      4.77795936e-02 4.90058586e-02 2.34866347e-02 4.57323082e-02
      5.02947494e-02 4.37618280e-03 2.06628796e-02 8.69432539e-02
      9.98306870e-02 1.02392837e-01 4.90729734e-02 9.55530852e-02
      1.05085850e-01 9.14359558e-03 1.05739860e-02 1.80461854e-02
      8.05874020e-02 3.50735821e-02 6.45774156e-02 2.02701595e-02
      5.74005302e-03 3.69704358e-04 1.31575186e-02 2.24553924e-02
      1.00277252e-01 4.36430797e-02 8.03555548e-02 2.52227504e-02
      7.14251539e-03 4.60033887e-04 1.79033235e-01 1.90278038e-01
      5.01837172e-02 1.63961314e-02 7.39488937e-03 2.16367631e-03
      1.14190187e-02 1.10050617e-02 3.96261275e-01 1.33169219e-02
      6.57739723e-03 6.55112509e-03 1.25375316e-02 7.12563796e-03
      9.93009470e-03 3.47609781e-02 8.71486787e-04 6.59645535e-03
      1.77549347e-02 3.94876860e-03 2.87565240e-03 3.17472778e-03
      2.41720327e-03 9.11953161e-04 2.75351736e-03 2.08419170e-02
      5.60978353e-02 1.24763828e-02 9.08580422e-03 1.00307530e-02
      7.63730612e-03 2.88137328e-03 1.84929427e-02 3.91316921e-01
      2.55687863e-01 4.52861898e-02 2.65076626e-02 1.47027904e-02
      1.29865510e-02 1.34002254e-03 7.77195441e-03 1.64457187e-01
      1.07456908e-01 1.90322455e-02 1.11402683e-02 6.17908267e-03
      5.45780547e-03 5.63165871e-04 1.07464716e-02 2.60651689e-02
      9.81905386e-02 1.55993059e-01 1.49074927e-01 1.14288390e-01
      2.80905738e-02 1.28074770e-03 4.88964235e-03 1.18596461e-02
      4.46766727e-02 7.09768087e-02 6.78290650e-02 5.20011932e-02
      1.27812047e-02 5.82739944e-04 3.13589275e-02 1.37636751e-01
      6.85174912e-02 1.98316909e-02 6.40899017e-02 6.14197254e-02
      2.45366967e-03 1.81180239e-03 2.98051760e-02 1.30817220e-01
      6.51226267e-02 1.88490823e-02 6.09144196e-02 5.83765432e-02
      2.33209692e-03 1.72203244e-03 7.34444195e-03 1.90676320e-02
      1.28702279e-02 1.06364656e-02 3.31548718e-03 1.49095396e-03
      2.69853766e-03 1.43392617e-03 1.53454766e-02 3.98399085e-02
      2.68910546e-02 2.22238302e-02 6.92737848e-03 3.11519904e-03
      5.63832419e-03 2.99604516e-03 3.65382130e-03 4.57517663e-03
      3.10230721e-03 2.71882601e-02 1.99078918e-02 9.24904644e-03
      4.99552349e-03 4.27078689e-04 4.54655616e-03 5.69302542e-03
      3.86029109e-03 3.38311419e-02 2.47719698e-02 1.15088578e-02
      6.21607527e-03 5.31426456e-04 1.18539641e-02 4.13149502e-03
      8.25450290e-03 4.10678685e-02 4.00204360e-02 3.40284966e-02
      7.01921713e-03 2.07681558e-03 3.46867174e-01 1.16569633e-02
      5.75752277e-03 5.73452516e-03 1.09747238e-02 6.23742444e-03
      8.69230460e-03 3.04280110e-02 7.62855634e-04 5.77420508e-03
      1.55417761e-02 3.45655321e-03 2.51720124e-03 2.77899695e-03
      2.11589807e-03 7.98277848e-04 1.16024516e-03 8.78212508e-03
      2.36378554e-02 5.25715342e-03 3.82847083e-03 4.22664220e-03
      3.21811950e-03 1.21411972e-03 7.79234152e-03 1.64888576e-01
      1.07738785e-01 1.90821700e-02 1.11694913e-02 6.19529141e-03
      5.47212223e-03 5.64643124e-04 4.24436526e-03 8.98122042e-02
      5.86836152e-02 1.03937564e-02 6.08384563e-03 3.37447738e-03
      2.98057846e-03 3.07552196e-04 5.86878788e-03 1.42345279e-02
      5.36231287e-02 8.51898342e-02 8.14117566e-02 6.24143742e-02
      1.53406281e-02 6.99432974e-04 3.93276988e-03 9.53878742e-03
      3.59337255e-02 5.70870899e-02 5.45553379e-02 4.18248847e-02
      1.02800028e-02 4.68701386e-04 2.52221804e-02 1.10702097e-01
      5.51090427e-02 1.59507524e-02 5.15479073e-02 4.94002700e-02
      1.97350187e-03 1.45724404e-03 3.49797346e-02 1.53528750e-01
      7.64287412e-02 2.21215244e-02 7.14899376e-02 6.85114488e-02
      2.73697847e-03 2.02099909e-03 8.61953106e-03 2.23780144e-02
      1.51046636e-02 1.24830920e-02 3.89109785e-03 1.74980250e-03
      3.16703808e-03 1.68287393e-03 4.45648320e-02 1.15699165e-01
      7.80943707e-02 6.45402744e-02 2.01178156e-02 9.04685631e-03
      1.63742695e-02 8.70082155e-03 1.06110703e-02 1.32867806e-02
      9.00941715e-03 7.89574832e-02 5.78145534e-02 2.68601757e-02
      1.45075107e-02 1.24028011e-03 1.14274826e-02 1.43090608e-02
      9.70259774e-03 8.50324407e-02 6.22627847e-02 2.89267879e-02
      1.56237129e-02 1.33570679e-03 2.97941901e-02 1.03842523e-02
      2.07471736e-02 1.03221498e-01 1.00588843e-01 8.55284780e-02
      1.76423602e-02 5.21994475e-03 3.84594172e-01 8.13694578e-03
      7.11479690e-03 8.33870377e-03 7.26465508e-03 7.85643514e-03
      7.81251397e-03 1.31802736e-02 3.28787602e-02 2.25163754e-02
      7.98237696e-03 1.17733981e-03 6.62038336e-03 8.07981193e-03
      1.07253939e-02 5.62672596e-03 5.00060841e-02 3.42456885e-02
      1.21405860e-02 1.79064402e-03 1.00690974e-02 1.22887772e-02
      1.63125042e-02 8.55781976e-03 2.28019282e-01 2.14659587e-01
      2.65235156e-02 3.02907825e-03 1.30113331e-03 3.69959511e-03
      6.53143099e-04 2.47539813e-03 1.24198504e-01 1.16921693e-01
      1.44469403e-02 1.64989114e-03 7.08706793e-04 2.01511104e-03
      3.55756754e-04 1.34831027e-03 7.16959089e-02 4.71181050e-02
      2.29875762e-02 2.98601277e-02 2.60786712e-02 1.07272658e-02
      1.76864117e-02 1.75382644e-02 4.80445921e-02 3.15746069e-02
      1.54043473e-02 2.00097542e-02 1.74757391e-02 7.18851434e-03
      1.18519505e-02 1.17526753e-02 1.75026193e-01 2.10171696e-02
      5.93267009e-03 6.50250446e-03 9.95351933e-03 2.78455541e-02
      4.25821394e-02 2.28537116e-02 2.42737517e-01 2.91479547e-02
      8.22780654e-03 9.01808869e-03 1.38041778e-02 3.86179946e-02
      5.90556338e-02 3.16949897e-02 2.86610541e-03 6.07426930e-03
      6.78651035e-03 2.25626514e-03 6.89494004e-03 2.42835227e-02
      1.71105806e-02 5.29596116e-04 1.48183834e-02 3.14052813e-02
      3.50877233e-02 1.16653778e-02 3.56483273e-02 1.25551060e-01
      8.84653926e-02 2.73812609e-03 5.77375991e-03 1.63505797e-03
      5.87897701e-03 1.41165107e-02 3.75254601e-02 7.94949476e-03
      7.28674326e-03 5.02865622e-03 6.21799054e-03 1.76085869e-03
      6.33130316e-03 1.52026294e-02 4.04126532e-02 8.56112596e-03
      7.84738269e-03 5.41555882e-03 2.03137025e-02 1.16803804e-02
      1.93881225e-02 5.40910736e-02 1.24429882e-01 4.35310975e-02
      3.27739790e-02 2.94986414e-04 3.40069532e-01 7.19492836e-03
      6.29111379e-03 7.37332832e-03 6.42362284e-03 6.94689248e-03
      6.90805539e-03 1.16543882e-02 2.90723722e-02 1.99096445e-02
      7.05825398e-03 1.04103866e-03 5.85393887e-03 7.14440877e-03
      9.48370993e-03 4.97531705e-03 3.48398387e-02 2.38593817e-02
      8.45849141e-03 1.24756317e-03 7.01526087e-03 8.56173784e-03
      1.13651175e-02 5.96233597e-03 1.58863768e-01 1.49555907e-01
      1.84792504e-02 2.11039511e-03 9.06515168e-04 2.57755234e-03
      4.55052621e-04 1.72463956e-03 8.99891555e-02 8.47166777e-02
      1.04676625e-02 1.19544368e-03 5.13499952e-04 1.46006711e-03
      2.57766806e-04 9.76930489e-04 5.19479252e-02 3.41398530e-02
      1.66558586e-02 2.16354281e-02 1.88955385e-02 7.77253835e-03
      1.28148515e-02 1.27075100e-02 4.94107045e-02 3.24724056e-02
      1.58423595e-02 2.05787178e-02 1.79726500e-02 7.39291497e-03
      1.21889524e-02 1.20868543e-02 1.80002943e-01 2.16147788e-02
      6.10136148e-03 6.68739853e-03 1.02365408e-02 2.86373235e-02
      4.37929332e-02 2.35035419e-02 2.60890990e-01 3.13278250e-02
      8.84313416e-03 9.69251897e-03 1.48365423e-02 4.15060967e-02
      6.34721890e-02 3.40653434e-02 3.08045116e-03 6.52854191e-03
      7.29404902e-03 2.42500310e-03 7.41058774e-03 2.60995999e-02
      1.83902197e-02 5.69202704e-04 6.10148208e-03 1.29311522e-02
      1.44474003e-02 4.80322959e-03 1.46782305e-02 5.16957566e-02
      3.64257023e-02 1.12742581e-03 2.37735058e-03 6.73236558e-04
      2.42067385e-03 5.81248524e-03 1.54511407e-02 3.27321119e-03
      3.00032296e-03 2.07055360e-03 3.82671063e-03 1.08367752e-03
      3.89644597e-03 9.35608707e-03 2.48709805e-02 5.26873581e-03
      4.82948031e-03 3.33287357e-03 1.25015723e-02 7.18840538e-03
      1.19319465e-02 3.32890302e-02 7.65773356e-02 2.67901532e-02
      2.01699454e-02 1.81542200e-04 2.99835563e-01 1.18602142e-02
      2.94778123e-02 1.05831418e-02 6.19010301e-03 3.76992347e-03 0.
      2.18705628e-02 4.89660054e-02 1.42863430e-02 1.04512926e-02
      8.39397218e-03 7.84659851e-03 1.37964394e-02 2.55000070e-02
      9.77134611e-03 5.86800277e-02 1.71205103e-02 1.25246523e-02
      1.00591937e-02 9.40322969e-03 1.65334195e-02 3.05587761e-02
      1.17098158e-02 1.14227049e-01 2.33250558e-02 8.06424301e-03
      2.15144195e-02 1.88975148e-02 9.91056114e-02 8.01353604e-02
      3.21581736e-02 6.47044778e-02 1.32125923e-02 4.56802966e-03
      1.21869482e-02 1.07045900e-02 5.61388619e-02 4.53930683e-02
      1.82161555e-02 1.68534331e-02 1.30196527e-01 2.20756352e-01
      6.82458282e-04 1.10326214e-02 6.61739428e-03 1.48658426e-02
      7.72403833e-03 1.60302836e-02 1.23837523e-01 2.09974244e-01
      6.49125897e-04 1.04937702e-02 6.29418995e-03 1.41397705e-02
      7.34678376e-03 9.87620652e-03 8.72780159e-02 1.19950604e-02
      2.42381496e-03 3.74404178e-03 3.27284681e-03 1.98423327e-03
      2.13783211e-03 1.43142845e-02 1.26498193e-01 1.73852872e-02
      3.51300649e-03 5.42650418e-03 4.74356813e-03 2.87588942e-03
      3.09851114e-03 5.05851172e-02 1.38489664e-01 1.20998779e-03
      1.50248678e-02 1.85669549e-02 3.47674266e-02 6.62088441e-03
      2.04475354e-02 1.00194477e-01 2.74307966e-01 2.39663571e-03
      2.97599155e-02 3.67757641e-02 6.88642114e-02 1.31140556e-02
      4.05006520e-02 1.47848967e-02 0. 6.17849641e-03 1.65662020e-02
      5.73901646e-02 1.29478380e-01 2.52220090e-02 7.17682811e-03
      2.37985607e-02 0. 9.94523801e-03 2.66658440e-02 9.23782811e-02
      2.08415315e-01 4.05986942e-02 1.15522062e-02 2.06994452e-02
      1.05441445e-02 1.32130436e-03 3.06016160e-03 2.09947973e-02
      1.07947342e-01 1.70015395e-01 6.96827751e-03 2.91831166e-01
      1.15435952e-02 2.86908746e-02 1.03006149e-02 6.02485240e-03
      3.66928172e-03 0. 2.12867074e-02 4.76588123e-02 1.39049552e-02
      1.01722861e-02 8.16988759e-03 7.63712591e-03 1.34281311e-02
      2.48192605e-02 9.51049104e-03 5.08685298e-02 1.48414243e-02
      1.08573670e-02 8.72011110e-03 8.15146975e-03 1.43324863e-02
      2.64907833e-02 1.01510016e-02 9.90211144e-02 2.02200189e-02
      6.99072843e-03 1.86504144e-02 1.63818728e-02 8.59126449e-02
      6.94677159e-02 2.78772693e-02 6.35741428e-02 1.29817799e-02
      4.48823022e-03 1.19740535e-02 1.05175897e-02 5.51581644e-02
      4.46000881e-02 1.78979337e-02 1.65590197e-02 1.27922118e-01
      2.16899931e-01 6.70536305e-04 1.08398907e-02 6.50179433e-03
      1.46061489e-02 7.58910598e-03 1.99965574e-02 1.54477865e-01
      2.61926860e-01 8.09735036e-04 1.30901774e-02 7.85152242e-03
      1.76382847e-02 9.16455220e-03 1.23198153e-02 1.08872674e-01
      1.49629228e-02 3.02352454e-03 4.67040669e-03 4.08262713e-03
      2.47517973e-03 2.66678259e-03 1.70085635e-02 1.50308087e-01
      2.06576008e-02 4.17423528e-03 6.44789776e-03 5.63641731e-03
      3.41719831e-03 3.68172233e-03 6.01064041e-02 1.64556623e-01
      1.43773539e-03 1.78528950e-02 2.20616832e-02 4.13114578e-02
      7.86708761e-03 2.42962334e-02 8.21540430e-02 2.24917665e-01
      1.96511135e-03 2.44015176e-02 3.01541332e-02 5.64649217e-02
      1.07528158e-02 3.32083404e-02 1.21228145e-02 0. 5.06603206e-03
      1.35833882e-02 4.70568277e-02 1.06165253e-01 2.06806809e-02
      5.88461012e-03 1.70901287e-02 0. 7.14183552e-03 1.91491731e-02
      6.63383305e-02 1.49666399e-01 2.91545745e-02 8.29582568e-03
      1.48646059e-02 7.57192029e-03 9.48849891e-04 2.19755131e-03
      1.50767025e-02 7.75187239e-02 1.22090802e-01 5.00403205e-03
      2.97308803e-01 1.63386539e-02 5.88944647e-03 8.14873446e-03
      8.87541380e-03 1.43160438e-02 6.56067580e-03 1.33966627e-02
      3.06709902e-03 1.54808047e-03 1.17931608e-03 5.60695259e-03
      2.75831092e-02 5.61812669e-02 2.41871942e-02 1.16423238e-03
      3.27366148e-03 1.65234029e-03 1.25874043e-03 5.98456850e-03
      2.94407718e-02 5.99649549e-02 2.58161500e-02 1.24264089e-03
      9.72045511e-02 1.13883868e-01 4.57774438e-02 3.65098827e-02
      3.67584676e-02 1.67436581e-02 2.86288578e-02 6.92442199e-03
      6.24078624e-02 7.31164142e-02 2.93903146e-02 2.34402996e-02
      2.35998947e-02 1.07498653e-02 1.83804743e-02 4.44565993e-03
      1.33797303e-02 1.24124791e-02 1.92206744e-02 4.90389951e-02
      1.16275465e-02 9.39215906e-03 1.04288813e-02 6.18831627e-03
      1.61572713e-02 1.49892243e-02 2.32107546e-02 5.92191555e-02
      1.40413456e-02 1.13419071e-02 1.25938449e-02 7.47296866e-03
      1.76537465e-02 7.22132623e-02 6.55555427e-02 1.87824331e-02
      1.16977748e-02 1.46650719e-02 1.64096302e-03 7.35407288e-04
      2.43725125e-02 9.96966213e-02 9.05050561e-02 2.59307623e-02
      1.61497835e-02 2.02463921e-02 2.26549059e-03 1.01529295e-03
      1.56980138e-02 1.06353134e-01 1.76017042e-02 1.32854339e-02
      6.06696773e-03 8.28412734e-03 1.41723081e-03 2.89673248e-04
      2.14562062e-02 1.45364538e-01 2.40581874e-02 1.81586649e-02
      8.29239283e-03 1.13228299e-02 1.93708541e-03 3.95928335e-04
      9.71993245e-03 8.31599720e-03 2.02981289e-02 1.02050463e-02
      1.07755894e-02 1.76819824e-02 1.18760336e-02 5.56320511e-03
      1.37026692e-02 1.17234709e-02 2.86152735e-02 1.43865570e-02
      1.51908807e-02 2.49271635e-02 1.67422313e-02 7.84272514e-03
      1.41773177e-02 1.09343196e-03 7.84884673e-03 3.40011939e-02
      8.88358802e-02 1.14656113e-01 5.85112348e-02 5.63560845e-03</_>
    <_>
      8.18296522e-02 2.85698869e-03 5.36757987e-03 1.53588541e-02
      2.01539826e-02 4.39232774e-02 2.99994927e-02 6.96159229e-02
      6.78455010e-02 1.61389541e-02 3.47135123e-04 6.65846840e-02
      5.64779043e-02 6.41983422e-03 5.78895258e-03 7.96702597e-03
      7.50958323e-02 1.78636480e-02 3.84231855e-04 7.37002790e-02
      6.25134334e-02 7.10589206e-03 6.40759105e-03 8.81842431e-03
      3.67807038e-02 3.09064835e-02 1.87369391e-01 7.32284412e-02
      7.68235535e-04 7.02433335e-03 1.48398373e-02 1.27405990e-02
      4.00895253e-02 3.36868577e-02 2.04225302e-01 7.98161328e-02
      8.37346655e-04 7.65624829e-03 1.61748417e-02 1.38867535e-02
      1.35186024e-03 5.05689159e-02 2.51418620e-01 4.95760478e-02 0. 0.
      1.93704583e-03 3.57479221e-05 1.00177259e-03 3.74732204e-02
      1.86309412e-01 3.67374718e-02 0. 0. 1.43541431e-03 2.64903792e-05
      2.55315914e-03 8.70766863e-03 5.65723516e-02 7.92010278e-02
      1.84430294e-02 3.82269523e-03 0. 3.29266698e-03 2.00895942e-03
      6.85164984e-03 4.45140898e-02 6.23195171e-02 1.45119419e-02
      3.00789694e-03 0. 2.59084278e-03 5.16236154e-03 5.19364467e-03
      6.93713641e-03 1.81812476e-02 1.14612142e-02 3.80136892e-02
      5.54867927e-03 5.26811602e-03 8.84214416e-03 8.89572594e-03
      1.18819969e-02 3.11410241e-02 1.96308810e-02 6.51102215e-02
      9.50383302e-03 9.02328175e-03 5.42560313e-03 2.63155438e-03
      9.38163605e-03 9.51734334e-02 5.01454286e-02 2.52114031e-02
      1.42940665e-02 6.75153278e-04 1.52829392e-02 7.41261104e-03
      2.64263637e-02 2.68086284e-01 1.41250566e-01 7.10159466e-02
      4.02637906e-02 1.90178410e-03 1.14746355e-01 2.41378620e-02
      7.55418267e-04 7.25437247e-04 2.04649032e-03 3.23567772e-04
      3.15779783e-02 9.55834892e-03 9.70845222e-02 9.07200668e-03
      1.33621752e-01 6.64574429e-02 0. 8.49486236e-03 1.46108875e-02
      3.86352069e-03 5.47806325e-04 3.68140463e-04 6.02700748e-03
      1.62271202e-01 6.49120018e-04 1.11967725e-04 0. 1.43980506e-04
      6.06347807e-04 4.07481915e-04 6.67108549e-03 1.79612368e-01
      7.18488416e-04 1.23933190e-04 0. 1.59367031e-04 3.52423824e-03
      3.81014161e-02 2.58490667e-02 3.97313163e-02 8.78248662e-02
      7.29794439e-04 3.93008202e-04 0. 3.84128164e-03 4.15290520e-02
      2.81744711e-02 4.33055796e-02 9.57256705e-02 7.95447326e-04
      4.28363535e-04 0. 1.39261421e-03 8.58949218e-03 2.22822055e-02
      1.31982297e-03 2.52007449e-04 3.84983665e-04 6.70514884e-04
      4.71502935e-05 1.03197258e-03 6.36509433e-03 1.65118426e-02
      9.78032011e-04 1.86745761e-04 2.85285496e-04 4.96873457e-04
      3.49399088e-05 2.52094835e-01 4.31733951e-02 3.66516896e-02
      6.16025552e-02 4.63975035e-02 1.68016143e-02 5.64221293e-03
      7.61690065e-02 1.98361427e-01 3.39710899e-02 2.88394708e-02
      4.84721176e-02 3.65079865e-02 1.32203903e-02 4.43958864e-03
      5.99337630e-02 1.00115433e-01 4.65859572e-04 6.68147768e-05
      8.73772951e-05 2.33444269e-04 8.54319893e-03 1.29949495e-01
      1.05221510e-01 1.71478719e-01 7.97928893e-04 1.14441020e-04
      1.49660700e-04 3.99845681e-04 1.46328760e-02 2.22578794e-01
      1.80224463e-01 1.37824202e-02 4.07326093e-04 1.27868872e-04
      5.26934047e-04 2.16265762e-04 7.88111647e-05 3.77520989e-03
      2.37410907e-02 3.88225764e-02 1.14736368e-03 3.60183389e-04
      1.48427754e-03 6.09181414e-04 2.21996743e-04 1.06340814e-02
      6.68743402e-02 1.20933533e-01 1.70511752e-03 7.89509795e-04 0.
      5.47193224e-04 0. 3.58874036e-04 0. 1.78359732e-01 1.66667216e-02
      2.45484442e-01 1.22092910e-01 0. 1.56064145e-02 2.68425271e-02
      7.09790224e-03 1.00640743e-03 6.76332624e-04 1.10725723e-02
      2.98118025e-01 1.19253679e-03 2.05702541e-04 0. 2.64515111e-04
      1.31632446e-03 8.84605106e-04 1.44823026e-02 3.89921665e-01
      1.55977113e-03 2.69047392e-04 0. 3.45970941e-04 7.65079167e-03
      8.27146098e-02 5.61159067e-02 8.62529725e-02 1.90659583e-01
      1.58431544e-03 8.53184029e-04 0. 1.24131506e-02 1.34201661e-01
      9.10461619e-02 1.39942542e-01 3.09338719e-01 2.57049827e-03
      1.38426223e-03 0. 4.50025033e-03 2.77570523e-02 7.20052347e-02
      4.26502479e-03 8.14365339e-04 1.24407967e-03 2.16677762e-03
      1.52366789e-04 1.15227257e-03 7.10709160e-03 1.84366759e-02
      1.09204394e-03 2.08515252e-04 3.18542036e-04 5.54795435e-04
      3.90129535e-05 2.81482249e-01 4.82062399e-02 4.09242809e-02
      6.87837377e-02 5.18061928e-02 1.87602267e-02 6.29994180e-03
      8.50482434e-02 1.54043660e-01 2.63812914e-02 2.23961771e-02
      3.76425125e-02 2.83513982e-02 1.02666998e-02 3.44769889e-03
      4.65434045e-02 7.77477175e-02 3.61777551e-04 5.18870693e-05
      6.78555225e-05 1.81288327e-04 6.63448358e-03 1.00916274e-01
      8.17129984e-02 1.42482162e-01 6.63001440e-04 9.50893736e-05
      1.24353508e-04 3.32232914e-04 1.21584991e-02 1.84941366e-01
      1.49749026e-01 1.14518525e-02 3.38448415e-04 1.06246618e-04
      4.37831011e-04 1.79695839e-04 6.54844262e-05 3.13683273e-03
      1.97265409e-02 5.12138195e-02 1.51357497e-03 4.75145411e-04
      1.95802376e-03 8.03617644e-04 2.92852841e-04 1.40282279e-02
      8.82190466e-02 1.59532651e-01 2.24935054e-03 1.04150258e-03 0.
      7.21844379e-04 0. 4.73418128e-04 0. 3.78164346e-03 2.23487313e-03
      5.28487191e-03 8.59201793e-03 8.18754360e-03 9.12800373e-04
      4.00565192e-03 7.65175442e-04 4.07031737e-03 4.48949635e-03
      7.17930868e-03 8.54552910e-03 4.36061062e-03 7.06628896e-03
      4.86521423e-03 9.71901696e-04 5.32374671e-03 5.87200979e-03
      9.39013343e-03 1.11770723e-02 5.70343388e-03 9.24230926e-03
      6.36342727e-03 1.27119280e-03 5.52375277e-04 5.52534238e-02
      1.14099700e-02 1.57919992e-02 1.46216042e-02 1.23285549e-02
      9.24658263e-04 1.62951474e-04 8.96210200e-04 8.96468163e-02
      1.85122918e-02 2.56219860e-02 2.37230584e-02 2.00026631e-02
      1.50022679e-03 2.64383270e-04 5.41674718e-03 0. 3.59215518e-03 0.
      2.55516171e-03 1.24122994e-03 2.35238136e-03 8.72511417e-04
      1.38693815e-03 0. 9.19758109e-04 0. 6.54239790e-04 3.17812373e-04
      6.02318614e-04 2.23403345e-04 3.80686820e-02 9.56839503e-05
      1.57455615e-05 8.07877537e-03 6.21878020e-02 2.10236795e-02
      1.43561840e-01 9.26432982e-02 2.08334234e-02 5.23638882e-05
      8.61689750e-06 4.42118151e-03 3.40328254e-02 1.15053952e-02
      7.85654932e-02 5.06998673e-02 9.45726782e-02 3.12685370e-02
      5.93417026e-02 1.65009964e-02 6.54345467e-06 8.57011299e-04
      2.97546823e-04 2.88735260e-04 1.73315942e-01 5.73033988e-02
      1.08750895e-01 3.02400850e-02 1.19916776e-05 1.57057762e-03
      5.45290764e-04 5.29142504e-04 3.16086113e-02 1.01515939e-02
      2.86366735e-02 8.66013020e-03 5.84257441e-03 6.81597507e-03
      5.77742048e-03 4.25108569e-03 1.41356841e-01 4.53989394e-02
      1.28066048e-01 3.87289636e-02 2.61285733e-02 3.04817185e-02
      2.58371979e-02 1.90112758e-02 1.91376761e-01 4.18988895e-03
      5.46424510e-03 1.05859514e-03 9.98728210e-05 0. 1.16875703e-02
      8.59037228e-03 1.38517367e-02 8.18608981e-03 1.93578936e-02
      3.14716026e-02 2.99900565e-02 3.34348553e-03 1.46722551e-02
      2.80275196e-03 1.49091166e-02 1.64445229e-02 2.62970049e-02
      3.13013159e-02 1.59724280e-02 2.58830246e-02 1.78207345e-02
      3.55996704e-03 1.21260583e-02 1.33748529e-02 2.13881899e-02
      2.54583545e-02 1.29908836e-02 2.10514870e-02 1.44941695e-02
      2.89543439e-03 1.25816173e-03 1.25852391e-01 2.59888340e-02
      3.59699130e-02 3.33040692e-02 2.80811209e-02 2.10612197e-03
      3.71159491e-04 1.69355609e-03 1.69404343e-01 3.49824205e-02
      4.84175123e-02 4.48291376e-02 3.77987586e-02 2.83495779e-03
      4.99601418e-04 1.02359522e-02 0. 6.78804610e-03 0. 4.82845400e-03
      2.34553521e-03 4.44526272e-03 1.64877274e-03 2.80814432e-03 0.
      1.86224130e-03 0. 1.32464431e-03 6.43477135e-04 1.21951918e-03
      4.52326465e-04 7.70779550e-02 1.93732019e-04 3.18801576e-05
      1.63571592e-02 1.25912115e-01 4.25668061e-02 2.90670753e-01
      1.87575608e-01 4.27791439e-02 1.07523483e-04 1.76938520e-05
      9.07840952e-03 6.98826611e-02 2.36250628e-02 1.61325589e-01
      1.04106598e-01 1.94194585e-01 6.42064959e-02 1.21851653e-01
      3.38829793e-02 1.34362645e-05 1.75977836e-03 6.10979623e-04
      5.92886063e-04 2.78193027e-01 9.19788703e-02 1.74558312e-01
      4.85389866e-02 1.92480911e-05 2.52096658e-03 8.75257538e-04
      8.49337608e-04 5.07356338e-02 1.62945334e-02 4.59653176e-02
      1.39005547e-02 9.37803742e-03 1.09404633e-02 9.27345734e-03
      6.82350527e-03 1.06112972e-01 3.40798236e-02 9.61359143e-02
      2.90728435e-02 1.96140539e-02 2.28818487e-02 1.93953253e-02
      1.42712807e-02 1.43661648e-01 3.14524281e-03 4.10186918e-03
      7.94660358e-04 7.49719766e-05 0. 8.77356064e-03 6.44857297e-03
      7.09237382e-02 3.21140215e-02 1.43071394e-02 4.92586568e-03
      3.15148057e-03 3.79413888e-02 2.11167950e-02 5.66873048e-03
      1.28047183e-01 4.17678570e-03 9.27199796e-03 3.61013710e-02
      3.71570326e-02 5.33572398e-02 1.13947339e-01 1.51927859e-01
      1.04144841e-01 3.39711271e-03 7.54121039e-03 2.93623935e-02
      3.02209947e-02 4.33971398e-02 9.26769897e-02 1.23567753e-01
      1.94593575e-02 1.13018434e-02 3.78816435e-03 1.23633565e-02
      3.13270129e-02 2.50590555e-02 6.95099980e-02 1.61715802e-02
      2.61933822e-02 1.52129121e-02 5.09908097e-03 1.66417696e-02
      4.21679094e-02 3.37308906e-02 9.35643390e-02 2.17678491e-02
      1.00142106e-01 3.31233665e-02 3.49593870e-02 1.51340157e-01
      1.11662494e-02 1.51356412e-02 7.96840154e-03 2.10343339e-02
      2.74731144e-02 9.08710714e-03 9.59080365e-03 4.15188558e-02
      3.06336349e-03 4.15233150e-03 2.18606158e-03 5.77058643e-03
      4.07248910e-04 6.16772287e-03 6.18669093e-02 6.71306774e-02
      4.69312677e-03 5.62134758e-03 2.43774708e-03 1.36709103e-04
      2.26027783e-04 3.42315645e-03 3.43368389e-02 3.72582935e-02
      2.60473881e-03 3.11991200e-03 1.35297736e-03 7.58751121e-05
      3.67755466e-03 6.14584051e-03 1.73242055e-02 2.61533391e-02
      1.33314729e-02 1.75110307e-02 1.02727523e-03 4.39605443e-03
      5.26827294e-03 8.80421046e-03 2.48177536e-02 3.74659076e-02
      1.90979727e-02 2.50853878e-02 1.47162087e-03 6.29755761e-03
      3.27593908e-02 9.26907081e-03 1.01938797e-02 2.38170195e-02
      1.83525253e-02 5.59026608e-03 6.27328642e-03 4.59044147e-03
      6.85158744e-02 1.93861518e-02 2.13203784e-02 4.98130135e-02
      3.83840874e-02 1.16919745e-02 1.31205041e-02 9.60085355e-03
      1.82235360e-01 5.27128503e-02 9.66401398e-03 0. 7.93210813e-04 0.
      8.97554797e-04 1.32995928e-02 4.15918343e-02 1.88326370e-02
      8.39014072e-03 2.88867718e-03 1.84812385e-03 2.22499818e-02
      1.23835308e-02 3.32431565e-03 7.50907585e-02 2.44939397e-03
      5.43738110e-03 2.11709421e-02 2.17900109e-02 3.12903076e-02
      6.68221787e-02 8.90951082e-02 7.26860315e-02 2.37095403e-03
      5.26325312e-03 2.04929579e-02 2.10922025e-02 3.02882567e-02
      6.46822527e-02 8.62419084e-02 1.35813113e-02 7.88791943e-03
      2.64388160e-03 8.62878375e-03 2.18641292e-02 1.74895208e-02
      4.85132597e-02 1.12866648e-02 2.18822323e-02 1.27090290e-02
      4.25982662e-03 1.39027117e-02 3.52275223e-02 2.81791463e-02
      7.81646520e-02 1.81850940e-02 8.36597830e-02 2.76716147e-02
      2.92054452e-02 1.26431182e-01 9.32840444e-03 1.26444763e-02
      6.65688794e-03 1.75723061e-02 4.99683917e-02 1.65277272e-02
      1.74438562e-02 7.55149350e-02 5.57167782e-03 7.55230431e-03
      3.97603214e-03 1.04956040e-02 7.40708667e-04 1.12179201e-02
      1.12524189e-01 1.22097999e-01 8.53590854e-03 1.02241673e-02
      4.43380000e-03 2.48647993e-04 8.61870823e-04 1.30529022e-02
      1.30930454e-01 1.42070293e-01 9.93217900e-03 1.18965954e-02
      5.15906326e-03 2.89320829e-04 1.40229529e-02 2.34348215e-02
      6.60592541e-02 9.97257903e-02 5.08344881e-02 6.67716414e-02
      3.91712226e-03 1.67626776e-02 2.17712652e-02 3.63836139e-02
      1.02559969e-01 1.54828787e-01 7.89228380e-02 1.03665978e-01
      6.08150894e-03 2.60248110e-02 1.35378987e-01 3.83046605e-02
      4.21264581e-02 9.84244198e-02 7.58422613e-02 2.31019109e-02
      2.59245094e-02 1.89701114e-02 9.20782760e-02 2.60529872e-02
      2.86523886e-02 6.69435561e-02 5.15842550e-02 1.57128088e-02
      1.76326036e-02 1.29025578e-02 2.44905531e-01 7.08406344e-02
      1.29874386e-02 0. 1.06599357e-03 0. 1.20622106e-03 1.78732798e-02
      1.98009927e-02 7.94715364e-04 9.43680934e-04 1.14676508e-03
      3.02277086e-03 1.30378862e-03 1.33609737e-03 4.10364417e-04
      2.55565673e-01 4.55686264e-02 0. 7.38478906e-04 1.64543570e-03
      7.82025512e-04 2.48279534e-02 2.17457429e-01 2.47381359e-01
      4.41093259e-02 0. 7.14829715e-04 1.59274181e-03 7.56981724e-04
      2.40328554e-02 2.10493520e-01 1.44579010e-02 8.07147881e-05
      2.08763435e-04 6.53620053e-04 8.99898223e-05 1.51487568e-03
      6.15075324e-03 1.27485348e-02 2.32945960e-02 1.30047803e-04
      3.36360012e-04 1.05311384e-03 1.44991762e-04 2.44077039e-03
      9.91010480e-03 2.05404628e-02 2.44135424e-01 1.28603140e-02
      4.42906749e-03 5.59367798e-03 2.33912445e-03 9.70794790e-05
      8.88338834e-02 5.81806898e-02 1.45817444e-01 7.68122077e-03
      2.64539779e-03 3.34099703e-03 1.39711436e-03 5.79837215e-05
      5.30587882e-02 3.47502157e-02 5.42076267e-02 2.10382625e-01
      1.80549808e-02 1.29655527e-04 1.25351653e-03 2.59602384e-04
      5.06584765e-04 9.38247982e-03 6.30746931e-02 2.44796172e-01
      2.10083425e-02 1.50864056e-04 1.45856175e-03 3.02067114e-04
      5.89449832e-04 1.09172286e-02 4.48798673e-04 4.48798673e-04
      3.17348575e-04 0. 4.48798673e-04 0. 3.17348575e-04 0.
      6.96780160e-04 6.96780160e-04 4.92697989e-04 0. 6.96780160e-04 0.
      4.92697989e-04 0. 2.04003276e-03 1.39356032e-03 1.44252111e-03 0.
      1.34325284e-03 9.50489019e-04 1.44252111e-03 0. 1.38753222e-03
      9.47832654e-04 9.81133431e-04 0. 9.13615921e-04 6.46476925e-04
      9.81133431e-04 0. 3.11115205e-01 1.84903853e-02 1.88770203e-03
      3.18615057e-04 7.61390605e-04 0. 8.25134397e-04 3.05315829e-04
      1.90786682e-02 7.65724806e-04 9.09256283e-04 1.10493205e-03
      2.91250274e-03 1.25622749e-03 1.28735765e-03 3.95394687e-04
      2.46242836e-01 4.39063236e-02 0. 7.11539818e-04 1.58541161e-03
      7.53497879e-04 2.39222497e-02 2.09524766e-01 2.38969088e-01
      4.26093750e-02 0. 6.90521672e-04 1.53858017e-03 7.31240376e-04
      2.32156105e-02 2.03335628e-01 1.39662558e-02 7.79700567e-05
      2.01664370e-04 6.31393516e-04 8.69296928e-05 1.46336190e-03
      5.94159542e-03 1.23150172e-02 2.36948039e-02 1.32282061e-04
      3.42138781e-04 1.07120664e-03 1.47482759e-04 2.48270342e-03
      1.00803636e-02 2.08933540e-02 2.48329744e-01 1.30812582e-02
      4.50516026e-03 5.68977883e-03 2.37931125e-03 9.87473322e-05
      9.03600827e-02 5.91802523e-02 1.34951040e-01 7.10881129e-03
      2.44826102e-03 3.09202401e-03 1.29300065e-03 5.36627376e-05
      4.91048135e-02 3.21606100e-02 5.01680449e-02 1.94704786e-01
      1.67095140e-02 1.19993521e-04 1.16010371e-03 2.40256675e-04
      4.68833750e-04 8.68329220e-03 9.29009989e-02 3.60553622e-01
      3.09426170e-02 2.22203569e-04 2.14827596e-03 4.44906444e-04
      8.68184667e-04 1.60796884e-02 6.61023369e-04 6.61023369e-04
      4.67414124e-04 0. 6.61023369e-04 0. 4.67414124e-04 0.
      1.65683981e-02 1.65683981e-02 1.17156263e-02 0. 1.65683981e-02 0.
      1.17156263e-02 0. 4.85089533e-02 3.31367962e-02 3.43010128e-02 0.
      3.19405571e-02 2.26012189e-02 3.43010128e-02 0. 1.83135050e-03
      1.25100790e-03 1.29496038e-03 0. 1.20584655e-03 8.53260048e-04
      1.29496038e-03 0. 4.10629004e-01 2.44047474e-02 2.49150535e-03
      4.20527766e-04 1.00493024e-03 0. 1.08906324e-03 4.02974634e-04
      1.97835695e-02 5.88517578e-04 8.00951151e-04 4.75516892e-04
      1.00429507e-03 3.66685825e-04 6.42746745e-04 1.29837671e-03
      1.21163234e-01 6.17545769e-02 4.57961597e-02 1.23576131e-02
      4.16390970e-02 4.60488871e-02 3.60363498e-02 5.58866598e-02
      1.17584199e-01 5.99304102e-02 4.44433875e-02 1.19925821e-02
      4.04091217e-02 4.46886532e-02 3.49718705e-02 5.42358235e-02
      1.63016580e-02 1.70766115e-02 2.75274878e-03 1.69242368e-04
      2.20532675e-04 1.49256107e-03 2.60404963e-03 5.35232900e-03
      2.76569892e-02 2.89717540e-02 4.67024557e-03 2.87132425e-04
      3.74150259e-04 2.53224210e-03 4.41796565e-03 9.08062886e-03
      1.60165623e-01 3.72327492e-03 1.64057885e-03 6.33595977e-04
      4.18949407e-04 1.35933921e-01 1.19903915e-01 1.71202812e-02
      8.70395824e-02 2.02335720e-03 8.91547708e-04 3.44318134e-04
      2.27671699e-04 7.38712251e-02 6.51599616e-02 9.30375699e-03
      6.81247413e-02 2.53068225e-04 1.47803500e-03 0. 6.62381120e-04
      1.80524585e-04 1.22398593e-01 6.55740872e-02 1.26153156e-01
      4.68630809e-04 2.73701991e-03 0. 1.22659490e-03 3.34294775e-04
      2.26657271e-01 1.21429853e-01 1.46258029e-03 1.46258029e-03
      2.80448468e-03 0. 4.24720719e-03 0. 3.93805746e-03 0.
      3.66592370e-02 3.66592370e-02 7.02937618e-02 0. 1.06455266e-01 0.
      9.87064987e-02 0. 6.09976240e-02 4.51142639e-02 5.09981215e-02
      1.90742165e-02 4.97323796e-02 0. 1.38396248e-01 8.98720138e-03
      2.30283313e-03 1.70319120e-03 1.92532362e-03 7.20105716e-04
      1.87753828e-03 0. 5.22485049e-03 3.39292310e-04 3.46760124e-01
      1.80071890e-02 4.89228871e-03 5.46745211e-02 7.41616637e-02
      1.16777215e-02 9.40325699e-05 2.74651367e-02 4.00121510e-02
      1.19027332e-03 1.61991897e-03 9.61730140e-04 2.03118077e-03
      7.41619966e-04 1.29995157e-03 2.62595923e-03 2.45051935e-01
      1.24898270e-01 9.26224589e-02 2.49931999e-02 8.42148289e-02
      9.31336060e-02 7.28833005e-02 1.13030441e-01 2.37242192e-01
      1.20917797e-01 8.96706060e-02 2.41966732e-02 8.15309212e-02
      9.01654661e-02 7.05605298e-02 1.09428190e-01 3.28908227e-02
      3.44543941e-02 5.55404695e-03 3.41469626e-04 4.44954814e-04
      3.01144598e-03 5.25402604e-03 1.07990550e-02 2.60296501e-02
      2.72670556e-02 4.39544814e-03 2.70237535e-04 3.52135248e-04
      2.38324492e-03 4.15801257e-03 8.54632445e-03 1.50741473e-01
      3.50419735e-03 1.54404715e-03 5.96315193e-04 3.94298433e-04
      1.27935559e-01 1.12848766e-01 1.61129236e-02 7.06948712e-02
      1.64340157e-03 7.24128564e-04 2.79660424e-04 1.84918419e-04
      5.99993356e-02 5.29239140e-02 7.55665312e-03 5.53319529e-02
      2.05545861e-04 1.20048248e-03 0. 5.37996006e-04 1.46624807e-04
      9.94139984e-02 5.32602705e-02 7.17327967e-02 2.66471325e-04
      1.55631534e-03 0. 6.97462412e-04 1.90085600e-04 1.28881112e-01
      6.90470487e-02 8.31647601e-04 8.31647601e-04 1.59467687e-03 0.
      2.41503306e-03 0. 2.23924522e-03 0. 3.12457699e-03 3.12457699e-03
      5.99134853e-03 0. 9.07350238e-03 0. 8.41305219e-03 0.
      5.19901095e-03 3.84522439e-03 4.34672320e-03 1.62575289e-03
      4.23884066e-03 0. 1.17959287e-02 7.66006182e-04 2.12772982e-03
      1.57368358e-03 1.77892542e-03 6.65350177e-04 1.73477363e-03 0.
      4.82756225e-03 3.13493103e-04 3.20393085e-01 1.66379549e-02
      4.52028774e-03 5.05171679e-02 6.85225427e-02 1.07897688e-02
      8.68825009e-05 2.53767371e-02 1.60390567e-02 7.84590200e-04
      1.43005804e-03 8.18474125e-03 7.84000289e-03 5.98028162e-03
      1.31344143e-02 4.08313097e-03 1.70583953e-03 1.59861718e-03
      4.13820473e-03 1.59831289e-02 1.05222175e-02 4.49689850e-03
      2.25853757e-03 5.09312144e-04 1.65147486e-03 1.54766964e-03
      4.00632154e-03 1.54737504e-02 1.01868771e-02 4.35358332e-03
      2.18655868e-03 4.93080530e-04 9.67344851e-04 3.14630568e-04
      4.42800374e-04 2.00967793e-03 1.08999005e-02 2.10207142e-02
      7.62754306e-03 3.55354772e-04 7.65552395e-04 2.48997210e-04
      3.50430259e-04 1.59045018e-03 8.62613320e-03 1.66356992e-02
      6.03640359e-03 2.81226181e-04 2.01249262e-03 2.00200500e-03
      1.85750768e-01 6.17748983e-02 2.50689052e-02 1.23106860e-01
      7.83298388e-02 3.39593389e-04 9.43820516e-04 9.38902085e-04
      8.71135592e-02 2.89712455e-02 1.17568374e-02 5.77347651e-02
      3.67351957e-02 1.59262810e-04 2.85686664e-02 0. 9.69586370e-04
      3.67364293e-04 1.02713808e-01 2.00256601e-01 3.86666283e-02 0.
      3.70366499e-02 0. 1.25697977e-03 4.76254063e-04 1.33159012e-01
      2.59614289e-01 5.01277298e-02 0. 1.52779100e-02 6.89104991e-03
      1.18629914e-02 4.47447896e-02 8.29094499e-02 6.37357607e-02
      1.05774244e-02 2.04615039e-03 5.74005209e-02 2.58903112e-02
      4.45703566e-02 1.68110311e-01 3.11498463e-01 2.39461139e-01
      3.97403650e-02 7.68757612e-03 2.58834437e-02 4.48736874e-03
      2.13731383e-03 0. 3.00228276e-04 0. 1.79221318e-03 9.49579850e-03
      1.05929710e-02 1.83648535e-03 8.74709920e-04 0. 1.22870406e-04 0.
      7.33475143e-04 3.88621865e-03 1.05038509e-01 1.66694045e-01
      2.68004537e-02 5.44021465e-02 4.86474410e-02 2.32827254e-02
      3.03915683e-02 1.68304779e-02 1.05444100e-02 5.15805965e-04
      9.40149883e-04 5.38081909e-03 5.15418127e-03 3.93156195e-03
      8.63483734e-03 2.68433546e-03 1.12145441e-03 1.05096423e-03
      2.72054202e-03 1.05076423e-02 6.91752462e-03 2.95635476e-03
      1.48480968e-03 3.34832410e-04 1.38569437e-03 1.29859522e-03
      3.36156320e-03 1.29834795e-02 8.54744948e-03 3.65293864e-03
      1.83466438e-03 4.13726491e-04 8.11665028e-04 2.63995433e-04
      3.71538219e-04 1.68625009e-03 9.14572272e-03 1.76377408e-02
      6.40000263e-03 2.98165687e-04 3.32827971e-04 1.08252869e-04
      1.52351422e-04 6.91456662e-04 3.75025719e-03 7.23245926e-03
      2.62435852e-03 1.22264581e-04 8.74941819e-04 8.70382355e-04
      8.07561353e-02 2.68569645e-02 1.08988397e-02 5.35213612e-02
      3.40543129e-02 1.47640036e-04 4.62008844e-04 4.59601230e-04
      4.26428914e-02 1.41816922e-02 5.75508038e-03 2.82616988e-02
      1.79822166e-02 7.79606125e-05 1.39846252e-02 0. 4.74621484e-04
      1.79828217e-04 5.02793565e-02 9.80274528e-02 1.89276692e-02 0.
      1.88906565e-02 0. 6.41126302e-04 2.42914830e-04 6.79181591e-02
      1.32417053e-01 2.55678017e-02 0. 7.79254409e-03 3.51480092e-03
      6.05075480e-03 2.28222162e-02 4.22882140e-02 3.25086154e-02
      5.39504783e-03 1.04364520e-03 1.11283092e-02 5.01938630e-03
      8.64090957e-03 3.25917527e-02 6.03905879e-02 4.64246236e-02
      7.70451268e-03 1.49039971e-03 5.01805497e-03 8.69971642e-04
      4.14363662e-04 0. 5.82056200e-05 0. 3.47458554e-04 1.84096210e-03
      5.96964778e-03 1.03494769e-03 4.92941006e-04 0. 6.92433750e-05 0.
      4.13348462e-04 2.19007093e-03 5.91942444e-02 9.39400941e-02
      1.51033429e-02 3.06582209e-02 2.74151694e-02 1.31209334e-02
      1.71271078e-02 9.48478281e-03 5.21514304e-02 6.29497459e-03
      2.38152668e-02 3.86247300e-02 5.53075559e-02 2.71253046e-02
      1.21045701e-01 1.60617335e-03 3.48454667e-03 9.65034531e-04
      4.02173512e-02 8.29493403e-02 8.24675784e-02 3.32918316e-01
      5.33731990e-02 1.27732027e-02 4.30558436e-03 1.19241851e-03
      4.96934652e-02 1.02494083e-01 1.01898797e-01 4.11361396e-01
      6.59491271e-02 1.57828592e-02 1.07417610e-02 1.19601078e-02
      7.81434495e-03 8.26087873e-03 1.37437629e-02 4.06162292e-02
      6.97466955e-02 1.43452790e-02 4.40472178e-03 4.90431208e-03
      3.20431776e-03 3.38742160e-03 5.63570997e-03 1.66549217e-02
      2.86000408e-02 5.88236563e-03 5.27745858e-03 1.02680035e-01
      1.48949608e-01 3.68927270e-01 4.96328473e-02 2.14503314e-02
      4.62847645e-04 6.95094420e-03 2.78673670e-03 5.42197004e-02
      7.86521286e-02 1.94810271e-01 2.62083877e-02 1.13267442e-02
      2.44404480e-04 3.67041281e-03 9.45139618e-04 0. 1.49779478e-02
      1.29421636e-01 1.68544620e-01 5.27711539e-03 1.49168260e-02
      2.30121869e-03 1.27670984e-03 0. 2.02324521e-02 1.74824834e-01
      2.27672786e-01 7.12841237e-03 2.01498885e-02 3.10852332e-03
      2.91589391e-03 0. 1.45176298e-03 1.21549014e-02 1.08171917e-01
      4.58019078e-02 3.86208110e-03 4.15444234e-03 4.16410435e-03 0.
      2.07322114e-03 1.73580665e-02 1.54477224e-01 6.54083937e-02
      5.51532721e-03 5.93284005e-03 2.37739254e-02 3.13247591e-02
      9.60829183e-02 2.16060311e-01 8.96708518e-02 6.50842488e-02
      1.48579981e-02 2.62763631e-02 2.82822680e-02 3.72649953e-02
      1.14303485e-01 2.57032663e-01 1.06675476e-01 7.74264187e-02
      1.76755786e-02 3.12592499e-02 1.41424565e-02 1.73654109e-02
      7.17614312e-04 2.88641499e-03 1.89427391e-03 0. 1.43698566e-02
      2.48986785e-03</_>
    <_>
      6.50589168e-02 4.43865312e-03 2.32822653e-02 2.46631820e-03
      1.13282399e-03 3.45915905e-05 3.75760173e-05 3.87061085e-03
      2.93755960e-02 4.72739376e-02 2.23979622e-01 1.43861026e-02
      2.07399931e-02 1.77658182e-02 3.14119206e-05 1.44075137e-03
      2.58532129e-02 4.16053906e-02 1.97122559e-01 1.26610864e-02
      1.82530917e-02 1.56355463e-02 2.76453648e-05 1.26799301e-03
      3.00530400e-02 2.77433470e-02 1.21642955e-01 7.65073299e-02
      5.40731698e-02 3.03932745e-02 2.27488903e-03 4.45145974e-03
      2.52779610e-02 2.33352520e-02 1.02315299e-01 6.43512085e-02
      4.54815738e-02 2.55641360e-02 1.91343564e-03 3.74417449e-03
      1.75266545e-02 2.18965090e-03 7.31710484e-03 4.73353751e-02
      1.63342580e-02 1.17143176e-01 1.42160682e-02 1.26484968e-02
      1.58371255e-02 1.97857362e-03 6.61175279e-03 4.27723564e-02
      1.47596728e-02 1.05850838e-01 1.28456717e-02 1.14292111e-02
      2.68589403e-03 1.23696448e-03 0. 7.96017610e-03 4.37637866e-02
      1.75350845e-01 4.71948050e-02 6.00011274e-03 3.17221228e-03
      1.46093406e-03 0. 9.40147694e-03 5.16878292e-02 2.07100555e-01
      5.57400770e-02 7.08651636e-03 6.74554147e-04 0. 3.28435283e-03
      4.47936580e-02 5.67662418e-02 6.14717184e-03 0. 0. 9.55756521e-04
      0. 4.65350598e-03 6.34668544e-02 8.04304704e-02 8.70975293e-03 0.
      0. 1.10277021e-03 1.51742343e-03 1.17502399e-02 5.96142337e-02
      1.63883772e-02 1.74666569e-03 5.38071804e-03 1.88521044e-05
      1.73957588e-03 2.39367480e-03 1.85355339e-02 9.40390676e-02
      2.58520078e-02 2.75529525e-03 8.48786812e-03 2.97384413e-05
      1.43644735e-02 5.71552999e-02 2.68634763e-02 2.66194250e-03
      8.96913174e-04 9.24358261e-04 2.96067935e-03 1.47765491e-03
      1.33620739e-01 3.92382666e-02 2.25937501e-01 2.34151119e-03
      2.07071821e-03 2.61516147e-03 4.35320195e-03 1.55622861e-03
      2.44400855e-02 1.48672257e-02 3.09379380e-02 1.21624023e-02
      2.38760142e-04 1.17038134e-02 2.89734136e-02 9.62795690e-03
      2.15095114e-02 1.30845197e-02 2.72282176e-02 1.07040275e-02
      2.10130762e-04 1.03004267e-02 2.54992563e-02 8.47348291e-03
      5.73604256e-02 3.53729799e-02 1.72580779e-02 1.95301063e-02
      3.69998217e-02 2.07522139e-02 2.49449443e-02 1.12056686e-02
      4.82465178e-02 2.97526233e-02 1.45159708e-02 1.64269991e-02
      3.11209802e-02 1.74549278e-02 2.09814813e-02 9.42521822e-03
      1.69713777e-02 1.61264651e-02 4.17037085e-02 6.16628900e-02
      3.13443728e-02 7.70065039e-02 3.21843885e-02 8.38178303e-03
      1.53353754e-02 1.45719107e-02 3.76835652e-02 5.57187274e-02
      2.83228476e-02 6.95832521e-02 2.90818866e-02 7.57379830e-03
      1.19766751e-02 1.01699133e-03 1.40386811e-02 7.84867816e-03
      2.04593572e-03 3.21917012e-02 1.40746996e-01 3.59851420e-02
      1.41452178e-02 1.20113173e-03 1.65805798e-02 9.26978979e-03
      2.41638068e-03 3.80204543e-02 1.66231185e-01 4.25007492e-02
      1.28088752e-02 4.92041651e-03 3.61448224e-03 1.63709384e-03
      1.96629837e-01 2.05075387e-02 7.77093042e-03 1.44296996e-02
      1.81485303e-02 6.97159814e-03 5.12125669e-03 2.31955154e-03
      2.78599232e-01 2.90565491e-02 1.10104093e-02 2.04450302e-02
      1.97655987e-02 1.82782829e-01 2.23312457e-03 7.40154237e-02
      5.85419834e-02 2.72077285e-02 5.79001475e-03 2.25556293e-03
      3.11794411e-02 2.88332611e-01 3.52266477e-03 1.16756372e-01
      9.23476368e-02 4.29191031e-02 9.13351681e-03 3.55806039e-03
      1.87948234e-02 6.61481693e-02 5.13994433e-02 6.23614341e-03
      9.34078067e-04 3.82736907e-03 1.90434279e-04 3.58264288e-03
      1.42312467e-01 4.17906269e-02 2.40634248e-01 2.49382132e-03
      2.20541377e-03 2.78527196e-03 4.63636778e-03 1.65745779e-03
      2.60298587e-02 1.58343054e-02 3.29503827e-02 1.29535394e-02
      2.54290964e-04 1.24651212e-02 3.08580715e-02 1.02542341e-02
      4.56768535e-02 2.77858302e-02 5.78208975e-02 2.27307007e-02
      4.46226419e-04 2.18736287e-02 5.41493371e-02 1.79939941e-02
      1.21808603e-01 7.51168281e-02 3.66486572e-02 4.14734595e-02
      7.85715356e-02 4.40686829e-02 5.29722162e-02 2.37959698e-02
      6.97020665e-02 4.29838151e-02 2.09713187e-02 2.37321965e-02
      4.49606851e-02 2.52172519e-02 3.03120855e-02 1.36166755e-02
      2.45186612e-02 2.32980102e-02 6.02496229e-02 8.90847892e-02
      4.52834256e-02 1.11251809e-01 4.64969985e-02 1.21092172e-02
      1.75261274e-02 1.66535955e-02 4.30668890e-02 6.36784881e-02
      3.23689394e-02 7.95236453e-02 3.32364105e-02 8.65576137e-03
      1.36876153e-02 1.16227462e-03 1.60441920e-02 8.96990951e-03
      2.33821012e-03 3.67904827e-02 1.60853550e-01 4.11258377e-02
      1.37343211e-02 1.16624066e-03 1.60989389e-02 9.00051650e-03
      2.34618853e-03 3.69160213e-02 1.61402434e-01 4.12661694e-02
      1.24367969e-02 4.77748644e-03 3.50948703e-03 1.58953876e-03
      1.90918043e-01 1.99118275e-02 7.54519692e-03 1.40105393e-02
      1.34593761e-02 5.17030107e-03 3.79804429e-03 1.72023382e-03
      2.06615716e-01 2.15490181e-02 8.16557836e-03 1.51625136e-02
      1.46586318e-02 1.35556027e-01 1.65613764e-03 5.48915789e-02
      4.34161089e-02 2.01778896e-02 4.29401081e-03 1.67277840e-03
      2.14296076e-02 1.98170796e-01 2.42112507e-03 8.02465752e-02
      6.34704679e-02 2.94982698e-02 6.27745967e-03 2.44545238e-03
      1.29176695e-02 4.54635918e-02 3.53268012e-02 4.28609690e-03
      6.41991210e-04 2.63054809e-03 1.30885339e-04 2.46234797e-03
      3.70158941e-01 0. 0. 0. 0. 0. 6.54298859e-03 8.19498021e-03
      8.64079280e-04 3.72855633e-04 0. 9.97000490e-04 8.88722949e-04
      7.35770492e-03 2.11390965e-02 3.36809526e-03 1.51627499e-03
      6.54282165e-04 0. 1.74952322e-03 1.55951933e-03 1.29112033e-02
      3.70946079e-02 5.91028901e-03 9.63895395e-03 5.85892610e-03
      1.28241349e-03 1.39144976e-02 4.96550724e-02 4.06600349e-02
      8.57640356e-02 8.89695156e-03 5.51566156e-03 3.35263065e-03
      7.33830500e-04 7.96223897e-03 2.84139290e-02 2.32667346e-02
      4.90764230e-02 5.09106833e-03 1.73090324e-02 6.01789262e-03
      9.67833400e-03 5.46145737e-02 4.78833579e-02 1.21513316e-02
      3.44383307e-02 1.07058845e-02 1.23726288e-02 4.30163555e-03
      6.91814674e-03 3.90389152e-02 3.42273898e-02 8.68586451e-03
      2.46167816e-02 7.65264826e-03 4.19617966e-02 7.56587163e-02
      5.44988401e-02 3.06677055e-02 4.51053604e-02 1.38980232e-03
      1.41783366e-02 2.30433717e-02 4.21049818e-02 7.59168863e-02
      5.46848029e-02 3.07723526e-02 4.52592708e-02 1.39454473e-03
      1.42267169e-02 2.31220033e-02 1.29633397e-01 2.67220214e-02
      1.36799198e-02 5.18100150e-03 5.08076278e-04 1.64151366e-04 0. 0.
      1.40292123e-01 2.89191604e-02 1.48047106e-02 5.60699403e-03
      5.49851393e-04 1.77648224e-04 0. 0. 2.16197502e-02 1.40988603e-01
      9.21796262e-02 2.57804268e-03 0. 0. 3.19685467e-04 0.
      3.16061415e-02 2.06112728e-01 1.34758368e-01 3.76886781e-03 0. 0.
      4.67351550e-04 0. 3.16220731e-03 5.71411103e-02 4.66169976e-02
      5.34649333e-03 3.19996360e-03 0. 0. 0. 4.44266647e-01 0. 0. 0. 0.
      0. 7.85292778e-03 9.83565673e-03 1.03707239e-03 4.47503233e-04 0.
      1.19660492e-03 1.06664980e-03 8.83075502e-03 2.53712498e-02
      4.04240517e-03 4.25685756e-03 1.83686079e-03 0. 4.91168909e-03
      4.37826384e-03 3.62474844e-02 1.04141042e-01 1.65928081e-02
      2.70608272e-02 1.64486077e-02 3.60030448e-03 3.90641764e-02
      1.39403850e-01 1.14150785e-01 2.40777746e-01 2.49776971e-02
      1.57974269e-02 9.60228220e-03 2.10176688e-03 2.28046793e-02
      8.13804418e-02 6.66383430e-02 1.40559971e-01 1.45813478e-02
      4.95748669e-02 1.72358695e-02 2.77197529e-02 1.56421810e-01
      1.37142912e-01 3.48026752e-02 9.86349583e-02 3.06627657e-02
      2.85697412e-02 9.93294269e-03 1.59747507e-02 9.01450813e-02
      7.90347457e-02 2.00566016e-02 5.68428151e-02 1.76707935e-02
      9.68943313e-02 1.74704164e-01 1.25843719e-01 7.08150566e-02
      1.04153156e-01 3.20920418e-03 3.27393152e-02 5.32096401e-02
      5.88759817e-02 1.06155634e-01 7.64665231e-02 4.30294089e-02
      6.32866696e-02 1.95001124e-03 1.98934153e-02 3.23318169e-02
      1.81268170e-01 3.73657718e-02 1.91288218e-02 7.24466657e-03
      7.10450171e-04 2.29535130e-04 0. 0. 1.68011114e-01 3.46330255e-02
      1.77298337e-02 6.71482738e-03 6.58491335e-04 2.12748069e-04 0. 0.
      2.58913934e-02 1.68845206e-01 1.10392533e-01 3.08741396e-03 0. 0.
      3.82849103e-04 0. 4.26581465e-02 2.78186053e-01 1.81880563e-01
      5.08676236e-03 0. 0. 6.30774652e-04 0. 4.26796498e-03
      7.71221668e-02 6.29179925e-02 7.21605029e-03 4.31892416e-03 0. 0.
      0. 1.89620346e-01 0. 0. 0. 9.30543829e-05 1.53877307e-03
      1.32626131e-01 1.46549165e-01 0. 0. 0. 0. 1.17295906e-02
      1.12773152e-02 2.61830701e-03 0. 0. 0. 0. 0. 4.81463000e-02
      4.62898538e-02 1.07473312e-02 0. 2.43133511e-02 1.46897929e-02
      1.77074280e-02 2.33085994e-02 2.17537340e-02 8.14699754e-03
      4.74430621e-03 2.30328389e-03 1.41935199e-02 8.57552979e-03
      1.03371488e-02 1.36069702e-02 1.26992799e-02 4.75601107e-03
      2.76960596e-03 1.34459895e-03 5.14622894e-04 5.54313709e-04
      5.60530601e-03 8.70368909e-03 1.06775677e-02 0. 0. 0.
      2.96574523e-04 3.19448125e-04 3.23030888e-03 5.01589105e-03
      6.15342753e-03 0. 0. 0. 0. 0. 1.22827955e-03 1.58146978e-03
      1.20986905e-03 8.59042630e-04 3.09581257e-04 0. 0. 0.
      7.46340491e-04 9.60949750e-04 7.35153677e-04 5.21980750e-04
      1.88111095e-04 0. 7.84544796e-02 2.06401855e-01 3.05972155e-02
      5.13436273e-03 5.08889556e-03 1.78958732e-03 1.87138077e-02
      2.73028784e-03 7.27167055e-02 1.91306651e-01 2.83594858e-02
      4.75886092e-03 4.71671904e-03 1.65870576e-03 1.73451733e-02
      2.53060809e-03 7.57484976e-03 1.01052262e-01 2.66179293e-02
      3.95988766e-03 8.13982479e-05 3.68190173e-04 3.71442729e-04
      2.17279467e-05 1.24801733e-02 1.66491717e-01 4.38551754e-02
      6.52423268e-03 1.34110145e-04 6.06622838e-04 6.11981668e-04
      3.57985373e-05 3.77673237e-03 6.58538193e-02 3.38425040e-02
      1.10149814e-03 1.00802041e-04 2.90629047e-04 0. 8.69234646e-06
      1.95764229e-01 0. 0. 0. 9.60694379e-05 1.58863084e-03
      1.36923343e-01 1.51297495e-01 0. 0. 0. 0. 1.21096401e-02
      1.16427112e-02 2.70314282e-03 0. 0. 0. 0. 0. 2.01778561e-01
      1.93998292e-01 4.50414903e-02 0. 1.01895951e-01 6.15641363e-02
      7.42108822e-02 9.76850837e-02 9.11687315e-02 3.41436267e-02
      1.98831316e-02 9.65293963e-03 1.31289497e-01 7.93233141e-02
      9.56182182e-02 1.25863940e-01 1.17467836e-01 4.39929143e-02
      2.56187450e-02 1.24374870e-02 4.76024160e-03 5.12737967e-03
      5.18488586e-02 8.05087835e-02 9.87670794e-02 0. 0. 0.
      3.23507283e-03 3.48458090e-03 3.52366231e-02 5.47139794e-02
      6.71223700e-02 0. 0. 0. 0. 0. 1.33982301e-02 1.72508750e-02
      1.31974062e-02 9.37054679e-03 3.37695167e-03 0. 0. 0.
      9.87069798e-04 1.27090048e-03 9.72274749e-04 6.90343673e-04
      2.48785625e-04 0. 1.03759676e-01 2.72976011e-01 4.04662304e-02
      6.79043215e-03 6.73029991e-03 2.36681197e-03 2.47498769e-02
      3.61093204e-03 8.24140832e-02 2.16818973e-01 3.21414582e-02
      5.39349439e-03 5.34573244e-03 1.87990791e-03 1.96582954e-02
      2.86808563e-03 8.58501904e-03 1.14528418e-01 3.01676504e-02
      4.48797131e-03 9.22533727e-05 4.17291390e-04 4.20977682e-04
      2.46255495e-05 2.22135596e-02 2.96339929e-01 7.80581757e-02
      1.16125336e-02 2.38703709e-04 1.07973290e-03 1.08927104e-03
      6.37181001e-05 6.72223605e-03 1.17213733e-01 6.02365471e-02
      1.96056534e-03 1.79418363e-04 5.17292938e-04 0. 1.54715763e-05
      1.65348321e-01 0. 0. 2.09301405e-04 0. 1.52139114e-02
      5.67843989e-02 2.46882707e-01 1.85589946e-04 0. 0. 0.
      6.94441725e-04 1.41205790e-04 2.33279681e-03 8.20505884e-05
      3.09241819e-03 0. 0. 0. 1.15712313e-02 2.35286099e-03
      3.88705507e-02 1.36717933e-03 0. 0. 3.79825570e-03 1.69363176e-03
      6.23097923e-03 0. 0. 0. 0. 0. 4.89392458e-03 2.18218728e-03
      8.02840665e-03 0. 0. 0. 4.59976792e-02 1.90497804e-02
      1.85963158e-02 0. 2.93050306e-07 0. 2.11643670e-02 7.46264635e-03
      3.12601440e-02 1.29462816e-02 1.26381051e-02 0. 1.99157768e-07 0.
      1.43833598e-02 5.07163396e-03 2.29709849e-01 1.38730407e-01
      1.03667878e-01 3.08259651e-02 5.09596132e-02 6.33153543e-02
      4.48644161e-02 4.12401594e-02 1.69231053e-02 1.02204988e-02
      7.63738435e-03 2.27100006e-03 3.75427911e-03 4.66454681e-03
      3.30523588e-03 3.03823105e-03 2.92991161e-01 1.82116836e-01
      4.14557615e-03 3.13064520e-04 0. 3.31551943e-04 1.44268922e-03
      1.22529478e-03 2.32716575e-01 1.44651487e-01 3.29274219e-03
      2.48660421e-04 0. 2.63344584e-04 1.14589708e-03 9.73225338e-04
      3.32728475e-02 5.05306348e-02 2.89652124e-03 1.72623910e-03
      9.50115500e-04 6.53308060e-04 6.95856230e-04 7.38324423e-04
      8.60928148e-02 1.30746976e-01 7.49468943e-03 4.46660817e-03
      2.45840428e-03 1.69042114e-03 1.80051371e-03 1.91039930e-03
      2.60602171e-03 1.32819355e-01 2.64873300e-02 2.76909978e-03
      1.42999081e-04 1.53076835e-04 0. 8.20630288e-04 1.64442658e-01 0.
      0. 2.08155019e-04 0. 1.51305813e-02 5.64733781e-02 2.45530471e-01
      1.84573437e-04 0. 0. 0. 6.90638088e-04 1.40432370e-04
      2.32001953e-03 8.16011816e-05 8.12360726e-04 0. 0. 0.
      3.03969695e-03 6.18083228e-04 1.02110729e-02 3.59150232e-04 0. 0.
      9.97780240e-04 4.44907433e-04 1.63684285e-03 0. 0. 0. 0. 0.
      2.15599630e-02 9.61352792e-03 3.53687815e-02 0. 0. 0.
      2.02640712e-01 8.39229524e-02 8.19252282e-02 0. 1.29102000e-06 0.
      9.32386667e-02 3.28763500e-02 6.04764326e-03 2.50461046e-03
      2.44499021e-03 0. 3.85294143e-08 0. 2.78263027e-03 9.81167308e-04
      4.44400720e-02 2.68390309e-02 2.00557709e-02 5.96364588e-03
      9.85873677e-03 1.22491000e-02 8.67954921e-03 7.97839463e-03
      1.34516563e-02 8.12396128e-03 6.07072236e-03 1.80514820e-03
      2.98416126e-03 3.70770530e-03 2.62723048e-03 2.41499650e-03
      2.32889682e-01 1.44759089e-01 3.29519133e-03 2.48845376e-04 0.
      2.63540453e-04 1.14674948e-03 9.73949209e-04 2.66806692e-01
      1.65841147e-01 3.77508812e-03 2.85086076e-04 0. 3.01921304e-04
      1.31375680e-03 1.11579080e-03 3.81469093e-02 5.79327494e-02
      3.32082598e-03 1.97911169e-03 1.08929561e-03 7.49009603e-04
      7.97790592e-04 8.46479845e-04 1.13501340e-01 1.72371626e-01
      9.88070015e-03 5.88859851e-03 3.24106240e-03 2.22858414e-03
      2.37372564e-03 2.51859450e-03 3.43567552e-03 1.75103754e-01
      3.49198431e-02 3.65067110e-03 1.88524311e-04 2.01810413e-04 0.
      1.08188635e-03 1.64047435e-01 0. 9.82520723e-05 0. 0. 0.
      9.23521724e-03 1.20981589e-01 7.38088563e-02 6.63306518e-03 0.
      6.16320176e-03 4.00819164e-03 2.25608610e-02 2.06840108e-03
      1.05192415e-01 3.24853987e-01 2.91940253e-02 0. 2.71260235e-02
      1.76412035e-02 9.92968380e-02 9.10362788e-03 4.62982059e-01
      3.74132178e-05 0. 0. 0. 4.20653610e-04 1.19398348e-03
      9.63064097e-03 3.99637443e-04 8.08422104e-04 0. 0. 0.
      9.08945221e-03 2.57995073e-02 2.08098188e-01 8.63533746e-03
      2.47885734e-02 0. 0. 0. 3.74953300e-02 1.75919514e-02
      8.14735293e-02 2.50722095e-02 7.39794341e-04 0. 0. 0.
      1.11901690e-03 5.25017153e-04 2.43150955e-03 7.48259190e-04
      7.79944539e-01 4.40043882e-02 6.13027625e-03 4.35686577e-03
      1.62382633e-03 1.04198174e-03 4.16927127e-04 6.09246455e-03
      2.36083016e-01 1.33197783e-02 1.85558596e-03 1.31878874e-03
      4.91519342e-04 3.15399579e-04 1.26200524e-04 1.84414058e-03
      2.20253706e-01 5.18559888e-02 2.16570795e-02 0. 1.75727124e-04
      6.67487318e-03 1.56389140e-02 3.62663204e-03 2.52330452e-01
      5.94080575e-02 2.48111188e-02 0. 2.01319228e-04 7.64697138e-03
      1.79164950e-02 4.15479811e-03 1.79580469e-02 6.27891347e-02
      6.91310549e-03 7.12769106e-04 6.93442009e-04 0. 1.61768883e-04
      9.37164657e-07 5.34319133e-02 1.86821193e-01 2.05690768e-02
      2.12075491e-03 2.06324970e-03 0. 4.81322990e-04 2.78841571e-06
      2.13014074e-02 1.55066490e-01 1.91976707e-02 3.87491565e-03
      1.81350089e-03 0. 1.37883425e-03 1.29059225e-03 1.36991262e-01 0.
      8.20474597e-05 0. 0. 0. 7.71206291e-03 1.01028219e-01
      6.16356358e-02 5.53908059e-03 0. 5.14671113e-03 3.34712490e-03
      1.88399218e-02 1.72726181e-03 8.78431350e-02 1.05568029e-01
      9.48720332e-03 0. 8.81516282e-03 5.73287439e-03 3.22685614e-02
      2.95841228e-03 1.50455594e-01 1.21581998e-05 0. 0. 0.
      1.36700095e-04 3.88009648e-04 3.12967598e-03 1.29870459e-04
      2.24337215e-04 0. 0. 0. 2.52232398e-03 7.15936581e-03
      5.77472672e-02 2.39630695e-03 6.87883142e-03 0. 0. 0.
      1.04049575e-02 4.88176802e-03 2.26089116e-02 6.95754029e-03
      4.37825482e-04 0. 0. 0. 6.62257196e-04 3.10715928e-04
      1.43901724e-03 4.42835153e-04 4.61587191e-01 2.60427017e-02
      3.62802343e-03 2.57848273e-03 9.61013779e-04 6.16666162e-04
      2.46746029e-04 3.60564562e-03 1.97211489e-01 1.11266514e-02
      1.55006011e-03 1.10164762e-03 4.10589710e-04 2.63468450e-04
      1.05421364e-04 1.54049927e-03 1.83988512e-01 4.33177985e-02
      1.80911999e-02 0. 1.46793318e-04 5.57584222e-03 1.30639374e-02
      3.02949990e-03 2.63241351e-01 6.19768910e-02 2.58839633e-02 0.
      2.10024373e-04 7.97763001e-03 1.86912138e-02 4.33445349e-03
      1.87345613e-02 6.55041710e-02 7.21203117e-03 7.43589597e-04
      7.23426754e-04 0. 1.68763843e-04 9.77688160e-07 5.06566390e-02
      1.77117631e-01 1.95007119e-02 2.01060204e-03 1.95608358e-03 0.
      4.56322887e-04 2.64358437e-06 2.01950036e-02 1.47012278e-01
      1.82005353e-02 3.67365102e-03 1.71930692e-03 0. 1.30721694e-03
      1.22355833e-03 1.01659626e-01 2.40946934e-02 0. 3.20717529e-03
      4.08844789e-03 4.39596400e-02 9.59196873e-03 1.07191484e-02
      1.30911797e-01 8.08128854e-04 3.08979099e-04 0. 4.43785684e-03
      1.57034639e-02 5.45978211e-02 1.66018903e-01 2.24222556e-01
      1.38414360e-03 5.29211888e-04 0. 7.60105392e-03 2.68965121e-02
      9.35138315e-02 2.84353167e-01 1.25562586e-02 3.79123469e-03
      6.71997340e-03 2.99326587e-03 3.00068415e-08 0. 8.28145072e-03
      8.07505380e-03 2.31682003e-01 6.99540228e-02 1.23993695e-01
      5.52302897e-02 5.53671669e-07 0. 1.52805313e-01 1.48996979e-01
      4.20035832e-02 4.24957983e-02 1.10554807e-02 0. 7.16516297e-07 0.
      0. 0. 2.67345388e-03 2.70478241e-03 7.03661819e-04 0.
      4.56049989e-08 0. 0. 0. 2.74505645e-01 1.08851179e-01
      3.73047106e-02 8.13480839e-03 0. 2.37301998e-02 2.07888950e-02
      1.80434342e-02 1.17281556e-01 4.65062782e-02 1.59383044e-02
      3.47556802e-03 0. 1.01386439e-02 8.88198148e-03 7.70899374e-03
      2.58945227e-01 2.64706071e-02 8.84867925e-03 7.54294961e-05
      2.93615321e-05 0. 3.71195166e-03 1.14640594e-02 3.70485574e-01
      3.78727913e-02 1.26602370e-02 1.07920663e-04 4.20089782e-05 0.
      5.31087071e-03 1.64021906e-02 4.24993411e-02 3.49279083e-02
      3.13060847e-03 1.92176332e-04 3.21706757e-05 5.66464325e-04
      2.15085573e-04 1.51508022e-04 1.14914559e-01 9.44420546e-02
      8.46489519e-03 5.19628229e-04 8.69867363e-05 1.53167068e-03
      5.81572822e-04 4.09664615e-04 6.27155183e-03 1.13983266e-01
      1.70883700e-01 3.92535478e-02 1.87705806e-03 1.74772413e-03 0. 0.
      7.25526437e-02 1.71959475e-02 0. 2.28890311e-03 2.91785155e-03
      3.13732028e-02 6.84561487e-03 7.65006291e-03 9.34293866e-02
      5.76746999e-04 2.20512797e-04 0. 3.16721853e-03 1.12072788e-02
      3.89654785e-02 1.18484698e-01 1.87142000e-01 1.15524232e-03
      4.41694079e-04 0. 6.34403806e-03 2.24485304e-02 7.80490860e-02
      2.37328574e-01 1.04797808e-02 3.16426344e-03 5.60866529e-03
      2.49825791e-03 2.50444927e-08 0. 6.91191480e-03 6.73965085e-03
      2.01731160e-01 6.09106719e-02 1.07964329e-01 4.80903573e-02
      4.82095402e-07 0. 1.33051306e-01 1.29735291e-01 3.65735441e-02
      3.70021239e-02 9.62627586e-03 0. 6.23888184e-07 0. 0. 0.
      3.27326381e-03 3.31162103e-03 8.61533743e-04 0. 5.58368285e-08 0.
      0. 0. 3.36093068e-01 1.33272767e-01 4.56743091e-02 9.95991565e-03
      0. 2.90542524e-02 2.54530441e-02 2.20916178e-02 1.40422627e-01
      5.56825325e-02 1.90831255e-02 4.16133972e-03 0. 1.21391211e-02
      1.06345043e-02 9.23007168e-03 3.10038239e-01 3.16935815e-02
      1.05946306e-02 9.03126493e-05 3.51549206e-05 0. 4.44436492e-03
      1.37260575e-02 4.19984370e-01 4.29327935e-02 1.43517107e-02
      1.22339421e-04 4.76215973e-05 0. 6.02043048e-03 1.85936075e-02
      4.81774732e-02 3.95944566e-02 3.54887382e-03 2.17852081e-04
      3.64688458e-05 6.42146857e-04 2.43822113e-04 1.71750275e-04
      1.07323803e-01 8.82036239e-02 7.90574122e-03 4.85303870e-04
      8.12407743e-05 1.43049518e-03 5.43156697e-04 3.82603961e-04
      5.85728046e-03 1.06454037e-01 1.59595862e-01 3.66606303e-02
      1.75306783e-03 1.63227716e-03 0. 0. 3.29225689e-01 1.21448608e-02
      1.59117230e-03 3.62461735e-03 0. 1.76030467e-03 1.49103496e-02
      1.43499346e-02 1.45926118e-01 1.83590237e-04 0. 0. 6.92219182e-05
      1.80626905e-03 4.98004165e-03 6.25522062e-02 2.92294592e-01
      3.67737026e-04 0. 0. 1.38653675e-04 3.61801358e-03 9.97518003e-03
      1.25294045e-01 0. 0. 0. 0. 4.71425743e-08 0. 0. 0. 0. 0. 0. 0.
      9.07473748e-07 0. 0. 0. 1.84968427e-01 1.53268734e-02
      9.43581632e-04 0. 3.40302648e-07 0. 7.39764655e-03 2.66759302e-02
      1.65543295e-02 1.37172651e-03 8.44487950e-05 0. 3.04564516e-08 0.
      6.62075588e-04 2.38744589e-03 1.53019369e-01 1.61102638e-01
      2.85458267e-02 3.18806735e-04 9.38173383e-04 6.13545626e-03
      7.61647476e-03 1.22177284e-02 6.39328286e-02 6.73100874e-02
      1.19266966e-02 1.33200243e-04 3.91977082e-04 2.56344723e-03
      3.18222982e-03 5.10467403e-03 1.71296120e-01 2.36465633e-02
      1.65225714e-02 2.58716661e-03 6.37278752e-03 4.53420769e-04
      1.60916953e-03 9.91228269e-04 2.32041329e-01 3.20321359e-02
      2.23818235e-02 3.50463064e-03 8.63271300e-03 6.14213350e-04
      2.17981497e-03 1.34273875e-03 3.38711590e-03 5.81003353e-02
      2.76123676e-02 9.99680161e-03 1.89023523e-03 7.54955749e-04
      4.60322772e-04 3.82447790e-04 7.54539715e-03 1.29428729e-01
      6.15114085e-02 2.22696345e-02 4.21083160e-03 1.68179686e-03
      1.02544995e-03 8.51969817e-04 1.14066037e-03 9.75926965e-02
      1.30717427e-01 1.56622212e-02 3.15912464e-03 0. 4.64411872e-03
      2.49499368e-04</_>
    <_>
      1.97958082e-01 1.10298954e-02 4.24338728e-02 5.22447284e-03
      3.49513069e-03 9.51484195e-04 1.10591552e-03 2.48352089e-03
      3.76747432e-03 6.27287151e-03 8.52427632e-02 9.52291042e-02
      1.27819378e-03 0. 0. 3.31201911e-04 5.14230691e-03 8.56197719e-03
      1.16349682e-01 1.29980251e-01 1.74463412e-03 0. 0. 4.52064618e-04
      2.38573179e-03 8.24727584e-03 1.43493693e-02 1.81829140e-01
      2.99056224e-03 6.58240577e-04 9.09038587e-04 5.58442320e-04
      2.93126330e-03 1.01331342e-02 1.76305585e-02 2.23406971e-01
      3.67439725e-03 8.08756682e-04 1.11690327e-03 6.86138170e-04
      5.51764574e-03 1.05425138e-02 4.42844816e-02 2.60813743e-01
      2.52305926e-03 1.61595992e-03 1.16839889e-03 2.87129637e-03
      5.88073581e-03 1.12362662e-02 4.71986309e-02 2.77976662e-01
      2.68908986e-03 1.72229856e-03 1.24528562e-03 3.06024286e-03
      1.15416164e-03 5.27007459e-03 3.97715792e-02 1.49186850e-01
      8.44001397e-03 9.45223379e-04 1.52396644e-03 7.08723092e-04
      9.52866685e-04 4.35093138e-03 3.28350998e-02 1.23167478e-01
