%YAML:1.0
---
opencv_ml_svm:
   format: 3
   svmType: C_SVC
   kernel:
      type: RBF
      gamma: 1.5000000000000001e-04
   C: 3.1250000000000000e+02
   term_criteria: { iterations:1000 }
   var_count: 1568
   class_count: 2
   class_labels: !!opencv-matrix
      rows: 2
      cols: 1
      dt: i
      data: [ -1, 1 ]
   sv_total: 123
   support_vectors:
      - [ 8.18165857e-03, 7.48180924e-03, 1.06421374e-02, 4.03049216e-03,
          4.18254174e-03, 7.12021627e-03, 1.77734140e-02, 2.56105699e-02,
          7.81998783e-03, 0., 0., 0., 0., 0., 3.81178316e-03,
          1.27359126e-02, 7.62082357e-03, 0., 0., 0., 0., 0.,
          3.71470232e-03, 1.24115469e-02, 1.59907769e-02, 3.18422690e-02,
          5.78171499e-02, 1.54750571e-01, 9.72699821e-02, 3.60606909e-02,
          6.62788004e-02, 4.00649048e-02, 1.11618005e-02, 2.22263802e-02,
          4.03572321e-02, 1.08018212e-01, 6.78958967e-02, 2.51709018e-02,
          4.62635905e-02, 2.79659014e-02, 0., 0., 0., 0., 0., 0.,
          1.40595555e-04, 0., 0., 0., 0., 0., 0., 0., 1.40285891e-04, 0.,
          7.58143440e-02, 1.39414202e-02, 5.05899116e-02, 6.95354417e-02,
          9.61495712e-02, 6.96951076e-02, 4.85897139e-02, 2.13157814e-02,
          5.83642386e-02, 1.07325390e-02, 3.89456861e-02, 5.35305440e-02,
          7.40189254e-02, 5.36534563e-02, 3.74058709e-02, 1.64095499e-02,
          1.38867013e-02, 1.92831103e-02, 1.09907174e-02, 1.36789326e-02,
          6.34452105e-02, 4.08455133e-02, 2.29692236e-02, 1.87956151e-02,
          2.26758961e-02, 3.14878076e-02, 1.79469790e-02, 2.23366246e-02,
          1.03601053e-01, 6.66975230e-02, 3.75069454e-02, 3.06917671e-02,
          0., 0., 0., 0., 0., 0., 0., 0., 0., 0., 0., 0., 0., 0., 0., 0.,
          1.34036899e-01, 1.14769615e-01, 1.44596562e-01, 1.26517653e-01,
          8.13920870e-02, 1.45957008e-01, 1.53317109e-01, 9.88983735e-02,
          1.65591966e-02, 8.70574452e-03, 4.68077362e-02, 6.96719065e-02,
          1.78684086e-01, 2.66507596e-01, 3.39907035e-02, 6.86837127e-03,
          0., 0., 2.35704720e-04, 2.04164465e-03, 1.55543268e-01,
          1.03501976e-01, 1.00058515e-03, 4.91003215e-04, 0., 0.,
          2.29701647e-04, 1.98964681e-03, 1.51581794e-01, 1.00865930e-01,
          9.75101662e-04, 4.78498085e-04, 2.84853711e-04, 0.,
          5.03082341e-03, 7.37832487e-02, 1.35667041e-01, 5.04699489e-03,
          2.44244322e-04, 0., 1.98832146e-04, 0., 3.51158972e-03,
          5.15018068e-02, 9.46976170e-02, 3.52287758e-03, 1.70486179e-04,
          0., 5.31209968e-02, 5.88143542e-02, 9.62069631e-02,
          6.33709952e-02, 6.50095940e-02, 4.46897671e-02, 2.66252626e-02,
          8.93583298e-02, 5.30039966e-02, 5.86848110e-02, 9.59950611e-02,
          6.32314160e-02, 6.48664087e-02, 4.45913337e-02, 2.65666191e-02,
          8.91615152e-02, 0., 0., 0., 0., 4.45302129e-02, 1.35969380e-02,
          0., 0., 0., 0., 0., 0., 3.42807397e-02, 1.04673449e-02, 0., 0.,
          1.95728555e-01, 7.02498183e-02, 1.39388153e-02, 1.14282873e-02,
          9.46390722e-03, 1.80422589e-02, 2.72599943e-02, 6.21844269e-02,
          3.19609404e-01, 1.14712447e-01, 2.27609929e-02, 1.86614990e-02,
          1.54538183e-02, 2.94615962e-02, 4.45134342e-02, 1.01542301e-01,
          0., 0., 0., 0., 0., 0., 3.39966966e-04, 0., 0., 0., 0., 0., 0.,
          0., 5.14692918e-04, 0., 0., 0., 0., 0., 0., 0., 0., 0.,
          6.27760682e-03, 3.30035575e-03, 1.77448560e-02, 2.64126845e-02,
          6.77393004e-02, 1.01033270e-01, 1.28859067e-02, 2.60380586e-03,
          0., 0., 8.93558754e-05, 7.73989363e-04, 5.89665957e-02,
          3.92376967e-02, 3.79322766e-04, 1.86139776e-04, 0., 0.,
          1.04401086e-04, 9.04309156e-04, 6.88950419e-02, 4.58443053e-02,
          4.43190889e-04, 2.17480891e-04, 1.29468113e-04, 0.,
          2.28654617e-03, 3.35350297e-02, 6.16616644e-02, 2.29389616e-03,
          1.11010835e-04, 0., 1.07053173e-04, 0., 1.89067423e-03,
          2.77290773e-02, 5.09861223e-02, 1.89675181e-03, 9.17914222e-05,
          0., 2.86008660e-02, 3.16662230e-02, 5.17987721e-02,
          3.41195650e-02, 3.50018032e-02, 2.40614079e-02, 1.43353017e-02,
          4.81114015e-02, 2.91620586e-02, 3.22875641e-02, 5.28151430e-02,
          3.47890444e-02, 3.56885940e-02, 2.45335307e-02, 1.46165825e-02,
          4.90554199e-02, 0., 0., 0., 0., 2.44999025e-02, 7.48084579e-03,
          0., 0., 0., 0., 0., 0., 2.18435209e-02, 6.66974159e-03, 0., 0.,
          1.24717288e-01, 4.47628424e-02, 8.88174493e-03, 7.28204940e-03,
          6.03035558e-03, 1.14964405e-02, 1.73699353e-02, 3.96236144e-02,
          1.23305961e-01, 4.42562960e-02, 8.78123753e-03, 7.19964411e-03,
          5.96211478e-03, 1.13663431e-02, 1.71733741e-02, 3.91752236e-02,
          0., 0., 0., 0., 0., 0., 1.31159948e-04, 0., 0., 0., 0., 0., 0.,
          0., 1.98598864e-04, 0., 0., 0., 0., 0., 0., 0., 0., 0.,
          6.98417798e-02, 6.85409307e-02, 3.49947587e-02, 3.79235819e-02,
          4.29856703e-02, 7.92420954e-02, 7.92161736e-04, 8.50079674e-03,
          0., 0., 4.91376151e-04, 1.35236299e-02, 2.38562286e-01,
          6.69700354e-02, 0., 0., 0., 0., 5.74111182e-04, 1.58006586e-02,
          2.78729975e-01, 7.82460570e-02, 0., 0., 1.57995138e-03,
          1.36588083e-03, 7.86492042e-03, 1.48652598e-01, 2.45156005e-01,
          2.56469427e-03, 2.10249913e-03, 9.36318538e-04, 1.30641286e-03,
          1.12940453e-03, 6.50325930e-03, 1.22916229e-01, 2.02711910e-01,
          2.12066644e-03, 1.73849147e-03, 7.74212822e-04, 9.57262330e-03,
          1.67027917e-02, 2.53442358e-02, 4.00408246e-02, 7.75108039e-02,
          7.69046247e-02, 3.86314280e-02, 2.56953258e-02, 9.76045337e-03,
          1.70305260e-02, 2.58415304e-02, 4.08264883e-02, 7.90316835e-02,
          7.84136131e-02, 3.93894352e-02, 2.61995085e-02, 0., 0., 0.,
          1.56990753e-03, 2.84266561e-01, 9.27415416e-02, 0., 0., 0., 0.,
          0., 1.39969168e-03, 2.53445208e-01, 8.26861262e-02, 0., 0.,
          1.33626498e-02, 1.65666677e-02, 3.42037715e-02, 9.60122645e-02,
          7.43592456e-02, 1.64878387e-02, 6.04407676e-02, 6.23582117e-02,
          1.32114347e-02, 1.63791962e-02, 3.38167138e-02, 9.49257612e-02,
          7.35177845e-02, 1.63012594e-02, 5.97568080e-02, 6.16525523e-02,
          1.05529535e-03, 6.91599387e-04, 2.56834697e-04, 1.66559778e-02,
          9.85650644e-02, 2.06217825e-01, 4.96444628e-02, 0.,
          1.59789983e-03, 1.04720122e-03, 3.88892222e-04, 2.52200346e-02,
          1.49244577e-01, 3.12249511e-01, 7.51703084e-02, 0., 0.,
          3.02414468e-04, 1.77197717e-03, 3.66473123e-02, 2.82856196e-01,
          1.13283254e-01, 2.19017129e-05, 0., 8.49490166e-02,
          8.33667889e-02, 4.25643586e-02, 4.61267047e-02, 5.22837564e-02,
          9.63826850e-02, 9.63511586e-04, 1.03395749e-02, 0., 0.,
          5.97664097e-04, 1.64488796e-02, 2.90164888e-01, 8.14561024e-02,
          0., 0., 0., 0., 4.95321699e-04, 1.36322184e-02, 2.40477830e-01,
          6.75077811e-02, 0., 0., 1.36312307e-03, 1.17843098e-03,
          6.78555993e-03, 1.28251910e-01, 2.11511463e-01, 2.21272255e-03,
          1.81395793e-03, 8.07820703e-04, 1.18979660e-03, 1.02858886e-03,
          5.92274917e-03, 1.11944184e-01, 1.84616938e-01, 1.93136628e-03,
          1.58330600e-03, 7.05103099e-04, 8.71812832e-03, 1.52118262e-02,
          2.30818968e-02, 3.64666022e-02, 7.05918446e-02, 7.00397789e-02,
          3.51830125e-02, 2.34016459e-02, 1.03490911e-02, 1.80576108e-02,
          2.73999926e-02, 4.32886705e-02, 8.37979615e-02, 8.31426159e-02,
          4.17649522e-02, 2.77795587e-02, 0., 0., 0., 1.66458625e-03,
          3.01410228e-01, 9.83346403e-02, 0., 0., 0., 0., 0.,
          1.66338810e-03, 3.01193267e-01, 9.82638597e-02, 0., 0.,
          1.58801191e-02, 1.96877625e-02, 4.06476259e-02, 1.14100590e-01,
          8.83682370e-02, 1.95940826e-02, 7.18275681e-02, 7.41062537e-02,
          1.20921591e-02, 1.49915470e-02, 3.09517533e-02, 8.68836343e-02,
          6.72893375e-02, 1.49202123e-02, 5.46941981e-02, 5.64293340e-02,
          9.65890475e-04, 6.33006915e-04, 2.35075611e-04, 1.52448798e-02,
          9.02146101e-02, 1.88747004e-01, 4.54385728e-02, 0.,
          1.05481094e-03, 6.91281923e-04, 2.56716798e-04, 1.66483317e-02,
          9.85198170e-02, 2.06123158e-01, 4.96216714e-02, 0., 0.,
          1.99630813e-04, 1.16972334e-03, 2.41917428e-02, 1.86719954e-01,
          7.47809112e-02, 1.44578307e-05, 0., 3.66200763e-03,
          1.32108508e-02, 2.06898544e-02, 1.45426309e-02, 1.07880328e-02,
          1.47182746e-02, 1.58977378e-02, 1.26549434e-02, 1.99282705e-03,
          3.42807104e-03, 1.28462203e-02, 1.44561129e-02, 3.38785313e-02,
          1.48687577e-02, 2.57638190e-03, 4.14488744e-03, 1.65158068e-03,
          2.84105749e-03, 1.06464690e-02, 1.19806873e-02, 2.80772634e-02,
          1.23226717e-02, 2.13520927e-03, 3.43512814e-03, 5.93791855e-03,
          1.35227218e-02, 3.26879993e-02, 5.52322380e-02, 6.37347847e-02,
          4.33705039e-02, 1.80220902e-02, 1.83635727e-02, 5.18288882e-03,
          1.18032545e-02, 2.85315923e-02, 4.82092388e-02, 5.56306541e-02,
          3.78557742e-02, 1.57305114e-02, 1.60285737e-02, 6.38555037e-03,
          1.07940035e-02, 2.16309838e-02, 7.34214932e-02, 3.92259546e-02,
          2.07971223e-02, 1.16581582e-02, 5.49758878e-03, 7.58014107e-03,
          1.28133148e-02, 2.56776474e-02, 8.71569738e-02, 4.65642363e-02,
          2.46877894e-02, 1.38391331e-02, 6.52606227e-03, 1.26033584e-02,
          3.52557073e-03, 1.57328020e-03, 9.64677369e-04, 2.48503010e-03,
          1.97256543e-03, 4.41006338e-03, 1.06302639e-02, 1.25942864e-02,
          3.52303311e-03, 1.57214783e-03, 9.63983010e-04, 2.48324149e-03,
          1.97114563e-03, 4.40688897e-03, 1.06226122e-02, 1.46534005e-02,
          1.40188355e-02, 1.28977131e-02, 1.16308462e-02, 5.40926866e-03,
          1.49295330e-02, 1.81526076e-02, 2.48374995e-02, 1.11580547e-02,
          1.06748557e-02, 9.82116070e-03, 8.85648560e-03, 4.11897013e-03,
          1.13683203e-02, 1.38225798e-02, 1.89128928e-02, 6.59754686e-03,
          1.07885646e-02, 7.11296778e-03, 1.65900793e-02, 3.40015069e-02,
          8.90486166e-02, 5.61921149e-02, 1.12041496e-02, 7.20492098e-03,
          1.17817661e-02, 7.76779139e-03, 1.81173719e-02, 3.71317044e-02,
          9.72464830e-02, 6.13651909e-02, 1.22356089e-02, 8.54649348e-04,
          6.81961305e-04, 5.21437381e-04, 7.76493317e-03, 3.90685387e-02,
          3.28781158e-02, 3.57441138e-03, 1.81275746e-03, 2.19725654e-03,
          7.92669877e-03, 1.24142068e-02, 8.72578565e-03, 6.47297315e-03,
          8.83117411e-03, 9.53886844e-03, 7.59314606e-03, 1.19572459e-03,
          2.05689133e-03, 7.70791527e-03, 8.67387373e-03, 2.03276016e-02,
          8.92146584e-03, 1.54586579e-03, 2.48699146e-03, 9.97112133e-04,
          1.71523739e-03, 6.42761402e-03, 7.23312469e-03, 1.69511437e-02,
          7.43959146e-03, 1.28909422e-03, 2.07389682e-03, 3.58491181e-03,
          8.16410035e-03, 1.97347924e-02, 3.33454721e-02, 3.84787284e-02,
          2.61841621e-02, 1.08805131e-02, 1.10866772e-02, 3.83175281e-03,
          8.72624386e-03, 2.10936423e-02, 3.56414914e-02, 4.11282033e-02,
          2.79870871e-02, 1.16296969e-02, 1.18500562e-02, 4.72089043e-03,
          7.98009615e-03, 1.59919653e-02, 5.42811155e-02, 2.90000737e-02,
          1.53754856e-02, 8.61897320e-03, 4.06441279e-03, 4.94656991e-03,
          8.36157985e-03, 1.67564526e-02, 5.68759926e-02, 3.03864051e-02,
          1.61105022e-02, 9.03099775e-03, 4.25870996e-03, 8.22456833e-03,
          2.30068038e-03, 1.02667487e-03, 6.29519112e-04, 1.62165519e-03,
          1.28723634e-03, 2.87787337e-03, 6.93698740e-03, 8.91069788e-03,
          2.49261316e-03, 1.11232453e-03, 6.82036334e-04, 1.75694074e-03,
          1.39462319e-03, 3.11795808e-03, 7.51570100e-03, 1.03675602e-02,
          9.91859380e-03, 9.12537798e-03, 8.22904613e-03, 3.82716069e-03,
          1.05629303e-02, 1.28433164e-02, 1.75730046e-02, 9.46405437e-03,
          9.05421376e-03, 8.33012536e-03, 7.51190539e-03, 3.49363359e-03,
          9.64239798e-03, 1.17240548e-02, 1.60415620e-02, 5.59591642e-03,
          9.15065967e-03, 6.03308668e-03, 1.40713956e-02, 2.88394429e-02,
          7.55293816e-02, 4.76611033e-02, 9.50315036e-03, 5.59821213e-03,
          9.15441383e-03, 6.03556167e-03, 1.40771689e-02, 2.88512744e-02,
          7.55603686e-02, 4.76806574e-02, 9.50704888e-03, 6.64061168e-04,
          5.29882847e-04, 4.05156024e-04, 6.03334093e-03, 3.03561930e-02,
          2.55462453e-02, 2.77731218e-03, 1.40850968e-03, 6.36673123e-02,
          2.60504638e-03, 5.23376558e-03, 5.63129447e-02, 6.76966310e-02,
          4.55360748e-02, 2.82375775e-02, 5.97194768e-02, 5.73862195e-02,
          4.19461280e-02, 1.98982693e-02, 4.01788019e-02, 4.07212079e-02,
          4.38840687e-02, 1.47715345e-01, 1.62644669e-01, 4.78542447e-02,
          3.49787846e-02, 1.65931247e-02, 3.35050188e-02, 3.39573286e-02,
          3.65948305e-02, 1.23179510e-01, 1.35629043e-01, 6.73996226e-04,
          2.03092606e-03, 1.45992283e-02, 7.38989934e-02, 2.08372876e-01,
          3.60430554e-02, 3.96004273e-03, 2.54282518e-03, 7.20404554e-04,
          2.17076647e-03, 1.56044662e-02, 7.89873526e-02, 2.22720504e-01,
          3.85248177e-02, 4.23271349e-03, 2.71791290e-03, 1.70264542e-02,
          3.37568745e-02, 8.43494460e-02, 2.41453648e-02, 4.28970046e-02,
          7.98010603e-02, 2.73326598e-02, 2.30911262e-02, 1.78403929e-02,
          3.53706032e-02, 8.83817226e-02, 2.52996199e-02, 4.49476689e-02,
          8.36159065e-02, 2.86392830e-02, 2.41949838e-02, 3.15109454e-02,
          3.15207690e-02, 5.79625592e-02, 6.77919090e-02, 1.10568017e-01,
          5.14125638e-02, 8.31066370e-02, 4.62040715e-02, 3.41397263e-02,
          3.41503695e-02, 6.27980530e-02, 7.34474063e-02, 1.19792081e-01,
          5.57016246e-02, 9.00397524e-02, 5.00586182e-02, 1.15744602e-02,
          1.59291942e-02, 4.39660586e-02, 5.77185005e-02, 1.48383394e-01,
          1.33050820e-02, 6.42072633e-02, 1.53585393e-02, 1.05657754e-02,
          1.45410048e-02, 4.01345305e-02, 5.26884831e-02, 1.35452166e-01,
          1.21455779e-02, 5.86117618e-02, 1.40200816e-02, 6.40924368e-03,
          1.07015402e-03, 6.44963188e-03, 1.20364707e-02, 1.19647413e-01,
          1.90219104e-01, 4.30736095e-02, 1.12889661e-02, 6.41187327e-03,
          1.07059313e-03, 6.45227823e-03, 1.20414095e-02, 1.19696505e-01,
          1.90297142e-01, 4.30912822e-02, 1.12935975e-02, 7.14502558e-02,
          9.51664597e-02, 2.85744723e-02, 2.90806349e-02, 1.23597588e-02,
          1.18506784e-02, 3.98024172e-02, 5.71752936e-02, 4.43476699e-02,
          1.81455340e-03, 3.64559633e-03, 3.92249599e-02, 4.71543036e-02,
          3.17182988e-02, 1.96689758e-02, 4.15977910e-02, 3.99725549e-02,
          2.92177089e-02, 1.38602033e-02, 2.79866736e-02, 2.83644870e-02,
          3.05675883e-02, 1.02891594e-01, 1.13290660e-01, 3.34315300e-02,
          2.44365856e-02, 1.15921488e-02, 2.34069936e-02, 2.37229820e-02,
          2.55655721e-02, 8.60546306e-02, 9.47520137e-02, 4.70861560e-04,
          1.41882850e-03, 1.01991901e-02, 5.16266935e-02, 1.45571694e-01,
          2.51800958e-02, 2.76653166e-03, 1.77644717e-03, 5.60008280e-04,
          1.68745068e-03, 1.21301701e-02, 6.14010096e-02, 1.73132330e-01,
          2.99473628e-02, 3.29031027e-03, 2.11277627e-03, 1.32355560e-02,
          2.62409914e-02, 6.55692518e-02, 1.87694598e-02, 3.33460905e-02,
          6.20335527e-02, 2.12471113e-02, 1.79499444e-02, 1.50592402e-02,
          2.98566520e-02, 7.46038258e-02, 2.13556420e-02, 3.79407406e-02,
          7.05809593e-02, 2.41746828e-02, 2.04232093e-02, 2.65986808e-02,
          2.66069714e-02, 4.89267297e-02, 5.72237745e-02, 9.33314785e-02,
          4.33978178e-02, 7.01510757e-02, 3.90012823e-02, 2.61522997e-02,
          2.61604507e-02, 4.81056385e-02, 5.62634431e-02, 9.17651877e-02,
          4.26695123e-02, 6.89737946e-02, 3.83467600e-02, 8.86646658e-03,
          1.22023541e-02, 3.36796343e-02, 4.42145169e-02, 1.13667190e-01,
          1.01921875e-02, 4.91851456e-02, 1.17652118e-02, 7.41844485e-03,
          1.02095334e-02, 2.81792656e-02, 3.69936489e-02, 9.51037034e-02,
          8.52765609e-03, 4.11525033e-02, 9.84378345e-03, 4.50005988e-03,
          7.51376792e-04, 4.52841725e-03, 8.45105015e-03, 8.40068683e-02,
          1.33556679e-01, 3.02428529e-02, 7.92621169e-03, 4.35665064e-03,
          7.27431790e-04, 4.38410463e-03, 8.18173029e-03, 8.13297257e-02,
          1.29300460e-01, 2.92790681e-02, 7.67361699e-03, 4.85480279e-02,
          6.46623895e-02, 1.94153879e-02, 1.97593067e-02, 8.39803740e-03,
          8.05213489e-03, 2.70443968e-02, 3.88486758e-02, 2.73608007e-02,
          3.89278377e-03, 3.24092410e-03, 1.45595393e-03, 2.22155135e-02,
          1.81627721e-02, 9.28460527e-03, 7.14605115e-03, 2.73074638e-02,
          2.57980661e-03, 6.33805466e-04, 5.43570495e-04, 4.52558603e-03,
          7.97161609e-02, 8.80434513e-02, 8.85670409e-02, 2.28389278e-02,
          2.15765252e-03, 5.30090882e-04, 4.54621739e-04, 3.78502859e-03,
          6.66715801e-02, 7.36362040e-02, 7.40741119e-02, 2.46710290e-04,
          4.57687594e-04, 1.37117773e-03, 8.92866310e-03, 1.13893434e-01,
          5.97888492e-02, 6.62896829e-03, 2.56344816e-03, 2.93419173e-04,
          5.44340117e-04, 1.63077842e-03, 1.06190993e-02, 1.35456517e-01,
          7.11084828e-02, 7.88400974e-03, 3.04877758e-03, 6.66629348e-05,
          3.87531891e-03, 5.63974865e-02, 4.47587632e-02, 1.14945710e-01,
          6.07832475e-03, 6.38766913e-04, 0., 7.58482056e-05,
          4.40928666e-03, 6.41683117e-02, 5.09259254e-02, 1.30783707e-01,
          6.91583753e-03, 7.26780505e-04, 0., 7.10705353e-04,
          6.62267790e-04, 6.93035172e-03, 2.83077243e-03, 1.19005609e-03,
          3.24518443e-03, 2.53333207e-02, 1.85892847e-03, 6.98778254e-04,
          6.51153561e-04, 6.81404630e-03, 2.78326636e-03, 1.17008446e-03,
          3.19072348e-03, 2.49081757e-02, 1.82773184e-03, 1.05374574e-03,
          1.08434680e-04, 2.36301057e-04, 2.29127309e-03, 5.53700998e-02,
          9.60539654e-02, 1.10904753e-01, 9.72761679e-03, 8.81653861e-04,
          9.07257345e-05, 1.97709698e-04, 1.91707525e-03, 4.63273674e-02,
          8.03669691e-02, 9.27924141e-02, 8.13895743e-03, 1.22022964e-02,
          4.08044569e-02, 3.91992815e-02, 1.85490306e-02, 1.15342557e-01,
          1.47613967e-02, 9.78007820e-03, 7.25594535e-03, 1.18134310e-02,
          3.95040922e-02, 3.79500724e-02, 1.79579053e-02, 1.11666799e-01,
          1.42909773e-02, 9.46840458e-03, 7.02471146e-03, 4.73833680e-02,
          6.73290566e-02, 4.73625101e-02, 1.74894352e-02, 2.91756373e-02,
          2.04558969e-02, 9.51267127e-03, 1.16539057e-02, 5.06606549e-02,
          7.20779225e-03, 6.00082334e-03, 2.69581238e-03, 4.11337540e-02,
          3.36297899e-02, 1.71911716e-02, 1.32314712e-02, 5.05618975e-02,
          4.77671297e-03, 1.17354013e-03, 1.00646308e-03, 8.37947521e-03,
          1.47600695e-01, 1.63019314e-01, 1.63988769e-01, 3.30599099e-02,
          3.12325521e-03, 7.67319580e-04, 6.58076140e-04, 5.47892181e-03,
          9.65087488e-02, 1.06590219e-01, 1.07224099e-01, 3.57119221e-04,
          6.62514067e-04, 1.98481348e-03, 1.29244598e-02, 1.64863557e-01,
          8.65458325e-02, 9.59559437e-03, 3.71065410e-03, 4.04595427e-04,
          7.50590116e-04, 2.24867882e-03, 1.46426661e-02, 1.86780870e-01,
          9.80514213e-02, 1.08712539e-02, 4.20395657e-03, 9.19214581e-05,
          5.34367375e-03, 7.77664408e-02, 6.17178157e-02, 1.58498541e-01,
          8.38139653e-03, 8.80795065e-04, 0., 1.94024688e-04,
          1.12792449e-02, 1.64146766e-01, 1.30271867e-01, 3.34553331e-01,
          1.76911671e-02, 1.85915234e-03, 0., 1.81803096e-03,
          1.69412454e-03, 1.77282952e-02, 7.24130217e-03, 3.04424181e-03,
          8.30139499e-03, 6.48043007e-02, 4.75526135e-03, 1.53538771e-03,
          1.43074454e-03, 1.49721364e-02, 6.11552084e-03, 2.57096346e-03,
          7.01080449e-03, 5.47293909e-02, 4.01597656e-03, 2.31533847e-03,
          2.38257679e-04, 5.19211579e-04, 5.03449095e-03, 1.21661738e-01,
          2.11054191e-01, 2.43685037e-01, 2.13739686e-02, 1.14058342e-03,
          1.17370641e-04, 2.55774299e-04, 2.48009386e-03, 5.99330738e-02,
          1.03969641e-01, 1.20044269e-01, 1.05292564e-02, 1.57859419e-02,
          5.27881645e-02, 5.07115722e-02, 2.39966251e-02, 1.49217084e-01,
          1.90966167e-02, 1.26523525e-02, 9.38691664e-03, 1.51809976e-02,
          5.07652313e-02, 4.87682149e-02, 2.30770316e-02, 1.43498823e-01,
          1.83648001e-02, 1.21674920e-02, 9.02719330e-03, 6.08905926e-02,
          8.65220428e-02, 6.08637892e-02, 2.24750191e-02, 3.74925211e-02,
          2.62871087e-02, 1.22243771e-02, 1.49759986e-02, 6.59406185e-02,
          6.15377631e-03, 1.05008180e-03, 1.32293184e-03, 7.27376842e-04,
          8.40051798e-04, 5.66294929e-03, 4.37972583e-02, 6.52563199e-02,
          1.27851618e-02, 1.20332581e-03, 6.32971583e-04, 1.32140203e-03,
          5.19150309e-03, 3.73056307e-02, 3.85505594e-02, 4.26678620e-02,
          8.35958123e-03, 7.86794932e-04, 4.13868634e-04, 8.63999128e-04,
          3.39446566e-03, 2.43922956e-02, 2.52062939e-02, 4.19431599e-04,
          9.38983721e-05, 2.56715168e-04, 3.11657175e-04, 1.27667543e-02,
          7.60955140e-02, 1.59895688e-01, 1.00200390e-02, 4.75191744e-04,
          1.06381427e-04, 2.90843454e-04, 3.53089563e-04, 1.44639947e-02,
          8.62118155e-02, 1.81152567e-01, 1.13521256e-02, 5.98481565e-04,
          1.72621303e-03, 5.80910244e-04, 2.04143138e-03, 1.03189535e-02,
          4.88459542e-02, 8.84677377e-03, 2.00067880e-03, 1.26325455e-03,
          3.64363194e-03, 1.22616556e-03, 4.30898415e-03, 2.17808969e-02,
          1.03102386e-01, 1.86734702e-02, 4.22296487e-03, 2.13928404e-03,
          3.39818257e-03, 2.34715780e-03, 1.09010153e-02, 3.56749408e-02,
          1.50535339e-02, 1.66428683e-03, 1.21729635e-03, 1.80669664e-03,
          2.86987820e-03, 1.98225281e-03, 9.20627080e-03, 3.01286746e-02,
          1.27132107e-02, 1.40554563e-03, 1.02804729e-03, 2.17586197e-03,
          2.34475196e-03, 3.69013287e-02, 1.70450971e-01, 2.00383049e-02,
          2.93484074e-03, 2.96204351e-03, 2.78811832e-03, 1.07187440e-03,
          1.15507306e-03, 1.81783549e-02, 8.39676559e-02, 9.87128168e-03,
          1.44576293e-03, 1.45916350e-03, 1.37348438e-03, 7.94112030e-03,
          5.61396405e-02, 1.45811409e-01, 3.24239172e-02, 3.24422028e-03,
          2.79790303e-03, 4.85973200e-04, 5.27858792e-04, 7.63680274e-03,
          5.39882705e-02, 1.40223667e-01, 3.11813764e-02, 3.11989593e-03,
          2.69068265e-03, 4.67349833e-04, 5.07630350e-04, 6.07109554e-02,
          4.60292362e-02, 6.32193638e-03, 8.90250143e-04, 4.69627877e-04,
          5.66560018e-04, 1.51071843e-04, 2.46355147e-03, 1.29257143e-01,
          1.20626641e-02, 2.05837586e-03, 2.59321788e-03, 1.42580795e-03,
          1.64667389e-03, 1.11005418e-02, 8.58516097e-02, 1.27915785e-01,
          2.50615403e-02, 2.35876557e-03, 1.24075415e-03, 2.59021926e-03,
          1.01764109e-02, 7.31266886e-02, 7.55670071e-02, 7.09169060e-02,
          1.38941957e-02, 1.30770693e-03, 6.87877997e-04, 1.43602560e-03,
          5.64183388e-03, 4.05416638e-02, 4.18945849e-02, 6.97123993e-04,
          1.56065522e-04, 4.26678191e-04, 5.17995562e-04, 2.12192200e-02,
          1.26475945e-01, 2.65757561e-01, 1.66539904e-02, 4.16624243e-04,
          9.32698895e-05, 2.54996907e-04, 3.09571187e-04, 1.26813035e-02,
          7.55861849e-02, 1.58825457e-01, 9.95297264e-03, 5.24718547e-04,
          1.51345681e-03, 5.09312900e-04, 1.78982434e-03, 9.04713944e-03,
          4.28256765e-02, 7.75640644e-03, 1.75409450e-03, 5.00597176e-04,
          1.44388305e-03, 4.85899713e-04, 1.70754595e-03, 8.63124151e-03,
          4.08569761e-02, 7.39984354e-03, 1.67345849e-03, 8.47746385e-04,
          1.34661736e-03, 9.30121692e-04, 4.31980798e-03, 1.41371135e-02,
          5.96535066e-03, 6.59516547e-04, 4.82385018e-04, 1.23756053e-03,
          1.96582428e-03, 1.35781406e-03, 6.30615978e-03, 2.06376985e-02,
          8.70836247e-03, 9.62778111e-04, 7.04197271e-04, 1.49043335e-03,
          1.60612050e-03, 2.52768677e-02, 1.16756402e-01, 1.37259439e-02,
          2.01032264e-03, 2.02895608e-03, 1.90981990e-03, 1.94130524e-03,
          2.09198892e-03, 3.29233892e-02, 1.52076453e-01, 1.78781860e-02,
          2.61846650e-03, 2.64273677e-03, 2.48756073e-03, 1.43824117e-02,
          1.01676263e-01, 2.64083624e-01, 5.87239750e-02, 5.87570900e-03,
          5.06736990e-03, 8.80161242e-04, 9.56021657e-04, 1.51964612e-02,
          1.07431173e-01, 2.79030859e-01, 6.20477721e-02, 6.20827591e-03,
          5.35418512e-03, 9.29978676e-04, 1.01013284e-03, 1.20808631e-01,
          9.15935040e-02, 1.25800110e-02, 1.77150744e-03, 9.34511772e-04,
          1.12739683e-03, 3.00617598e-04, 4.90221754e-03, 6.66863620e-02,
          9.40545753e-04, 6.72498776e-04, 5.74727403e-03, 1.23875290e-02,
          8.83861352e-03, 2.71356981e-02, 7.28804022e-02, 1.44420147e-01,
          2.07029991e-02, 9.72488616e-03, 4.53553908e-03, 6.07880671e-03,
          8.59761331e-03, 8.60339589e-03, 3.80144827e-02, 8.00669789e-02,
          1.14778066e-02, 5.39150694e-03, 2.51451693e-03, 3.37010948e-03,
          4.76654340e-03, 4.76974947e-03, 2.10753493e-02, 2.54471246e-02,
          2.32162643e-02, 1.49133671e-02, 2.14239489e-02, 4.97871339e-02,
          5.87624870e-02, 3.02348249e-02, 3.45568433e-02, 1.52080385e-02,
          1.38748027e-02, 8.91271885e-03, 1.28036560e-02, 2.97544282e-02,
          3.51183936e-02, 1.80693250e-02, 2.06523053e-02, 6.49730768e-03,
          6.94271596e-03, 7.68661732e-03, 2.65818220e-02, 1.44386545e-01,
          2.60390282e-01, 5.10598831e-02, 1.82201602e-02, 6.19862555e-03,
          6.62355823e-03, 7.33326236e-03, 2.53598522e-02, 1.37749076e-01,
          2.48420119e-01, 4.87126522e-02, 1.73825771e-02, 2.58745644e-02,
          9.58897639e-03, 2.57022250e-02, 7.91841820e-02, 1.44700080e-01,
          6.05968945e-02, 3.06413770e-02, 3.45439054e-02, 3.77723090e-02,
          1.39982188e-02, 3.75207253e-02, 1.15594968e-01, 2.11236671e-01,
          8.84608030e-02, 4.47310209e-02, 5.04280254e-02, 4.38237505e-04,
          1.59683742e-03, 2.54924186e-02, 1.18870005e-01, 1.84832718e-02,
          8.17149878e-03, 1.37128178e-02, 6.80698734e-03, 5.70809003e-04,
          2.07989779e-03, 3.32041457e-02, 1.54829443e-01, 2.40746569e-02,
          1.06434636e-02, 1.78610906e-02, 8.86617228e-03, 4.60236482e-02,
          1.54775782e-02, 3.34652513e-03, 4.51024529e-03, 6.05120230e-03,
          1.90150202e-03, 1.28253771e-03, 2.97151296e-03, 4.86286022e-02,
          1.63536146e-02, 3.53593961e-03, 4.76552686e-03, 6.39370270e-03,
          2.00912775e-03, 1.35512976e-03, 3.13970167e-03, 5.46121858e-02,
          1.04099669e-01, 2.60898322e-02, 3.01944814e-03, 5.28742978e-03,
          5.81031339e-03, 1.50858366e-03, 2.16406002e-03 ]
      - [ 5.17825373e-02, 6.15582056e-02, 5.26634902e-02, 4.03367653e-02,
          1.45490933e-02, 8.75125919e-03, 1.98678058e-02, 3.63838151e-02,
          6.95576370e-02, 6.21576756e-02, 2.69876719e-02, 2.58883964e-02,
          1.75964441e-02, 1.33320438e-02, 2.64471397e-02, 2.34575775e-02,
          7.02776238e-02, 6.28010631e-02, 2.72670183e-02, 2.61563659e-02,
          1.77785829e-02, 1.34700425e-02, 2.67208908e-02, 2.37003844e-02,
          9.94731188e-02, 8.05257261e-02, 1.83961615e-02, 5.92914410e-03,
          5.50640095e-03, 1.37431137e-02, 3.84526029e-02, 5.38911968e-02,
          1.30026504e-01, 1.05259381e-01, 2.40465831e-02, 7.75029371e-03,
          7.19770417e-03, 1.79643407e-02, 5.02634011e-02, 7.04439953e-02,
          1.74016468e-02, 2.59482339e-02, 5.14102466e-02, 1.35037284e-02,
          1.78498309e-02, 2.74557471e-02, 1.63039360e-02, 2.48001218e-02,
          1.95755027e-02, 2.91897506e-02, 5.78325391e-02, 1.51906470e-02,
          2.00796742e-02, 3.08855847e-02, 1.83406621e-02, 2.78982110e-02,
          2.33397149e-02, 5.45732640e-02, 1.95134748e-02, 1.46903628e-02,
          2.87617743e-02, 7.59934559e-02, 6.13502748e-02, 3.14241983e-02,
          1.61409806e-02, 3.77410799e-02, 1.34948790e-02, 1.01593733e-02,
          1.98906995e-02, 5.25545776e-02, 4.24278341e-02, 2.17319429e-02,
          2.12343242e-02, 3.90180759e-02, 3.05947922e-02, 8.09162576e-03,
          6.51369244e-03, 2.79783178e-02, 5.18858917e-02, 6.86797574e-02,
          2.02284735e-02, 3.71698253e-02, 2.91455444e-02, 7.70833204e-03,
          6.20514434e-03, 2.66530085e-02, 4.94281016e-02, 6.54264539e-02,
          2.85491943e-02, 3.47449444e-02, 4.21978720e-02, 6.23016898e-03,
          9.35006607e-03, 1.19996518e-02, 8.52572173e-02, 6.37476072e-02,
          2.79570185e-02, 3.40242572e-02, 4.13225926e-02, 6.10094098e-03,
          9.15612467e-03, 1.17507521e-02, 8.34887847e-02, 6.24253377e-02,
          4.20109816e-02, 5.59684820e-03, 4.62910114e-03, 7.91694131e-03,
          1.21389087e-02, 1.48620531e-02, 5.32851852e-02, 1.56809807e-01,
          1.45607948e-01, 5.58241718e-02, 5.59892971e-03, 4.32808558e-03,
          6.93072937e-03, 9.02879052e-03, 1.02850217e-02, 7.81871378e-03,
          9.31023583e-02, 7.98704773e-02, 9.32112429e-03, 2.94192811e-03,
          2.29030498e-03, 1.76499737e-03, 1.03728171e-03, 1.29315332e-02,
          9.40660536e-02, 8.06972161e-02, 9.41760652e-03, 2.97237979e-03,
          2.31401157e-03, 1.78326678e-03, 1.04801846e-03, 1.30653866e-02,
          4.59286049e-02, 8.08053650e-03, 1.51066789e-02, 7.63839344e-03,
          1.00858472e-02, 2.05018446e-02, 2.73500122e-02, 7.58545771e-02,
          6.00356795e-02, 1.05624907e-02, 1.97467301e-02, 9.98454262e-03,
          1.31837381e-02, 2.67990325e-02, 3.57506275e-02, 9.91534814e-02,
          1.52102830e-02, 1.25553971e-02, 4.90466692e-03, 6.74920250e-03,
          1.26309134e-02, 6.76761242e-03, 2.19600964e-02, 3.63799073e-02,
          1.71103887e-02, 1.41238477e-02, 5.51736914e-03, 7.59232929e-03,
          1.42087974e-02, 7.61303911e-03, 2.47034058e-02, 4.09245715e-02,
          1.06170297e-01, 8.92933905e-02, 7.06938282e-02, 2.94004809e-02,
          6.80408394e-03, 1.09604262e-02, 9.90279019e-03, 1.63417980e-02,
          7.34238923e-02, 6.17523789e-02, 4.88895327e-02, 2.03324072e-02,
          4.70548123e-03, 7.57987099e-03, 6.84844470e-03, 1.13014514e-02,
          6.99426308e-02, 3.81739475e-02, 1.04153529e-02, 1.19885085e-02,
          1.62182245e-02, 9.26880911e-03, 4.07213271e-02, 1.00299798e-01,
          6.66295066e-02, 3.63656804e-02, 9.92198661e-03, 1.14206225e-02,
          1.54499812e-02, 8.82975385e-03, 3.87923904e-02, 9.55486819e-02,
          5.31009659e-02, 1.75050013e-02, 5.37301041e-03, 3.23614269e-03,
          4.92358627e-03, 6.58432627e-03, 2.94849426e-02, 7.27918297e-02,
          5.19995317e-02, 1.71419084e-02, 5.26156183e-03, 3.16901761e-03,
          4.82146023e-03, 6.44775247e-03, 2.88733579e-02, 7.12819621e-02,
          8.65115300e-02, 5.14280796e-02, 1.63597856e-02, 1.23590408e-02,
          4.93038632e-03, 1.16939992e-02, 1.27274599e-02, 4.15175483e-02,
          1.75094724e-01, 6.71290085e-02, 6.73275767e-03, 5.20455744e-03,
          8.33425764e-03, 1.08571928e-02, 1.23678213e-02, 9.40206554e-03,
          1.11956336e-01, 9.60448906e-02, 1.12087270e-02, 3.53769213e-03,
          2.75410991e-03, 2.12242361e-03, 1.24733953e-03, 1.55502716e-02,
          1.01139717e-01, 8.67655501e-02, 1.01258000e-02, 3.19589931e-03,
          2.48802267e-03, 1.91736640e-03, 1.12682825e-03, 1.40478881e-02,
          4.93823849e-02, 8.68818350e-03, 1.62426848e-02, 8.21279176e-03,
          1.08442912e-02, 2.20435597e-02, 2.94067003e-02, 8.15587565e-02,
          6.43830299e-02, 1.13273505e-02, 2.11766455e-02, 1.07075516e-02,
          1.41384089e-02, 2.87396256e-02, 3.83394323e-02, 1.06333464e-01,
          1.63117032e-02, 1.34645691e-02, 5.25982725e-03, 7.23793125e-03,
          1.35455532e-02, 7.25767436e-03, 2.35502888e-02, 3.90142798e-02,
          1.68764256e-02, 1.39307221e-02, 5.44192642e-03, 7.48851383e-03,
          1.40145095e-02, 7.50894006e-03, 2.43656170e-02, 4.03649807e-02,
          1.04718551e-01, 8.80724192e-02, 6.97271824e-02, 2.89984662e-02,
          6.71104668e-03, 1.08105559e-02, 9.76738147e-03, 1.61183458e-02,
          6.78324997e-02, 5.70497960e-02, 4.51664850e-02, 1.87840480e-02,
          4.34714789e-03, 7.00264657e-03, 6.32691989e-03, 1.04408208e-02,
          6.46163374e-02, 3.52669135e-02, 9.62220039e-03, 1.10755563e-02,
          1.49831697e-02, 8.56296811e-03, 3.76203023e-02, 9.26617384e-02,
          6.62954971e-02, 3.61833759e-02, 9.87224746e-03, 1.13633713e-02,
          1.53725296e-02, 8.78548995e-03, 3.85979228e-02, 9.50696915e-02,
          5.28347716e-02, 1.74172483e-02, 5.34607563e-03, 3.21991974e-03,
          4.89890436e-03, 6.55131880e-03, 2.93371342e-02, 7.24269226e-02,
          6.07337058e-02, 2.00211741e-02, 6.14532782e-03, 3.70130618e-03,
          5.63130341e-03, 7.53075816e-03, 3.37231122e-02, 8.32549408e-02,
          1.01042561e-01, 6.00662716e-02, 1.91076789e-02, 1.44349448e-02,
          5.75852534e-03, 1.36581985e-02, 1.48652457e-02, 4.84911054e-02,
          5.49601242e-02, 2.64725536e-02, 1.27400914e-02, 1.09232021e-02,
          1.98911820e-02, 1.43907703e-02, 1.08767552e-02, 3.47087048e-02,
          4.44992073e-02, 1.29297614e-01, 4.66513112e-02, 8.76201410e-03,
          6.99167326e-03, 1.21314381e-03, 7.29444344e-03, 3.07829902e-02,
          4.01999317e-02, 1.16805576e-01, 4.21441123e-02, 7.91547541e-03,
          6.31617568e-03, 1.09593628e-03, 6.58969348e-03, 2.78089028e-02,
          1.32556129e-02, 9.11413729e-02, 4.12775762e-02, 1.63920261e-02,
          1.93208139e-02, 1.60444975e-02, 4.10756730e-02, 6.54300749e-02,
          1.72822066e-02, 1.18826941e-01, 5.38162626e-02, 2.13713516e-02,
          2.51898039e-02, 2.09182575e-02, 5.35530336e-02, 8.53054449e-02,
          1.24022402e-02, 9.71758738e-03, 2.42971927e-02, 2.86357198e-02,
          2.58614756e-02, 2.06180010e-02, 2.45515704e-02, 3.68656814e-02,
          1.28316144e-02, 1.00540165e-02, 2.51383781e-02, 2.96271071e-02,
          2.67568175e-02, 2.13318095e-02, 2.54015625e-02, 3.81419994e-02,
          8.39175880e-02, 1.28618851e-01, 3.74942645e-02, 6.86886953e-03,
          1.08093712e-02, 2.95023564e-02, 2.82724388e-02, 2.03173049e-02,
          5.43584600e-02, 8.33141506e-02, 2.42872890e-02, 4.44937916e-03,
          7.00187916e-03, 1.91104487e-02, 1.83137562e-02, 1.31607382e-02,
          5.80794662e-02, 1.99359730e-02, 4.21307376e-03, 1.79588667e-03,
          3.59876640e-03, 1.22988143e-03, 3.66238542e-02, 1.59167320e-01,
          5.95887490e-02, 2.04540398e-02, 4.32255724e-03, 1.84255547e-03,
          3.69228586e-03, 1.26184186e-03, 3.75755802e-02, 1.63303524e-01,
          6.19962178e-02, 2.32112054e-02, 7.12881517e-03, 4.73780278e-03,
          0., 3.14180809e-03, 2.34355722e-02, 1.10735081e-01,
          7.12648109e-02, 2.66813412e-02, 8.19459185e-03, 5.44611644e-03,
          0., 3.61151644e-03, 2.69392505e-02, 1.27290264e-01,
          9.16334540e-02, 4.55131046e-02, 5.67866582e-03, 1.58744596e-03,
          1.71207852e-04, 3.77481384e-03, 2.25394070e-02, 6.15078509e-02,
          3.31996232e-02, 1.59912072e-02, 7.69587466e-03, 6.59835106e-03,
          1.20156156e-02, 8.69299658e-03, 6.57029403e-03, 2.09663995e-02,
          2.68805232e-02, 7.81044811e-02, 2.81805377e-02, 5.29284775e-03,
          4.22344264e-03, 7.32820656e-04, 4.40633576e-03, 1.85950026e-02,
          1.83570590e-02, 5.33385687e-02, 1.92448571e-02, 3.61455488e-03,
          2.88424385e-03, 5.00452821e-04, 3.00914422e-03, 1.26987696e-02,
          6.05309661e-03, 4.16191630e-02, 1.88491587e-02, 7.48532126e-03,
          8.82273447e-03, 7.32662436e-03, 1.87569614e-02, 2.98782513e-02,
          9.25990380e-03, 6.36681467e-02, 2.88350582e-02, 1.14508914e-02,
          1.34968394e-02, 1.12081207e-02, 2.86940169e-02, 4.57071401e-02,
          6.64519006e-03, 5.20673813e-03, 1.30185736e-02, 1.53431799e-02,
          1.38567248e-02, 1.10472413e-02, 1.31548699e-02, 1.97528414e-02,
          1.13170063e-02, 8.86726845e-03, 2.21711155e-02, 2.61300076e-02,
          2.35985182e-02, 1.88138634e-02, 2.24032328e-02, 3.36398222e-02,
          7.40121901e-02, 1.13437042e-01, 3.30685489e-02, 6.05808757e-03,
          9.53346398e-03, 2.60199811e-02, 2.49352399e-02, 1.79191064e-02,
          3.52466963e-02, 5.40219285e-02, 1.57481786e-02, 2.88503268e-03,
          4.54010488e-03, 1.23914508e-02, 1.18748667e-02, 8.53358582e-03,
          3.76594439e-02, 1.29267313e-02, 2.73180916e-03, 1.16447511e-03,
          2.33348459e-03, 7.97470391e-04, 2.37473603e-02, 1.03206053e-01,
          3.08990292e-02, 1.06061967e-02, 2.24141008e-03, 9.55435040e-04,
          1.91459048e-03, 6.54312898e-04, 1.94843654e-02, 8.46790746e-02,
          3.21473926e-02, 1.20358923e-02, 3.69656133e-03, 2.45673070e-03,
          0., 1.62914675e-03, 1.21522341e-02, 5.74203469e-02,
          5.08281477e-02, 1.90299116e-02, 5.84462192e-03, 3.88432923e-03,
          0., 2.57583894e-03, 1.92138609e-02, 9.07871351e-02,
          6.53556585e-02, 3.24612744e-02, 4.05019009e-03, 1.13221281e-03,
          1.22110447e-04, 2.69230758e-03, 1.60757639e-02, 4.38691974e-02,
          4.37351465e-02, 4.41579334e-03, 2.38927943e-03, 2.25202966e-04,
          3.11917602e-03, 8.35348293e-03, 1.97684560e-02, 6.84709847e-02,
          3.40990610e-02, 5.26995398e-02, 9.80327949e-02, 2.56366223e-01,
          9.63065922e-02, 1.66756604e-02, 2.26274994e-03, 1.49334436e-02,
          2.32866928e-02, 3.59892026e-02, 6.69478700e-02, 1.75075844e-01,
          6.57690242e-02, 1.13880262e-02, 1.54526136e-03, 1.01982430e-02,
          3.31243686e-02, 2.84780227e-02, 6.76278910e-03, 7.04596052e-03,
          1.16173685e-01, 9.23726931e-02, 3.68676111e-02, 3.65357324e-02,
          5.06729819e-02, 4.35650982e-02, 1.03455763e-02, 1.07787671e-02,
          1.77720144e-01, 1.41309872e-01, 5.63993193e-02, 5.58916144e-02,
          3.16542014e-02, 1.30593916e-02, 1.04169631e-02, 8.36144388e-03,
          7.21998047e-03, 6.60461793e-03, 2.07327176e-02, 4.49218713e-02,
          5.39082810e-02, 2.22406294e-02, 1.77404769e-02, 1.42398505e-02,
          1.22958953e-02, 1.12479106e-02, 3.53085920e-02, 7.65036196e-02,
          3.72704491e-02, 8.78407210e-02, 1.05542764e-01, 2.48336904e-02,
          4.14301874e-03, 3.39015760e-03, 1.15022482e-02, 1.00670811e-02,
          1.77492406e-02, 4.18322347e-02, 5.02624512e-02, 1.18265059e-02,
          1.97302271e-03, 1.61448901e-03, 5.47769619e-03, 4.79422882e-03,
          4.07889895e-02, 4.56480831e-02, 6.07609786e-02, 1.32600263e-01,
          1.68650970e-01, 2.56010816e-02, 1.93637777e-02, 4.12474014e-02,
          3.34667750e-02, 3.74535918e-02, 4.98535037e-02, 1.08796597e-01,
          1.38375670e-01, 2.10053176e-02, 1.58877000e-02, 3.38428952e-02,
          3.31533067e-02, 1.29637681e-02, 3.90124926e-03, 8.23694374e-03,
          2.57541928e-02, 9.48110148e-02, 5.41091971e-02, 5.54155409e-02,
          5.24185970e-02, 2.04969756e-02, 6.16825325e-03, 1.30234072e-02,
          4.07198779e-02, 1.49905398e-01, 8.55518878e-02, 8.76173452e-02,
          7.42248893e-02, 3.26434188e-02, 8.46831128e-03, 1.13305287e-03,
          0., 0., 3.16736824e-03, 6.65387064e-02, 2.96890065e-02,
          2.99760117e-03, 1.62192981e-03, 1.52875975e-04, 2.11741030e-03,
          5.67064807e-03, 1.34195462e-02, 4.64805961e-02, 2.31476836e-02,
          3.57743651e-02, 6.65482283e-02, 1.74030721e-01, 6.53764158e-02,
          1.13200452e-02, 1.53603696e-03, 1.01373643e-02, 1.25687020e-02,
          1.94247235e-02, 3.61342765e-02, 9.44949985e-02, 3.54980081e-02,
          6.14654506e-03, 8.34035513e-04, 5.50437439e-03, 1.78784635e-02,
          1.53706567e-02, 3.65013070e-03, 3.80296935e-03, 6.27032965e-02,
          4.98570092e-02, 1.98988337e-02, 1.97197050e-02, 2.70402879e-02,
          2.32473556e-02, 5.52064180e-03, 5.75180212e-03, 9.48356241e-02,
          7.54062533e-02, 3.00959963e-02, 2.98250727e-02, 1.68914218e-02,
          6.96879672e-03, 5.55873523e-03, 4.46186215e-03, 3.85275041e-03,
          3.52437864e-03, 1.10634631e-02, 2.39713602e-02, 5.33709489e-02,
          2.20189448e-02, 1.75636467e-02, 1.40979141e-02, 1.21733351e-02,
          1.11357961e-02, 3.49566489e-02, 7.57410601e-02, 3.68989520e-02,
          8.69651586e-02, 1.04490764e-01, 2.45861579e-02, 4.10172297e-03,
          3.35636595e-03, 1.13875996e-02, 9.96673666e-03, 1.08347377e-02,
          2.55358126e-02, 3.06819025e-02, 7.21929967e-03, 1.20439997e-03,
          9.85538703e-04, 3.34377121e-03, 2.92655965e-03, 2.48989798e-02,
          2.78651342e-02, 3.70905586e-02, 8.09436888e-02, 1.02950260e-01,
          1.56277660e-02, 1.18203061e-02, 2.51788087e-02, 1.74033940e-02,
          1.94766186e-02, 2.59248223e-02, 5.65764084e-02, 7.19581246e-02,
          1.09231863e-02, 8.26192275e-03, 1.75989848e-02, 1.72403846e-02,
          6.74141943e-03, 2.02872767e-03, 4.28337604e-03, 1.33926962e-02,
          4.93036248e-02, 2.81378664e-02, 2.88171917e-02, 3.13503668e-02,
          1.22587727e-02, 3.68909142e-03, 7.78900273e-03, 2.43536290e-02,
          8.96550044e-02, 5.11666313e-02, 5.24019338e-02, 4.43922132e-02,
          1.95232835e-02, 5.06470399e-03, 6.77653064e-04, 0., 0.,
          1.89433072e-03, 3.97952832e-02, 1.34836193e-02, 3.96257825e-03,
          1.70328398e-03, 2.44767847e-03, 4.17739293e-03, 4.13514813e-03,
          1.33946156e-02, 7.59259090e-02, 3.65981832e-02, 3.88369150e-02,
          1.03749726e-02, 2.29208078e-02, 5.06256968e-02, 8.42271298e-02,
          1.04928397e-01, 4.22371887e-02, 1.98720396e-02, 2.10876223e-02,
          5.63339051e-03, 1.24455132e-02, 2.74886824e-02, 4.57335487e-02,
          5.69738969e-02, 2.29338985e-02, 3.75495590e-02, 6.71474338e-02,
          6.74050003e-02, 3.41222510e-02, 4.93357666e-02, 6.74840361e-02,
          2.37874221e-02, 3.75132523e-02, 5.67918420e-02, 1.01557158e-01,
          1.01946719e-01, 5.16082123e-02, 7.46179000e-02, 1.02066256e-01,
          3.59772928e-02, 5.67369312e-02, 7.01014278e-03, 6.91572158e-03,
          8.10335949e-03, 1.40096275e-02, 6.34684088e-03, 2.49691145e-03,
          2.01201322e-03, 3.78735107e-03, 2.21495833e-02, 2.18512453e-02,
          2.56037638e-02, 4.42654900e-02, 2.00537834e-02, 7.88936112e-03,
          6.35725399e-03, 1.19666969e-02, 9.30794626e-02, 6.67356998e-02,
          9.80941672e-03, 6.86575752e-03, 6.30457513e-03, 2.45695990e-02,
          5.66536933e-02, 5.30328304e-02, 2.73311697e-02, 1.95957813e-02,
          2.88036535e-03, 2.01601069e-03, 1.85122923e-03, 7.21443724e-03,
          1.66353751e-02, 1.55721717e-02, 3.25469226e-02, 7.92628899e-02,
          8.62029418e-02, 6.89656809e-02, 3.82542685e-02, 6.19765148e-02,
          6.95041865e-02, 6.10825270e-02, 2.27490012e-02, 5.54016009e-02,
          6.02524169e-02, 4.82042618e-02, 2.67382096e-02, 4.33191136e-02,
          4.85806577e-02, 4.26942520e-02, 2.39679050e-02, 1.80303771e-02,
          4.41641212e-02, 4.93666008e-02, 5.20479754e-02, 3.76228616e-02,
          1.84919592e-02, 3.02999597e-02, 4.35838625e-02, 3.27869095e-02,
          8.03091899e-02, 8.97695124e-02, 9.46453959e-02, 6.84143901e-02,
          3.36262621e-02, 5.50982356e-02, 2.75843516e-02, 5.68751059e-02,
          1.52900536e-02, 8.99484847e-03, 4.27120598e-03, 2.14547222e-03,
          3.60298000e-04, 2.23304657e-03, 1.70132574e-02, 4.99987137e-03,
          2.14915653e-03, 3.08841304e-03, 5.27091883e-03, 5.21761551e-03,
          1.69009548e-02, 9.58012044e-02, 4.61785756e-02, 4.90033440e-02,
          1.30908536e-02, 2.89208405e-02, 6.38781041e-02, 1.06275462e-01,
          1.32395744e-01, 5.32937124e-02, 2.63476409e-02, 2.79593393e-02,
          7.46911485e-03, 1.65010691e-02, 3.64462808e-02, 6.06365092e-02,
          7.55396932e-02, 3.04072518e-02, 4.97856438e-02, 8.90284255e-02,
          8.93699229e-02, 4.52414975e-02, 6.54125661e-02, 8.94747153e-02,
          3.15389074e-02, 4.97375056e-02, 7.59157985e-02, 1.35755286e-01,
          1.36276007e-01, 6.89866394e-02, 9.97445583e-02, 1.36435807e-01,
          4.80922051e-02, 7.58423880e-02, 9.37072188e-03, 9.24450532e-03,
          1.08320657e-02, 1.87271964e-02, 8.48406088e-03, 3.33771552e-03,
          2.68953387e-03, 5.06269466e-03, 3.35717909e-02, 3.31196040e-02,
          3.88072394e-02, 6.70925453e-02, 3.03952191e-02, 1.19577870e-02,
          9.63559467e-03, 1.81377418e-02, 1.41079143e-01, 1.01150297e-01,
          1.48679866e-02, 1.04063265e-02, 9.55575053e-03, 3.72397751e-02,
          8.58691558e-02, 8.03810656e-02, 3.83756720e-02, 2.75144186e-02,
          4.04431857e-03, 2.83067883e-03, 2.59930943e-03, 1.01297842e-02,
          2.33577155e-02, 2.18648724e-02, 4.56991047e-02, 1.11292951e-01,
          1.21037468e-01, 9.68346447e-02, 5.37127852e-02, 8.70211720e-02,
          9.75907668e-02, 8.57659206e-02, 2.90669780e-02, 7.07880333e-02,
          7.69860446e-02, 6.15918078e-02, 3.41640897e-02, 5.53499348e-02,
          6.20727390e-02, 5.45515306e-02, 3.06244027e-02, 2.30378713e-02,
          5.64296208e-02, 6.30769581e-02, 6.65030256e-02, 4.80716862e-02,
          2.36276463e-02, 3.87150273e-02, 4.58010696e-02, 3.44548523e-02,
          8.43946934e-02, 9.43362862e-02, 9.94602144e-02, 7.18947798e-02,
          3.53369042e-02, 5.79012074e-02, 2.89876293e-02, 5.97684681e-02,
          1.60678923e-02, 9.45243612e-03, 4.48849145e-03, 2.25461693e-03,
          3.78627155e-04, 2.34664651e-03, 2.88088471e-02, 6.16307231e-03,
          4.61999839e-03, 2.33935565e-03, 1.42828864e-03, 6.05965033e-03,
          2.45632194e-02, 5.15595376e-02, 3.35908122e-02, 6.65699691e-03,
          2.62882537e-03, 1.00513957e-02, 3.09044253e-02, 4.78175767e-02,
          4.41417955e-02, 5.51881567e-02, 1.91655681e-02, 3.79821495e-03,
          1.49990222e-03, 5.73492236e-03, 1.76328234e-02, 2.72827875e-02,
          2.51855347e-02, 3.14881466e-02, 1.70219243e-02, 1.26248123e-02,
          8.42403993e-03, 1.59535813e-03, 6.16914872e-03, 9.79329646e-03,
          9.54980217e-03, 1.21376179e-02, 2.59559359e-02, 1.92509852e-02,
          1.28454240e-02, 2.43268698e-03, 9.40704532e-03, 1.49333393e-02,
          1.45620462e-02, 1.85080860e-02, 8.81119072e-03, 2.66204681e-03,
          5.43687958e-04, 1.72575773e-03, 6.33608596e-03, 2.97704758e-03,
          4.57839714e-03, 9.67298634e-03, 3.15672047e-02, 9.53711849e-03,
          1.94783066e-03, 6.18274463e-03, 2.26998273e-02, 1.06656486e-02,
          1.64026842e-02, 3.46546918e-02, 5.34569211e-02, 3.71431485e-02,
          2.33162642e-02, 7.52702961e-03, 4.25288593e-03, 9.47702851e-04,
          1.60849351e-03, 1.48225902e-02, 1.45410961e-02, 1.01035004e-02,
          6.34237844e-03, 2.04746658e-03, 1.15684967e-03, 2.57789594e-04,
          4.37534705e-04, 4.03197017e-03, 1.43875387e-02, 1.54638570e-02,
          1.24172140e-02, 2.75835246e-02, 1.96219068e-02, 4.96445689e-03,
          1.18565289e-02, 2.51148399e-02, 9.15121380e-03, 9.83580761e-03,
          7.89798610e-03, 1.75445378e-02, 1.24805402e-02, 3.15764965e-03,
          7.54136126e-03, 1.59743279e-02, 3.50129232e-02, 3.46283577e-02,
          1.95531342e-02, 1.62437521e-02, 1.25690764e-02, 1.76708796e-03,
          3.18390230e-04, 1.66642899e-03, 5.23644276e-02, 5.17892838e-02,
          2.92431656e-02, 2.42937393e-02, 1.87979899e-02, 2.64281151e-03,
          4.76176268e-04, 2.49226834e-03, 2.82746106e-02, 4.34117876e-02,
          3.69796939e-02, 1.04416516e-02, 1.06687415e-02, 1.06409853e-02,
          1.29404301e-02, 1.72175243e-02, 3.23300175e-02, 6.91635581e-03,
          5.18467976e-03, 2.62528425e-03, 1.60286180e-03, 6.80029346e-03,
          2.75654681e-02, 5.78614213e-02, 3.76964621e-02, 7.47065106e-03,
          2.95013469e-03, 1.12799313e-02, 3.46817300e-02, 5.36620989e-02,
          4.95370403e-02, 6.19335510e-02, 4.19925749e-02, 8.32205079e-03,
          3.28634959e-03, 1.25654591e-02, 3.86342667e-02, 5.97777516e-02,
          5.51825799e-02, 6.89918697e-02, 3.72957624e-02, 2.76615024e-02,
          1.84574313e-02, 3.49549763e-03, 1.35168675e-02, 2.14575306e-02,
          2.09240243e-02, 2.65940391e-02, 7.09373131e-02, 5.26127517e-02,
          3.51064168e-02, 6.64850883e-03, 2.57093608e-02, 4.08126675e-02,
          3.97979245e-02, 5.05824126e-02, 2.40808968e-02, 7.27534713e-03,
          1.48589374e-03, 4.71647829e-03, 1.73164606e-02, 8.13624170e-03,
          1.25127127e-02, 2.64361743e-02, 3.02139577e-02, 9.12827440e-03,
          1.86432968e-03, 5.91769814e-03, 2.17267144e-02, 1.02084260e-02,
          1.56995226e-02, 3.31690907e-02, 5.11652902e-02, 3.55508663e-02,
          2.23167259e-02, 7.20435521e-03, 4.07057023e-03, 9.07075999e-04,
          1.53953943e-03, 1.41871646e-02, 3.76319103e-02, 2.61475518e-02,
          1.64138805e-02, 5.29878074e-03, 2.99389171e-03, 6.67151529e-04,
          1.13232643e-03, 1.04346154e-02, 3.72345112e-02, 4.00199890e-02,
          3.21353711e-02, 7.13853166e-02, 5.07808924e-02, 1.28478631e-02,
          3.06843333e-02, 6.49964362e-02, 1.94623154e-02, 2.09182743e-02,
          1.67970192e-02, 3.73127945e-02, 2.65429504e-02, 6.71552215e-03,
          1.60385668e-02, 3.39733548e-02, 7.44636282e-02, 7.36457556e-02,
          4.15845700e-02, 3.45463529e-02, 2.67312471e-02, 3.75814899e-03,
          6.77135482e-04, 3.54407285e-03, 6.99634999e-02, 6.91950545e-02,
          3.90714519e-02, 3.24585810e-02, 2.51157731e-02, 3.53102945e-03,
          6.36213517e-04, 3.32989055e-03, 3.77773754e-02, 5.80019765e-02,
          4.94081341e-02, 1.39509682e-02, 1.42543800e-02, 1.42172957e-02,
          1.72895566e-02, 2.30041333e-02, 3.65832285e-03, 1.37695018e-03,
          9.60014469e-04, 3.01060500e-03, 3.74736711e-02, 8.69198442e-02,
          6.49458170e-02, 1.66408699e-02, 2.84493603e-02, 1.02649601e-02,
          4.78761503e-03, 8.67854059e-03, 1.83326621e-02, 6.20586351e-02,
          1.64783791e-01, 8.75604078e-02, 3.16916183e-02, 1.14348158e-02,
          5.33324061e-03, 9.66759864e-03, 2.04219632e-02, 6.91312104e-02,
          1.83563530e-01, 9.75393131e-02, 2.45186011e-03, 1.27515253e-02,
          3.87097560e-02, 2.93259826e-02, 5.57760242e-03, 1.32889720e-03,
          1.91725958e-02, 3.74291837e-03, 4.66348883e-03, 2.42536645e-02,
          7.36267567e-02, 5.57786264e-02, 1.06087150e-02, 2.52758991e-03,
          3.64666730e-02, 7.11910846e-03, 4.55281176e-02, 1.60669629e-02,
          1.75740290e-02, 4.13919464e-02, 1.63225383e-01, 4.33719084e-02,
          2.36363523e-02, 9.99321137e-03, 5.71234785e-02, 2.01589875e-02,
          2.20498834e-02, 5.19338809e-02, 2.04796553e-01, 5.44181131e-02,
          2.96561942e-02, 1.25383399e-02, 6.19428493e-02, 8.10336415e-03,
          2.14915313e-02, 5.09928539e-02, 2.91363746e-02, 5.21084554e-02,
          4.01351079e-02, 1.85443349e-02, 4.55587693e-02, 5.95999928e-03,
          1.58069544e-02, 3.75050828e-02, 2.14297120e-02, 3.83256078e-02,
          2.95192469e-02, 1.36392992e-02, 1.01105124e-02, 1.13675352e-02,
          9.49449837e-02, 8.04835260e-02, 2.16376856e-02, 6.11729994e-02,
          5.07156029e-02, 2.10176129e-02, 5.28472057e-03, 5.94176119e-03,
          4.96273302e-02, 4.20683883e-02, 1.13099236e-02, 3.19748595e-02,
          2.65088249e-02, 1.09858150e-02, 3.38002928e-02, 4.86413538e-02,
          1.87961176e-01, 8.06167200e-02, 1.53283877e-02, 5.27680339e-03,
          5.08777518e-03, 2.87423190e-03, 3.17576081e-02, 4.57017682e-02,
          1.76601946e-01, 7.57447407e-02, 1.44020328e-02, 4.95790550e-03,
          4.78030089e-03, 2.70053069e-03, 7.34265056e-03, 4.04693522e-02,
          7.24069998e-02, 2.37311516e-02, 7.72870053e-03, 4.15506493e-03,
          8.75465013e-03, 7.55918585e-03, 3.71167762e-03, 1.39703229e-03,
          9.74015798e-04, 3.05451313e-03, 3.80202048e-02, 8.81875232e-02,
          6.58930168e-02, 1.68835688e-02, 2.88642794e-02, 1.04146693e-02,
          4.85744001e-03, 8.80511291e-03, 1.86000355e-02, 6.29637316e-02,
          1.67187080e-01, 8.88374299e-02, 2.96988264e-02, 1.07157864e-02,
          4.99788253e-03, 9.05969273e-03, 1.91378146e-02, 6.47841841e-02,
          1.72020927e-01, 9.14059654e-02, 2.29768548e-03, 1.19496994e-02,
          3.62756588e-02, 2.74819434e-02, 5.22687845e-03, 1.24533509e-03,
          1.79670081e-02, 3.50756105e-03, 3.10417614e-03, 1.61440615e-02,
          4.90084626e-02, 3.71281430e-02, 7.06152013e-03, 1.68244948e-03,
          2.42734533e-02, 4.73871967e-03, 3.03050578e-02, 1.06947152e-02,
          1.16978697e-02, 2.75518820e-02, 1.08648352e-01, 2.88698133e-02,
          1.57331582e-02, 6.65182015e-03, 3.66962291e-02, 1.29501717e-02,
          1.41648864e-02, 3.33624221e-02, 1.31561697e-01, 3.49582992e-02,
          1.90511942e-02, 8.05465318e-03, 3.97922024e-02, 5.20561635e-03,
          1.38062006e-02, 3.27579044e-02, 1.87172610e-02, 3.34745683e-02,
          2.57828683e-02, 1.19129149e-02, 3.48331630e-02, 4.55687521e-03,
          1.20856250e-02, 2.86755040e-02, 1.63846537e-02, 2.93028560e-02,
          2.25697197e-02, 1.04282871e-02, 7.73025956e-03, 8.69135000e-03,
          7.25926980e-02, 6.15358129e-02, 1.65436640e-02, 4.67714369e-02,
          3.87759544e-02, 1.60695724e-02, 5.21379244e-03, 5.86201437e-03,
          4.89612594e-02, 4.15037721e-02, 1.11581283e-02, 3.15457135e-02,
          2.61530392e-02, 1.08383689e-02, 3.33466418e-02, 4.79885191e-02,
          1.85438469e-01, 7.95347318e-02, 1.51226586e-02, 5.20598097e-03,
          5.01948968e-03, 2.83565558e-03, 2.35005282e-02, 3.38191614e-02,
          1.30684868e-01, 5.60508631e-02, 1.06574576e-02, 3.66883399e-03,
          3.53740738e-03, 1.99838402e-03, 5.43353800e-03, 2.99471915e-02,
          5.35809472e-02, 1.75609756e-02, 5.71921375e-03, 3.07473470e-03,
          6.47841254e-03, 5.59377344e-03, 3.31714028e-03, 3.40330834e-03,
          3.79926153e-03, 1.95823926e-02, 6.05560876e-02, 5.93315177e-02,
          2.97573842e-02, 3.20303347e-03, 6.99948799e-03, 2.21006609e-02,
          1.41361989e-02, 4.29690816e-03, 1.80329792e-02, 5.83091155e-02,
          6.71724454e-02, 1.73507575e-02, 7.20186252e-03, 2.27396525e-02,
          1.45449154e-02, 4.42114379e-03, 1.85543634e-02, 5.99949919e-02,
          6.91145882e-02, 1.78524163e-02, 2.20825486e-02, 1.51864160e-02,
          3.27407103e-03, 2.64866976e-04, 1.45915628e-03, 1.40551805e-01,
          8.62919688e-02, 8.69232882e-03, 2.98335552e-02, 2.05168687e-02,
          4.42327419e-03, 3.57835641e-04, 1.97132211e-03, 1.89885676e-01,
          1.16580568e-01, 1.17433481e-02, 3.25525791e-04, 1.28960225e-03,
          6.80036726e-04, 0., 8.00124407e-02, 1.45766631e-01,
          1.25376759e-02, 7.81982380e-04, 3.94177419e-04, 1.56157231e-03,
          8.23452719e-04, 0., 9.68866199e-02, 1.76508009e-01,
          1.51818031e-02, 9.46898188e-04, 4.66050440e-03, 1.51830807e-03,
          1.10689495e-02, 1.18454292e-01, 8.39118436e-02, 1.14633106e-02,
          3.52514384e-04, 4.01861547e-03, 4.07969672e-03, 1.32909138e-03,
          9.68949962e-03, 1.03692122e-01, 7.34544694e-02, 1.00347148e-02,
          3.08582850e-04, 3.51780187e-03, 3.12365033e-02, 3.49306650e-02,
          1.05772026e-01, 7.67823383e-02, 5.80479503e-02, 2.93507166e-02,
          1.63068976e-02, 1.39195267e-02, 2.10679397e-02, 2.35595219e-02,
          7.13395625e-02, 5.17870262e-02, 3.91513295e-02, 1.97960418e-02,
          1.09984381e-02, 9.38823819e-03, 4.24651522e-03, 2.55050510e-02,
          5.92131764e-02, 4.22007516e-02, 1.23473201e-02, 3.06088030e-02,
          1.94750074e-02, 3.58694466e-03, 2.99266540e-03, 1.79742873e-02,
          4.17295620e-02, 2.97403224e-02, 8.70158151e-03, 2.15710774e-02,
          1.37247080e-02, 2.52784346e-03, 1.87013805e-01, 1.71451464e-01,
          5.48015609e-02, 2.17099711e-02, 4.79303906e-03, 1.28710242e-02,
          7.52471155e-03, 9.56616085e-03 ]
      - [ 7.05334768e-02, 9.71751958e-02, 5.31788655e-02, 2.31502000e-02,
          7.16709159e-03, 1.06943620e-03, 6.78678323e-03, 1.43607827e-02,
          1.12843089e-01, 1.24660388e-01, 1.75968278e-02, 2.78983475e-03,
          2.65830371e-04, 8.98558530e-04, 3.19957221e-03, 1.38604240e-02,
          1.32917807e-01, 1.46837398e-01, 2.07272936e-02, 3.28614470e-03,
          3.13121447e-04, 1.05841155e-03, 3.76877422e-03, 1.63261853e-02,
          1.10533454e-01, 1.41736448e-01, 1.62464231e-02, 8.18223786e-03,
          6.30295230e-03, 5.12903836e-03, 3.02927895e-03, 1.99718866e-02,
          9.62986797e-02, 1.23483278e-01, 1.41541688e-02, 7.12850923e-03,
          5.49124274e-03, 4.46850806e-03, 2.63916096e-03, 1.73998587e-02,
          4.61485647e-02, 1.13113277e-01, 3.55660245e-02, 1.89619698e-02,
          3.10084899e-03, 1.31409336e-02, 8.21042061e-03, 1.89476889e-02,
          3.59557867e-02, 8.81300792e-02, 2.77105998e-02, 1.47738615e-02,
          2.41596811e-03, 1.02385106e-02, 6.39699493e-03, 1.47627350e-02,
          8.70409533e-02, 1.88622490e-01, 4.88839447e-02, 1.01489173e-02,
          5.33576915e-03, 3.37494683e-04, 4.17502684e-04, 1.10460510e-02,
          8.86372551e-02, 1.92081764e-01, 4.97804582e-02, 1.03350449e-02,
          5.43362554e-03, 3.43684223e-04, 4.25159553e-04, 1.12486323e-02,
          4.58560400e-02, 4.89072762e-02, 3.84873338e-02, 3.19085084e-02,
          1.06268013e-02, 7.78897246e-03, 8.81130621e-03, 2.47346703e-02,
          3.53701189e-02, 3.77236269e-02, 2.96864193e-02, 2.46119741e-02,
          8.19676556e-03, 6.00786461e-03, 6.79642055e-03, 1.90785825e-02,
          4.75622192e-02, 1.96333043e-02, 1.56158023e-02, 1.37851099e-02,
          2.71055419e-02, 1.28937755e-02, 4.79472540e-02, 4.29288410e-02,
          5.03856018e-02, 2.07987744e-02, 1.65427867e-02, 1.46034202e-02,
          2.87145767e-02, 1.36591746e-02, 5.07934950e-02, 4.54771779e-02,
          5.02701327e-02, 8.31186958e-03, 3.73744499e-03, 3.03438585e-03,
          8.21974361e-04, 6.30588038e-03, 3.04261036e-02, 7.05573708e-02,
          7.48895481e-02, 1.31916717e-01, 2.16195807e-02, 3.93416733e-03,
          1.74846617e-03, 1.85428141e-03, 1.93738434e-02, 4.42540757e-02,
          2.86543891e-02, 2.06197277e-02, 5.31890988e-03, 4.40957677e-03,
          1.24821560e-02, 2.91815419e-02, 2.38493923e-02, 2.63573565e-02,
          3.37519869e-02, 2.42879670e-02, 6.26514060e-03, 5.19403769e-03,
          1.47027252e-02, 3.43729220e-02, 2.80921869e-02, 3.10463142e-02,
          2.68476475e-02, 3.14116515e-02, 5.09898104e-02, 1.81538630e-02,
          1.45879136e-02, 1.57258455e-02, 1.60022937e-02, 1.22007579e-02,
          2.33901422e-02, 2.73663811e-02, 4.44232188e-02, 1.58159640e-02,
          1.27092460e-02, 1.37006333e-02, 1.39414798e-02, 1.06295142e-02,
          3.23752910e-02, 9.46798697e-02, 9.31654125e-02, 3.97720486e-02,
          1.92203782e-02, 8.74122325e-03, 7.16297282e-03, 1.46530531e-02,
          2.52245981e-02, 7.37680346e-02, 7.25880787e-02, 3.09876446e-02,
          1.49751967e-02, 6.81055943e-03, 5.58089558e-03, 1.14166513e-02,
          4.61780541e-02, 6.43424094e-02, 5.84124885e-02, 8.81156325e-03,
          3.88998166e-03, 3.30929854e-03, 7.05859158e-03, 1.44282877e-02,
          4.70249467e-02, 6.55224249e-02, 5.94837554e-02, 8.97316355e-03,
          3.96132236e-03, 3.36999004e-03, 7.18804402e-03, 1.46928979e-02,
          1.66622885e-02, 3.13908271e-02, 3.82304266e-02, 6.84423819e-02,
          2.66705137e-02, 1.81558523e-02, 7.40433298e-03, 7.42021110e-03,
          1.28521165e-02, 2.42126714e-02, 2.94882581e-02, 5.27916327e-02,
          2.05717552e-02, 1.40041457e-02, 5.71118109e-03, 5.72342798e-03,
          1.90795399e-02, 4.19361610e-03, 3.03090997e-02, 1.38376877e-01,
          7.83942044e-02, 4.80474979e-02, 5.85756339e-02, 6.27248064e-02,
          2.02121381e-02, 4.44255723e-03, 3.21083069e-02, 1.46591187e-01,
          8.30478296e-02, 5.08996882e-02, 6.20527938e-02, 6.64482638e-02,
          2.54918803e-02, 1.90335643e-02, 9.33300238e-03, 6.05205947e-04,
          3.49322055e-03, 6.08056365e-03, 2.04472300e-02, 3.52724567e-02,
          4.51171100e-02, 7.94730559e-02, 1.30246878e-02, 2.37013376e-03,
          1.05336122e-03, 1.11710944e-03, 1.16717471e-02, 2.66608093e-02,
          1.72627997e-02, 1.24223288e-02, 3.20437015e-03, 2.65654363e-03,
          7.51985889e-03, 1.75803825e-02, 1.43680358e-02, 1.58789549e-02,
          1.59619767e-02, 1.14862546e-02, 2.96290778e-03, 2.45636213e-03,
          6.95320638e-03, 1.62556265e-02, 1.32853445e-02, 1.46824094e-02,
          1.26967784e-02, 1.48551855e-02, 2.41140798e-02, 8.58531706e-03,
          6.89890981e-03, 7.43706059e-03, 7.56779825e-03, 5.76997735e-03,
          1.21200662e-02, 1.41804339e-02, 2.30187718e-02, 8.19535460e-03,
          6.58554770e-03, 7.09925452e-03, 7.22405408e-03, 5.50789386e-03,
          1.67758986e-02, 4.90602516e-02, 4.82755080e-02, 2.06086766e-02,
          9.95942019e-03, 4.52943798e-03, 3.71163641e-03, 7.59277027e-03,
          2.20957417e-02, 6.46178573e-02, 6.35842606e-02, 2.71439385e-02,
          1.31176738e-02, 5.96577814e-03, 4.88864165e-03, 1.00005306e-02,
          4.04501334e-02, 5.63613810e-02, 5.11670075e-02, 7.71857705e-03,
          3.40746855e-03, 2.89881346e-03, 6.18304452e-03, 1.26386043e-02,
          3.77528779e-02, 5.26031479e-02, 4.77551408e-02, 7.20389513e-03,
          3.18025541e-03, 2.70551769e-03, 5.77075314e-03, 1.17958495e-02,
          1.33769298e-02, 2.52013914e-02, 3.06924060e-02, 5.49473688e-02,
          2.14117989e-02, 1.45760020e-02, 5.94439590e-03, 5.95714292e-03,
          5.75697189e-03, 1.08458148e-02, 1.32089583e-02, 2.36474629e-02,
          9.21490416e-03, 6.27301121e-03, 2.55826418e-03, 2.56375014e-03,
          8.54648184e-03, 1.87848671e-03, 1.35766463e-02, 6.19844832e-02,
          3.51158679e-02, 2.15223767e-02, 2.62383465e-02, 2.80969236e-02,
          1.01569453e-02, 2.23246100e-03, 1.61349736e-02, 7.36645833e-02,
          4.17329557e-02, 2.55779643e-02, 3.11825909e-02, 3.33913900e-02,
          1.28101055e-02, 9.56469122e-03, 4.68999334e-03, 3.04126355e-04,
          1.75540312e-03, 3.05558718e-03, 1.02750836e-02, 1.77250132e-02,
          2.90444791e-02, 1.11448795e-01, 5.70295863e-02, 3.43254395e-02,
          1.53249567e-02, 4.00605146e-03, 4.79849661e-03, 6.87176920e-03,
          9.15769413e-02, 3.77394073e-02, 5.45885414e-02, 6.22437447e-02,
          5.04589900e-02, 8.36237371e-02, 3.78579125e-02, 4.76800650e-02,
          8.46762434e-02, 3.48955877e-02, 5.04750684e-02, 5.75534180e-02,
          4.66566980e-02, 7.73223490e-02, 3.50051597e-02, 4.40871753e-02,
          1.40707111e-02, 1.19043656e-01, 1.46959379e-01, 1.59722585e-02,
          5.26587665e-02, 3.14038359e-02, 9.23938490e-03, 8.01127404e-03,
          1.34315919e-02, 1.13636464e-01, 1.40284196e-01, 1.52467676e-02,
          5.02669029e-02, 2.99774148e-02, 8.81971326e-03, 7.64738675e-03,
          3.75418067e-02, 8.04425701e-02, 5.49624637e-02, 1.54613107e-02,
          4.36812779e-03, 4.32687066e-02, 8.55984390e-02, 5.46012297e-02,
          4.94467728e-02, 1.05951890e-01, 7.23917261e-02, 2.03642808e-02,
          5.75331459e-03, 5.69897406e-02, 1.12742744e-01, 7.19159469e-02,
          3.07828598e-02, 3.18998657e-02, 9.13401693e-03, 8.46951082e-03,
          7.32219778e-03, 3.77874705e-03, 3.81625234e-03, 1.70007404e-02,
          2.87302285e-02, 2.97727510e-02, 8.52495153e-03, 7.90475588e-03,
          6.83394680e-03, 3.52677656e-03, 3.56178079e-03, 1.58671141e-02,
          9.08732936e-02, 2.01218545e-01, 7.92695135e-02, 2.85624457e-03,
          3.99661763e-03, 2.52428856e-02, 7.04750270e-02, 8.04706290e-02,
          3.91087495e-02, 8.65975618e-02, 3.41148786e-02, 1.22922973e-03,
          1.72000728e-03, 1.08636720e-02, 3.03300340e-02, 3.46317999e-02,
          1.24582425e-01, 8.74410644e-02, 8.26764181e-02, 3.63231897e-02,
          3.53923300e-03, 1.14761740e-02, 1.29005229e-02, 1.31436259e-01,
          1.48058221e-01, 1.03918098e-01, 9.82556194e-02, 4.31677811e-02,
          4.20615124e-03, 1.36386957e-02, 1.53314434e-02, 1.56203553e-01,
          1.61190368e-02, 1.09854061e-02, 1.10170199e-02, 3.88773927e-03,
          3.04320734e-03, 4.71779890e-03, 1.61102507e-02, 5.70861921e-02,
          1.55114857e-02, 5.95203079e-02, 3.04572023e-02, 1.83318332e-02,
          8.18444230e-03, 2.13947054e-03, 2.56268354e-03, 3.66993505e-03,
          4.89075556e-02, 2.01550964e-02, 2.91535407e-02, 3.32418755e-02,
          2.69481149e-02, 4.46600690e-02, 2.02183854e-02, 2.54640020e-02,
          3.46464664e-02, 1.42780161e-02, 2.06525791e-02, 2.35487856e-02,
          1.90902390e-02, 3.16375159e-02, 1.43228499e-02, 1.80388838e-02,
          5.75722801e-03, 4.87083755e-02, 6.01304807e-02, 6.53527258e-03,
          2.15460695e-02, 1.28493188e-02, 3.78042320e-03, 3.27792461e-03,
          6.61762618e-03, 5.59876785e-02, 6.91167787e-02, 7.51194730e-03,
          2.47660559e-02, 1.47696063e-02, 4.34539467e-03, 3.76779959e-03,
          1.84965152e-02, 3.96333411e-02, 2.70795170e-02, 7.61765055e-03,
          2.15213792e-03, 2.13181078e-02, 4.21735905e-02, 2.69015413e-02,
          4.39566746e-02, 9.41880047e-02, 6.43540472e-02, 1.81032252e-02,
          5.11452183e-03, 5.06621450e-02, 1.00224867e-01, 6.39310852e-02,
          2.73650251e-02, 2.83580087e-02, 8.11986253e-03, 7.52913766e-03,
          6.50921138e-03, 3.35919112e-03, 3.39253224e-03, 1.51131414e-02,
          2.82295737e-02, 2.92539280e-02, 8.37639533e-03, 7.76700675e-03,
          6.71485811e-03, 3.46531859e-03, 3.49971303e-03, 1.55906137e-02,
          8.92897323e-02, 1.97712094e-01, 7.78881535e-02, 2.80647143e-03,
          3.92697239e-03, 2.48030014e-02, 6.92469254e-02, 7.90683404e-02,
          3.16043831e-02, 6.99808225e-02, 2.75687594e-02, 9.93359485e-04,
          1.38996437e-03, 8.77910107e-03, 2.45101694e-02, 2.79864911e-02,
          1.00676984e-01, 7.06624761e-02, 6.68120906e-02, 2.93533318e-02,
          2.86010886e-03, 9.27407295e-03, 1.04251113e-02, 1.06215663e-01,
          1.01629183e-01, 7.13308007e-02, 6.74439967e-02, 2.96309553e-02,
          2.88715982e-03, 9.36178770e-03, 1.05237123e-02, 1.07220255e-01,
          1.10643264e-02, 7.54053285e-03, 7.56223314e-03, 2.66859727e-03,
          2.08889926e-03, 3.23836156e-03, 1.10582970e-02, 3.91847417e-02,
          7.77831748e-02, 4.77481857e-02, 2.77591310e-02, 2.96923821e-03,
          2.61075678e-03, 5.35143598e-04, 2.17639208e-02, 6.27557561e-02,
          1.34824336e-01, 9.07090753e-02, 1.64201148e-02, 1.87741853e-02,
          1.61071792e-02, 1.13445884e-02, 1.29751060e-02, 6.57940358e-02,
          9.55105349e-02, 6.42589629e-02, 1.16321277e-02, 1.32997688e-02,
          1.14104431e-02, 8.03658832e-03, 9.19165928e-03, 4.66089696e-02,
          9.99846980e-02, 1.42130598e-01, 2.83669923e-02, 1.37835993e-02,
          1.42400460e-02, 2.77376790e-02, 4.26062532e-02, 3.24007161e-02,
          1.14927068e-01, 1.63371533e-01, 3.26063447e-02, 1.58435125e-02,
          1.63681731e-02, 3.18829827e-02, 4.89736162e-02, 3.72428931e-02,
          5.17029129e-02, 2.69900933e-02, 1.09856771e-02, 1.73202232e-02,
          2.14716587e-02, 1.20057398e-02, 1.03965299e-02, 1.56557132e-02,
          1.22871153e-01, 6.41415268e-02, 2.61072870e-02, 4.11612354e-02,
          5.10270558e-02, 2.85314508e-02, 2.47071888e-02, 3.72055545e-02,
          7.24597182e-03, 4.69617127e-03, 5.31279808e-03, 8.93311854e-03,
          1.28786769e-02, 8.70451983e-03, 7.02911988e-03, 9.16644465e-03,
          7.47489510e-03, 4.84453840e-03, 5.48064616e-03, 9.21534467e-03,
          1.32855549e-02, 8.97952355e-03, 7.25119188e-03, 9.45604220e-03,
          3.77145372e-02, 1.41129214e-02, 9.62695852e-03, 1.32468389e-02,
          2.09280029e-02, 3.42236385e-02, 3.12544107e-02, 1.25265762e-01,
          1.33491801e-02, 4.99531347e-03, 3.40749254e-03, 4.68876073e-03,
          7.40753300e-03, 1.21135656e-02, 1.10625988e-02, 4.43382151e-02,
          3.03038806e-02, 1.55720403e-02, 4.69932258e-02, 3.42836902e-02,
          4.95196953e-02, 5.05264848e-02, 3.06870230e-02, 5.16582020e-02,
          3.05904932e-02, 1.57193206e-02, 4.74376865e-02, 3.46079469e-02,
          4.99880500e-02, 5.10043651e-02, 3.09772603e-02, 5.21467850e-02,
          6.09270222e-02, 7.39265382e-02, 2.73458418e-02, 2.86732730e-03,
          4.89924336e-03, 2.52968515e-03, 4.31894837e-03, 2.62797028e-02,
          8.15531611e-02, 5.00624366e-02, 2.91045569e-02, 3.11315083e-03,
          2.73729465e-03, 5.61080873e-04, 2.28187721e-02, 6.57973886e-02,
          1.41358986e-01, 9.51055512e-02, 1.72159616e-02, 1.96841303e-02,
          1.68878604e-02, 1.18944366e-02, 1.36039825e-02, 6.89829290e-02,
          1.14309140e-01, 7.69065544e-02, 1.39215896e-02, 1.59174595e-02,
          1.36562716e-02, 9.61836800e-03, 1.10007823e-02, 5.57826534e-02,
          1.19663909e-01, 1.70105055e-01, 3.39502469e-02, 1.64965186e-02,
          1.70428045e-02, 3.31970714e-02, 5.09921126e-02, 3.87778953e-02,
          1.43572345e-01, 2.04091460e-01, 4.07333896e-02, 1.97924655e-02,
          2.04478968e-02, 3.98297310e-02, 6.11801594e-02, 4.65255864e-02,
          6.45897239e-02, 3.37173045e-02, 1.37238288e-02, 2.16372442e-02,
          2.68234126e-02, 1.49981398e-02, 1.29878381e-02, 1.95578597e-02,
          2.08630443e-01, 1.08909823e-01, 4.43291590e-02, 6.98901787e-02,
          8.66419598e-02, 4.84452955e-02, 4.19518501e-02, 6.31735846e-02,
          1.23033784e-02, 7.97391683e-03, 9.02092457e-03, 1.51680894e-02,
          2.18674932e-02, 1.47799365e-02, 1.19351726e-02, 1.55642675e-02,
          1.59113333e-02, 1.03122601e-02, 1.16663026e-02, 1.96161177e-02,
          2.82801148e-02, 1.91141386e-02, 1.54351508e-02, 2.01284736e-02,
          8.02805349e-02, 3.00412774e-02, 2.04922929e-02, 2.81977020e-02,
          4.45481054e-02, 7.28496835e-02, 6.65292740e-02, 2.66645253e-01,
          2.65326258e-02, 9.92860831e-03, 6.77268021e-03, 9.31930915e-03,
          1.47230988e-02, 2.40767375e-02, 2.19878517e-02, 8.81259590e-02,
          6.02315292e-02, 3.09507493e-02, 9.34030190e-02, 6.81417435e-02,
          9.84245837e-02, 1.00425668e-01, 6.09930567e-02, 1.02675050e-01,
          4.07758653e-02, 2.09532045e-02, 6.32324740e-02, 4.61309627e-02,
          6.66320026e-02, 6.79867119e-02, 4.12914082e-02, 6.95095062e-02,
          8.12131986e-02, 9.85410139e-02, 3.64508778e-02, 3.82202887e-03,
          6.53048884e-03, 3.37196584e-03, 5.75697981e-03, 3.50297578e-02,
          4.66322005e-02, 4.22149301e-02, 2.90263519e-02, 1.51891364e-02,
          1.10937692e-02, 1.30746048e-02, 2.14622039e-02, 9.60203260e-02,
          1.27393603e-02, 8.27715825e-03, 8.75841174e-03, 1.14329774e-02,
          7.47942226e-03, 7.02687027e-03, 1.64837278e-02, 1.26069114e-02,
          1.03016105e-02, 6.69327658e-03, 7.08243949e-03, 9.24521126e-03,
          6.04819180e-03, 5.68223838e-03, 1.33294724e-02, 1.01945065e-02,
          1.66271608e-02, 1.20583419e-02, 1.29149407e-02, 2.52307784e-02,
          3.96594666e-02, 1.40063148e-02, 9.84142348e-03, 9.74613242e-03,
          1.99492108e-02, 1.44675570e-02, 1.54953012e-02, 3.02718002e-02,
          4.75832894e-02, 1.68047287e-02, 1.18077062e-02, 1.16933761e-02,
          7.94985425e-03, 9.10623465e-03, 3.91190639e-03, 2.06085527e-03,
          3.87120177e-03, 5.18119521e-03, 3.98585759e-03, 1.16514685e-02,
          2.56787203e-02, 2.94139311e-02, 1.26357973e-02, 6.65674172e-03,
          1.25043187e-02, 1.67357121e-02, 1.28746666e-02, 3.76352556e-02,
          2.26709899e-02, 5.40870987e-03, 2.78300908e-03, 4.05330537e-03,
          1.12450067e-02, 4.48066322e-03, 3.73920659e-03, 1.08986199e-02,
          2.93192361e-02, 6.99480902e-03, 3.59912380e-03, 5.24193328e-03,
          1.45425946e-02, 5.79461362e-03, 4.83572530e-03, 1.40946303e-02,
          2.76099760e-02, 1.32237524e-02, 1.35565437e-02, 1.83856711e-02,
          8.09631683e-03, 1.46098733e-02, 2.33043097e-02, 4.67428975e-02,
          9.12506599e-03, 4.37043561e-03, 4.48042247e-03, 6.07644394e-03,
          2.67582387e-03, 4.82854713e-03, 7.70204840e-03, 1.54484753e-02,
          2.70148627e-02, 1.41980257e-02, 8.09694547e-03, 2.04691198e-02,
          1.46778617e-02, 1.09244082e-02, 1.34216622e-02, 1.97775569e-02,
          1.82886664e-02, 9.61185526e-03, 5.48151368e-03, 1.38572948e-02,
          9.93669778e-03, 7.39566470e-03, 9.08626895e-03, 1.33891171e-02,
          6.52787611e-02, 6.05265349e-02, 2.86414735e-02, 1.08167743e-02,
          8.68261699e-03, 1.29211098e-02, 9.99114942e-03, 2.88661532e-02,
          3.51853743e-02, 3.18524130e-02, 2.19012406e-02, 1.14606526e-02,
          8.37057736e-03, 9.86517593e-03, 1.61938667e-02, 7.24501759e-02,
          9.61222406e-03, 6.24536071e-03, 6.60848059e-03, 8.62651970e-03,
          5.64344507e-03, 5.30198123e-03, 1.24374600e-02, 9.51228756e-03,
          2.39176899e-02, 1.55400671e-02, 1.64436027e-02, 2.14650035e-02,
          1.40423458e-02, 1.31926965e-02, 3.09476051e-02, 2.36690212e-02,
          3.86039913e-02, 2.79963668e-02, 2.99851708e-02, 5.85793778e-02,
          9.20790806e-02, 3.25190574e-02, 2.28492543e-02, 2.26280112e-02,
          6.94711432e-02, 5.03818318e-02, 5.39608523e-02, 1.05418548e-01,
          1.65704086e-01, 5.85207976e-02, 4.11191657e-02, 4.07210216e-02,
          2.76845768e-02, 3.17115597e-02, 1.36228250e-02, 7.17672380e-03,
          1.34810759e-02, 1.80429984e-02, 1.38803534e-02, 4.05750833e-02,
          5.30161858e-02, 6.07278906e-02, 2.60878187e-02, 1.37434835e-02,
          2.58163679e-02, 3.45524848e-02, 2.65809875e-02, 7.77016059e-02,
          4.68064398e-02, 1.11668017e-02, 5.74578950e-03, 8.36843811e-03,
          2.32163984e-02, 9.25076008e-03, 7.71995168e-03, 2.25012489e-02,
          3.88927460e-02, 9.27880034e-03, 4.77433344e-03, 6.95356401e-03,
          1.92911383e-02, 7.68670905e-03, 6.41471846e-03, 1.86969023e-02,
          3.66253667e-02, 1.75416600e-02, 1.79831143e-02, 2.43890807e-02,
          1.07399803e-02, 1.93803851e-02, 3.09137870e-02, 6.20056950e-02,
          2.17547677e-02, 1.04194107e-02, 1.06816273e-02, 1.44866481e-02,
          6.37934310e-03, 1.15115792e-02, 1.83621980e-02, 3.68301980e-02,
          6.44052401e-02, 3.38490419e-02, 1.93036608e-02, 4.87997495e-02,
          3.49930041e-02, 2.60445196e-02, 3.19981389e-02, 4.71510179e-02,
          2.56762840e-02, 1.34945177e-02, 7.69574428e-03, 1.94548797e-02,
          1.39505779e-02, 1.03831068e-02, 1.27566224e-02, 1.87975839e-02,
          9.16477963e-02, 8.49759281e-02, 4.02110554e-02, 1.51861571e-02,
          1.21899182e-02, 1.81405284e-02, 1.40270246e-02, 4.05264944e-02,
          2.90069496e-03, 6.37784973e-03, 3.47168767e-03, 8.34091753e-03,
          2.30214410e-02, 1.04031712e-01, 2.84477115e-01, 1.17647693e-01,
          8.55151284e-03, 2.20985292e-03, 3.41906166e-03, 5.07941563e-03,
          1.52802365e-02, 1.96041167e-02, 6.83487356e-02, 5.59707247e-02,
          2.12783664e-02, 5.49868308e-03, 8.50750599e-03, 1.26388948e-02,
          3.80211659e-02, 4.87800948e-02, 1.70069262e-01, 1.39269590e-01,
          7.60956155e-03, 1.04913292e-02, 1.40008871e-02, 1.00992983e-02,
          1.60072558e-02, 3.94170685e-03, 5.01090474e-03, 4.31703776e-03,
          1.36940498e-02, 1.88800357e-02, 2.51957811e-02, 1.81745403e-02,
          2.88064107e-02, 7.09343469e-03, 9.01754759e-03, 7.76887499e-03,
          2.47844290e-02, 2.26114206e-02, 1.85002889e-02, 1.75313056e-02,
          2.24527735e-02, 8.00742954e-03, 1.57414761e-03, 4.43489803e-03,
          4.74623814e-02, 4.33010496e-02, 3.54282036e-02, 3.35725881e-02,
          4.29972410e-02, 1.53342914e-02, 3.01450514e-03, 8.49286560e-03,
          4.30406556e-02, 3.52082960e-02, 2.94597410e-02, 3.09988260e-02,
          2.23028567e-02, 4.23410870e-02, 5.59529737e-02, 5.80898747e-02,
          3.57636549e-02, 2.92555317e-02, 2.44789012e-02, 2.57577710e-02,
          1.85320526e-02, 3.51823643e-02, 4.64928523e-02, 4.82684597e-02,
          7.46466964e-02, 1.09744251e-01, 7.55267218e-02, 3.59437615e-02,
          6.92230836e-03, 3.14076394e-02, 3.17629501e-02, 3.87460515e-02,
          4.43387143e-02, 6.51859865e-02, 4.48614284e-02, 2.13499069e-02,
          4.11171885e-03, 1.86555367e-02, 1.88665856e-02, 2.30144132e-02,
          9.10261199e-02, 4.02249321e-02, 1.40234027e-02, 4.64750677e-02,
          3.74352150e-02, 3.92577089e-02, 2.47560870e-02, 2.94469707e-02,
          3.62891667e-02, 1.60363782e-02, 5.59067680e-03, 1.85281057e-02,
          1.49242086e-02, 1.56507771e-02, 9.86944977e-03, 1.17395539e-02,
          7.82326162e-02, 1.18817739e-01, 7.71731213e-02, 3.01072318e-02,
          1.59237478e-02, 1.86595228e-02, 4.54329699e-02, 4.79105003e-02,
          1.79114437e-03, 3.93824559e-03, 2.14372552e-03, 5.15041687e-03,
          1.42154638e-02, 6.42383322e-02, 1.75661221e-01, 7.26460367e-02,
          5.28045651e-03, 1.36455765e-03, 2.11122958e-03, 3.13647836e-03,
          9.43536311e-03, 1.21053075e-02, 4.22045216e-02, 3.45612541e-02,
          8.11805017e-03, 2.09783902e-03, 3.24575510e-03, 4.82194871e-03,
          1.45057067e-02, 1.86104178e-02, 6.48842454e-02, 5.31336628e-02,
          2.90317414e-03, 4.00261628e-03, 5.34157129e-03, 3.85305006e-03,
          6.10703370e-03, 1.50382670e-03, 1.91174354e-03, 1.64702174e-03,
          8.24654102e-03, 1.13695348e-02, 1.51728699e-02, 1.09446868e-02,
          1.73471868e-02, 4.27165814e-03, 5.43035613e-03, 4.67840722e-03,
          1.49251539e-02, 1.36165703e-02, 1.11408522e-02, 1.05573311e-02,
          1.35210333e-02, 4.82206466e-03, 9.47949826e-04, 2.67069042e-03,
          2.59446874e-02, 2.36699507e-02, 1.93663612e-02, 1.83520149e-02,
          2.35038772e-02, 8.38228967e-03, 1.64783967e-03, 4.64251311e-03,
          2.35276092e-02, 1.92461517e-02, 1.61037799e-02, 1.69451013e-02,
          1.21915638e-02, 2.31451988e-02, 3.05859577e-02, 3.17540653e-02,
          1.61865577e-02, 1.32409949e-02, 1.10791018e-02, 1.16579151e-02,
          8.38756934e-03, 1.59234665e-02, 2.10425705e-02, 2.18462087e-02,
          3.37849446e-02, 4.96700257e-02, 3.41832414e-02, 1.62680745e-02,
          3.13302269e-03, 1.42150335e-02, 1.43758468e-02, 1.75363850e-02,
          2.48138327e-02, 3.64808552e-02, 2.51063667e-02, 1.19483182e-02,
          2.30109296e-03, 1.04404334e-02, 1.05585447e-02, 1.28798466e-02,
          5.09420931e-02, 2.25115865e-02, 7.84809329e-03, 2.60094274e-02,
          2.09503416e-02, 2.19702851e-02, 1.38545604e-02, 1.64797790e-02,
          3.10172997e-02, 1.37067121e-02, 4.77849785e-03, 1.58364568e-02,
          1.27561120e-02, 1.33771291e-02, 8.43567774e-03, 1.00341039e-02,
          6.68674633e-02, 1.01556629e-01, 6.59618899e-02, 2.57334393e-02,
          1.36104440e-02, 1.59487836e-02, 3.88327502e-02, 4.09503579e-02,
          6.32612314e-03, 4.16096859e-03, 9.32454481e-04, 2.77069118e-02,
          3.84272449e-02, 4.54030186e-02, 5.52585721e-02, 2.02819277e-02,
          6.04527956e-03, 0., 3.17174196e-03, 9.02089465e-04,
          7.67317461e-03, 1.50807798e-01, 1.48675025e-01, 3.42437960e-02,
          9.29387193e-03, 0., 4.87616193e-03, 1.38685131e-03,
          1.17965592e-02, 2.31848389e-01, 2.28569508e-01, 5.26456125e-02,
          3.17338039e-03, 1.39284658e-03, 4.23505018e-03, 5.24085900e-03,
          1.91382524e-02, 9.69529152e-02, 9.33239311e-02, 3.94381285e-02,
          9.01406817e-03, 3.95641662e-03, 1.20297680e-02, 1.48867946e-02,
          5.43626957e-02, 2.75397241e-01, 2.65089005e-01, 1.12025015e-01,
          5.07586962e-03, 1.01701347e-02, 1.47944642e-02, 1.47238858e-02,
          2.54918188e-02, 2.02024262e-02, 9.89760086e-03, 3.22002848e-03,
          8.82348325e-03, 1.76789444e-02, 2.57175062e-02, 2.55948175e-02,
          4.43129279e-02, 3.51182707e-02, 1.72051918e-02, 5.59743820e-03,
          1.76370405e-02, 5.81005029e-03, 3.41238864e-02, 1.50861397e-01,
          1.63350448e-01, 5.02104759e-02, 6.86718300e-02, 3.02773491e-02,
          1.21339569e-02, 3.99720669e-03, 2.34766006e-02, 1.03789836e-01,
          1.12382077e-01, 3.45438756e-02, 4.72449437e-02, 2.08302531e-02,
          2.43239924e-02, 2.97884047e-02, 5.27491868e-02, 5.82977645e-02,
          8.21512565e-02, 4.93646115e-02, 2.97596361e-02, 1.26355775e-02,
          1.78651027e-02, 2.18785163e-02, 3.87423895e-02, 4.28176187e-02,
          6.03371561e-02, 3.62565406e-02, 2.18573865e-02, 9.28037893e-03,
          4.86387089e-02, 1.10208564e-01, 1.06756166e-01, 6.94109276e-02,
          3.77405696e-02, 2.45892759e-02, 8.70307442e-03, 2.98221819e-02,
          2.96148304e-02, 6.71030954e-02, 6.50010183e-02, 4.22624908e-02,
          2.29792390e-02, 1.49717629e-02, 5.29907318e-03, 1.81579422e-02,
          7.65613839e-02, 9.03341547e-02, 1.82031766e-02, 2.05983152e-03,
          3.44431307e-03, 6.65044598e-03, 1.21605303e-02, 4.57928516e-02,
          7.46580819e-03, 4.91058966e-03, 1.10044121e-03, 3.26984599e-02,
          4.53501195e-02, 5.35826162e-02, 6.52137026e-02, 2.39358246e-02,
          7.13436911e-03, 0., 3.74314818e-03, 1.06460578e-03,
          9.05553810e-03, 1.77976638e-01, 1.75459623e-01, 4.04129997e-02,
          5.80556877e-03, 0., 3.04597430e-03, 8.66319344e-04,
          7.36891339e-03, 1.44827887e-01, 1.42779678e-01, 3.28859426e-02,
          1.98230403e-03, 8.70064425e-04, 2.64549325e-03, 3.27378814e-03,
          1.19550219e-02, 6.05632216e-02, 5.82963154e-02, 2.46356707e-02,
          2.00881553e-03, 8.81700777e-04, 2.68087443e-03, 3.31757241e-03,
          1.21149104e-02, 6.13732040e-02, 5.90759814e-02, 2.49651521e-02,
          1.13117474e-03, 2.26644892e-03, 3.29699623e-03, 3.28126759e-03,
          5.68093779e-03, 4.50217864e-03, 2.20571365e-03, 7.17594230e-04,
          1.42206799e-03, 2.84928968e-03, 4.14485298e-03, 4.12507961e-03,
          7.14184996e-03, 5.65996068e-03, 2.77293590e-03, 9.02131025e-04,
          2.84253620e-03, 9.36397351e-04, 5.49969729e-03, 2.43141111e-02,
          2.63269544e-02, 8.09234940e-03, 1.10677388e-02, 4.87975636e-03,
          4.66660643e-03, 1.53728842e-03, 9.02888179e-03, 3.99166048e-02,
          4.32210974e-02, 1.32852513e-02, 1.81699637e-02, 8.01112130e-03,
          9.35478043e-03, 1.14563424e-02, 2.02868450e-02, 2.24207770e-02,
          3.15946080e-02, 1.89851690e-02, 1.14452783e-02, 4.85952524e-03,
          8.92167352e-03, 1.09259365e-02, 1.93476044e-02, 2.13827398e-02,
          3.01318411e-02, 1.81061942e-02, 1.09153846e-02, 4.63453867e-03,
          2.42897402e-02, 5.50371781e-02, 5.33130802e-02, 3.46632004e-02,
          1.88473035e-02, 1.22796660e-02, 4.34623798e-03, 1.48929320e-02,
          2.27989703e-02, 5.16593009e-02, 5.00410199e-02, 3.25357690e-02,
          1.76905617e-02, 1.15260081e-02, 4.07948997e-03, 1.39788873e-02,
          5.89407608e-02, 6.95437267e-02, 1.40137104e-02, 1.58576074e-03,
          2.65160366e-03, 5.11984387e-03, 9.36178211e-03, 3.52536179e-02,
          1.55901699e-03, 3.75134265e-03, 2.91339937e-03, 2.69740336e-02,
          4.47188988e-02, 4.62582745e-02, 2.46633403e-02, 1.35581074e-02,
          8.39794148e-03, 1.81673188e-02, 1.25676971e-02, 2.07251776e-02,
          3.38271409e-02, 6.07613996e-02, 1.80604346e-02, 1.39919464e-02,
          6.83379592e-03, 1.47835948e-02, 1.02269212e-02, 1.68650430e-02,
          2.75267195e-02, 4.94443811e-02, 1.46966176e-02, 1.13858990e-02,
          6.36742858e-04, 2.31989572e-04, 1.50498643e-03, 1.85064191e-03,
          1.32453263e-01, 1.82792306e-01, 1.97258983e-02, 7.23892218e-03,
          6.45258755e-04, 2.35092244e-04, 1.52511441e-03, 1.87539274e-03,
          1.34224713e-01, 1.85237005e-01, 1.99897159e-02, 7.33573688e-03,
          6.14992343e-04, 6.53094437e-04, 5.56996849e-04, 9.08115506e-03,
          2.23310605e-01, 2.13429332e-01, 7.98304100e-03, 3.80219985e-03,
          7.73144013e-04, 8.21044436e-04, 7.00234377e-04, 1.14164678e-02,
          2.80737251e-01, 2.68314898e-01, 1.00359628e-02, 4.77997493e-03,
          3.33848745e-02, 4.27183360e-02, 3.19853090e-02, 3.05705816e-02,
          4.52523008e-02, 6.07580058e-02, 3.63205858e-02, 2.84533631e-02,
          5.48081212e-02, 7.01309144e-02, 5.25104478e-02, 5.01878820e-02,
          7.42909387e-02, 9.97467339e-02, 5.96276931e-02, 4.67120335e-02,
          8.88815522e-03, 5.93772680e-02, 8.63299221e-02, 2.97465697e-02,
          1.40218670e-02, 6.87569054e-03, 8.56758654e-03, 9.93800536e-03,
          8.47665127e-03, 5.66282198e-02, 8.23330209e-02, 2.83693634e-02,
          1.33726830e-02, 6.55735983e-03, 8.17092508e-03, 9.47789568e-03,
          5.89652471e-02, 6.95801526e-02, 4.75413613e-02, 6.40034229e-02,
          5.26521802e-02, 7.41152167e-02, 3.39025371e-02, 4.38184179e-02,
          5.53462878e-02, 6.53097108e-02, 4.46235389e-02, 6.00752495e-02,
          4.94206809e-02, 6.95664436e-02, 3.18217874e-02, 4.11290899e-02,
          8.58364403e-02, 4.77812290e-02, 2.07011588e-02, 1.01383403e-02,
          2.28565233e-03, 1.44698273e-03, 3.86043987e-03, 9.87600721e-03 ]
      - [ 1.36296108e-01, 3.25303003e-02, 1.47097872e-03, 1.16303586e-03,
          6.16710517e-04, 2.59052584e-04, 8.01374950e-03, 6.68789893e-02,
          2.42287363e-03, 6.44131145e-03, 6.18218724e-03, 2.56984844e-03,
          3.03341658e-03, 2.64098449e-03, 2.33829231e-03, 1.83518196e-03,
          5.24287345e-03, 1.39383990e-02, 1.33776786e-02, 5.56091312e-03,
          6.56403136e-03, 5.71484491e-03, 5.05984714e-03, 3.97116318e-03,
          1.05970256e-01, 8.86830688e-03, 8.87821487e-04, 1.03266456e-03,
          4.70260798e-04, 6.57719094e-04, 1.07948370e-02, 8.41656402e-02,
          1.15562670e-01, 9.67106503e-03, 9.68186941e-04, 1.12614117e-03,
          5.12828759e-04, 7.17255694e-04, 1.17719835e-02, 9.17842984e-02,
          4.08830196e-02, 2.36663781e-02, 5.38555384e-02, 6.67887405e-02,
          8.46235305e-02, 1.42660677e-01, 6.47640005e-02, 4.91167903e-02,
          1.56643763e-02, 9.06779990e-03, 2.06348132e-02, 2.55901832e-02,
          3.24236043e-02, 5.46606071e-02, 2.48144008e-02, 1.88191552e-02,
          3.43570001e-02, 4.88801450e-02, 3.62306535e-02, 8.98615271e-02,
          2.38766938e-01, 1.48820966e-01, 1.01472348e-01, 3.29401232e-02,
          1.75187718e-02, 2.49241814e-02, 1.84741542e-02, 4.58207540e-02,
          1.21748216e-01, 7.58844092e-02, 5.17411567e-02, 1.67963021e-02,
          8.35999846e-03, 4.00293395e-02, 3.20982449e-02, 7.13788555e-04,
          4.44828765e-05, 1.86560210e-03, 1.88447013e-02, 8.16167891e-03,
          7.26419594e-03, 3.47824171e-02, 2.78909095e-02, 6.20227423e-04,
          3.86522006e-05, 1.62106485e-03, 1.63745973e-02, 7.09187193e-03,
          4.28400189e-03, 3.86396460e-02, 4.41563539e-02, 2.93882913e-03,
          4.96925670e-04, 1.27722151e-05, 0., 6.36988436e-04,
          7.42560672e-03, 6.69754222e-02, 7.65377209e-02, 5.09397313e-03,
          8.61338340e-04, 2.21385180e-05, 0., 1.10411388e-03,
          1.21425523e-03, 3.70289641e-03, 3.76709155e-03, 2.11082608e-03,
          6.06569368e-03, 3.34134586e-02, 7.85101876e-02, 1.62238441e-02,
          9.59789604e-02, 4.85583581e-02, 7.62277395e-02, 7.12701678e-02,
          4.76008505e-02, 3.08114421e-02, 2.97928620e-02, 7.95696452e-02,
          5.74093647e-02, 1.43608982e-02, 2.71401182e-02, 2.67946441e-02,
          1.22597069e-02, 1.80505663e-02, 3.85205001e-02, 5.09611443e-02,
          1.24228530e-01, 3.10756490e-02, 5.87286949e-02, 5.79811186e-02,
          2.65288670e-02, 3.90597507e-02, 8.33547786e-02, 1.10275179e-01,
          3.65765691e-02, 3.25022750e-02, 3.23859975e-02, 3.34347263e-02,
          2.46612318e-02, 4.34966059e-03, 7.87938945e-03, 2.47004218e-02,
          3.98874730e-02, 3.54443751e-02, 3.53175737e-02, 3.64612341e-02,
          2.68935617e-02, 4.74339165e-03, 8.59263074e-03, 2.69363020e-02,
          1.20185418e-02, 1.97236845e-03, 7.62173077e-05, 6.26613502e-04,
          9.87800187e-04, 1.71442644e-03, 3.82142258e-03, 6.03286549e-03,
          4.60491842e-03, 7.55715242e-04, 2.92027507e-05, 2.40087698e-04,
          3.78476776e-04, 6.56884455e-04, 1.46418251e-03, 2.31149956e-03,
          6.23144349e-03, 2.28155870e-03, 2.34915242e-02, 1.07748723e-02,
          3.19955335e-03, 4.30403929e-03, 4.11116937e-03, 2.16027093e-03,
          3.17743816e-03, 1.16337591e-03, 1.19784223e-02, 5.49415080e-03,
          1.63146504e-03, 2.19464698e-03, 2.09630188e-03, 1.10153086e-03,
          2.25865049e-03, 8.08957673e-04, 9.12234113e-02, 2.44788080e-01,
          8.26537088e-02, 3.32840309e-02, 2.00096741e-02, 1.31104393e-02,
          1.96259376e-03, 7.02922058e-04, 7.92661384e-02, 2.12702036e-01,
          7.18197227e-02, 2.89212670e-02, 1.73868686e-02, 1.13919638e-02,
          2.23831721e-02, 1.02810012e-02, 1.91147570e-02, 9.01748165e-02,
          8.17746669e-02, 9.91741642e-02, 6.28317744e-02, 3.26259132e-03,
          3.87975201e-02, 1.78204123e-02, 3.31322625e-02, 1.56303093e-01,
          1.41742826e-01, 1.71901986e-01, 1.08908467e-01, 5.65516111e-03,
          2.87254760e-03, 2.45534349e-03, 2.13088421e-03, 1.58382440e-03,
          2.22332613e-03, 4.48661670e-03, 3.18489061e-03, 3.77200218e-03,
          6.86903968e-02, 3.47523354e-02, 5.45548052e-02, 5.10067642e-02,
          3.40670645e-02, 2.20511891e-02, 2.13222094e-02, 5.69465496e-02,
          4.10868376e-02, 1.02778338e-02, 1.94236897e-02, 1.91764403e-02,
          8.77404958e-03, 1.29184630e-02, 2.75684204e-02, 3.64719667e-02,
          6.81941360e-02, 1.70586985e-02, 3.22385915e-02, 3.18282172e-02,
          1.45627838e-02, 2.14414988e-02, 4.57568578e-02, 6.05345741e-02,
          2.00783797e-02, 1.78418327e-02, 1.77780036e-02, 1.83536932e-02,
          1.35375625e-02, 2.38770735e-03, 4.32532001e-03, 1.35590760e-02,
          3.18694450e-02, 2.83194818e-02, 2.82181688e-02, 2.91319340e-02,
          2.14875210e-02, 3.78989289e-03, 6.86537242e-03, 2.15216689e-02,
          9.60262027e-03, 1.57589035e-03, 6.08963965e-05, 5.00654045e-04,
          7.89236336e-04, 1.36979891e-03, 3.05325468e-03, 4.82016196e-03,
          7.87292887e-03, 1.29202986e-03, 4.99273083e-05, 4.10472712e-04,
          6.47073495e-04, 1.12306105e-03, 2.50328099e-03, 3.95192020e-03,
          1.06537631e-02, 3.90073098e-03, 4.01629470e-02, 1.84215661e-02,
          5.47020696e-03, 7.35852215e-03, 7.02877715e-03, 3.69336829e-03,
          2.23233993e-03, 8.17341032e-04, 8.41555744e-03, 3.85996909e-03,
          1.14620163e-03, 1.54187053e-03, 1.47277722e-03, 7.73891225e-04,
          1.58683688e-03, 5.68341056e-04, 6.40898943e-02, 1.71978250e-01,
          5.80691658e-02, 2.33840216e-02, 1.40579911e-02, 9.21086688e-03,
          1.12485304e-03, 4.02877049e-04, 4.54310812e-02, 1.21909350e-01,
          4.11631949e-02, 1.65761113e-02, 9.96521674e-03, 6.52926043e-03,
          1.28288288e-02, 5.89251611e-03, 1.09555488e-02, 5.16833477e-02,
          4.68688346e-02, 5.68412915e-02, 3.60117890e-02, 1.86994160e-03,
          2.32857838e-02, 1.06955869e-02, 1.98855679e-02, 9.38111544e-02,
          8.50722641e-02, 1.03173405e-01, 6.53654933e-02, 3.39415669e-03,
          1.72406691e-03, 1.47366640e-03, 1.27892999e-03, 9.50591522e-04,
          1.33441249e-03, 2.69281096e-03, 1.91153132e-03, 2.26390827e-03,
          6.88940883e-02, 5.95305897e-02, 4.01168205e-02, 3.23756263e-02,
          2.01219190e-02, 1.38738584e-02, 2.50132065e-02, 5.24577945e-02,
          2.26480979e-02, 9.76052135e-03, 1.27070779e-02, 1.31511362e-02,
          3.15400027e-02, 1.98775008e-02, 2.55966876e-02, 3.32459994e-02,
          3.75903212e-02, 1.62000861e-02, 2.10906528e-02, 2.18276810e-02,
          5.23487180e-02, 3.29918042e-02, 4.24842611e-02, 5.51802590e-02,
          1.44620417e-02, 1.42751634e-02, 5.06015718e-02, 6.84799030e-02,
          4.08455208e-02, 3.36568244e-02, 3.44611965e-02, 6.40270859e-02,
          2.29549035e-02, 2.26582792e-02, 8.03174376e-02, 1.08694851e-01,
          6.48321360e-02, 5.34218587e-02, 5.46986014e-02, 1.01627111e-01,
          3.20264138e-03, 1.75390765e-03, 4.61097434e-03, 1.43255927e-02,
          9.81061161e-03, 1.71620585e-02, 1.32066071e-01, 1.14886917e-01,
          2.62575899e-03, 1.43798138e-03, 3.78041319e-03, 1.17451660e-02,
          8.04345496e-03, 1.40707083e-02, 1.08277403e-01, 9.41926762e-02,
          1.33362144e-01, 5.32644615e-02, 2.02859670e-01, 3.72456424e-02,
          1.47280283e-02, 2.93190405e-02, 5.45356162e-02, 1.15971252e-01,
          2.79440824e-02, 1.11607872e-02, 4.25062701e-02, 7.80427828e-03,
          3.08604259e-03, 6.14337530e-03, 1.14271399e-02, 2.43000761e-02,
          1.77443270e-02, 5.61615936e-02, 1.22148290e-01, 1.26575619e-01,
          6.68203458e-02, 3.93317267e-02, 3.59436125e-02, 3.76971699e-02,
          1.25783319e-02, 3.98109816e-02, 8.65866393e-02, 8.97250175e-02,
          4.73666005e-02, 2.78808810e-02, 2.54791658e-02, 2.67222021e-02,
          1.76206511e-02, 1.53372809e-02, 3.27339321e-02, 6.14196248e-02,
          1.92905106e-02, 9.34970938e-03, 6.76423963e-03, 1.52801359e-02,
          3.19834873e-02, 2.78389100e-02, 5.94158061e-02, 1.11483604e-01,
          3.50144692e-02, 1.69707853e-02, 1.22778639e-02, 2.77351849e-02,
          6.82718381e-02, 4.93141487e-02, 3.83248404e-02, 1.13059357e-02,
          4.17549134e-04, 2.23486852e-02, 4.29741926e-02, 2.60093678e-02,
          2.97242608e-02, 2.56843921e-02, 1.73083469e-02, 1.39684202e-02,
          8.68157484e-03, 5.98585745e-03, 1.07919136e-02, 2.26328447e-02,
          9.77149047e-03, 4.21116361e-03, 5.48245152e-03, 5.67403995e-03,
          1.36078913e-02, 8.57612025e-03, 1.10436557e-02, 1.43439416e-02,
          8.70460924e-03, 3.75137595e-03, 4.88386070e-03, 5.05453069e-03,
          1.21221403e-02, 7.63975363e-03, 9.83787607e-03, 1.27778267e-02,
          3.34890536e-03, 3.30563076e-03, 1.17175616e-02, 1.58575606e-02,
          9.45840124e-03, 7.79374875e-03, 7.98001327e-03, 1.48264430e-02,
          5.26670227e-03, 5.19864587e-03, 1.84277855e-02, 2.49386113e-02,
          1.48748839e-02, 1.22569464e-02, 1.25498781e-02, 2.33170111e-02,
          7.34804140e-04, 4.02411155e-04, 1.05792773e-03, 3.28681967e-03,
          2.25091632e-03, 3.93760996e-03, 3.03008314e-02, 2.63592992e-02,
          1.26601732e-03, 6.93326932e-04, 1.82273728e-03, 5.66296605e-03,
          3.87817505e-03, 6.78423280e-03, 5.22062629e-02, 4.54152711e-02,
          6.43009469e-02, 2.56816149e-02, 9.78093818e-02, 1.79580953e-02,
          7.10116187e-03, 1.41362604e-02, 2.62945071e-02, 5.59158772e-02,
          3.59750018e-02, 1.43683134e-02, 5.47222532e-02, 1.00471694e-02,
          3.97294760e-03, 7.90893473e-03, 1.47112133e-02, 3.12837325e-02,
          2.28439122e-02, 7.23020136e-02, 1.57252789e-01, 1.62952498e-01,
          8.60240087e-02, 5.06353676e-02, 4.62735333e-02, 4.85310555e-02,
          1.73634905e-02, 5.49562238e-02, 1.19526684e-01, 1.23858988e-01,
          6.53862134e-02, 3.84875685e-02, 3.51721719e-02, 3.68880965e-02,
          2.43240539e-02, 2.11720243e-02, 4.51868586e-02, 8.47854167e-02,
          2.66291741e-02, 1.29066072e-02, 9.33755096e-03, 2.10931376e-02,
          3.65132056e-02, 3.17816474e-02, 6.78306818e-02, 1.27272680e-01,
          3.99734601e-02, 1.93743054e-02, 1.40167391e-02, 3.16632316e-02,
          7.79409707e-02, 5.62983565e-02, 4.37526666e-02, 1.29071595e-02,
          4.76685294e-04, 2.55138595e-02, 4.90604937e-02, 2.96929926e-02,
          9.21832994e-02, 5.66519834e-02, 1.93561427e-02, 1.00471894e-03,
          5.68896066e-04, 1.28427509e-03, 1.55994506e-03, 4.63727629e-03,
          1.30326943e-02, 5.42290360e-02, 2.30263874e-01, 2.41841391e-01,
          5.99443652e-02, 4.17737989e-03, 5.76853519e-03, 6.00788556e-03,
          1.16097452e-02, 4.83081453e-02, 2.05122963e-01, 2.15436414e-01,
          5.33994548e-02, 3.72128095e-03, 5.13870874e-03, 5.35192620e-03,
          3.36422659e-02, 6.83531584e-03, 9.24483407e-03, 4.11055423e-02,
          6.40494525e-02, 4.29754145e-02, 5.51171489e-02, 5.98811880e-02,
          5.29079735e-02, 1.07496539e-02, 1.45390155e-02, 6.46452010e-02,
          1.00728258e-01, 6.75858781e-02, 8.66807401e-02, 9.41729769e-02,
          1.38412369e-02, 8.50527454e-03, 7.22939847e-03, 2.17696698e-03,
          4.14466858e-03, 2.35511307e-02, 1.60869509e-01, 1.02511011e-01,
          2.38475055e-02, 1.46540077e-02, 1.24557596e-02, 3.75076546e-03,
          7.14098103e-03, 4.05769907e-02, 2.77167171e-01, 1.76619470e-01,
          5.43486187e-03, 2.12669070e-03, 1.97445392e-03, 7.36164744e-04,
          5.65038412e-04, 6.60311198e-04, 2.05258699e-03, 3.31040402e-03,
          3.04068881e-03, 1.18983781e-03, 1.10466476e-03, 4.11868386e-04,
          3.16126883e-04, 3.69429967e-04, 1.14837836e-03, 1.85210002e-03,
          9.98498988e-04, 3.83358588e-03, 2.05439469e-03, 2.00823843e-02,
          6.29510432e-02, 3.47935557e-02, 4.15763482e-02, 4.47234651e-03,
          7.58951763e-04, 2.91388039e-03, 1.56153040e-03, 1.52644720e-02,
          4.78486270e-02, 2.64463257e-02, 3.16018760e-02, 3.39939771e-03,
          1.43351464e-03, 9.31807887e-03, 1.84713583e-02, 8.16696063e-02,
          2.20215991e-02, 0., 0., 2.16485860e-04, 2.15187063e-03,
          1.39875095e-02, 2.77276374e-02, 1.22595482e-01, 3.30569558e-02,
          0., 0., 3.24970228e-04, 4.67454605e-02, 9.03276447e-03,
          6.50459714e-03, 7.56453676e-03, 8.98213033e-03, 5.34033636e-03,
          9.05205589e-03, 4.28646132e-02, 7.31270239e-02, 4.49407957e-02,
          1.53548103e-02, 7.97021901e-04, 4.51292988e-04, 1.01878773e-03,
          1.23747077e-03, 3.67865129e-03, 1.03385551e-02, 4.30187248e-02,
          1.82663366e-01, 1.91847563e-01, 4.75525707e-02, 3.31382547e-03,
          4.57605440e-03, 4.76592639e-03, 8.84702709e-03, 3.68124768e-02,
          1.56310797e-01, 1.64170012e-01, 4.06922325e-02, 2.83574476e-03,
          3.91587382e-03, 4.07835329e-03, 2.56365705e-02, 5.20874746e-03,
          7.04488344e-03, 3.13238464e-02, 4.88079004e-02, 3.27487513e-02,
          4.20011729e-02, 4.56315391e-02, 4.49991301e-02, 9.14276391e-03,
          1.23656802e-02, 5.49818426e-02, 8.56710970e-02, 5.74829392e-02,
          7.37234429e-02, 8.00957233e-02, 1.17722079e-02, 7.23388093e-03,
          6.14872668e-03, 1.85154751e-03, 3.52511113e-03, 2.00306382e-02,
          1.36822253e-01, 8.71873572e-02, 2.05731150e-02, 1.26419337e-02,
          1.07455170e-02, 3.23576527e-03, 6.16048602e-03, 3.50055508e-02,
          2.39110634e-01, 1.52368665e-01, 4.68862616e-03, 1.83468463e-03,
          1.70335092e-03, 6.35085336e-04, 4.87455603e-04, 5.69646945e-04,
          1.77075574e-03, 2.85586761e-03, 5.08545199e-03, 1.98996463e-03,
          1.84751535e-03, 6.88836328e-04, 5.28711826e-04, 6.17859478e-04,
          1.92062499e-03, 3.09757632e-03, 1.66995672e-03, 6.41154591e-03,
