%YAML:1.0
---
opencv_ml_svm:
   format: 3
   svmType: C_SVC
   kernel:
      type: RBF
      gamma: 1.5000000000000000e+00
   C: 5.
   term_criteria: { iterations:100 }
   var_count: 1568
   class_count: 2
   class_labels: !!opencv-matrix
      rows: 2
      cols: 1
      dt: i
      data: [ -1, 1 ]
   sv_total: 16
   support_vectors:
      - [ 1.25773385e-01, 1.84548289e-01, 3.95812728e-02, 1.43282916e-02,
          3.45956720e-03, 5.55153610e-03, 2.04147166e-03, 6.30766340e-03,
          1.79770198e-02, 3.17076333e-02, 1.00009702e-02, 1.71045889e-03,
          1.32546099e-02, 4.11637267e-03, 1.13085862e-02, 1.90427378e-02,
          4.98220287e-02, 8.78754482e-02, 2.77169775e-02, 4.74041514e-03,
          3.67342085e-02, 1.14082340e-02, 3.13409418e-02, 5.27755916e-02,
          3.27330120e-02, 1.07206954e-02, 3.96460202e-03, 1.98525260e-03,
          3.87336733e-03, 7.34105799e-03, 8.46306421e-03, 3.77676785e-02,
          1.81586035e-02, 5.94729465e-03, 2.19935877e-03, 1.10131677e-03,
          2.14874651e-03, 4.07244405e-03, 4.69487580e-03, 2.09515803e-02,
          1.27234250e-01, 1.90005481e-01, 1.04405738e-01, 4.30288129e-02,
          1.79863777e-02, 1.37197701e-02, 2.12637261e-02, 5.68752736e-02,
          9.14006084e-02, 1.36493236e-01, 7.50014037e-02, 3.09103839e-02,
          1.29207801e-02, 9.85579938e-03, 1.52751114e-02, 4.08571921e-02,
          2.45182798e-03, 7.33586913e-03, 1.86471771e-02, 1.49636105e-01,
          1.03933245e-01, 2.62252577e-02, 9.88144521e-03, 2.90472060e-03,
          3.99211887e-03, 1.19444188e-02, 3.03617343e-02, 2.43640706e-01,
          1.69226333e-01, 4.27005254e-02, 1.60891805e-02, 4.72952845e-03,
          3.17644863e-03, 4.50458843e-03, 3.80986626e-03, 6.63311779e-02,
          8.93639848e-02, 4.97369245e-02, 9.30239782e-02, 1.13554699e-02,
          3.56305437e-03, 5.05284220e-03, 4.27356502e-03, 7.44043514e-02,
          1.00240476e-01, 5.57904094e-02, 1.04345925e-01, 1.27375443e-02,
          3.62681039e-02, 9.92736872e-03, 4.18807194e-03, 1.84180168e-03,
          1.43689429e-03, 1.07991695e-02, 5.24255782e-02, 3.01944334e-02,
          3.93337943e-02, 1.07665146e-02, 4.54208348e-03, 1.99748646e-03,
          1.55835296e-03, 1.17120082e-02, 5.68570346e-02, 3.27467248e-02,
          1.49263758e-02, 1.17106852e-03, 1.03168313e-04, 3.86056810e-04,
          1.33271993e-03, 2.36619031e-03, 3.14894207e-02, 8.46522003e-02,
          9.97583792e-02, 1.20125324e-01, 3.84890623e-02, 3.72932144e-02,
          1.38676558e-02, 6.36980112e-04, 1.78217748e-03, 1.36074480e-02,
          1.33617676e-03, 7.91402441e-03, 2.13261154e-02, 6.17695041e-02,
          2.42427755e-02, 4.35987860e-03, 2.56725755e-02, 3.71088311e-02,
          3.70311900e-03, 2.19331551e-02, 5.91038130e-02, 1.71189785e-01,
          6.71871305e-02, 1.20830927e-02, 7.11497217e-02, 1.02844492e-01,
          3.20406538e-03, 1.40345993e-03, 2.68991920e-03, 1.38577109e-03,
          1.20222976e-03, 5.42151881e-03, 2.74488349e-02, 3.87872607e-02,
          1.77745183e-03, 7.78567919e-04, 1.49222976e-03, 7.68755039e-04,
          6.66935695e-04, 3.00758192e-03, 1.52272116e-02, 2.15171929e-02,
          1.39143784e-02, 4.82612699e-02, 4.59872000e-02, 2.17506122e-02,
          1.11999819e-02, 1.42247016e-02, 7.00241998e-02, 9.56081077e-02,
          9.99559928e-03, 3.46691944e-02, 3.30355838e-02, 1.56248733e-02,
          8.04567244e-03, 1.02185244e-02, 5.03029153e-02, 6.86814934e-02,
          2.07792720e-04, 8.88596638e-04, 1.07397642e-02, 1.73522923e-02,
          4.87269787e-03, 4.06114443e-04, 5.54233964e-04, 6.74526033e-04,
          3.38332553e-04, 1.44683209e-03, 1.74867138e-02, 2.82533746e-02,
          7.93383084e-03, 6.61244208e-04, 9.02415602e-04, 1.09827775e-03,
          0., 4.61751712e-04, 5.25812525e-03, 4.45858166e-02,
          2.59657968e-02, 1.53177222e-02, 5.34355082e-03, 9.59287689e-04,
          0., 5.17951557e-04, 5.89809194e-03, 5.00123575e-02,
          2.91260947e-02, 1.71820428e-02, 5.99391432e-03, 1.07604265e-03,
          4.07624058e-02, 2.09012884e-03, 0., 7.46299000e-03,
          3.72384787e-02, 6.91114739e-02, 1.80694073e-01, 4.53443900e-02,
          4.42079939e-02, 2.26680445e-03, 0., 8.09382554e-03,
          4.03861962e-02, 7.49533623e-02, 1.95967883e-01, 4.91772853e-02,
          4.48589437e-02, 9.94880684e-03, 6.79508457e-03, 6.30409317e-03,
          8.60950619e-04, 6.70885295e-03, 5.02805784e-02, 1.63248137e-01,
          1.06387846e-01, 1.28108278e-01, 4.10468616e-02, 3.97715457e-02,
          1.47892339e-02, 6.79310702e-04, 1.90061238e-03, 1.45117342e-02,
          1.42497267e-03, 8.43995158e-03, 2.27433462e-02, 6.58744052e-02,
          2.58538332e-02, 4.64961492e-03, 2.73786522e-02, 3.95749062e-02,
          3.41773056e-03, 2.02428307e-02, 5.45488559e-02, 1.57996684e-01,
          6.20092116e-02, 1.11518847e-02, 6.56664148e-02, 9.49185640e-02,
          2.95713730e-03, 1.29529939e-03, 2.48261495e-03, 1.27897377e-03,
          1.10957737e-03, 5.00369817e-03, 2.53334325e-02, 3.57980393e-02,
          3.01219057e-03, 1.31941400e-03, 2.52883392e-03, 1.30278454e-03,
          1.13023445e-03, 5.09685231e-03, 2.58050673e-02, 3.64644937e-02,
          2.35802494e-02, 8.17868188e-02, 7.79330358e-02, 3.68600637e-02,
          1.89802498e-02, 2.41061449e-02, 1.18667759e-01, 1.62023991e-01,
          1.48867527e-02, 5.16338982e-02, 4.92009111e-02, 2.32706033e-02,
          1.19826673e-02, 1.52187627e-02, 7.49176815e-02, 1.02289461e-01,
          3.09472060e-04, 1.32341427e-03, 1.59950610e-02, 2.58433018e-02,
          7.25705829e-03, 6.04838715e-04, 8.25437659e-04, 1.00459228e-03,
          2.57546024e-04, 1.10135972e-03, 1.33112622e-02, 2.15070769e-02,
          6.03940245e-03, 5.03353309e-04, 6.86938176e-04, 8.36032617e-04,
          0., 3.51495342e-04, 4.00259811e-03, 3.39396819e-02,
          1.97657235e-02, 1.16601801e-02, 4.06762585e-03, 7.30230415e-04,
          0., 2.30466743e-04, 2.62440369e-03, 2.22534034e-02,
          1.29598919e-02, 7.64528941e-03, 2.66704080e-03, 4.78793896e-04,
          1.81375630e-02, 9.30019771e-04, 0., 3.32071795e-03,
          1.65695641e-02, 3.07517089e-02, 8.04012939e-02, 2.01763548e-02,
          2.08334457e-02, 1.06825354e-03, 0., 3.81429400e-03,
          1.90323871e-02, 3.53225023e-02, 9.23517644e-02, 2.31752731e-02,
          2.11402122e-02, 4.68847202e-03, 3.20224953e-03, 2.97086500e-03,
          4.05731320e-04, 3.16161197e-03, 2.36952100e-02, 7.69322664e-02,
          1.78393722e-01, 7.90092275e-02, 2.25654915e-02, 8.59572552e-03,
          9.44728870e-03, 3.96050792e-03, 4.52379650e-03, 4.15612571e-02,
          7.69384031e-04, 1.30567141e-03, 2.33277748e-03, 1.92142818e-02,
          3.18826921e-02, 1.20539423e-02, 2.21677441e-02, 1.90814193e-02,
          1.84533163e-03, 3.13159171e-03, 5.59505774e-03, 4.60845567e-02,
          7.64691457e-02, 2.89108176e-02, 5.31682968e-02, 4.57658917e-02,
          6.56699296e-03, 2.74937949e-03, 6.04504952e-04, 0.,
          6.41065231e-03, 4.20149751e-02, 1.11882702e-01, 2.35891342e-02,
          6.68925140e-03, 2.80056498e-03, 6.15759112e-04, 0.,
          6.52999990e-03, 4.27971743e-02, 1.13965631e-01, 2.40282938e-02,
          2.96132662e-03, 1.53562543e-03, 7.21826509e-04, 8.33195460e-04,
          1.17831293e-03, 1.24688456e-02, 1.25843003e-01, 3.64329517e-02,
          1.86955347e-03, 9.69475543e-04, 4.55705624e-04, 5.26015414e-04,
          7.43895944e-04, 7.87186809e-03, 7.94475675e-02, 2.30009574e-02,
          2.49027815e-02, 1.40452432e-02, 4.31803279e-02, 1.57258227e-01,
          4.75156009e-02, 4.40157913e-02, 9.00358185e-02, 6.75972849e-02,
          2.07243655e-02, 1.16886031e-02, 3.59351337e-02, 1.30871996e-01,
          3.95429954e-02, 3.66304182e-02, 7.49287829e-02, 5.62551916e-02,
          1.89665575e-02, 3.26895416e-02, 3.76180187e-02, 1.48351654e-01,
          1.11516371e-01, 7.81602636e-02, 2.32797693e-02, 2.40797307e-02,
          1.24358991e-02, 2.14337166e-02, 2.46651955e-02, 9.72704813e-02,
          7.31185004e-02, 5.12477383e-02, 1.52639644e-02, 1.57884788e-02,
          7.24134594e-02, 5.55071980e-02, 2.69162282e-02, 4.09526564e-02,
          1.53798491e-01, 6.56628087e-02, 2.39487495e-02, 3.04298941e-02,
          8.31766576e-02, 6.37575313e-02, 3.09169311e-02, 4.70396690e-02,
          1.76658377e-01, 7.54226223e-02, 2.75083799e-02, 3.49528491e-02,
          3.71800661e-02, 4.04234417e-02, 1.08465524e-02, 5.73942997e-03,
          4.10252484e-03, 4.77209827e-03, 1.06243705e-02, 1.50839426e-02,
          1.16281450e-01, 5.15001751e-02, 1.47087472e-02, 5.60290739e-03,
          6.15797751e-03, 2.58155726e-03, 2.94872280e-03, 2.70906575e-02,
          5.01503586e-04, 8.51068995e-04, 1.52056222e-03, 1.25243459e-02,
          2.07819287e-02, 7.85705913e-03, 1.44494856e-02, 1.24377422e-02,
          7.05607410e-04, 1.19744020e-03, 2.13940651e-03, 1.76215507e-02,
          2.92398371e-02, 1.10547543e-02, 2.03301907e-02, 1.74997021e-02,
          2.51104939e-03, 1.05129206e-03, 2.31147176e-04, 0.,
          2.45126872e-03, 1.60654485e-02, 4.27810699e-02, 9.01987869e-03,
          3.71817127e-03, 1.55667344e-03, 3.42265179e-04, 0.,
          3.62965255e-03, 2.37884950e-02, 6.33469597e-02, 1.33559508e-02,
          1.64603163e-03, 8.53566104e-04, 4.01221972e-04, 4.63125558e-04,
          6.54956559e-04, 6.93071634e-03, 6.99489042e-02, 2.02509873e-02,
          1.65441411e-03, 8.57912877e-04, 4.03265178e-04, 4.65484016e-04,
          6.58291916e-04, 6.96601067e-03, 7.03051239e-02, 2.03541163e-02,
          2.20370889e-02, 1.24289831e-02, 3.82113382e-02, 1.39161691e-01,
          4.20477279e-02, 3.89506631e-02, 7.96749219e-02, 5.98185062e-02,
          1.43357841e-02, 8.08542408e-03, 2.48576179e-02, 9.05288383e-02,
          2.73533035e-02, 2.53385697e-02, 5.18309176e-02, 3.89137268e-02,
          1.31198457e-02, 2.26125233e-02, 2.60217264e-02, 1.02620140e-01,
          7.71398544e-02, 5.40662482e-02, 1.61034483e-02, 1.66568104e-02,
          9.69202444e-03, 1.67045500e-02, 1.92230307e-02, 7.58085772e-02,
          5.69855310e-02, 3.99403609e-02, 1.18961008e-02, 1.23048853e-02,
          5.64360470e-02, 4.32600081e-02, 2.09773909e-02, 3.19168009e-02,
          1.19864166e-01, 5.11748679e-02, 1.86646618e-02, 2.37157959e-02,
          8.44153017e-02, 6.47069961e-02, 3.13773379e-02, 4.77401726e-02,
          1.79289132e-01, 7.65457973e-02, 2.79180277e-02, 3.54733616e-02,
          3.77337411e-02, 4.10254188e-02, 1.10080764e-02, 5.82490023e-03,
          4.16361867e-03, 4.84316330e-03, 1.07825864e-02, 1.53085692e-02,
          1.06679715e-01, 4.09723036e-02, 5.28093204e-02, 3.95699590e-02,
          3.31300613e-03, 9.11321770e-03, 7.71209551e-03, 7.25247264e-02,
          2.69716997e-02, 1.12747345e-02, 3.35918441e-02, 1.12818509e-01,
          7.18021691e-02, 2.90571619e-02, 3.21470574e-02, 5.18465862e-02,
          3.79487462e-02, 1.58633683e-02, 4.72631827e-02, 1.58733815e-01,
          1.01024494e-01, 4.08829562e-02, 4.52303886e-02, 7.29473084e-02,
          2.82489471e-02, 5.73806576e-02, 7.18361288e-02, 4.08259258e-02,
          2.90275384e-02, 3.24660800e-02, 2.28550304e-02, 2.35656463e-02,
          4.18288969e-02, 8.49649161e-02, 1.06369488e-01, 6.04519285e-02,
          4.29817736e-02, 4.80733030e-02, 3.38419937e-02, 3.48942168e-02,
          7.79476482e-03, 4.14777128e-03, 8.55931081e-03, 4.34993692e-02,
          1.18443519e-01, 8.60692263e-02, 5.93479499e-02, 7.84380455e-03,
          7.83445965e-03, 4.16889368e-03, 8.60289857e-03, 4.37208898e-02,
          1.19046696e-01, 8.65075290e-02, 5.96501790e-02, 7.88374897e-03,
          2.14052275e-02, 2.59582157e-04, 4.31007793e-04, 8.57160543e-04,
          3.77467670e-03, 1.38181616e-02, 5.57009988e-02, 3.23423184e-02,
          1.39247393e-02, 1.68865954e-04, 2.80383450e-04, 5.57608495e-04,
          2.45554000e-03, 8.98912735e-03, 3.62351649e-02, 2.10396443e-02,
          1.32995257e-02, 2.67412681e-02, 4.60941829e-02, 5.07020727e-02,
          7.99763948e-02, 4.56280373e-02, 3.40130217e-02, 1.03096869e-02,
          9.82475933e-03, 1.97545774e-02, 3.40511575e-02, 3.74551415e-02,
          5.90809658e-02, 3.37067991e-02, 2.51264405e-02, 7.61607522e-03,
          1.27497390e-02, 5.85176349e-02, 3.69006284e-02, 4.08701524e-02,
          8.03359412e-03, 4.40250663e-03, 1.58200285e-03, 1.76297291e-03,
          1.90706681e-02, 8.75288844e-02, 5.51948287e-02, 6.11323193e-02,
          1.20164035e-02, 6.58513419e-03, 2.36631138e-03, 2.63700075e-03,
          1.23418709e-02, 1.50263179e-02, 9.96730383e-03, 5.46442764e-03,
          3.22406995e-03, 2.52453168e-03, 1.28999315e-02, 1.38637815e-02,
          9.10017043e-02, 3.49508747e-02, 4.50482853e-02, 3.37546244e-02,
          2.82611558e-03, 7.77390879e-03, 6.57870015e-03, 6.18662536e-02,
          2.30078492e-02, 9.61776171e-03, 2.86550745e-02, 9.62383226e-02,
          6.12498857e-02, 2.47868244e-02, 2.74226200e-02, 4.42270376e-02,
          2.68821567e-02, 1.12373028e-02, 3.34803201e-02, 1.12443961e-01,
          7.15637952e-02, 2.89606936e-02, 3.20403315e-02, 5.16744591e-02,
          2.00110078e-02, 4.06473465e-02, 5.08873239e-02, 2.89202947e-02,
          2.05625463e-02, 2.29983423e-02, 1.61900613e-02, 1.66934468e-02,
          3.03009413e-02, 6.15487695e-02, 7.70542845e-02, 4.37915064e-02,
          3.11360899e-02, 3.48244049e-02, 2.45152116e-02, 2.52774470e-02,
          5.64654451e-03, 3.00465431e-03, 6.20038295e-03, 3.15110348e-02,
          8.58007446e-02, 6.23487346e-02, 4.29917835e-02, 5.68206934e-03,
          9.68421903e-03, 5.15319267e-03, 1.06340908e-02, 5.40436357e-02,
          1.47154287e-01, 1.06932446e-01, 7.37339184e-02, 9.74514615e-03,
          2.64591202e-02, 3.20870953e-04, 5.32771170e-04, 1.05954090e-03,
          4.66589909e-03, 1.70807075e-02, 6.88523203e-02, 3.99785228e-02,
          2.29695849e-02, 2.78553198e-04, 4.62507131e-04, 9.19804326e-04,
          4.05054120e-03, 1.48280337e-02, 5.97717911e-02, 3.47059928e-02,
          2.19382606e-02, 4.41111140e-02, 7.60347545e-02, 8.36357102e-02,
          1.31925240e-01, 7.52658248e-02, 5.61062507e-02, 1.70063656e-02,
          1.75073948e-02, 3.52020003e-02, 6.06780313e-02, 6.67438209e-02,
          1.05280317e-01, 6.00643978e-02, 4.47744839e-02, 1.35715930e-02,
          2.27196105e-02, 1.04276478e-01, 6.57556951e-02, 7.28292540e-02,
          1.43155986e-02, 7.84512050e-03, 2.81907665e-03, 3.14155919e-03,
          3.13578881e-02, 1.43923700e-01, 9.07568261e-02, 1.00519836e-01,
          1.97585672e-02, 1.08279325e-02, 3.89092462e-03, 4.33601905e-03,
          2.02937312e-02, 2.47077662e-02, 1.63892321e-02, 8.98515619e-03,
          5.30133676e-03, 4.15108632e-03, 2.12113503e-02, 2.27962080e-02,
          8.05743337e-02, 1.56750940e-02, 2.02158862e-03, 1.07133836e-02,
          4.65512136e-03, 6.64622709e-03, 2.40340549e-02, 6.19705543e-02,
          1.55563680e-02, 1.77661274e-02, 3.60897593e-02, 4.56156097e-02,
          3.11008357e-02, 1.03619080e-02, 2.01539267e-02, 1.80592816e-02,
          1.81759149e-02, 2.07577776e-02, 4.21669371e-02, 5.32968529e-02,
          3.63379233e-02, 1.21067567e-02, 2.35476587e-02, 2.11002976e-02,
          3.71807329e-02, 6.89903498e-02, 2.97326241e-02, 1.47205582e-02,
          1.64418891e-02, 1.55161954e-02, 3.44331749e-03, 1.29073102e-03,
          5.62995747e-02, 1.04466140e-01, 4.50215451e-02, 2.22900715e-02,
          2.48965323e-02, 2.34948378e-02, 5.21391863e-03, 1.95444259e-03,
          2.55805552e-02, 3.71149764e-03, 9.02338419e-04, 5.77494130e-03,
          4.17182185e-02, 4.52151410e-02, 1.48006622e-02, 7.02478830e-03,
          4.38724421e-02, 6.36547850e-03, 1.54757360e-03, 9.90442932e-03,
          7.15496689e-02, 7.75471330e-02, 2.53841728e-02, 1.20480042e-02,
          0., 0., 0., 8.57752562e-03, 7.55903199e-02, 8.22256207e-02,
          9.35699698e-03, 0., 0., 0., 0., 7.44628673e-03, 6.56211600e-02,
          7.13813752e-02, 8.12295824e-03, 0., 2.32739630e-03,
          1.18354161e-03, 2.15801131e-03, 2.60275765e-03, 4.40615229e-03,
          1.23934068e-01, 5.91304377e-02, 7.67560303e-03, 1.85733254e-03,
          9.44501895e-04, 1.72215805e-03, 2.07707915e-03, 3.51624237e-03,
          9.89031270e-02, 4.71878722e-02, 6.12536306e-03, 2.37731654e-02,
          3.55394045e-03, 2.03612784e-04, 2.68883002e-03, 7.36991689e-03,
          3.49737704e-02, 5.08192703e-02, 1.67594310e-02, 3.28120179e-02,
          4.90519265e-03, 2.81028915e-04, 3.71115655e-03, 1.01720504e-02,
          4.82712314e-02, 7.01413825e-02, 2.31315754e-02, 8.13582540e-02,
          1.18761972e-01, 4.06847969e-02, 9.58803762e-03, 5.27175202e-04,
          5.42868348e-03, 3.78851732e-03, 1.72294211e-02, 1.20241366e-01,
          2.33919974e-02, 3.01682390e-03, 1.59876198e-02, 6.94685429e-03,
          9.91818774e-03, 3.58661041e-02, 9.24788788e-02, 2.32148245e-02,
          2.65124552e-02, 5.38568757e-02, 6.80723339e-02, 4.64118868e-02,
          1.54631119e-02, 3.00757755e-02, 2.69499309e-02, 3.13828103e-02,
          3.58406901e-02, 7.28060678e-02, 9.20231491e-02, 6.27416074e-02,
          2.09037084e-02, 4.06577438e-02, 3.64320911e-02, 6.41968101e-02,
          1.19119778e-01, 5.13367951e-02, 2.54167374e-02, 2.83888113e-02,
          2.67904978e-02, 5.94528392e-03, 2.22859555e-03, 9.44360420e-02,
          1.75229892e-01, 7.55184442e-02, 3.73890214e-02, 4.17610593e-02,
          3.94098759e-02, 8.74574669e-03, 3.27835209e-03, 4.29084301e-02,
          6.22560922e-03, 1.51356857e-03, 9.68679786e-03, 6.99774995e-02,
          7.58431777e-02, 2.48264018e-02, 1.17832720e-02, 6.86751828e-02,
          9.96412244e-03, 2.42247502e-03, 1.55037744e-02, 1.11999378e-01,
          1.21387430e-01, 3.97347957e-02, 1.88591927e-02, 0., 0., 0.,
          1.34267230e-02, 1.18324369e-01, 1.28710851e-01, 1.46468589e-02,
          0., 0., 0., 0., 1.71997454e-02, 1.51574507e-01, 1.64879695e-01,
          1.87627506e-02, 0., 5.37591754e-03, 2.73379404e-03,
          4.98466473e-03, 6.01195917e-03, 1.01775154e-02, 2.86268115e-01,
          1.36581957e-01, 1.77294295e-02, 3.65236914e-03, 1.85732474e-03,
          3.38655408e-03, 4.08449210e-03, 6.91454858e-03, 1.94488987e-01,
          9.27930400e-02, 1.20452782e-02, 4.67489660e-02, 6.98867999e-03,
          4.00396297e-04, 5.28747542e-03, 1.44926431e-02, 6.87745064e-02,
          9.99340340e-02, 3.29567418e-02, 3.25022079e-02, 4.85887798e-03,
          2.78375432e-04, 3.67611600e-03, 1.00760059e-02, 4.78154570e-02,
          6.94791079e-02, 2.29131673e-02, 8.05900693e-02, 1.17640622e-01,
          4.03006524e-02, 9.49750748e-03, 5.22197573e-04, 5.37742581e-03,
          3.75274615e-03, 1.70667414e-02, 1.04018450e-01, 4.79341485e-02,
          1.19511541e-02, 8.85993987e-03, 3.60689033e-03, 2.19472107e-02,
          1.92180723e-02, 2.69848313e-02, 7.25952908e-02, 1.16956392e-02,
          3.71626718e-03, 1.56011991e-03, 9.23719024e-04, 4.06152190e-04,
          1.35312346e-03, 6.48240894e-02, 9.81374681e-02, 1.58106741e-02,
          5.02381194e-03, 2.10903795e-03, 1.24872359e-03, 5.49054181e-04,
          1.82921113e-03, 8.76320302e-02, 1.41638592e-02, 1.48387682e-02,
          1.16224876e-02, 1.34546971e-02, 8.78206920e-03, 6.89754914e-03,
          1.08217157e-03, 6.07070921e-04, 2.08355952e-02, 2.18284111e-02,
          1.70971379e-02, 1.97923891e-02, 1.29187694e-02, 1.01465667e-02,
          1.59191701e-03, 8.93025193e-04, 4.04400006e-02, 1.00724110e-02,
          1.57815497e-02, 1.84248965e-02, 3.14671509e-02, 2.95365136e-02,
          1.17793875e-02, 1.88610628e-02, 6.47244453e-02, 1.61209498e-02,
          2.52584592e-02, 2.94891521e-02, 5.03633507e-02, 4.72733565e-02,
          1.88529771e-02, 3.01872361e-02, 1.00036745e-03, 2.77978322e-03,
          4.78278473e-03, 1.07449973e-02, 2.07296256e-02, 1.31194405e-02,
          9.18118574e-04, 6.08059914e-09, 1.28147914e-03, 3.56092560e-03,
          6.12678751e-03, 1.37644326e-02, 2.65548248e-02, 1.68061145e-02,
          1.17611769e-03, 7.78929898e-09, 3.60470521e-03, 9.00105922e-04,
          1.94061850e-03, 2.17191130e-02, 7.59490812e-03, 5.20103499e-02,
          1.74688883e-02, 3.21063539e-03, 2.44901702e-03, 6.11527066e-04,
          1.31844555e-03, 1.47558469e-02, 5.15993917e-03, 3.53355482e-02,
          1.18682673e-02, 2.18128809e-03, 2.59263627e-02, 5.01501039e-02,
          5.63550554e-03, 0., 2.00555296e-04, 1.32307872e-01,
          9.57437754e-02, 2.15498731e-02, 1.80252977e-02, 3.48668471e-02,
          3.91808385e-03, 0., 1.39436015e-04, 9.19870138e-02,
          6.65658340e-02, 1.49825430e-02, 7.05431327e-02, 1.16826981e-01,
          3.42684090e-02, 2.24270299e-02, 1.48418136e-02, 1.48685481e-02,
          1.54017080e-02, 1.39902150e-02, 1.13278687e-01, 5.22014834e-02,
          1.30151054e-02, 9.64869559e-03, 3.92799359e-03, 2.39010602e-02,
          2.09289622e-02, 2.93871555e-02, 7.90580809e-02, 1.27368430e-02,
          4.04710788e-03, 1.69900944e-03, 1.00595306e-03, 4.42309858e-04,
          1.47358514e-03, 7.05950558e-02, 1.48873225e-01, 2.39845794e-02,
          7.62105454e-03, 3.19938199e-03, 1.89429685e-03, 8.32907797e-04,
          2.77488865e-03, 1.32936612e-01, 2.14863829e-02, 2.25102101e-02,
          1.76311564e-02, 2.04105936e-02, 1.33222807e-02, 1.04634883e-02,
          1.64163962e-03, 9.20918363e-04, 4.19645943e-02, 4.39642109e-02,
          3.44350338e-02, 3.98634933e-02, 2.60194596e-02, 2.04360150e-02,
          3.20625119e-03, 1.79862592e-03, 8.14494714e-02, 2.02866606e-02,
          3.17853354e-02, 3.71092521e-02, 6.33774176e-02, 5.94889596e-02,
          2.37246510e-02, 3.79877239e-02, 1.14702180e-01, 2.85689309e-02,
          4.47620749e-02, 5.22595458e-02, 8.92520025e-02, 8.37760344e-02,
          3.34105231e-02, 5.34966625e-02, 1.77281292e-03, 4.92622517e-03,
          8.47586710e-03, 1.90418735e-02, 3.67362462e-02, 2.32497696e-02,
          1.62705453e-03, 1.07758042e-08, 2.10825354e-03, 5.85833471e-03,
          1.00796185e-02, 2.26448569e-02, 4.36872505e-02, 2.76489463e-02,
          1.93491566e-03, 1.28147351e-08, 5.93035948e-03, 1.48082897e-03,
          3.19265085e-03, 3.57316732e-02, 1.24949291e-02, 8.55659693e-02,
          2.87393238e-02, 5.28204674e-03, 2.29415903e-03, 5.72858553e-04,
          1.23507669e-03, 1.38227949e-02, 4.83366242e-03, 3.31011862e-02,
          1.11178048e-02, 2.04335945e-03, 2.42869705e-02, 4.69789766e-02,
          5.27915731e-03, 0., 1.87873637e-04, 1.23941690e-01,
          8.96896422e-02, 2.01872159e-02, 1.67368185e-02, 3.23745050e-02,
          3.63801233e-03, 0., 1.29468885e-04, 8.54116306e-02,
          6.18075952e-02, 1.39115658e-02, 6.55005872e-02, 1.08475991e-01,
          3.18188444e-02, 2.08239071e-02, 1.37808956e-02, 1.38057191e-02,
          1.43007683e-02, 1.29901711e-02, 1.65898666e-01, 7.38909794e-03,
          1.91105786e-03, 2.27459823e-03, 5.38891996e-04, 5.18754404e-03,
          1.98920146e-02, 1.13898136e-01, 6.52167574e-02, 1.24832345e-02,
          7.23854126e-03, 2.07415456e-03, 2.70057353e-03, 1.52416499e-02,
          5.18172942e-02, 8.88905823e-02, 1.22808807e-01, 2.35070121e-02,
          1.36308009e-02, 3.90581274e-03, 5.08541381e-03, 2.87013464e-02,
          9.75764543e-02, 1.67388678e-01, 6.06750092e-03, 1.01758877e-03,
          5.69446245e-04, 4.16202965e-04, 1.39155681e-03, 1.94356889e-02,
          6.02174364e-02, 1.77766550e-02, 1.18503068e-02, 1.98743073e-03,
          1.11217331e-03, 8.12877086e-04, 2.71781976e-03, 3.79594304e-02,
          1.17609382e-01, 3.47192064e-02, 1.03899501e-01, 2.24116966e-02,
          2.89768795e-03, 1.64028315e-03, 8.77650280e-04, 0.,
          1.04927411e-03, 9.15581584e-02, 1.46317706e-01, 3.15615386e-02,
          4.08070348e-03, 2.30994821e-03, 1.23596145e-03, 0.,
          1.47765270e-03, 1.28937870e-01, 6.52039074e-04, 2.69694859e-03,
          2.54234169e-02, 5.43703474e-02, 4.62020840e-03, 8.86902271e-05,
          0., 1.69335530e-04, 7.75413821e-04, 3.20724840e-03,
          3.02338768e-02, 6.46579638e-02, 5.49441576e-03, 1.05471641e-04,
          0., 2.01376140e-04, 3.18235136e-04, 6.45415299e-03,
          1.25908300e-01, 4.50408787e-01, 1.17911752e-02, 4.93939081e-03,
          3.12424381e-03, 0., 1.23109232e-04, 2.49678851e-03,
          4.87076193e-02, 1.74240604e-01, 4.56141541e-03, 1.91080291e-03,
          1.20861351e-03, 0., 5.90501819e-03, 9.60089564e-02,
          1.96003422e-01, 7.11895153e-02, 4.06786613e-03, 1.25379500e-03,
          5.97342663e-03, 6.77651865e-03, 4.06931015e-03, 6.61624148e-02,
          1.35071352e-01, 4.90586534e-02, 2.80327839e-03, 8.64024565e-04,
          4.11645276e-03, 4.66988515e-03, 2.22087074e-02, 8.22862759e-02,
          4.55437414e-02, 2.80604120e-02, 1.87865570e-02, 8.19732901e-03,
          1.16485134e-02, 2.09467541e-02, 1.42423734e-01, 6.34352863e-03,
          1.64064008e-03, 1.95273897e-03, 4.62637894e-04, 4.45349840e-03,
          1.70772616e-02, 9.77813601e-02, 5.59884794e-02, 1.07168360e-02,
          6.21427596e-03, 1.78065826e-03, 2.31843791e-03, 1.30849313e-02,
          4.44850624e-02, 7.63124228e-02, 7.39967376e-02, 1.41638219e-02,
          8.21304880e-03, 2.35339301e-03, 3.06414510e-03, 1.72935966e-02,
          5.87933324e-02, 1.00857712e-01, 3.65588814e-03, 6.13133889e-04,
          3.43111897e-04, 2.50777288e-04, 8.38463136e-04, 1.17107034e-02,
          3.62831764e-02, 1.07110757e-02, 4.69322875e-03, 7.87107681e-04,
          4.40468226e-04, 3.21934116e-04, 1.07637304e-03, 1.50335589e-02,
          4.65783514e-02, 1.37502914e-02, 4.11486514e-02, 8.87599122e-03,
          1.14760851e-03, 6.49622350e-04, 3.47587105e-04, 0.,
          4.15557442e-04, 3.62609513e-02, 4.29498814e-02, 9.26452689e-03,
          1.19784358e-03, 6.78058714e-04, 3.62802268e-04, 0.,
          4.33747948e-04, 3.78482267e-02, 1.91398576e-04, 7.91658240e-04,
          7.46275205e-03, 1.59597900e-02, 1.35620916e-03, 2.60339966e-05,
          0., 4.97064975e-05, 2.30380538e-04, 9.52894508e-04,
          8.98268260e-03, 1.92103051e-02, 1.63242687e-03, 3.13363162e-05,
          0., 5.98301704e-05, 9.45497450e-05, 1.91757118e-03,
          3.74081843e-02, 1.33819401e-01, 3.50323552e-03, 1.46752538e-03,
          9.28233319e-04, 0., 7.46959631e-05, 1.51491491e-03,
          2.95531228e-02, 1.05719686e-01, 2.76761758e-03, 1.15937088e-03,
          7.33320659e-04, 0., 3.58284242e-03, 5.82529902e-02,
          1.18924171e-01, 4.31939103e-02, 2.46815896e-03, 7.60734314e-04,
          3.62434913e-03, 4.11162153e-03, 3.37879593e-03, 5.49354255e-02,
          1.12151317e-01, 4.07339707e-02, 2.32759491e-03, 7.17409712e-04,
          3.41793871e-03, 3.87746049e-03, 1.84401497e-02, 6.83232546e-02,
          3.78155001e-02, 2.32988875e-02, 1.55986985e-02, 6.80633774e-03,
          9.67189670e-03, 1.73923355e-02, 1.72010094e-01, 1.36457698e-03,
          1.63845980e-04, 1.98699454e-05, 0., 1.81296506e-04,
          1.02828559e-03, 7.56170303e-02, 1.98549733e-01, 1.46693913e-02,
          4.60845139e-03, 9.76657146e-04, 2.37459317e-03, 8.55435152e-04,
          4.70620859e-03, 3.98379974e-02, 2.62411684e-01, 1.93876866e-02,
          6.09072344e-03, 1.29079120e-03, 3.13836220e-03, 1.13057916e-03,
          6.21992396e-03, 5.26515767e-02, 9.21905488e-02, 2.18804497e-02,
          1.68621242e-02, 2.79569961e-02, 2.96426993e-02, 5.90201691e-02,
          2.92384438e-02, 2.77451016e-02, 1.18349172e-01, 2.80889217e-02,
          2.16466691e-02, 3.58896591e-02, 3.80536690e-02, 7.57668540e-02,
          3.75347100e-02, 3.56176384e-02, 7.63589963e-02, 8.23863130e-03,
          1.00523038e-02, 2.27301028e-02, 1.31300598e-01, 1.10822774e-01,
          1.63065605e-02, 6.17154799e-02, 7.97015131e-02, 8.59926734e-03,
          1.04923304e-02, 2.37250850e-02, 1.37048110e-01, 1.15673900e-01,
          1.70203596e-02, 6.44169971e-02, 1.97643414e-02, 2.33680774e-02,
          2.87863165e-02, 2.44178385e-01, 9.82313603e-02, 5.43249445e-03,
          2.78172758e-03, 2.20705522e-03, 2.37897243e-02, 2.81274281e-02,
          3.46491970e-02, 2.93909937e-01, 1.18238039e-01, 6.53892523e-03,
          3.34827928e-03, 2.65656388e-03, 1.84961682e-04, 2.65173218e-03,
          1.50919715e-02, 1.87090293e-01, 7.04530999e-02, 2.03219615e-03,
          4.62872471e-04, 5.36263688e-04, 1.46122984e-04, 2.09491490e-03,
          1.19229229e-02, 1.47804618e-01, 5.56591898e-02, 1.60547055e-03,
          3.65677406e-04, 4.23657737e-04, 1.57916620e-01, 1.26578316e-01,
          2.39572693e-02, 3.45214456e-02, 1.62136536e-02, 2.12302897e-03,
          7.16403453e-03, 3.50616276e-02, 1.48923099e-01, 1.19369552e-01,
          2.25928798e-02, 3.25554162e-02, 1.52902696e-02, 2.00212048e-03,
          6.75603561e-03, 3.30648310e-02, 7.27245659e-02, 1.95561964e-02,
          1.54364957e-02, 4.10930207e-03, 4.35015466e-03, 1.28768394e-02,
          2.77434848e-02, 4.37618047e-02 ]
      - [ 4.98015396e-02, 1.61564872e-01, 9.80726853e-02, 5.71537055e-02,
          6.99517652e-02, 6.61358749e-03, 6.90183078e-04, 1.42126705e-03,
          7.40607502e-03, 3.67064564e-03, 6.24119490e-03, 5.03244512e-02,
          2.76930928e-01, 1.83868688e-02, 2.06408440e-03, 8.05838872e-03,
          1.09062856e-02, 5.40544186e-03, 9.19086765e-03, 7.41084665e-02,
          4.07812208e-01, 2.70767491e-02, 3.03959823e-03, 1.18668908e-02,
          3.89352366e-02, 4.21165489e-03, 5.47465606e-05, 1.72290448e-02,
          3.25774848e-02, 8.92392267e-03, 1.66703202e-02, 6.99462518e-02,
          8.86165649e-02, 9.58572235e-03, 1.24603117e-04, 3.92132923e-02,
          7.41463229e-02, 2.03108396e-02, 3.79416347e-02, 1.59197599e-01,
          1.94101259e-02, 3.96427885e-03, 1.74187194e-03, 7.09687127e-04,
          1.37579872e-03, 2.02708156e-03, 4.01434489e-03, 1.87576506e-02,
          1.53922737e-02, 3.14368191e-03, 1.38130831e-03, 5.62783447e-04,
          1.09101157e-03, 1.60748011e-03, 3.18338466e-03, 1.48748597e-02,
          1.85074344e-01, 1.19402856e-01, 6.68747425e-02, 3.70484963e-03,
          1.43456245e-02, 2.38773990e-02, 1.88136399e-02, 7.30021894e-02,
          1.01208635e-01, 6.52959198e-02, 3.65707166e-02, 2.02601147e-03,
          7.84496032e-03, 1.30574489e-02, 1.02883121e-02, 3.99215296e-02,
          1.68379629e-03, 1.07903639e-02, 1.92998778e-02, 1.18136697e-01,
          2.56256551e-01, 3.26998979e-02, 5.68216713e-03, 9.12763271e-03,
          1.54179672e-03, 9.88038070e-03, 1.76722612e-02, 1.08173877e-01,
          2.34645665e-01, 2.99422164e-02, 5.20297326e-03, 8.35787226e-03,
          2.51978752e-03, 2.69878874e-05, 1.33628584e-03, 4.72576730e-02,
          2.40617618e-01, 2.59855539e-02, 8.66478086e-02, 3.82377878e-02,
          2.27402709e-03, 2.43556988e-05, 1.20595493e-03, 4.26485278e-02,
          2.17149645e-01, 2.34511252e-02, 7.81968534e-02, 3.45083736e-02,
          1.65239610e-02, 1.41056180e-02, 9.48093086e-03, 1.13138626e-03,
          1.88394159e-03, 3.93520371e-04, 1.50850415e-02, 3.11475471e-02,
          4.27067168e-02, 3.43487076e-02, 5.44509897e-03, 1.89641770e-02,
          7.48430006e-03, 3.38901044e-03, 3.50810075e-03, 1.00440020e-02,
          0., 0., 0., 3.11226671e-04, 1.47905545e-02, 2.71703042e-02,
          1.19430535e-02, 1.54254842e-03, 0., 0., 0., 4.58316586e-04,
          2.17807684e-02, 4.00113538e-02, 1.75874997e-02, 2.27157748e-03,
          1.55635104e-02, 7.77244350e-05, 5.09415659e-05, 5.13547682e-04,
          1.78300997e-03, 8.61405209e-03, 4.01999503e-02, 1.13132626e-01,
          3.54225338e-02, 1.76900736e-04, 1.15942959e-04, 1.16883405e-03,
          4.05812915e-03, 1.96055733e-02, 9.14950520e-02, 2.57489771e-01,
          7.13449996e-03, 6.11896627e-03, 6.93942234e-03, 8.10066063e-04,
          2.45586562e-04, 1.27032911e-03, 2.75396593e-02, 5.92713580e-02,
          5.65767428e-03, 4.85235406e-03, 5.50297741e-03, 6.42384228e-04,
          1.94750697e-04, 1.00737391e-03, 2.18390115e-02, 4.70023192e-02,
          1.32118538e-01, 1.50905293e-03, 2.80385226e-04, 0.,
          9.60669189e-04, 1.71268347e-03, 1.36035169e-02, 2.16783747e-01,
          7.22495392e-02, 8.25231487e-04, 1.53329762e-04, 0.,
          5.25345677e-04, 9.36587632e-04, 7.43913651e-03, 1.18549041e-01,
          3.18032224e-04, 8.53615871e-04, 2.61740945e-03, 2.69890614e-02,
          9.68529005e-03, 3.48834554e-03, 5.75213274e-03, 1.97273083e-02,
          2.91211618e-04, 7.81627896e-04, 2.39667553e-03, 2.47129928e-02,
          8.86850059e-03, 3.19416309e-03, 5.26703801e-03, 1.80636458e-02,
          0., 1.66104153e-09, 1.09356944e-03, 2.81801242e-02,
          2.51841173e-02, 7.97438622e-03, 9.96722654e-03, 5.97795146e-03,
          0., 1.49903645e-09, 9.86911240e-04, 2.54316535e-02,
          2.27278545e-02, 7.19662663e-03, 8.99510086e-03, 5.39490860e-03,
          1.91910639e-01, 5.78952469e-02, 2.82542035e-03, 0.,
          4.60389623e-04, 7.95622636e-03, 4.47240360e-02, 1.34284005e-01,
          3.31064463e-02, 2.66272761e-02, 4.22106590e-03, 1.47011178e-02,
          5.80186443e-03, 2.62717647e-03, 2.71949591e-03, 7.78615661e-03,
          0., 0., 0., 2.41264366e-04, 1.14657069e-02, 2.10625455e-02,
          9.25831031e-03, 1.19579071e-03, 0., 0., 0., 2.88685551e-04,
          1.37193222e-02, 2.52024457e-02, 1.10780559e-02, 1.43082661e-03,
          9.80318058e-03, 4.89572485e-05, 3.20871950e-05, 3.23474640e-04,
          1.12308655e-03, 5.42583922e-03, 2.53212396e-02, 7.12602511e-02,
          1.77290794e-02, 8.85393238e-05, 5.80297856e-05, 5.85004804e-04,
          2.03110534e-03, 9.81264561e-03, 4.57935371e-02, 1.28874362e-01,
          3.57083767e-03, 3.06255999e-03, 3.47320084e-03, 4.05440398e-04,
          1.22916768e-04, 6.35803386e-04, 1.37836784e-02, 2.96654850e-02,
          7.48151354e-03, 6.41658530e-03, 7.27694761e-03, 8.49466713e-04,
          2.57531588e-04, 1.33211643e-03, 2.88791545e-02, 6.21542446e-02,
          1.74708992e-01, 1.99551950e-03, 3.70771741e-04, 0.,
          1.27035577e-03, 2.26479350e-03, 1.79888215e-02, 2.86667347e-01,
          8.93892497e-02, 1.02100056e-03, 1.89704064e-04, 0.,
          6.49973052e-04, 1.15877355e-03, 9.20391735e-03, 1.46672338e-01,
          3.93478782e-04, 1.05611852e-03, 3.23833548e-03, 3.33916582e-02,
          1.19829243e-02, 4.31588339e-03, 7.11670704e-03, 2.44072024e-02,
          2.31126352e-04, 6.20355771e-04, 1.90217292e-03, 1.96139980e-02,
          7.03867571e-03, 2.53511616e-03, 4.18029772e-03, 1.43366000e-02,
          0., 1.31832123e-09, 8.67934898e-04, 2.23657601e-02,
          1.99879147e-02, 6.32904284e-03, 7.91070331e-03, 4.74452972e-03,
          0., 7.64919517e-10, 5.03595278e-04, 1.29771149e-02,
          1.15974359e-02, 3.67225218e-03, 4.58996743e-03, 2.75288220e-03,
          9.79270339e-02, 2.95424461e-02, 1.44173880e-03, 0.,
          2.34924912e-04, 4.05985676e-03, 2.28215177e-02, 6.85216561e-02,
          8.50537047e-02, 2.84791961e-02, 4.49696332e-02, 7.33600631e-02,
          1.06119230e-01, 7.93151930e-03, 1.22570721e-02, 9.13996398e-02,
          3.47255766e-02, 1.31682120e-03, 1.93729857e-03, 4.35274467e-02,
          1.56272918e-01, 9.16064307e-02, 2.47341003e-02, 5.54952174e-02,
          4.15509865e-02, 1.57564599e-03, 2.31807982e-03, 5.20828851e-02,
          1.86988786e-01, 1.09611928e-01, 2.95956545e-02, 6.64029494e-02,
          5.76780783e-03, 2.20432859e-02, 5.29837832e-02, 2.47078389e-02,
          5.00695221e-02, 1.12806454e-01, 5.66376373e-02, 1.97993424e-02,
          1.04310969e-02, 3.98653485e-02, 9.58213210e-02, 4.46841978e-02,
          9.05508772e-02, 2.04010800e-01, 1.02429330e-01, 3.58071662e-02,
          5.39151893e-04, 2.77637184e-04, 4.48653795e-04, 1.57013346e-04,
          1.43760844e-04, 2.38187658e-03, 7.40027726e-02, 3.87568548e-02,
          1.12961512e-03, 5.81697212e-04, 9.40006110e-04, 3.28969705e-04,
          3.01203487e-04, 4.99043753e-03, 1.55048430e-01, 8.12022090e-02,
          9.52955987e-03, 3.28699034e-03, 1.22332003e-03, 1.45519560e-03,
          2.07618671e-03, 8.34330544e-03, 6.19708858e-02, 6.76777735e-02,
          4.87576611e-03, 1.68177707e-03, 6.25907385e-04, 7.44545716e-04,
          1.06227363e-03, 4.26882273e-03, 3.17071863e-02, 3.46270986e-02,
          2.34248042e-02, 1.07165957e-02, 2.27681194e-02, 1.65562972e-01,
          9.15169269e-02, 2.71428376e-02, 1.06518835e-01, 1.38568163e-01,
          1.37595469e-02, 6.29484467e-03, 1.33738155e-02, 9.72503945e-02,
          5.37563264e-02, 1.59434900e-02, 6.25683293e-02, 8.13938528e-02,
          4.49195839e-02, 6.49982095e-02, 5.31065427e-02, 1.17314115e-01,
          1.87034667e-01, 5.59211485e-02, 1.55736087e-02, 4.12735343e-03,
          2.60633472e-02, 3.77134159e-02, 3.08136046e-02, 6.80682808e-02,
          1.08521707e-01, 3.24467011e-02, 9.03615635e-03, 2.39478308e-03,
          1.13607816e-01, 1.43133223e-01, 2.75832019e-03, 2.15387763e-03,
          6.93124309e-02, 5.16642742e-02, 2.32851915e-02, 1.83845423e-02,
          5.10422774e-02, 1.70908850e-02, 2.69870963e-02, 4.40247133e-02,
          6.36840910e-02, 4.75984951e-03, 7.35569280e-03, 5.48505932e-02,
          2.08394527e-02, 7.90248450e-04, 1.16260827e-03, 2.61216164e-02,
          9.37822312e-02, 5.49746938e-02, 1.48433847e-02, 3.33036929e-02,
          2.50872634e-02, 9.51328722e-04, 1.39958854e-03, 3.14461179e-02,
          1.12898335e-01, 6.61804602e-02, 1.78689864e-02, 4.00921516e-02,
          3.48243304e-03, 1.33090885e-02, 3.19900513e-02, 1.49178673e-02,
          3.02305073e-02, 6.81092218e-02, 3.41961421e-02, 1.19542610e-02,
          6.60440512e-03, 2.52405759e-02, 6.06688671e-02, 2.82916091e-02,
          5.73319048e-02, 1.29168570e-01, 6.48526996e-02, 2.26711575e-02,
          3.41361738e-04, 1.75784808e-04, 2.84063251e-04, 9.94123329e-05,
          9.10215749e-05, 1.50807505e-03, 4.68545444e-02, 2.45387368e-02,
          9.14460281e-04, 4.70902858e-04, 7.60965631e-04, 2.66311719e-04,
          2.43834045e-04, 4.03992180e-03, 1.25516757e-01, 6.57358393e-02,
          7.71448994e-03, 2.66092597e-03, 9.90317436e-04, 1.17802829e-03,
          1.68074085e-03, 6.75417809e-03, 5.01674563e-02, 5.47873676e-02,
          4.53225058e-03, 1.56328978e-03, 5.81809960e-04, 6.92089729e-04,
          9.87432548e-04, 3.96806886e-03, 2.94733010e-02, 3.21874917e-02,
          2.17744410e-02, 9.96157248e-03, 2.11640224e-02, 1.53898463e-01,
          8.50692242e-02, 2.52305269e-02, 9.90141928e-02, 1.28805533e-01,
          8.80521443e-03, 4.02829051e-03, 8.55837110e-03, 6.22339211e-02,
          3.44005488e-02, 1.02027962e-02, 4.00396548e-02, 5.20867668e-02,
          2.87456084e-02, 4.15946208e-02, 3.39847282e-02, 7.50733986e-02,
          1.19690008e-01, 3.57858911e-02, 9.96609591e-03, 2.64123757e-03,
          1.79623719e-02, 2.59913802e-02, 2.12361608e-02, 4.69113812e-02,
          7.47911260e-02, 2.23616585e-02, 6.22755010e-03, 1.65043958e-03,
          7.82963783e-02, 9.86447409e-02, 1.90098258e-03, 1.48441212e-03,
          4.77688275e-02, 3.56060490e-02, 1.60477180e-02, 1.26702823e-02,
          6.34636134e-02, 1.32813016e-02, 4.24227118e-03, 2.97035789e-03,
          2.76871049e-03, 1.79612346e-03, 1.37694664e-02, 1.38601139e-01,
          5.82045596e-03, 4.10191496e-05, 1.44339295e-03, 1.89665668e-02,
          4.74258140e-02, 5.38144298e-02, 6.42710701e-02, 5.17110080e-02,
          7.00686872e-03, 4.93802909e-05, 1.73760706e-03, 2.28326172e-02,
          5.70928566e-02, 6.47836924e-02, 7.73717687e-02, 6.22515231e-02,
          5.33183329e-02, 5.52808084e-02, 2.59681642e-02, 2.33773682e-02,
          1.61938127e-02, 1.09588904e-02, 5.28445840e-03, 1.23780044e-02,
          1.01117767e-01, 1.04839586e-01, 4.92484085e-02, 4.43349816e-02,
          3.07114311e-02, 2.07834430e-02, 1.00219315e-02, 2.34747827e-02,
          2.99118226e-04, 1.07363369e-02, 2.36925893e-02, 5.36370166e-02,
          3.05389743e-02, 6.20671455e-03, 1.81134902e-02, 3.52070620e-03,
          8.01295799e-04, 2.87611429e-02, 6.34691343e-02, 1.43686056e-01,
          8.18096325e-02, 1.66269187e-02, 4.85235043e-02, 9.43147857e-03,
          2.61377227e-02, 9.96944378e-04, 5.23210852e-04, 2.00078730e-03,
          4.83590066e-02, 1.88055336e-02, 1.12342633e-01, 7.38424435e-02,
          1.53558711e-02, 5.85703237e-04, 3.07385519e-04, 1.17545936e-03,
          2.84108389e-02, 1.10482210e-02, 6.60011172e-02, 4.33823206e-02,
          3.50280590e-02, 1.04044648e-02, 4.93971631e-03, 1.53715368e-02,
          1.29379276e-02, 3.30792032e-02, 4.85998318e-02, 5.44685833e-02,
          1.41647523e-02, 4.20738850e-03, 1.99753721e-03, 6.21598819e-03,
          5.23187779e-03, 1.33766672e-02, 1.96529441e-02, 2.20261682e-02,
          2.21215673e-02, 9.87052396e-02, 8.56134444e-02, 6.05347231e-02,
          4.59532700e-02, 1.43480496e-02, 5.59037924e-03, 1.24229314e-02,
          1.38231833e-02, 6.16782978e-02, 5.34975789e-02, 3.78265493e-02,
          2.87149847e-02, 8.96571763e-03, 3.49328038e-03, 7.76276225e-03,
          8.60661566e-02, 1.66299269e-01, 1.43000325e-02, 2.37296056e-03,
          7.68296944e-04, 3.99353012e-05, 0., 4.83954931e-03,
          9.04280245e-02, 1.89242586e-02, 6.04472682e-03, 4.23240289e-03,
          3.94507963e-03, 2.55926000e-03, 1.96198337e-02, 1.97489977e-01,
          8.29345081e-03, 5.84473601e-05, 2.05666153e-03, 2.70250775e-02,
          6.75760880e-02, 7.66790956e-02, 9.15785506e-02, 7.36819729e-02,
          1.21472999e-02, 8.56070255e-05, 3.01236333e-03, 3.95832509e-02,
          9.89777371e-02, 1.12310790e-01, 1.34133816e-01, 1.07920952e-01,
          9.24341232e-02, 9.58363265e-02, 4.50191237e-02, 4.05276455e-02,
          2.80740391e-02, 1.89986322e-02, 9.16128233e-03, 2.14588493e-02,
          1.22805655e-01, 1.27325743e-01, 5.98112792e-02, 5.38440160e-02,
          3.72984633e-02, 2.52411067e-02, 1.21714501e-02, 2.85096876e-02,
          3.63273546e-04, 1.30390832e-02, 2.87742130e-02, 6.51411638e-02,
          3.70890200e-02, 7.53793959e-03, 2.19984986e-02, 4.27583279e-03,
          4.38333314e-04, 1.57332253e-02, 3.47195566e-02, 7.86006674e-02,
          4.47523743e-02, 9.09543317e-03, 2.65438408e-02, 5.15930774e-03,
          1.42981345e-02, 5.45359100e-04, 2.86212337e-04, 1.09449192e-03,
          2.64538564e-02, 1.02872020e-02, 6.14548586e-02, 4.03940752e-02,
          1.86233800e-02, 7.10332533e-04, 3.72792769e-04, 1.42558035e-03,
          3.44562605e-02, 1.33991241e-02, 8.00452158e-02, 5.26134595e-02,
          4.24815305e-02, 1.26183862e-02, 5.99081721e-03, 1.86423808e-02,
          1.56909339e-02, 4.01179828e-02, 5.89411817e-02, 6.60587177e-02,
          2.58150361e-02, 7.66789867e-03, 3.64047987e-03, 1.13285389e-02,
          9.53501370e-03, 2.43787616e-02, 3.58171798e-02, 4.01423424e-02,
          4.03162055e-02, 1.79888725e-01, 1.56029135e-01, 1.10323571e-01,
          8.37491006e-02, 2.61490922e-02, 1.01883775e-02, 2.26405952e-02,
          1.75421312e-02, 7.82720372e-02, 6.78904057e-02, 4.80032898e-02,
          3.64403762e-02, 1.13778263e-02, 4.43310197e-03, 9.85123217e-03,
          1.09221138e-01, 2.11039916e-01, 1.81472693e-02, 3.01137450e-03,
          9.74997238e-04, 5.06793731e-05, 0., 6.14156714e-03,
          1.35557011e-01, 3.97302881e-02, 1.21116266e-03, 3.03270482e-03,
          4.55497811e-03, 1.41256745e-03, 3.22049996e-03, 6.06529824e-02,
          1.08257607e-02, 6.15211530e-03, 2.33610603e-03, 9.45337769e-03,
          1.53277898e-02, 7.06880959e-03, 0., 9.27079748e-03,
          1.58563387e-02, 9.01091658e-03, 3.42166168e-03, 1.38462298e-02,
          2.24503987e-02, 1.03535857e-02, 0., 1.35788061e-02,
          2.98217055e-03, 3.51586076e-03, 4.61409101e-03, 1.02726407e-02,
          9.07541439e-03, 1.07739111e-02, 7.44685438e-03, 3.11926217e-03,
          3.96203715e-03, 4.67108469e-03, 6.13016542e-03, 1.36479735e-02,
          1.20573686e-02, 1.43139483e-02, 9.89370421e-03, 4.14417358e-03,
          8.76931474e-03, 4.06383649e-02, 2.39635538e-02, 5.36302812e-02,
          9.28620696e-02, 3.80451418e-02, 1.74016375e-02, 1.06428973e-02,
          1.05812354e-02, 4.90350872e-02, 2.89149173e-02, 6.47113994e-02,
          1.12049282e-01, 4.59060483e-02, 2.09971741e-02, 1.28419390e-02,
          2.61352453e-02, 3.71705294e-02, 3.59532200e-02, 5.08910455e-02,
          5.21600693e-02, 3.56121100e-02, 2.52659079e-02, 2.19178330e-02,
          3.40412706e-02, 4.84147742e-02, 4.68292236e-02, 6.62858039e-02,
          6.79387152e-02, 4.63849232e-02, 3.29089500e-02, 2.85480712e-02,
          6.08530652e-04, 4.59874660e-04, 3.47702007e-04, 1.34979235e-03,
          1.99282654e-02, 7.00972155e-02, 7.21809119e-02, 1.48786069e-03,
          3.69789894e-04, 2.79455096e-04, 2.11290404e-04, 8.20237328e-04,
          1.21099418e-02, 4.25964408e-02, 4.38626558e-02, 9.04138258e-04,
          5.95953548e-03, 1.35764934e-03, 4.34762891e-03, 9.00506321e-03,
          1.02935629e-02, 5.71489893e-03, 4.51799519e-02, 2.93778274e-02,
          2.59307516e-03, 5.90731739e-04, 1.89171277e-03, 3.91822588e-03,
          4.47886949e-03, 2.48663058e-03, 1.96584128e-02, 1.27826938e-02,
          1.30261511e-01, 1.90210536e-01, 5.95926074e-03, 8.99881634e-05,
          2.02217081e-04, 0., 5.30170728e-05, 2.42562173e-03,
          1.80950478e-01, 5.30346185e-02, 1.61674013e-03, 4.04825527e-03,
          6.08028658e-03, 1.88558863e-03, 4.29893658e-03, 8.09636191e-02,
          1.44509422e-02, 8.21225159e-03, 3.11838929e-03, 1.26189943e-02,
          2.04605497e-02, 9.43591539e-03, 0., 1.23752737e-02,
          4.78765666e-02, 2.72075273e-02, 1.03313522e-02, 4.18072492e-02,
          6.77866489e-02, 3.12615782e-02, 0., 4.09997925e-02,
          9.00435355e-03, 1.06157763e-02, 1.39317680e-02, 3.10171712e-02,
          2.74022724e-02, 3.25307064e-02, 2.24850029e-02, 9.41828825e-03,
          7.98348896e-03, 9.41221695e-03, 1.23522589e-02, 2.75006127e-02,
          2.42955498e-02, 2.88425498e-02, 1.99357737e-02, 8.35049339e-03,
          1.76701341e-02, 8.18861425e-02, 4.82864678e-02, 1.08064808e-01,
          1.87116697e-01, 7.66608045e-02, 3.50642316e-02, 2.14453973e-02,
          1.21095991e-02, 5.61177582e-02, 3.30914147e-02, 7.40583763e-02,
          1.28233775e-01, 5.25367595e-02, 2.40300242e-02, 1.46968402e-02,
          2.99102440e-02, 4.25394736e-02, 4.11463343e-02, 5.82417920e-02,
          5.96941188e-02, 4.07559536e-02, 2.89153364e-02, 2.50836648e-02,
          4.25717682e-02, 6.05471693e-02, 5.85642904e-02, 8.28965530e-02,
          8.49636719e-02, 5.80086522e-02, 4.11556996e-02, 3.57020125e-02,
          7.61024072e-04, 5.75115962e-04, 4.34833666e-04, 1.68804068e-03,
          2.49221455e-02, 8.76630768e-02, 9.02689323e-02, 1.86070800e-03,
          7.32066692e-04, 5.53232443e-04, 4.18287993e-04, 1.62380969e-03,
          2.39738449e-02, 8.43274444e-02, 8.68341476e-02, 1.78990699e-03,
          1.17979897e-02, 2.68771499e-03, 8.60692654e-03, 1.78271681e-02,
          2.03779899e-02, 1.13136871e-02, 8.94419700e-02, 5.81587814e-02,
          3.69738811e-03, 8.42306647e-04, 2.69733649e-03, 5.58688026e-03,
          6.38628565e-03, 3.54561186e-03, 2.80303415e-02, 1.82264596e-02,
          1.85735986e-01, 2.71215498e-01, 8.49713013e-03, 1.28311425e-04,
          2.88335257e-04, 0., 7.55954534e-05, 3.45862121e-03,
          2.51778483e-01, 1.74371395e-02, 9.15407669e-03, 9.12416354e-03,
          9.90366284e-03, 9.31085367e-03, 4.42799553e-02, 7.96631202e-02,
          1.72158703e-02, 1.50169106e-03, 0., 0., 9.84162180e-05,
          3.03968019e-03, 3.20582502e-02, 1.01883814e-01, 5.70368916e-02,
          4.97516431e-03, 0., 0., 3.26056994e-04, 1.00705856e-02,
          1.06210306e-01, 3.37545276e-01, 6.35174615e-03, 4.76644095e-03,
          4.09322139e-03, 3.50136799e-03, 1.68289393e-02, 1.05713233e-02,
          8.47581867e-03, 5.57087315e-03, 5.63161960e-03, 4.22604755e-03,
          3.62915406e-03, 3.10440175e-03, 1.49209648e-02, 9.37280338e-03,
          7.51487678e-03, 4.93927766e-03, 5.13999946e-02, 6.91808909e-02,
          2.00161934e-02, 2.11842973e-02, 4.50630262e-02, 2.02124044e-02,
          3.77078750e-03, 9.65614337e-04, 3.52251604e-02, 4.74106669e-02,
          1.37173869e-02, 1.45179043e-02, 3.08823418e-02, 1.38518531e-02,
          2.58417521e-03, 6.61749451e-04, 1.57566983e-02, 1.45708034e-02,
          3.03313765e-03, 2.07715668e-03, 2.04038117e-02, 3.94032337e-02,
          1.96304545e-02, 5.11193788e-03, 2.24267822e-02, 2.07388774e-02,
          4.31711692e-03, 2.95645301e-03, 2.90410984e-02, 5.60833029e-02,
          2.79403646e-02, 7.27590919e-03, 1.72826549e-04, 0.,
          8.76827457e-04, 2.45097578e-02, 5.39066680e-02, 5.60451187e-02,
          2.10827384e-02, 4.26017978e-05, 1.66250407e-04, 0.,
          8.43463640e-04, 2.35771481e-02, 5.18554896e-02, 5.39125688e-02,
          2.02805288e-02, 4.09807762e-05, 1.24656828e-02, 8.28672014e-03,
          2.17620973e-02, 2.10895427e-02, 1.91841871e-02, 1.57076687e-01,
          1.76748231e-01, 1.22454129e-02, 3.90663696e-03, 2.59698648e-03,
          6.82005333e-03, 6.60928013e-03, 6.01215847e-03, 4.92264740e-02,
          5.53913675e-02, 3.83760664e-03, 6.03700615e-02, 1.05280645e-01,
          1.51730627e-02, 1.01942373e-02, 6.15727482e-03, 2.34645233e-02,
          7.34191164e-02, 3.31283957e-02, 1.99679315e-01, 1.38289658e-02,
          7.25987228e-03, 7.23614916e-03, 7.85435084e-03, 7.38420850e-03,
          3.51173431e-02, 6.31788597e-02, 1.36534832e-02, 1.19095412e-03,
          0., 0., 7.80514820e-05, 2.41069542e-03, 2.54246090e-02,
          8.08015391e-02, 3.24533395e-02, 2.83081178e-03, 0., 0.,
          1.85522716e-04, 5.73004829e-03, 6.04324527e-02, 1.92059413e-01,
          3.61407106e-03, 2.71205045e-03, 2.32899608e-03, 1.99223845e-03,
          9.57547408e-03, 6.01496221e-03, 4.82264441e-03, 3.16976313e-03,
          6.52545551e-03, 4.89679491e-03, 4.20516403e-03, 3.59712448e-03,
          1.72891822e-02, 1.08604310e-02, 8.70761834e-03, 5.72322682e-03,
          5.95580675e-02, 8.01611021e-02, 2.31931135e-02, 2.45466139e-02,
          5.22153117e-02, 2.34204661e-02, 4.36927704e-03, 1.11887418e-03,
          6.87292740e-02, 9.25049260e-02, 2.67645661e-02, 2.83264890e-02,
          6.02558255e-02, 2.70269290e-02, 5.04209194e-03, 1.29116699e-03,
          3.07435524e-02, 2.84297019e-02, 5.91808138e-03, 4.05282713e-03,
          3.98107283e-02, 7.68812969e-02, 3.83017957e-02, 9.97411553e-03,
          3.10038626e-02, 2.86704209e-02, 5.96819073e-03, 4.08714311e-03,
          4.01478112e-02, 7.75322616e-02, 3.86261046e-02, 1.00585679e-02,
          2.38923749e-04, 0., 1.21216848e-03, 3.38834710e-02,
          7.45231733e-02, 7.74794742e-02, 2.91457921e-02, 5.88947769e-05,
          1.55686444e-04, 0., 7.89867889e-04, 2.20789984e-02,
          4.85604629e-02, 5.04868329e-02, 1.89918540e-02, 3.83767583e-05,
          1.16735827e-02, 7.76016153e-03, 2.03792807e-02, 1.97494607e-02,
          1.79651771e-02, 1.47095650e-01, 1.65517211e-01, 1.14673097e-02,
          4.14225599e-03, 2.75361701e-03, 7.23138778e-03, 7.00790249e-03,
          6.37476658e-03, 5.21954447e-02, 5.87321594e-02, 4.06906195e-03,
          6.40111268e-02, 1.11630380e-01, 1.60881877e-02, 1.08090769e-02,
          6.52863551e-03, 2.48797275e-02, 7.78472051e-02, 3.51264514e-02,
          1.98279917e-01, 1.63814402e-03, 0., 0., 6.68487104e-04,
          5.33527054e-04, 3.33717372e-03, 1.50469676e-01, 4.72314060e-02,
          5.66821508e-02, 3.62450723e-03, 8.13731400e-04, 9.43829946e-04,
          1.52737051e-02, 3.87119912e-02, 1.66933369e-02, 1.12265632e-01,
          1.34729370e-01, 8.61519109e-03, 1.93418062e-03, 2.24341545e-03,
          3.63044925e-02, 9.20155942e-02, 3.96788493e-02, 1.23186186e-02,
          1.63401701e-02, 6.57012779e-03, 1.22610629e-02, 2.59378068e-02,
          3.52719463e-02, 1.06389560e-01, 2.92022042e-02, 2.22421177e-02,
          2.95033101e-02, 1.18628200e-02, 2.21381970e-02, 4.68325056e-02,
          6.36859462e-02, 1.92093715e-01, 5.27266003e-02, 7.63159096e-02,
          4.17949036e-02, 8.89738277e-03, 7.48424139e-03, 3.23881209e-02,
          1.88195240e-02, 1.71275046e-02, 2.56994534e-02, 8.80676210e-02,
          4.82308045e-02, 1.02674700e-02, 8.63672234e-03, 3.73754948e-02,
          2.17174999e-02, 1.97649300e-02, 2.96568535e-02, 1.71995144e-02,
          1.47107495e-02, 1.61691532e-02, 6.35344088e-02, 3.01878210e-02,
          2.92738224e-03, 1.29374480e-02, 3.45627517e-02, 1.73451453e-02,
          1.48353074e-02, 1.63060594e-02, 6.40723631e-02, 3.04434262e-02,
          2.95216893e-03, 1.30469920e-02, 3.48553993e-02, 1.40317464e-02,
          1.15918899e-02, 1.03845648e-01, 1.19879305e-01, 9.66968015e-03,
          3.64476405e-02, 3.07211112e-02, 2.73198131e-02, 9.14330501e-03,
          7.55345635e-03, 6.76674396e-02, 7.81152248e-02, 6.30091457e-03,
          2.37498507e-02, 2.00183559e-02, 1.78020168e-02, 3.11092846e-02,
          4.85551171e-02, 4.78626601e-02, 3.93398702e-02, 4.67343052e-04,
          2.38154642e-03, 1.46683184e-02, 4.25554663e-02, 1.10388240e-02,
          1.72293056e-02, 1.69835947e-02, 1.39593668e-02, 1.65832098e-04,
          8.45068367e-04, 5.20490855e-03, 1.51003897e-02, 2.65755296e-01,
          8.17423835e-02, 1.60533115e-02, 1.49309461e-03, 1.42342280e-04,
          7.46828597e-03, 2.35680658e-02, 3.38224880e-02, 1.67212456e-01,
          1.38147164e-03, 0., 0., 5.63745270e-04, 4.49931453e-04,
          2.81428918e-03, 1.26893356e-01, 3.98309603e-02, 4.78009172e-02,
          3.05660185e-03, 6.86232001e-04, 7.95946107e-04, 1.28805470e-02,
          3.26464064e-02, 1.40777426e-02, 5.31376228e-02, 6.37701750e-02,
          4.07774653e-03, 9.15487297e-04, 1.06185453e-03, 1.71836596e-02,
          4.35528681e-02, 1.87808126e-02, 5.83065441e-03, 7.73413759e-03,
          3.10977595e-03, 5.80341229e-03, 1.22768953e-02, 1.66949350e-02,
          5.03563583e-02, 1.38220014e-02, 8.65010079e-03, 1.14740236e-02,
          4.61352570e-03, 8.60968512e-03, 1.82134584e-02, 2.47678664e-02,
          7.47064576e-02, 2.05057096e-02, 2.96797398e-02, 1.62543021e-02,
          3.46024847e-03, 2.91066873e-03, 1.25959460e-02, 7.31903221e-03,
          6.66099507e-03, 9.99468099e-03, 3.20275165e-02, 1.75400767e-02,
          3.73396650e-03, 3.14091332e-03, 1.35923307e-02, 7.89799448e-03,
          7.18790386e-03, 1.07852956e-02, 6.25494029e-03, 5.34985214e-03,
          5.88022918e-03, 2.31055319e-02, 1.09783923e-02, 1.06459996e-03,
          4.70495643e-03, 1.25694210e-02, 5.47889201e-03, 4.68609808e-03,
          5.15067112e-03, 2.02388372e-02, 9.61630698e-03, 9.32515424e-04,
          4.12121415e-03, 1.10099381e-02, 4.43227356e-03, 3.66158457e-03,
          3.28022093e-02, 3.78668383e-02, 3.05440719e-03, 1.15128858e-02,
          9.70402081e-03, 8.62963777e-03, 3.45323817e-03, 2.85278517e-03,
          2.55565997e-02, 2.95025147e-02, 2.37972569e-03, 8.96982942e-03,
          7.56052090e-03, 6.72345562e-03, 1.17493365e-02, 1.83382686e-02,
          1.80767421e-02, 1.48578594e-02, 1.76505855e-04, 8.99461040e-04,
          5.53992204e-03, 1.60723235e-02, 8.31043255e-03, 1.29708545e-02,
          1.27858734e-02, 1.05091240e-02, 1.24844490e-04, 6.36198441e-04,
          3.91844613e-03, 1.13681275e-02, 2.00070336e-01, 6.15386702e-02,
          1.20855225e-02, 1.12405641e-03, 1.07160500e-04, 5.62239951e-03,
          1.77429058e-02, 2.54628100e-02, 1.06560841e-01, 1.95737608e-04,
          0., 0., 0., 0., 6.79823337e-03, 1.04907848e-01, 4.20411751e-02,
          6.48107827e-02, 5.96370995e-02, 1.00351363e-01, 2.37923134e-02,
          1.53957885e-02, 1.09855961e-02, 1.34324776e-02, 5.60862273e-02,
          8.64626691e-02, 7.95605704e-02, 1.33876577e-01, 3.17408107e-02,
          2.05391888e-02, 1.46556469e-02, 1.79199781e-02, 3.87499593e-02,
          2.73804292e-02, 1.62346195e-02, 2.24629529e-02, 1.80675089e-02,
          2.07173061e-02, 4.78503220e-02, 4.95867915e-02, 5.74877225e-02,
          4.06203903e-02, 2.40849629e-02, 3.33250426e-02, 2.68041566e-02,
          3.07352785e-02, 7.09886178e-02, 7.35647678e-02, 3.57731320e-02,
          7.74302939e-03, 3.14041926e-03, 1.42996479e-02, 1.17037505e-01,
          1.16384536e-01, 6.28332496e-02, 2.47610733e-02, 3.86029184e-02,
          8.35553091e-03, 3.38883768e-03, 1.54308015e-02, 1.26295596e-01,
          1.25590965e-01, 6.78035840e-02, 2.67197620e-02, 8.57458729e-03,
          2.17165761e-02, 1.01598419e-01, 1.82224080e-01, 9.23943371e-02,
          1.28809875e-02, 2.60915770e-03, 0., 7.51074124e-03,
          1.90222096e-02, 8.89931396e-02, 1.59615606e-01, 8.09310079e-02,
          1.12828482e-02, 2.28544045e-03, 0., 3.66232917e-02,
          4.16302271e-02, 7.92886540e-02, 1.15287313e-02, 3.56712118e-02,
          1.34426609e-01, 4.83504497e-02, 6.99414462e-02, 2.85336524e-02,
          3.24346162e-02, 6.17747568e-02, 8.98217410e-03, 2.77918763e-02,
          1.04733400e-01, 3.76704223e-02, 5.44922315e-02, 7.00685829e-02,
          4.09113541e-02, 2.24678107e-02, 2.52271611e-02, 6.54496625e-02,
          1.48385763e-01, 5.24373800e-02, 4.59300764e-02, 4.95602638e-02,
          2.89370399e-02, 1.58917252e-02, 1.78434420e-02, 4.62932512e-02,
          1.04954846e-01, 3.70895229e-02, 3.24868374e-02, 1.43600598e-01,
          9.39632207e-02, 1.77632493e-03, 2.03871611e-03, 1.85926922e-03,
          2.84861482e-04, 1.02374330e-02, 2.88048945e-02 ]
      - [ 1.24265894e-01, 5.22494465e-02, 7.47874454e-02, 1.77175533e-02,
          1.13348681e-02, 1.99970952e-03, 1.82063263e-02, 6.28471375e-02,
          2.27018371e-02, 1.85631141e-02, 2.12390535e-02, 7.47365691e-03,
          3.72521317e-05, 1.32099940e-05, 3.78506025e-04, 3.05996835e-03,
          2.62440536e-02, 2.14595571e-02, 2.45530289e-02, 8.63978826e-03,
          4.30646614e-05, 1.52711782e-05, 4.37565148e-04, 3.53742205e-03,
          8.12754035e-02, 6.35236278e-02, 3.37782539e-02, 2.71515846e-02,
          2.66455542e-02, 4.68143225e-02, 4.97679785e-02, 7.11878464e-02,
          5.68549000e-02, 4.44369279e-02, 2.36290339e-02, 1.89934541e-02,
          1.86394677e-02, 3.27482074e-02, 3.48143876e-02, 4.97983135e-02,
          6.58886321e-03, 2.30947812e-03, 2.87487725e-04, 4.09389671e-04,
          9.87671549e-04, 3.39545135e-04, 7.61676766e-03, 2.15458442e-02,
          1.39542529e-02, 4.89113852e-03, 6.08857197e-04, 8.67027731e-04,
          2.09174445e-03, 7.19107164e-04, 1.61312055e-02, 4.56309617e-02,
          3.55743710e-03, 1.29987847e-03, 4.00094614e-05, 4.23727673e-04,
          1.37561618e-03, 1.73079642e-03, 4.28332249e-03, 3.58297187e-03,
          1.39186224e-02, 5.08582965e-03, 1.56538707e-04, 1.65785232e-03,
          5.38215647e-03, 6.77181408e-03, 1.67586803e-02, 1.40185291e-02,
          1.10052312e-02, 3.47077125e-03, 2.03341385e-03, 4.15713200e-03,
          4.87333816e-03, 8.09660368e-03, 3.73596512e-02, 5.62536530e-02,
          1.52198114e-02, 4.79994295e-03, 2.81213317e-03, 5.74915390e-03,
          6.73963921e-03, 1.11972922e-02, 5.16669601e-02, 7.77966380e-02,
          2.90318532e-03, 7.46407663e-04, 2.66511081e-04, 0.,
          2.85162227e-09, 2.23342679e-03, 4.75868098e-02, 7.99797699e-02,
          9.27874644e-04, 2.38556153e-04, 8.51784571e-05, 0.,
          9.11394793e-10, 7.13815971e-04, 1.52090164e-02, 2.55619902e-02,
          1.42068760e-02, 1.20589440e-03, 5.18639688e-04, 1.30787445e-03,
          1.90322787e-01, 1.08558558e-01, 2.34661981e-01, 1.65449768e-01,
          2.84261912e-01, 1.16220517e-02, 1.02076512e-02, 1.01801073e-02,
          3.09362402e-03, 7.65549671e-03, 3.98849836e-03, 2.06961572e-01,
          9.81541350e-03, 5.23583777e-03, 1.37040776e-03, 1.26372863e-04,
          8.89568691e-05, 3.35702527e-04, 1.03758730e-03, 7.14369817e-03,
          1.13469344e-02, 6.05279719e-03, 1.58423546e-03, 1.46091101e-04,
          1.02837002e-04, 3.88082903e-04, 1.19948434e-03, 8.25834554e-03,
          4.57663722e-02, 3.75782661e-02, 3.35719995e-02, 3.47169265e-02,
          9.44751501e-02, 5.17043211e-02, 6.96431249e-02, 1.18390769e-01,
          3.20151299e-02, 2.62872707e-02, 2.34847516e-02, 2.42856666e-02,
          6.60885721e-02, 3.61689255e-02, 4.87177260e-02, 8.28183591e-02,
          3.40213031e-02, 9.49850827e-02, 5.31968921e-02, 1.72072519e-02,
          2.77520921e-02, 4.83706966e-02, 3.73339206e-02, 2.72668041e-02,
          7.20521659e-02, 2.01164573e-01, 1.12663276e-01, 3.64424549e-02,
          5.87748960e-02, 1.02442093e-01, 7.90678114e-02, 5.77471219e-02,
          1.68323494e-03, 6.48723159e-04, 0., 2.45319605e-02,
          3.82858776e-02, 4.52934317e-02, 5.92868589e-02, 8.72750208e-03,
          6.58572745e-03, 2.53815670e-03, 0., 9.59823281e-02,
          1.49795100e-01, 1.77212462e-01, 2.31962338e-01, 3.41467187e-02,
          4.28660773e-03, 2.31572916e-03, 3.89336352e-03, 2.73042289e-03,
          2.10407632e-03, 2.69631222e-02, 6.24379516e-02, 6.04609493e-03,
          5.92821371e-03, 3.20256432e-03, 5.38437208e-03, 3.77606996e-03,
          2.90985662e-03, 3.72889601e-02, 8.63492861e-02, 8.36151745e-03,
          6.08541295e-02, 4.85205231e-03, 3.84793500e-03, 4.84437589e-03,
          2.67519290e-03, 1.21182427e-02, 2.13984370e-01, 2.33925238e-01,
          1.94493271e-02, 1.55074359e-03, 1.22982205e-03, 1.54829014e-03,
          8.55006918e-04, 3.87305976e-03, 6.83906302e-02, 7.47638419e-02,
          4.22355756e-02, 9.68422554e-03, 2.06624810e-03, 2.87817762e-04,
          4.40369709e-04, 2.46855343e-04, 4.70470591e-03, 9.70475469e-03,
          2.20686093e-01, 9.02275369e-03, 7.92468712e-03, 7.90330302e-03,
          2.40172818e-03, 5.94332721e-03, 3.09646176e-03, 1.60674140e-01,
          7.62017397e-03, 4.06483095e-03, 1.06391299e-03, 9.81092890e-05,
          6.90614615e-05, 2.60621891e-04, 8.05528543e-04, 5.54599380e-03,
          1.20896986e-02, 6.44901022e-03, 1.68793881e-03, 1.55654154e-04,
          1.09568660e-04, 4.13486647e-04, 1.27800193e-03, 8.79893266e-03,
          4.87622172e-02, 4.00381200e-02, 3.57696041e-02, 3.69894803e-02,
          1.00659445e-01, 5.50888628e-02, 7.42019340e-02, 1.26140565e-01,
          3.56389098e-02, 2.92627178e-02, 2.61429809e-02, 2.70345528e-02,
          7.35691115e-02, 4.02628742e-02, 5.42320684e-02, 9.21925306e-02,
          3.78721580e-02, 1.05736405e-01, 5.92182241e-02, 1.91549323e-02,
          3.08933407e-02, 5.38457558e-02, 4.15597335e-02, 3.03531233e-02,
          6.28286824e-02, 1.75413266e-01, 9.82411206e-02, 3.17774154e-02,
          5.12510538e-02, 8.93283635e-02, 6.89462498e-02, 5.03548495e-02,
          1.46776205e-03, 5.65679336e-04, 0., 2.13915966e-02,
          3.33848558e-02, 3.94953676e-02, 5.16974777e-02, 7.61028426e-03,
          2.77375919e-03, 1.06901408e-03, 0., 4.04255837e-02,
          6.30903021e-02, 7.46378750e-02, 9.76972803e-02, 1.43818241e-02,
          1.80542213e-03, 9.75332689e-04, 1.63979654e-03, 1.14999223e-03,
          8.86189286e-04, 1.13562560e-02, 2.62974501e-02, 2.54647830e-03,
          1.95049413e-03, 1.05370407e-03, 1.77155994e-03, 1.24239817e-03,
          9.57397686e-04, 1.22687714e-02, 2.84105446e-02, 2.75109685e-03,
          2.00221557e-02, 1.59641670e-03, 1.26604317e-03, 1.59389095e-03,
          8.80188891e-04, 3.98713071e-03, 7.04048946e-02, 7.69658163e-02,
          2.33770646e-02, 1.86391198e-03, 1.47818110e-03, 1.86096295e-03,
          1.02767313e-03, 4.65521310e-03, 8.22019279e-02, 8.98621976e-02,
          5.07649295e-02, 1.16399275e-02, 2.48352089e-03, 3.45941749e-04,
          5.29301120e-04, 2.96707090e-04, 5.65480813e-03, 1.16646020e-02,
          2.07935885e-01, 1.06744636e-02, 2.16003554e-03, 3.25549161e-04,
          1.33159047e-03, 3.22210812e-03, 5.19543421e-03, 2.21750483e-01,
          1.92468222e-02, 1.61573552e-02, 6.01389958e-03, 5.09014819e-03,
          5.56934718e-03, 2.44276016e-03, 1.06493393e-02, 4.50539142e-02,
          3.05358227e-02, 2.56342664e-02, 9.54128243e-03, 8.07571597e-03,
          8.83598346e-03, 3.87553289e-03, 1.68955866e-02, 7.14797601e-02,
          2.04690602e-02, 2.48119887e-02, 2.96178851e-02, 3.01620606e-02,
          9.33141820e-03, 4.34947498e-02, 4.36511263e-02, 7.49551728e-02,
          1.49602508e-02, 1.81343723e-02, 2.16468647e-02, 2.20445879e-02,
          6.82006637e-03, 3.17890681e-02, 3.19033600e-02, 5.47825918e-02,
          1.12683023e-03, 4.52384120e-03, 2.13107443e-03, 1.71006122e-03,
          9.77084599e-03, 1.31542534e-02, 5.95070515e-03, 2.58186413e-03,
          1.86937489e-03, 7.50490651e-03, 3.53538361e-03, 2.83693615e-03,
          1.62095185e-02, 2.18224805e-02, 9.87202674e-03, 4.28322889e-03,
          7.56059599e-04, 0., 2.65337178e-04, 2.12886985e-02,
          3.05554960e-02, 5.67657985e-02, 3.76687646e-02, 1.01194764e-03,
          1.42879237e-03, 0., 5.01431059e-04, 4.02311310e-02,
          5.77434115e-02, 1.07275330e-01, 7.11859763e-02, 1.91236648e-03,
          2.89137452e-03, 2.05126940e-04, 2.42255325e-03, 1.62225347e-02,
          2.50699110e-02, 2.64398038e-01, 6.43124655e-02, 3.46698426e-03,
          3.12370667e-03, 2.21609618e-04, 2.61721388e-03, 1.75260734e-02,
          2.70843673e-02, 2.85643339e-01, 6.94801956e-02, 3.74556868e-03,
          4.92631607e-02, 6.17527403e-03, 6.12433394e-03, 5.47488360e-03,
          8.80296994e-03, 1.47374034e-01, 6.06603734e-02, 7.95603320e-02,
          5.75176850e-02, 7.21000182e-03, 7.15052616e-03, 6.39225403e-03,
          1.02779930e-02, 1.72068000e-01, 7.08246157e-02, 9.28914398e-02,
          5.78148402e-02, 2.70467140e-02, 4.80292039e-03, 7.59021903e-04,
          1.40498416e-03, 1.47896037e-02, 1.18054226e-01, 6.12883158e-02,
          1.66548327e-01, 8.54981784e-03, 1.73010188e-03, 2.60751869e-04,
          1.06655073e-03, 2.58077960e-03, 4.16133460e-03, 1.77613258e-01,
          1.54159339e-02, 1.29413959e-02, 4.81689256e-03, 4.07700520e-03,
          4.46082419e-03, 1.95655320e-03, 8.52969475e-03, 3.60863805e-02,
          2.61942931e-02, 2.19896305e-02, 8.18471983e-03, 6.92752469e-03,
          7.57969869e-03, 3.32451635e-03, 1.44934012e-02, 6.13168925e-02,
          1.75588056e-02, 2.12842636e-02, 2.54068654e-02, 2.58736722e-02,
          8.00469331e-03, 3.73107418e-02, 3.74448858e-02, 6.42981753e-02,
          4.11799029e-02, 4.99170572e-02, 5.95856160e-02, 6.06803969e-02,
          1.87730584e-02, 8.75032619e-02, 8.78178626e-02, 1.50795713e-01,
          3.10173677e-03, 1.24524217e-02, 5.86604048e-03, 4.70715063e-03,
          2.68954374e-02, 3.62086743e-02, 1.63800362e-02, 7.10689370e-03,
          1.80216320e-03, 7.23507395e-03, 3.40827205e-03, 2.73493677e-03,
          1.56267192e-02, 2.10378729e-02, 9.51708667e-03, 4.12922911e-03,
          7.28876155e-04, 0., 2.55797233e-04, 2.05232818e-02,
          2.94568986e-02, 5.47248349e-02, 3.63144167e-02, 9.75563889e-04,
          3.96583229e-04, 0., 1.39179872e-04, 1.11667663e-02,
          1.60275679e-02, 2.97759101e-02, 1.97587591e-02, 5.30806603e-04,
          8.02545226e-04, 5.69361218e-05, 6.72416703e-04, 4.50281287e-03,
          6.95853774e-03, 7.33877197e-02, 1.78509094e-02, 9.62314545e-04,
          7.57126487e-04, 5.37139131e-05, 6.34362339e-04, 4.24798345e-03,
          6.56473031e-03, 6.92344606e-02, 1.68406647e-02, 9.07853886e-04,
          1.19404439e-02, 1.49676774e-03, 1.48442085e-03, 1.32700661e-03,
          2.13367073e-03, 3.57206352e-02, 1.47029096e-02, 1.92838944e-02,
          2.00777072e-02, 2.51679635e-03, 2.49603530e-03, 2.23134505e-03,
          3.58774071e-03, 6.00638017e-02, 2.47227587e-02, 3.24256308e-02,
          2.01814361e-02, 9.44120064e-03, 1.67655607e-03, 2.64951901e-04,
          4.90438018e-04, 5.16260928e-03, 4.12092060e-02, 2.13939212e-02,
          8.72355476e-02, 7.26095261e-03, 1.77756115e-03, 1.41400332e-03,
          2.26164400e-03, 1.06309389e-03, 4.62851021e-03, 1.22315362e-01,
          7.62870982e-02, 1.71704479e-02, 6.74621714e-03, 6.29759161e-03,
          9.78626683e-03, 1.90111939e-02, 8.83250609e-02, 9.76237282e-02,
          1.29624754e-01, 2.91755106e-02, 1.14629697e-02, 1.07006785e-02,
          1.66285299e-02, 3.23032513e-02, 1.50079295e-01, 1.65879309e-01,
          3.48155317e-03, 7.67696707e-04, 4.11930232e-04, 3.50275077e-04,
          4.22833371e-04, 1.48684718e-03, 2.62411945e-02, 3.37904505e-02,
          8.16513505e-03, 1.80044572e-03, 9.66082094e-04, 8.21484951e-04,
          9.91652720e-04, 3.48703796e-03, 6.15423322e-02, 7.92472735e-02,
          2.21084966e-03, 0., 0., 1.43464911e-03, 3.79700959e-02,
          7.12876767e-02, 5.34543060e-02, 7.64976488e-03, 1.28454226e-03,
          0., 0., 8.33556172e-04, 2.20612884e-02, 4.14193831e-02,
          3.10578849e-02, 4.44464665e-03, 4.03257348e-02, 1.12104099e-02,
          5.99580295e-02, 1.30268723e-01, 1.69543162e-01, 1.09347522e-01,
          7.38807321e-02, 9.58935022e-02, 2.19413247e-02, 6.09961012e-03,
          3.26233059e-02, 7.08795115e-02, 9.22488272e-02, 5.94962426e-02,
          4.01986800e-02, 5.21758795e-02, 5.11491299e-02, 7.83099309e-02,
          3.69961374e-02, 4.88440469e-02, 9.85849425e-02, 5.34069091e-02,
          5.61954826e-02, 1.78602897e-02, 4.82544266e-02, 7.38781095e-02,
          3.49023975e-02, 4.60797921e-02, 9.30056870e-02, 5.03844284e-02,
          5.30151874e-02, 1.68495141e-02, 2.53126193e-02, 5.94013259e-02,
          1.83254313e-02, 1.14998091e-02, 1.58762589e-01, 6.32001609e-02,
          2.79079434e-02, 3.18899155e-02, 4.25628573e-02, 9.98825878e-02,
          3.08139846e-02, 1.93367861e-02, 2.66957313e-01, 1.06270291e-01,
          4.69268598e-02, 5.36224954e-02, 2.14114157e-03, 1.80070323e-03,
          1.98138016e-03, 2.44640606e-03, 2.90942821e-03, 4.93763201e-03,
          2.94433963e-02, 4.00246456e-02, 1.17254093e-01, 9.75951273e-03,
          2.38923612e-03, 1.90057466e-03, 3.03989626e-03, 1.42891414e-03,
          6.22122269e-03, 1.64405197e-01, 1.02538183e-01, 2.30789557e-02,
          9.06765182e-03, 8.46465025e-03, 1.31538101e-02, 2.55531184e-02,
          1.18718512e-01, 1.31216943e-01, 1.34808570e-01, 3.03422660e-02,
          1.19213844e-02, 1.11286091e-02, 1.72935221e-02, 3.35950889e-02,
          1.56081095e-01, 1.72512978e-01, 3.62078380e-03, 7.98397639e-04,
          4.28403699e-04, 3.64282925e-04, 4.39742900e-04, 1.54630758e-03,
          2.72906031e-02, 3.51417623e-02, 1.00048240e-02, 2.20610457e-03,
          1.18375034e-03, 1.00657390e-03, 1.21508236e-03, 4.27270355e-03,
          7.54084513e-02, 9.71025005e-02, 2.70897686e-03, 0., 0.,
          1.75789034e-03, 4.65251505e-02, 8.73495191e-02, 6.54981136e-02,
          9.37333517e-03, 1.09213276e-03, 0., 0., 7.08699110e-04,
          1.87567640e-02, 3.52152400e-02, 2.64057741e-02, 3.77889024e-03,
          3.42854075e-02, 9.53122042e-03, 5.09770140e-02, 1.10755980e-01,
          1.44147560e-01, 9.29685384e-02, 6.28142580e-02, 8.15297738e-02,
          1.71044972e-02, 4.75498894e-03, 2.54317001e-02, 5.52545637e-02,
          7.19131455e-02, 4.63806652e-02, 3.13371308e-02, 4.06740308e-02,
          3.98736224e-02, 6.10469952e-02, 2.88405679e-02, 3.80766764e-02,
          7.68525079e-02, 4.16336842e-02, 4.38075364e-02, 1.39230993e-02,
          3.83247845e-02, 5.86757027e-02, 2.77202930e-02, 3.65976393e-02,
          7.38672689e-02, 4.00164798e-02, 4.21058908e-02, 1.33822747e-02,
          2.01038700e-02, 4.71779108e-02, 1.45544829e-02, 9.13341437e-03,
          1.26092926e-01, 5.01950346e-02, 2.21651364e-02, 2.53277104e-02,
          3.56043056e-02, 8.35529044e-02, 2.57762428e-02, 1.61754377e-02,
          2.23312780e-01, 8.88962820e-02, 3.92548442e-02, 4.48558182e-02,
          1.79108884e-03, 1.50630844e-03, 1.65744673e-03, 2.04644608e-03,
          2.43376917e-03, 4.13038442e-03, 2.46297289e-02, 3.34810652e-02,
          1.38361882e-02, 1.99372633e-04, 1.69003888e-05, 1.36337709e-03,
          2.59779347e-03, 9.54615697e-03, 2.50907484e-02, 4.76341285e-02,
          4.55123857e-02, 2.06100605e-02, 4.04037070e-03, 3.17939604e-03,
          7.50585878e-03, 6.51690224e-03, 1.77239161e-02, 5.64360619e-02,
          5.98358512e-02, 2.70963721e-02, 5.31193893e-03, 4.18000203e-03,
          9.86807048e-03, 8.56787432e-03, 2.33019125e-02, 7.41973817e-02,
          1.14918668e-02, 2.19237860e-02, 2.76482441e-02, 3.34219933e-02,
          6.85196882e-03, 1.19095594e-02, 2.58424133e-02, 1.12369126e-02,
          3.17539275e-02, 6.05790429e-02, 7.63966665e-02, 9.23504904e-02,
          1.89331230e-02, 3.29080820e-02, 7.14068636e-02, 3.10494471e-02,
          3.04833916e-03, 2.22602603e-03, 6.07779424e-04, 1.64503395e-03,
          4.52931644e-03, 1.57238171e-02, 1.10491998e-01, 4.07369621e-02,
          1.22894777e-03, 8.97429592e-04, 2.45028234e-04, 6.63200684e-04,
          1.82600843e-03, 6.33910717e-03, 4.45452072e-02, 1.64232366e-02,
          7.85641081e-04, 9.58675228e-04, 6.92015165e-04, 2.57369364e-03,
          6.09081378e-03, 5.77976257e-02, 1.51604027e-01, 3.43621373e-02,
          3.91945039e-04, 4.78269270e-04, 3.45236418e-04, 1.28397869e-03,
          3.03861941e-03, 2.88344044e-02, 7.56330714e-02, 1.71427764e-02,
          7.61277974e-03, 3.14116590e-02, 2.53897831e-02, 4.53825369e-02,
          7.84331262e-02, 2.52105109e-02, 1.85917988e-02, 3.91401025e-03,
          7.31707131e-03, 3.01915165e-02, 2.44035516e-02, 4.36197110e-02,
          7.53864944e-02, 2.42312420e-02, 1.78696234e-02, 3.76197556e-03,
          6.12303242e-03, 3.36566567e-02, 6.68081716e-02, 1.64748766e-02,
          2.13958742e-03, 1.18845538e-03, 4.18492797e-04, 9.68566746e-04,
          1.08439978e-02, 5.96065298e-02, 1.18318439e-01, 2.91772950e-02,
          3.78924678e-03, 2.10477528e-03, 7.41158030e-04, 1.71534868e-03,
          1.90302674e-02, 5.64325489e-02, 3.09121348e-02, 1.24562625e-02,
          9.26788244e-03, 5.41500654e-03, 5.68010425e-03, 5.40406629e-03,
          2.36557983e-02, 3.40868341e-04, 2.88946740e-05, 2.33097235e-03,
          4.44146013e-03, 1.63211096e-02, 4.28977720e-02, 8.14402997e-02,
          7.78127462e-02, 3.52371186e-02, 6.90784119e-03, 5.43582859e-03,
          1.28328027e-02, 1.11419791e-02, 3.03026643e-02, 9.64890048e-02,
          5.88566028e-02, 2.66529247e-02, 5.22500603e-03, 4.11159405e-03,
          9.70657356e-03, 8.42765532e-03, 2.29205638e-02, 7.29830936e-02,
          1.13037955e-02, 2.15649903e-02, 2.71957647e-02, 3.28750238e-02,
          6.73983246e-03, 1.17146531e-02, 2.54194885e-02, 1.10530145e-02,
          1.90521237e-02, 3.63469832e-02, 4.58374396e-02, 5.54096177e-02,
          1.13597345e-02, 1.97446086e-02, 4.28435951e-02, 1.86294410e-02,
          1.82898110e-03, 1.33559934e-03, 3.64663167e-04, 9.87008214e-04,
          2.71755666e-03, 9.43417475e-03, 6.62943870e-02, 2.44418792e-02,
          1.95943424e-03, 1.43086177e-03, 3.90672998e-04, 1.05740724e-03,
          2.91138794e-03, 1.01070730e-02, 7.10228756e-02, 2.61852108e-02,
          1.25262619e-03, 1.52851176e-03, 1.10334903e-03, 4.10349714e-03,
          9.71119385e-03, 9.21525359e-02, 2.41717473e-01, 5.47869951e-02,
          8.15763837e-04, 9.95432376e-04, 7.18548195e-04, 2.67237308e-03,
          6.32434571e-03, 6.00136817e-02, 1.57416776e-01, 3.56796384e-02,
          1.58446450e-02, 6.53777793e-02, 5.28443158e-02, 9.44556743e-02,
          1.63244590e-01, 5.24711907e-02, 3.86955179e-02, 8.14631581e-03,
          1.73992347e-02, 7.17922822e-02, 5.80291040e-02, 1.03723139e-01,
          1.79261237e-01, 5.76193705e-02, 4.24921066e-02, 8.94558616e-03,
          1.45599348e-02, 8.00320283e-02, 1.58862874e-01, 3.91755439e-02,
          5.08771650e-03, 2.82602315e-03, 9.95132257e-04, 2.30315095e-03,
          1.59626212e-02, 8.77422169e-02, 1.74167544e-01, 4.29496691e-02,
          5.57786087e-03, 3.09827900e-03, 1.09100214e-03, 2.52503389e-03,
          2.80130040e-02, 8.30700472e-02, 4.55033928e-02, 1.83359124e-02,
          1.36425421e-02, 7.97101762e-03, 8.36124830e-03, 7.95491319e-03,
          8.93621473e-05, 0., 0., 0., 0., 5.15230326e-03, 2.45996844e-02,
          1.14197321e-02, 2.18070179e-01, 7.13298544e-02, 1.29221473e-03,
          1.75960350e-03, 2.06952146e-03, 5.94681595e-03, 8.23220834e-02,
          1.28331453e-01, 1.64945602e-01, 5.39530255e-02, 9.77415359e-04,
          1.33094238e-03, 1.56536058e-03, 4.49809851e-03, 6.22674115e-02,
          9.70683321e-02, 5.35449721e-02, 1.03324037e-02, 1.53110372e-02,
          1.71480365e-02, 1.83594581e-02, 9.87796765e-03, 3.12647410e-02,
          1.00804672e-01, 9.02480409e-02, 1.74148791e-02, 2.58061793e-02,
          2.89023742e-02, 3.09441797e-02, 1.66489426e-02, 5.26955463e-02,
          1.69902489e-01, 0., 5.06902114e-04, 7.42101227e-04,
          5.71166398e-04, 1.33597730e-02, 9.75653157e-02, 9.75941643e-02,
          4.70152416e-04, 0., 5.43057220e-04, 7.95032072e-04,
          6.11905183e-04, 1.43126668e-02, 1.04524218e-01, 1.04555130e-01,
          5.03686315e-04, 3.94198345e-03, 2.30178528e-04, 0.,
          2.70563271e-03, 9.15649347e-03, 5.94686046e-02, 1.61883816e-01,
          1.53465364e-02, 2.56718835e-03, 1.49902116e-04, 0.,
          1.76202401e-03, 5.96310105e-03, 3.87285016e-02, 1.05425678e-01,
          9.99432243e-03, 2.60941742e-04, 1.35260739e-03, 2.35435227e-03,
          2.69198883e-02, 2.51882989e-02, 5.66404220e-03, 1.28176240e-02,
          5.13515901e-03, 2.86543887e-04, 1.48531760e-03, 2.58534821e-03,
          2.95611173e-02, 2.76596341e-02, 6.21976657e-03, 1.40752178e-02,
          5.63899241e-03, 1.16329063e-02, 9.92066506e-03, 5.98502625e-03,
          3.11479671e-04, 3.18076555e-03, 4.61368542e-03, 8.47611763e-03,
          2.52630021e-02, 1.27536068e-02, 1.08764097e-02, 6.56161644e-03,
          3.41487263e-04, 3.48719675e-03, 5.05816238e-03, 9.29269753e-03,
          2.76968088e-02, 9.51439291e-02, 1.79966956e-01, 6.56134859e-02,
          6.08707406e-03, 6.89286506e-03, 5.05227642e-03, 6.67662919e-03,
          1.25325415e-02, 6.08226183e-05, 0., 0., 0., 0., 3.50681553e-03,
          1.67432986e-02, 7.77261984e-03, 1.48425251e-01, 4.85492870e-02,
          8.79520958e-04, 1.19764009e-03, 1.40857976e-03, 4.04758519e-03,
          5.60309328e-02, 8.73463154e-02, 1.23219125e-01, 4.03044671e-02,
          7.30157481e-04, 9.94252390e-04, 1.16936944e-03, 3.36020929e-03,
          4.65155542e-02, 7.25128427e-02, 3.99996378e-02, 7.71860359e-03,
          1.14377867e-02, 1.28100784e-02, 1.37150455e-02, 7.37912627e-03,
          2.33556628e-02, 7.53039941e-02, 6.03760518e-02, 1.16505763e-02,
          1.72643661e-02, 1.93357244e-02, 2.07016934e-02, 1.11381635e-02,
          3.52533869e-02, 1.13664977e-01, 0., 3.39118153e-04,
          4.96466644e-04, 3.82111029e-04, 8.93770438e-03, 6.52713180e-02,
          6.52906224e-02, 3.14532546e-04, 0., 6.32429204e-04,
          9.25872067e-04, 7.12607638e-04, 1.66681297e-02, 1.21725969e-01,
          1.21761970e-01, 5.86578972e-04, 4.59072320e-03, 2.68059463e-04,
          0., 3.15090409e-03, 1.06633957e-02, 6.92554638e-02,
          1.88525364e-01, 1.78721454e-02, 3.97653598e-03, 2.32196093e-04,
          0., 2.72934837e-03, 9.23675299e-03, 5.99898621e-02,
          1.63302779e-01, 1.54810529e-02, 4.04194783e-04, 2.09516822e-03,
          3.64685594e-03, 4.16984968e-02, 3.90162915e-02, 8.77351500e-03,
          1.98543034e-02, 7.95428362e-03, 3.81005928e-04, 1.97496731e-03,
          3.43763386e-03, 3.93062308e-02, 3.67779061e-02, 8.27017426e-03,
          1.87152531e-02, 7.49794208e-03, 1.54678095e-02, 1.31911105e-02,
          7.95804989e-03, 4.14162059e-04, 4.22933651e-03, 6.13463251e-03,
          1.12703545e-02, 3.35911997e-02, 1.14998389e-02, 9.80718341e-03,
          5.91656426e-03, 3.07916693e-04, 3.14438110e-03, 4.56090970e-03,
          8.37916043e-03, 2.49740202e-02, 8.57906267e-02, 1.62274957e-01,
          5.91632277e-02, 5.48867276e-03, 6.21524872e-03, 4.55560256e-03,
          6.02027029e-03, 1.13005061e-02, 8.37901700e-03, 6.63771201e-03,
          2.00046077e-02, 1.62505172e-02, 1.92070484e-01, 9.68048051e-02,
          6.29833760e-03, 6.58710720e-03, 1.37385443e-01, 5.72512485e-02,
          1.54492157e-02, 8.58268235e-03, 1.79150365e-02, 9.50197689e-03,
          2.32120184e-03, 2.25919560e-02, 1.14054136e-01, 4.75286283e-02,
          1.28255719e-02, 7.12513970e-03, 1.48726376e-02, 7.88831618e-03,
          1.92700676e-03, 1.87553056e-02, 5.02734520e-02, 1.48222288e-02,
          1.10727837e-02, 2.84693446e-02, 4.08442542e-02, 2.17747744e-02,
          5.01980558e-02, 7.70424008e-02, 7.58835003e-02, 2.23728940e-02,
          1.67134255e-02, 4.29720543e-02, 6.16509281e-02, 3.28671671e-02,
          7.57696927e-02, 1.16288945e-01, 7.60765933e-03, 1.85996271e-03,
          1.39872183e-03, 5.34874108e-03, 8.92836228e-03, 8.48012604e-03,
          4.26538400e-02, 4.87871878e-02, 1.41876983e-02, 3.46868718e-03,
          2.60850834e-03, 9.97499004e-03, 1.66507065e-02, 1.58147812e-02,
          7.95461237e-02, 9.09843445e-02, 4.75101377e-04, 3.78481491e-04,
          3.58377909e-03, 5.84730925e-03, 5.84128313e-03, 1.39590964e-01,
          5.35973012e-02, 1.10412147e-04, 4.11538145e-04, 3.27844900e-04,
          3.10430955e-03, 5.06500481e-03, 5.05978474e-03, 1.20915249e-01,
          4.64265831e-02, 9.56402437e-05, 2.01960048e-03, 2.08860217e-03,
          6.11444097e-03, 8.94492771e-03, 2.49270760e-02, 2.43828654e-01,
          1.41692415e-01, 1.05866976e-02, 1.90373498e-03, 1.96877797e-03,
          5.76365227e-03, 8.43175221e-03, 2.34969966e-02, 2.29840085e-01,
          1.33563444e-01, 9.97933373e-03, 1.59224439e-02, 2.40629055e-02,
          3.53706665e-02, 7.32543841e-02, 5.27416505e-02, 1.41960979e-01,
          2.91922130e-02, 3.92915076e-03, 1.18378466e-02, 1.78900287e-02,
          2.62969974e-02, 5.44623733e-02, 3.92117910e-02, 1.05543606e-01,
          2.17035096e-02, 2.92120245e-03, 9.45840627e-02, 1.21428691e-01,
          5.40628210e-02, 1.33447675e-02, 1.80379569e-03, 5.14957029e-03,
          9.73771326e-03, 1.06220953e-02, 8.47279746e-03, 6.71200361e-03,
          2.02285051e-02, 1.64323989e-02, 1.94220200e-01, 9.78882760e-02,
          6.36883127e-03, 6.66083256e-03, 1.38923109e-01, 5.78920245e-02,
          1.56221287e-02, 8.67874268e-03, 1.81155466e-02, 9.60832648e-03,
          2.34718155e-03, 2.28448138e-02, 1.36119813e-01, 5.67238368e-02,
          1.53068937e-02, 8.50361679e-03, 1.77499987e-02, 9.41444281e-03,
          2.29981844e-03, 2.23838333e-02, 5.99996932e-02, 1.76898371e-02,
          1.32149998e-02, 3.39772142e-02, 4.87462617e-02, 2.59874687e-02,
          5.99097088e-02, 9.19475406e-02, 6.48327395e-02, 1.91147756e-02,
          1.42794838e-02, 3.67141217e-02, 5.26728295e-02, 2.80807912e-02,
          6.47355095e-02, 9.93540287e-02, 6.49977149e-03, 1.58910023e-03,
          1.19502889e-03, 4.56981501e-03, 7.62814283e-03, 7.24518299e-03,
          3.64422463e-02, 4.16824073e-02, 7.04848161e-03, 1.72325189e-03,
          1.29591313e-03, 4.95559815e-03, 8.27210955e-03, 7.85682071e-03,
          3.95186990e-02, 4.52012345e-02, 2.36031483e-04, 1.88030492e-04,
          1.78042985e-03, 2.90495693e-03, 2.90196319e-03, 6.93491101e-02,
          2.66272649e-02, 5.48530152e-05, 2.20556831e-04, 1.75702880e-04,
          1.66370173e-03, 2.71450286e-03, 2.71170516e-03, 6.48024604e-02,
          2.48815343e-02, 5.12567531e-05, 1.08237041e-03, 1.11935067e-03,
          3.27693019e-03, 4.79388097e-03, 1.33592412e-02, 1.30675808e-01,
          7.59376287e-02, 5.67375962e-03, 1.00933935e-03, 1.04382448e-03,
          3.05582513e-03, 4.47042240e-03, 1.24578495e-02, 1.21858686e-01,
          7.08138719e-02, 5.29093295e-03, 8.44190549e-03, 1.27578890e-02,
          1.87531393e-02, 3.88386697e-02, 2.79630441e-02, 7.52661526e-02,
          1.54773910e-02, 2.08319258e-03, 8.91031604e-03, 1.34657780e-02,
          1.97936837e-02, 4.09936868e-02, 2.95146126e-02, 7.94424042e-02,
          1.63361765e-02, 2.19878159e-03, 7.11931810e-02, 9.13990587e-02,
          4.06929441e-02, 1.00445719e-02, 1.35771232e-03, 3.87606816e-03,
          7.32955150e-03, 7.99522363e-03, 9.77143273e-03, 7.20046367e-03,
          8.06537631e-04, 2.77135521e-04, 7.33090215e-04, 1.98429748e-02,
          4.65182886e-02, 2.59724576e-02, 1.46464914e-01, 8.15009922e-02,
          3.62423877e-03, 1.32102205e-03, 1.74385344e-03, 7.23683392e-04,
          4.08012653e-03, 1.84032321e-02, 1.43509448e-01, 7.98564106e-02,
          3.55110620e-03, 1.29436550e-03, 1.70866470e-03, 7.09080370e-04,
          3.99779482e-03, 1.80318784e-02, 7.42205232e-03, 1.57745741e-02,
          1.66297983e-02, 3.67104709e-02, 2.94322930e-02, 1.21727288e-02,
          5.83280576e-03, 3.39150638e-03, 8.01990740e-03, 1.70452371e-02,
          1.79693494e-02, 3.96675430e-02, 3.18031013e-02, 1.31532578e-02,
          6.30264543e-03, 3.66469636e-03, 9.62202903e-03, 1.20186759e-02,
          6.04115659e-03, 1.23788482e-02, 8.07042345e-02, 6.12137690e-02,
          1.70584872e-01, 2.31747068e-02, 1.04343202e-02, 1.30332913e-02,
          6.55115070e-03, 1.34238694e-02, 8.75172764e-02, 6.63814321e-02,
          1.84985623e-01, 2.51311120e-02, 5.12032770e-02, 2.15071850e-02,
          5.54063078e-03, 1.52531341e-01, 1.29055738e-01, 2.60283984e-03,
          2.64431234e-03, 7.54170725e-03, 4.78462987e-02, 2.00971365e-02,
          5.17737726e-03, 1.42531112e-01, 1.20594621e-01, 2.43219314e-03,
          2.47094641e-03, 7.04725971e-03, 9.48883500e-03, 5.58964955e-03,
          1.47682382e-02, 3.29129323e-02, 1.41902357e-01, 7.09294975e-02,
          2.33693980e-02, 1.97018348e-02, 8.84859264e-03, 5.21249790e-03,
          1.37717770e-02, 3.06921899e-02, 1.32327750e-01, 6.61436543e-02,
          2.17925888e-02, 1.83724873e-02, 1.66277401e-02, 8.04009289e-02,
          4.69839536e-02, 6.31592572e-02, 4.43427674e-02, 1.73990019e-02,
          4.07946017e-03, 1.02633387e-02, 1.75503548e-02, 8.48620906e-02,
          4.95909266e-02, 6.66637346e-02, 4.68031876e-02, 1.83644090e-02,
          4.30581439e-03, 1.08328145e-02, 8.42436682e-03, 3.51521350e-03,
          1.22674657e-02, 2.33647749e-02, 1.03194125e-01, 7.80429170e-02,
          1.26999887e-02, 1.49741089e-02 ]
      - [ 1.73727199e-01, 2.15828761e-01, 2.09166333e-02, 6.77535031e-03,
          1.49358634e-03, 1.67045207e-03, 3.34582233e-04, 1.42831041e-03,
          4.88567390e-02, 4.33566198e-02, 2.44841184e-02, 0.,
          3.59702914e-04, 3.99506930e-03, 1.48912249e-02, 4.30613831e-02,
          1.45862475e-01, 1.29441798e-01, 7.30976760e-02, 0.,
          1.07389805e-03, 1.19273346e-02, 4.44579571e-02, 1.28560364e-01,
          1.47895440e-02, 1.33445039e-02, 3.04722437e-03, 4.22234600e-03,
          7.66685058e-04, 6.31488045e-04, 3.75929615e-03, 6.96338061e-03,
          6.61769370e-03, 5.97109925e-03, 1.36350363e-03, 1.88932067e-03,
          3.43059044e-04, 2.82564113e-04, 1.68212561e-03, 3.11581744e-03,
          1.12359323e-01, 7.73049742e-02, 3.77457179e-02, 4.20460589e-02,
          5.13776653e-02, 2.71708425e-02, 3.19495611e-02, 4.02733609e-02,
          8.52773562e-02, 5.86721599e-02, 2.86478661e-02, 3.19116972e-02,
          3.89941074e-02, 2.06218548e-02, 2.42487602e-02, 3.05662714e-02,
          1.24139409e-03, 1.42133766e-04, 7.85823795e-04, 2.33307271e-03,
          2.45580007e-03, 3.11038401e-02, 3.83479893e-02, 2.12525949e-02,
          2.87273969e-03, 3.28915135e-04, 1.81849371e-03, 5.39901946e-03,
          5.68302581e-03, 7.19781369e-02, 8.87420028e-02, 4.91811372e-02,
          2.91147293e-03, 3.61166807e-04, 4.40586213e-04, 6.91607638e-05,
          8.32518970e-04, 1.05636055e-02, 4.14903462e-02, 1.66468862e-02,
          4.95854905e-03, 6.15105615e-04, 7.50365318e-04, 1.17788157e-04,
          1.41786865e-03, 1.79909486e-02, 7.06624910e-02, 2.83514243e-02,
          1.84094366e-02, 3.32446746e-03, 2.11828831e-03, 1.54217670e-03,
          1.53996411e-03, 4.47225478e-03, 1.51350945e-02, 3.32709216e-02,
          2.61714365e-02, 4.72616777e-03, 3.01142572e-03, 2.19240715e-03,
          2.18926161e-03, 6.35789847e-03, 2.15165280e-02, 4.72989902e-02,
          5.53196250e-03, 4.21867520e-03, 1.17016758e-03, 0.,
          3.36772733e-04, 9.63141967e-04, 2.89275851e-02, 7.66424313e-02,
          6.75996915e-02, 1.18708409e-01, 4.04300727e-02, 1.11602433e-02,
          4.63783974e-03, 8.75672232e-03, 8.59140325e-03, 1.16130915e-02,
          1.86976977e-02, 7.71784340e-04, 2.26729573e-03, 2.72728782e-02,
          2.97051091e-02, 9.87675600e-03, 8.29547178e-03, 3.04359235e-02,
          5.58222383e-02, 2.30417284e-03, 6.76904293e-03, 8.14235583e-02,
          8.86850208e-02, 2.94871908e-02, 2.47662459e-02, 9.08668712e-02,
          9.75832995e-03, 3.29688983e-03, 1.21612300e-03, 9.04480286e-04,
          1.34916557e-03, 1.53869030e-03, 4.21213591e-03, 1.56538002e-02,
          4.36643884e-03, 1.47521833e-03, 5.44163515e-04, 4.04716557e-04,
          6.03694411e-04, 6.88498665e-04, 1.88475230e-03, 7.00441236e-03,
          8.96454379e-02, 1.36161551e-01, 1.25551566e-01, 5.18836975e-02,
          3.66084985e-02, 2.69662160e-02, 1.12380115e-02, 6.34803474e-02,
          6.80381954e-02, 1.03342533e-01, 9.52898785e-02, 3.93781699e-02,
          2.77847517e-02, 2.04665493e-02, 8.52931384e-03, 4.81796823e-02,
          2.47366400e-03, 2.25438992e-03, 2.39486750e-02, 5.21644764e-02,
          7.83297792e-02, 1.00115091e-02, 1.75879127e-03, 1.44683139e-03,
          5.72436489e-03, 5.21693751e-03, 5.54202013e-02, 1.20715067e-01,
          1.81264818e-01, 2.31678728e-02, 4.07006126e-03, 3.34814726e-03,
          6.65397849e-03, 2.92939995e-03, 4.97463346e-03, 5.69454581e-02,
          4.90836389e-02, 8.04360136e-02, 9.56412107e-02, 5.08897146e-03,
          1.13324346e-02, 4.98908060e-03, 8.47233180e-03, 9.69841927e-02,
          8.35946724e-02, 1.36991113e-01, 1.62887186e-01, 8.66706204e-03,
          2.46348716e-02, 3.39389616e-03, 2.80068343e-05, 0.,
          1.01791942e-04, 6.47750646e-02, 1.58164427e-01, 3.03067360e-02,
          3.50217111e-02, 4.82486980e-03, 3.98154007e-05, 0.,
          1.44710648e-04, 9.20862779e-02, 2.24851549e-01, 4.30850126e-02,
          7.04548657e-02, 1.93997100e-02, 5.74426493e-03, 5.97060472e-03,
          2.70637381e-03, 9.40269884e-03, 6.89302608e-02, 1.86082467e-01,
          6.99027926e-02, 1.22752771e-01, 4.18075174e-02, 1.15404697e-02,
          4.79584979e-03, 9.05506220e-03, 8.88411049e-03, 1.20087462e-02,
          1.93347242e-02, 7.98078894e-04, 2.34454195e-03, 2.82020587e-02,
          3.07171550e-02, 1.02132540e-02, 8.57809652e-03, 3.14728655e-02,
          5.16234860e-02, 2.13086116e-03, 6.25989959e-03, 7.52991661e-02,
          8.20144415e-02, 2.72692684e-02, 2.29034163e-02, 8.40321854e-02,
          9.02434345e-03, 3.04890936e-03, 1.12465059e-03, 8.36448453e-04,
          1.24768610e-03, 1.42295542e-03, 3.89531418e-03, 1.44763775e-02,
          5.78184705e-03, 1.95341953e-03, 7.20557407e-04, 5.35907922e-04,
          7.99385598e-04, 9.11679701e-04, 2.49570631e-03, 9.27493535e-03,
          1.18704557e-01, 1.80299163e-01, 1.66249886e-01, 6.87021166e-02,
          4.84753661e-02, 3.57074775e-02, 1.48808816e-02, 8.40578899e-02,
          9.28124413e-02, 1.40971884e-01, 1.29987076e-01, 5.37166521e-02,
          3.79018076e-02, 2.79188808e-02, 1.16350288e-02, 6.57229871e-02,
          3.37438076e-03, 3.07526416e-03, 3.26689295e-02, 7.11587369e-02,
          1.06851421e-01, 1.36569254e-02, 2.39920686e-03, 1.97365531e-03,
          5.06219547e-03, 4.61346516e-03, 4.90094349e-02, 1.06751278e-01,
          1.60296902e-01, 2.04879157e-02, 3.59925441e-03, 2.96084816e-03,
          5.88427531e-03, 2.59053987e-03, 4.39919019e-03, 5.03582582e-02,
          4.34058607e-02, 7.11315274e-02, 8.45778584e-02, 4.50030202e-03,
          5.55249024e-03, 2.44447216e-03, 4.15114174e-03, 4.75188084e-02,
          4.09584194e-02, 6.71207756e-02, 7.98089355e-02, 4.24655201e-03,
          1.20702116e-02, 1.66288856e-03, 1.37223542e-05, 0.,
          4.98744375e-05, 3.17374803e-02, 7.74949491e-02, 1.48492241e-02,
          1.39759798e-02, 1.92544237e-03, 1.58889798e-05, 0.,
          5.77491228e-05, 3.67485173e-02, 8.97306427e-02, 1.71937719e-02,
          2.81161517e-02, 7.74176791e-03, 2.29234179e-03, 2.38266634e-03,
          1.08002231e-03, 3.75229912e-03, 2.75077354e-02, 7.42592141e-02,
          1.93165734e-01, 7.87283257e-02, 2.63556764e-02, 6.38274476e-03,
          8.57460196e-04, 9.67349217e-04, 1.31419413e-02, 9.42168012e-02,
          4.23948839e-03, 2.50613992e-03, 1.07442616e-02, 3.03185210e-02,
          5.06965369e-02, 4.41802628e-02, 8.11320916e-03, 2.29774788e-02,
          1.13193840e-02, 6.69136411e-03, 2.86870524e-02, 8.09500962e-02,
          1.35359168e-01, 1.17960781e-01, 2.16621738e-02, 6.13496006e-02,
          3.47214588e-03, 8.58731277e-04, 7.48495571e-04, 2.11684546e-03,
          4.67866310e-04, 7.78887840e-03, 7.16303214e-02, 6.23276196e-02,
          2.22458458e-03, 5.50184399e-04, 4.79556969e-04, 1.35625119e-03,
          2.99759384e-04, 4.99029132e-03, 4.58931513e-02, 3.99329625e-02,
          1.42389974e-02, 2.01902003e-04, 7.09963861e-05, 1.21022342e-03,
          4.91952663e-03, 7.46922102e-03, 3.67071256e-02, 9.99045745e-02,
          1.11331539e-02, 1.57862669e-04, 5.55104925e-05, 9.46246670e-04,
          3.84646794e-03, 5.84001699e-03, 2.87004821e-02, 7.81131536e-02,
          8.44646929e-05, 3.05756141e-04, 5.35561703e-03, 4.69427891e-02,
          1.91956963e-02, 3.23105394e-03, 2.66335992e-04, 0.,
          1.26712664e-04, 4.58690774e-04, 8.03441647e-03, 7.04228729e-02,
          2.87970975e-02, 4.84717870e-03, 3.99553246e-04, 0.,
          1.28884640e-04, 0., 2.13704817e-03, 1.32353485e-01,
          1.16397262e-01, 1.47099476e-02, 1.08857534e-03, 4.69099439e-04,
          1.21617479e-04, 0., 2.01655063e-03, 1.24890730e-01,
          1.09834202e-01, 1.38805276e-02, 1.02719606e-03, 4.42649267e-04,
          2.62916379e-04, 3.80319776e-03, 1.87820126e-03, 1.78068448e-02,
          1.51948169e-01, 1.00635044e-01, 7.74893537e-02, 4.28271107e-03,
          3.04428308e-04, 4.40368569e-03, 2.17475090e-03, 2.06183717e-02,
          1.75939307e-01, 1.16524331e-01, 8.97241682e-02, 4.95890900e-03,
          5.76344021e-02, 1.84536856e-02, 6.93782931e-03, 7.85823073e-03,
          6.15870114e-03, 3.00727468e-02, 5.29812463e-02, 9.84749496e-02,
          1.30954713e-01, 5.33730537e-02, 1.78675577e-02, 4.32711560e-03,
          5.81306231e-04, 6.55804412e-04, 8.90944246e-03, 6.38733059e-02,
          2.87411711e-03, 1.69901166e-03, 7.28396093e-03, 2.05541272e-02,
          3.43691930e-02, 2.99515501e-02, 5.50026633e-03, 1.55773442e-02,
          4.48261155e-03, 2.64986046e-03, 1.13604162e-02, 3.20572071e-02,
          5.36038503e-02, 4.67138812e-02, 8.57848022e-03, 2.42951754e-02,
          1.37501128e-03, 3.40067869e-04, 2.96413200e-04, 8.38296139e-04,
          1.85280660e-04, 3.08448914e-03, 2.83664633e-02, 2.46824846e-02,
          3.44663300e-03, 8.52421450e-04, 7.42995704e-04, 2.10129097e-03,
          4.64428507e-04, 7.73164677e-03, 7.11039901e-02, 6.18696474e-02,
          2.20610164e-02, 3.12814402e-04, 1.09997382e-04, 1.87504478e-03,
          7.62200821e-03, 1.15723461e-02, 5.68717346e-02, 1.54785931e-01,
          1.91496089e-02, 2.71532073e-04, 9.54809584e-05, 1.62759388e-03,
          6.61612675e-03, 1.00451363e-02, 4.93663363e-02, 1.34358734e-01,
          1.45283702e-04, 5.25916577e-04, 9.21194255e-03, 8.07440653e-02,
          3.30176055e-02, 5.55758225e-03, 4.58111870e-04, 0.,
          8.71121811e-05, 3.15339857e-04, 5.52348513e-03, 4.84141819e-02,
          1.97973736e-02, 3.33232922e-03, 2.74684106e-04, 0.,
          8.86053604e-05, 0., 1.46917370e-03, 9.09901187e-02,
          8.00205693e-02, 1.01127671e-02, 7.48371705e-04, 3.22495587e-04,
          5.50600271e-05, 0., 9.12955380e-04, 5.65419346e-02,
          4.97253723e-02, 6.28414797e-03, 4.65043704e-04, 2.00401133e-04,
          1.19030454e-04, 1.72182638e-03, 8.50320328e-04, 8.06171447e-03,
          6.87916800e-02, 4.55606245e-02, 3.50818485e-02, 1.93891686e-03,
          1.46433638e-04, 2.11822498e-03, 1.04608096e-03, 9.91768204e-03,
          8.46288949e-02, 5.60495891e-02, 4.31583896e-02, 2.38529406e-03,
          2.77228318e-02, 8.87644198e-03, 3.33717838e-03, 3.77990236e-03,
          2.96240835e-03, 1.44653488e-02, 2.54846103e-02, 4.73676212e-02,
          1.13898672e-01, 9.32149310e-03, 6.90031517e-03, 1.85724907e-03,
          6.62109582e-04, 3.72118689e-03, 1.47656463e-02, 8.46682787e-02,
          2.28503291e-02, 1.15466991e-03, 1.22870784e-02, 9.64478683e-03,
          4.70695496e-02, 6.36299551e-02, 8.09465498e-02, 1.28270268e-01,
          3.56384739e-02, 1.80087879e-03, 1.91635191e-02, 1.50424736e-02,
          7.34119341e-02, 9.92403403e-02, 1.26248136e-01, 2.00056493e-01,
          1.61146298e-02, 2.10500397e-02, 1.39689706e-02, 1.73342451e-02,
          2.39726361e-02, 1.88832842e-02, 4.81262989e-02, 2.70376187e-02,
          4.03932743e-02, 5.27644828e-02, 3.50149199e-02, 4.34503891e-02,
          6.00903258e-02, 4.73332480e-02, 1.20634414e-01, 6.77730739e-02,
          1.14015862e-03, 4.60722280e-04, 5.74249076e-04, 1.69920293e-03,
          1.03453198e-03, 3.85235157e-03, 8.00195187e-02, 4.02412340e-02,
          9.89691122e-04, 3.99920449e-04, 4.98465088e-04, 1.47495803e-03,
          8.98004102e-04, 3.34395445e-03, 6.94592893e-02, 3.49305719e-02,
          6.56503141e-02, 4.97627929e-02, 4.09143530e-02, 6.77613094e-02,
          4.99414988e-02, 4.60168347e-02, 9.81476977e-02, 1.18619248e-01,
          3.93639617e-02, 2.98377946e-02, 2.45322660e-02, 4.06297185e-02,
          2.99449489e-02, 2.75917165e-02, 5.88494092e-02, 7.11241588e-02,
          3.20075676e-02, 3.93793955e-02, 2.97206547e-02, 4.34086286e-02,
          5.93082272e-02, 6.17495589e-02, 9.74237621e-02, 5.36316037e-02,
          1.98897403e-02, 2.44706459e-02, 1.84686352e-02, 2.69744415e-02,
          3.68545726e-02, 3.83716337e-02, 6.05398454e-02, 3.33270729e-02,
          6.48720115e-02, 1.47729412e-01, 9.20829028e-02, 1.76324956e-02,
          8.34032446e-02, 2.47237459e-02, 1.92060731e-02, 1.51427155e-02,
          7.98068419e-02, 1.81739658e-01, 1.13282219e-01, 2.16918476e-02,
          1.02604330e-01, 3.04156449e-02, 2.36276928e-02, 1.86288692e-02,
          7.93879479e-03, 2.95555312e-02, 2.17355508e-02, 1.02895247e-02,
          5.16008725e-03, 7.40052713e-03, 8.38717539e-03, 4.28877957e-03,
          1.23204678e-01, 1.00830989e-02, 7.46410061e-03, 2.00899411e-03,
          7.16206734e-04, 4.02522366e-03, 1.59720611e-02, 9.15860385e-02,
          2.47172993e-02, 1.24901126e-03, 1.32909846e-02, 1.04328059e-02,
          5.09153306e-02, 6.88287914e-02, 8.75602216e-02, 1.38750494e-01,
          3.03818565e-02, 1.53525197e-03, 1.63369309e-02, 1.28237326e-02,
          6.25837967e-02, 8.46025422e-02, 1.07626736e-01, 1.70548484e-01,
          1.37377465e-02, 1.79451928e-02, 1.19085694e-02, 1.47774713e-02,
          2.04367097e-02, 1.60980299e-02, 4.10277471e-02, 2.30496135e-02,
          2.57369261e-02, 3.36193480e-02, 2.23100614e-02, 2.76847929e-02,
